<?xml version="1.0"?>
<opencv_storage>
<SimpleOcr type_id="opencv-ml-ann-mlp">
  <layer_sizes type_id="opencv-matrix">
    <rows>1</rows>
    <cols>3</cols>
    <dt>i</dt>
    <data>
      256 100 94</data></layer_sizes>
  <activation_function>SIGMOID_SYM</activation_function>
  <f_param1>1.</f_param1>
  <f_param2>1.</f_param2>
  <min_val>-9.4999999999999996e-01</min_val>
  <max_val>9.4999999999999996e-01</max_val>
  <min_val1>-9.7999999999999998e-01</min_val1>
  <max_val1>9.7999999999999998e-01</max_val1>
  <training_params>
    <train_method>BACKPROP</train_method>
    <dw_scale>1.0000000000000001e-01</dw_scale>
    <moment_scale>1.0000000000000001e-01</moment_scale>
    <term_criteria><epsilon>9.9999999747524271e-07</epsilon>
      <iterations>10000</iterations></term_criteria></training_params>
  <input_scale>
    1. 0. 1. 0. 1. 0. 1. 0. 1. 0. 1. 0. 1. 0. 1. 0. 1. 0. 1. 0. 1. 0. 1.
    0. 1. 0. 1. 0. 1. 0. 1. 0. 1. 0. 1. 0. 1. 0. 1. 0. 1. 0. 1. 0. 1. 0.
    2.1660768734368885e-01 -1.0369516947304254e-01
    3.8224886001827441e-02 -1.0369516947304253e-01 1. 0.
    3.8224886001827441e-02 -1.0369516947304253e-01 1. 0. 1. 0. 1. 0. 1.
    0. 1. 0. 1. 0. 1. 0. 1. 0. 1. 0. 1. 0. 1. 0. 1. 0.
    4.6417783503007612e-02 -1.9702867678404296e-01
    3.6587510180282806e-02 -1.3233780277974633e-01
    3.5137309512400447e-02 -1.3718502756437195e-01
    3.3481295593600531e-02 -1.6241990202853024e-01
    9.3142929990585502e-02 -1.3277821934828146e-01
    2.7849559801331425e-01 -1.0369516947304254e-01 1. 0. 1. 0. 1. 0. 1.
    0. 1. 0. 2.7849559801331425e-01 -1.0369516947304254e-01
    5.4073833884465392e-02 -1.2828154208761472e-01
    2.4392719705901914e-02 -2.3951574775050499e-01
    1.5472749821393905e-02 -2.9595749126453452e-01
    1.4521627826928061e-02 -3.3847751668935511e-01
    1.2577489972430498e-02 -3.8802894595796217e-01
    1.2914257755177613e-02 -4.3798567790964077e-01
    1.6132195545061730e-02 -3.5130430085895065e-01
    1.8500750995555620e-02 -2.9502793342912637e-01
    1.7327044404539159e-02 -2.6727887645299764e-01
    3.1179005053458764e-02 -1.6319223921597567e-01 1. 0. 1. 0. 1. 0. 1.
    0. 1. 0. 3.3494292541024720e-02 -1.4181625990774296e-01
    2.2139275975820202e-02 -2.2115723554569330e-01
    1.4520258378449098e-02 -3.6439669696554700e-01
    1.3223134551135919e-02 -4.6759254519123189e-01
    1.0935669437138659e-02 -4.6732536307431904e-01
    9.5757182960398805e-03 -6.1131793079292895e-01
    9.2432619161109050e-03 -6.8105140458493763e-01
    9.3618717969728652e-03 -6.8032921537363444e-01
    1.1149385458627016e-02 -5.2923997783397603e-01
    1.7348228979915475e-02 -3.2389512616757088e-01
    6.1872963743572908e-02 -1.4744195615489714e-01 1. 0. 1. 0. 1. 0. 1.
    0. 1. 0. 4.2755550210664073e-02 -1.6374466038126667e-01
    2.2833946417261598e-02 -2.2979695011414333e-01
    1.3460828571804136e-02 -3.4611513466011273e-01
    1.2262777085398236e-02 -4.4159043014971305e-01
    1.1155110664097906e-02 -5.4066685303861772e-01
    1.0143458124815262e-02 -5.5325010431838129e-01
    9.4844798151129135e-03 -5.8168112908644620e-01
    1.2850842797658633e-02 -4.9215993693160726e-01
    1.0463937603931609e-02 -5.2152710291935733e-01
    1.5550360520252444e-02 -3.4194250207831706e-01
    1.2658890818787011e-01 -1.0369516947304254e-01 1. 0. 1. 0. 1. 0. 1.
    0. 1. 0. 3.8224886001827441e-02 -1.0369516947304253e-01
    3.0415703149805805e-02 -2.1323349335874495e-01
    1.4376846949166537e-02 -3.1919659130755917e-01
    1.3374588080836835e-02 -3.9241610560582968e-01
    9.4490697661019502e-03 -6.3539968076096198e-01
    9.2592777664946540e-03 -6.4755842592484958e-01
    9.5405637463879551e-03 -6.2094860638725013e-01
    9.4705315223413619e-03 -6.6616121729490507e-01
    1.1985834159183471e-02 -4.9575450224367379e-01
    1.7013131302975507e-02 -2.9030917670183737e-01
    7.0632941525115928e-02 -1.0369516947304254e-01 1. 0. 1. 0. 1. 0. 1.
    0. 1. 0. 3.6624293323182518e-02 -1.3013312733981874e-01
    1.9345688563778784e-02 -2.2947279519801431e-01
    1.4661704168956936e-02 -3.1585054193763612e-01
    1.1305925576621396e-02 -4.5993467452127890e-01
    9.4941989297760935e-03 -6.2288005106307620e-01
    8.4994060184690086e-03 -7.4071419258827786e-01
    8.3598002576951956e-03 -7.9080153075984772e-01
    9.3267526601340297e-03 -7.0913086448912677e-01
    1.1512532169253163e-02 -4.7899482248882042e-01
    1.6634137562902124e-02 -2.7587894106983413e-01
    3.2210085147087682e-02 -1.9600179472483142e-01 1. 0. 1. 0. 1. 0. 1.
    0. 1. 0. 1.2996461240621329e-01 -1.0369516947304253e-01
    1.8401924379106926e-02 -2.6487025196735819e-01
    1.3760564141500453e-02 -3.3815854432836218e-01
    1.2133599492387515e-02 -4.1202605935852071e-01
    9.4157871264072997e-03 -6.2645034775054531e-01
    8.3328040624236349e-03 -8.0810470035163673e-01
    8.4847073526947078e-03 -7.4340478464674065e-01
    8.8814484434621907e-03 -6.6346309542544157e-01
    1.0508080248520563e-02 -6.0499713090418394e-01
    1.2076931678967163e-02 -3.9417049352203459e-01
    3.8221766990954781e-02 -1.0653301012372503e-01
    4.0783874186050194e-02 -1.0369516947304251e-01 1. 0. 1. 0. 1. 0. 1.
    0. 1. 0. 2.2893622868916060e-02 -2.5426534335264223e-01
    1.2233344886047342e-02 -4.1749542972808373e-01
    1.0037606735383023e-02 -5.5270906874832471e-01
    9.4062289860660699e-03 -6.5683496877167746e-01
    8.5528649609040493e-03 -7.4992247880607632e-01
    8.6865199904815754e-03 -7.5092193024099230e-01
    9.5905633533912363e-03 -6.3756840846108331e-01
    1.1448434460228397e-02 -5.0068631985105250e-01
    1.6107886434568570e-02 -3.3963649907781812e-01
    3.2491834389094414e-02 -1.8147035164121880e-01
    2.0306970688470830e-01 -1.0369516947304253e-01 1. 0. 1. 0. 1. 0.
    6.4982306203106643e-01 -1.0369516947304253e-01
    3.6584669736783676e-02 -1.3038153576406949e-01
    2.7922161122562239e-02 -2.1654527083348801e-01
    1.2519750373424617e-02 -4.0649232063502055e-01
    1.1225189546937245e-02 -4.8005597849667797e-01
    9.5834328132081790e-03 -6.1894702775517929e-01
    9.0846185605288326e-03 -7.0531432185893006e-01
    9.2681902441216074e-03 -7.0783338045264921e-01
    1.0159814618216937e-02 -6.7368217569517208e-01
    1.1930981177266469e-02 -5.2864400641824305e-01
    1.5230003922708207e-02 -3.4915594099400199e-01
    2.1457185700235939e-02 -2.2552871778545858e-01
    2.7138600734053150e-02 -1.5445905736934507e-01 1. 0. 1. 0. 1. 0.
    3.8224886001827441e-02 -1.0369516947304253e-01 1. 0.
    3.2744105227364539e-02 -1.6685560004157038e-01
    1.4578633642625920e-02 -3.2414196077753377e-01
    1.0897950179665402e-02 -4.8785717400034062e-01
    1.0133269191089174e-02 -6.4335479289808717e-01
    9.4553289992052938e-03 -7.0894849772764801e-01
    8.9474695511861518e-03 -7.5853600907874941e-01
    9.3947742010475795e-03 -6.8641818311483804e-01
    1.0391059921424013e-02 -5.4962074392893823e-01
    1.6247982624204248e-02 -3.2409539808918048e-01
    2.5231107390066038e-02 -1.8842805731730167e-01
    3.7712703110759541e-02 -1.2035969077901981e-01 1. 0. 1. 0. 1. 0.
    4.6415933002219034e-01 -1.0369516947304251e-01
    1.2658890818787011e-01 -1.0369516947304254e-01
    5.0795882206131633e-02 -1.8156825980064073e-01
    2.1416452780156567e-02 -2.6200979465085161e-01
    1.6201812128548473e-02 -3.0766207073892582e-01
    1.2115252357599608e-02 -4.7661918317450375e-01
    1.1475379911034629e-02 -4.6341002279029203e-01
    1.0564657105887798e-02 -5.5464449805910943e-01
    1.1262515254622546e-02 -5.0429709262453515e-01
    1.3100411165666357e-02 -4.4165109557443277e-01
    2.3831577916071420e-02 -2.7913369452760250e-01
    4.1759238728810710e-02 -1.4127061612512559e-01
    2.7849559801331425e-01 -1.0369516947304254e-01 1. 0. 1. 0. 1. 0. 1.
    0. 1. 0. 8.4008707236874647e-02 -1.3048160911259252e-01
    3.2037927509606969e-02 -1.8268435260797164e-01
    2.2521584490555146e-02 -2.2138238371566973e-01
    2.1206524947855868e-02 -2.5605750867889798e-01
    1.9008576173958836e-02 -2.6672672312182666e-01
    2.1215541451784465e-02 -2.4962115793269807e-01
    1.8847664949546265e-02 -2.8231396009533127e-01
    2.3625796745952950e-02 -2.0257864018338381e-01
    3.6154113566917709e-02 -1.4615492718541204e-01
    2.7849559801331425e-01 -1.0369516947304254e-01 1. 0. 1. 0. 1. 0. 1.
    0. 1. 0. 1. 0. 4.6415933002219034e-01 -1.0369516947304251e-01
    8.7813927301495481e-02 -1.0369516947304254e-01 1. 0.
    3.8224886001827441e-02 -1.0369516947304253e-01
    3.0802007224866305e-02 -1.4712873663792522e-01
    2.4538986125312752e-02 -1.8117081245709626e-01
    2.7175576232471233e-02 -1.4744195615489711e-01 1. 0. 1. 0. 1. 0. 1.
    0. 1. 0. 1. 0. 1. 0. 1. 0. 1. 0. 1. 0. 1. 0. 1. 0.
    7.4979584080507677e-01 -1.0369516947304254e-01
    2.7175576232471233e-02 -1.4744195615489711e-01
    6.4982306203106643e-01 -1.0369516947304253e-01
    6.0920912065412480e-01 -1.0369516947304251e-01 1. 0. 1. 0. 1. 0. 1.
    0. 1. 0. 1. 0.</input_scale>
  <output_scale>
    5.2631578947368418e-01 4.9999999999999994e-01 5.2631578947368418e-01
    4.9999999999999994e-01 5.2631578947368418e-01 4.9999999999999994e-01
    5.2631578947368418e-01 4.9999999999999994e-01 5.2631578947368418e-01
    4.9999999999999994e-01 5.2631578947368418e-01 4.9999999999999994e-01
    5.2631578947368418e-01 4.9999999999999994e-01 5.2631578947368418e-01
    4.9999999999999994e-01 5.2631578947368418e-01 4.9999999999999994e-01
    5.2631578947368418e-01 4.9999999999999994e-01 5.2631578947368418e-01
    4.9999999999999994e-01 5.2631578947368418e-01 4.9999999999999994e-01
    5.2631578947368418e-01 4.9999999999999994e-01 5.2631578947368418e-01
    4.9999999999999994e-01 5.2631578947368418e-01 4.9999999999999994e-01
    5.2631578947368418e-01 4.9999999999999994e-01 5.2631578947368418e-01
    4.9999999999999994e-01 5.2631578947368418e-01 4.9999999999999994e-01
    5.2631578947368418e-01 4.9999999999999994e-01 5.2631578947368418e-01
    4.9999999999999994e-01 5.2631578947368418e-01 4.9999999999999994e-01
    5.2631578947368418e-01 4.9999999999999994e-01 5.2631578947368418e-01
    4.9999999999999994e-01 5.2631578947368418e-01 4.9999999999999994e-01
    5.2631578947368418e-01 4.9999999999999994e-01 5.2631578947368418e-01
    4.9999999999999994e-01 5.2631578947368418e-01 4.9999999999999994e-01
    5.2631578947368418e-01 4.9999999999999994e-01 5.2631578947368418e-01
    4.9999999999999994e-01 5.2631578947368418e-01 4.9999999999999994e-01
    5.2631578947368418e-01 4.9999999999999994e-01 5.2631578947368418e-01
    4.9999999999999994e-01 5.2631578947368418e-01 4.9999999999999994e-01
    5.2631578947368418e-01 4.9999999999999994e-01 5.2631578947368418e-01
    4.9999999999999994e-01 5.2631578947368418e-01 4.9999999999999994e-01
    5.2631578947368418e-01 4.9999999999999994e-01 5.2631578947368418e-01
    4.9999999999999994e-01 5.2631578947368418e-01 4.9999999999999994e-01
    5.2631578947368418e-01 4.9999999999999994e-01 5.2631578947368418e-01
    4.9999999999999994e-01 5.2631578947368418e-01 4.9999999999999994e-01
    5.2631578947368418e-01 4.9999999999999994e-01 5.2631578947368418e-01
    4.9999999999999994e-01 5.2631578947368418e-01 4.9999999999999994e-01
    5.2631578947368418e-01 4.9999999999999994e-01 5.2631578947368418e-01
    4.9999999999999994e-01 5.2631578947368418e-01 4.9999999999999994e-01
    5.2631578947368418e-01 4.9999999999999994e-01 5.2631578947368418e-01
    4.9999999999999994e-01 5.2631578947368418e-01 4.9999999999999994e-01
    5.2631578947368418e-01 4.9999999999999994e-01 5.2631578947368418e-01
    4.9999999999999994e-01 5.2631578947368418e-01 4.9999999999999994e-01
    5.2631578947368418e-01 4.9999999999999994e-01 5.2631578947368418e-01
    4.9999999999999994e-01 5.2631578947368418e-01 4.9999999999999994e-01
    5.2631578947368418e-01 4.9999999999999994e-01 5.2631578947368418e-01
    4.9999999999999994e-01 5.2631578947368418e-01 4.9999999999999994e-01
    5.2631578947368418e-01 4.9999999999999994e-01 5.2631578947368418e-01
    4.9999999999999994e-01 5.2631578947368418e-01 4.9999999999999994e-01
    5.2631578947368418e-01 4.9999999999999994e-01 5.2631578947368418e-01
    4.9999999999999994e-01 5.2631578947368418e-01 4.9999999999999994e-01
    5.2631578947368418e-01 4.9999999999999994e-01 5.2631578947368418e-01
    4.9999999999999994e-01 5.2631578947368418e-01 4.9999999999999994e-01
    5.2631578947368418e-01 4.9999999999999994e-01 5.2631578947368418e-01
    4.9999999999999994e-01 5.2631578947368418e-01 4.9999999999999994e-01
    5.2631578947368418e-01 4.9999999999999994e-01 5.2631578947368418e-01
    4.9999999999999994e-01 5.2631578947368418e-01 4.9999999999999994e-01
    5.2631578947368418e-01 4.9999999999999994e-01 5.2631578947368418e-01
    4.9999999999999994e-01 5.2631578947368418e-01 4.9999999999999994e-01
    5.2631578947368418e-01 4.9999999999999994e-01 5.2631578947368418e-01
    4.9999999999999994e-01 5.2631578947368418e-01 4.9999999999999994e-01
    5.2631578947368418e-01 4.9999999999999994e-01 5.2631578947368418e-01
    4.9999999999999994e-01 5.2631578947368418e-01 4.9999999999999994e-01
    5.2631578947368418e-01 4.9999999999999994e-01 5.2631578947368418e-01
    4.9999999999999994e-01 5.2631578947368418e-01 4.9999999999999994e-01
    5.2631578947368418e-01 4.9999999999999994e-01 5.2631578947368418e-01
    4.9999999999999994e-01 5.2631578947368418e-01 4.9999999999999994e-01
    5.2631578947368418e-01 4.9999999999999994e-01 5.2631578947368418e-01
    4.9999999999999994e-01 5.2631578947368418e-01 4.9999999999999994e-01
    5.2631578947368418e-01 4.9999999999999994e-01</output_scale>
  <inv_output_scale>
    1.8999999999999999e+00 -9.4999999999999996e-01
    1.8999999999999999e+00 -9.4999999999999996e-01
    1.8999999999999999e+00 -9.4999999999999996e-01
    1.8999999999999999e+00 -9.4999999999999996e-01
    1.8999999999999999e+00 -9.4999999999999996e-01
    1.8999999999999999e+00 -9.4999999999999996e-01
    1.8999999999999999e+00 -9.4999999999999996e-01
    1.8999999999999999e+00 -9.4999999999999996e-01
    1.8999999999999999e+00 -9.4999999999999996e-01
    1.8999999999999999e+00 -9.4999999999999996e-01
    1.8999999999999999e+00 -9.4999999999999996e-01
    1.8999999999999999e+00 -9.4999999999999996e-01
    1.8999999999999999e+00 -9.4999999999999996e-01
    1.8999999999999999e+00 -9.4999999999999996e-01
    1.8999999999999999e+00 -9.4999999999999996e-01
    1.8999999999999999e+00 -9.4999999999999996e-01
    1.8999999999999999e+00 -9.4999999999999996e-01
    1.8999999999999999e+00 -9.4999999999999996e-01
    1.8999999999999999e+00 -9.4999999999999996e-01
    1.8999999999999999e+00 -9.4999999999999996e-01
    1.8999999999999999e+00 -9.4999999999999996e-01
    1.8999999999999999e+00 -9.4999999999999996e-01
    1.8999999999999999e+00 -9.4999999999999996e-01
    1.8999999999999999e+00 -9.4999999999999996e-01
    1.8999999999999999e+00 -9.4999999999999996e-01
    1.8999999999999999e+00 -9.4999999999999996e-01
    1.8999999999999999e+00 -9.4999999999999996e-01
    1.8999999999999999e+00 -9.4999999999999996e-01
    1.8999999999999999e+00 -9.4999999999999996e-01
    1.8999999999999999e+00 -9.4999999999999996e-01
    1.8999999999999999e+00 -9.4999999999999996e-01
    1.8999999999999999e+00 -9.4999999999999996e-01
    1.8999999999999999e+00 -9.4999999999999996e-01
    1.8999999999999999e+00 -9.4999999999999996e-01
    1.8999999999999999e+00 -9.4999999999999996e-01
    1.8999999999999999e+00 -9.4999999999999996e-01
    1.8999999999999999e+00 -9.4999999999999996e-01
    1.8999999999999999e+00 -9.4999999999999996e-01
    1.8999999999999999e+00 -9.4999999999999996e-01
    1.8999999999999999e+00 -9.4999999999999996e-01
    1.8999999999999999e+00 -9.4999999999999996e-01
    1.8999999999999999e+00 -9.4999999999999996e-01
    1.8999999999999999e+00 -9.4999999999999996e-01
    1.8999999999999999e+00 -9.4999999999999996e-01
    1.8999999999999999e+00 -9.4999999999999996e-01
    1.8999999999999999e+00 -9.4999999999999996e-01
    1.8999999999999999e+00 -9.4999999999999996e-01
    1.8999999999999999e+00 -9.4999999999999996e-01
    1.8999999999999999e+00 -9.4999999999999996e-01
    1.8999999999999999e+00 -9.4999999999999996e-01
    1.8999999999999999e+00 -9.4999999999999996e-01
    1.8999999999999999e+00 -9.4999999999999996e-01
    1.8999999999999999e+00 -9.4999999999999996e-01
    1.8999999999999999e+00 -9.4999999999999996e-01
    1.8999999999999999e+00 -9.4999999999999996e-01
    1.8999999999999999e+00 -9.4999999999999996e-01
    1.8999999999999999e+00 -9.4999999999999996e-01
    1.8999999999999999e+00 -9.4999999999999996e-01
    1.8999999999999999e+00 -9.4999999999999996e-01
    1.8999999999999999e+00 -9.4999999999999996e-01
    1.8999999999999999e+00 -9.4999999999999996e-01
    1.8999999999999999e+00 -9.4999999999999996e-01
    1.8999999999999999e+00 -9.4999999999999996e-01
    1.8999999999999999e+00 -9.4999999999999996e-01
    1.8999999999999999e+00 -9.4999999999999996e-01
    1.8999999999999999e+00 -9.4999999999999996e-01
    1.8999999999999999e+00 -9.4999999999999996e-01
    1.8999999999999999e+00 -9.4999999999999996e-01
    1.8999999999999999e+00 -9.4999999999999996e-01
    1.8999999999999999e+00 -9.4999999999999996e-01
    1.8999999999999999e+00 -9.4999999999999996e-01
    1.8999999999999999e+00 -9.4999999999999996e-01
    1.8999999999999999e+00 -9.4999999999999996e-01
    1.8999999999999999e+00 -9.4999999999999996e-01
    1.8999999999999999e+00 -9.4999999999999996e-01
    1.8999999999999999e+00 -9.4999999999999996e-01
    1.8999999999999999e+00 -9.4999999999999996e-01
    1.8999999999999999e+00 -9.4999999999999996e-01
    1.8999999999999999e+00 -9.4999999999999996e-01
    1.8999999999999999e+00 -9.4999999999999996e-01
    1.8999999999999999e+00 -9.4999999999999996e-01
    1.8999999999999999e+00 -9.4999999999999996e-01
    1.8999999999999999e+00 -9.4999999999999996e-01
    1.8999999999999999e+00 -9.4999999999999996e-01
    1.8999999999999999e+00 -9.4999999999999996e-01
    1.8999999999999999e+00 -9.4999999999999996e-01
    1.8999999999999999e+00 -9.4999999999999996e-01
    1.8999999999999999e+00 -9.4999999999999996e-01
    1.8999999999999999e+00 -9.4999999999999996e-01
    1.8999999999999999e+00 -9.4999999999999996e-01
    1.8999999999999999e+00 -9.4999999999999996e-01
    1.8999999999999999e+00 -9.4999999999999996e-01
    1.8999999999999999e+00 -9.4999999999999996e-01
    1.8999999999999999e+00 -9.4999999999999996e-01</inv_output_scale>
  <weights>
    <_>
      -7.0663511885764698e-03 -3.1319616385449660e-03
      -8.2230975538369637e-04 -6.5059386202973336e-03
      -7.6566506050802204e-03 -2.5135917027173738e-03
      7.3853611719644219e-03 7.9154135231619127e-03
      -6.6065326771522596e-03 5.6815807848128097e-03
      -2.8859582044450205e-03 -1.4997155772638029e-04
      -3.8116735313184925e-03 1.6491189986482799e-03
      2.4628472888740698e-03 -7.0593483148477399e-03
      -4.5206809314938363e-04 -7.7769797901344993e-03
      -6.4497761595361551e-03 4.2831237567853295e-03
      5.6025261815212894e-03 -4.8991868525682441e-03
      5.8367898434421808e-05 3.9876540885075565e-03
      7.6861190505569357e-04 -6.5647332279186794e-05
      4.9932421910389539e-03 -1.8716054694214986e-03
      7.2533921507402328e-03 -7.0378466135009405e-03
      -2.0601282147366621e-03 7.1535648194627627e-03
      -2.2263523161520052e-03 -6.6790669027169654e-03
      -7.1109729836221127e-03 -1.9057486222298938e-03
      -1.1850566750871547e-03 -4.5729120152022337e-03
      1.3841531769830692e-04 -2.3453345990381968e-03
      5.6114186491098153e-03 -6.7483339451549999e-03
      6.0912693634371422e-03 -4.4169185303851140e-03
      9.2280998398319833e-05 -4.4668294886794060e-05
      -1.9510996764042559e-03 7.6193606923986882e-03
      1.7556676894981784e-03 3.5100672262992785e-04
      -3.1183965262689436e-03 -6.8500621776452176e-03
      6.1232585294813176e-03 -5.2243908361127829e-03
      5.3118707669009705e-03 6.9414091416525716e-03
      -4.1484428198454958e-03 -2.7644633701579663e-03
      6.5331408293275665e-03 4.9394423827038647e-03
      -7.2361992642139003e-03 2.1653149495141372e-03
      -1.6258750469239844e-03 -2.9314284768310944e-03
      -7.3438623685503045e-03 5.3268708512655971e-03
      1.8055115157866277e-03 -2.0254171100091718e-03
      1.3689014660564947e-03 2.6059079661798039e-03
      4.8269664023678285e-03 -3.4927677296295277e-03
      -3.5878575574869592e-03 3.3669420679013741e-03
      -6.1109812314319358e-03 -7.4441225367767160e-03
      1.8859674339400949e-03 -7.3393557233612664e-03
      5.7741886323882158e-04 -5.6098455384128876e-03
      -1.7676640492535613e-03 -3.3015043342391813e-03
      6.3574784890420757e-03 3.7551451364698936e-03
      7.1418765197438488e-03 4.1878207621949435e-03
      -5.6409731076901238e-03 -1.2030464291473107e-03
      2.7371519689872083e-03 7.2734209446478210e-03
      4.7590330844114823e-04 7.5415420277077233e-04
      -6.7361574438055708e-03 -1.2088884620584013e-03
      8.4718262405354585e-04 -2.2978408431281261e-03
      4.0894998744416709e-03 -7.4823328632204061e-03
      -7.2982810096302716e-03 1.9863450614636615e-03
      6.0334746755879316e-03 -5.7407652723476363e-04
      -2.2347291697526179e-04 1.3823718927301846e-03
      -1.3648459855269699e-03 -5.8032754119277516e-03
      5.8545022955124922e-03 8.3835706630365631e-03
      5.0982784479872492e-03 3.4279400634000794e-03
      -2.4291674705546099e-03 -5.1657657548539182e-03
      7.9366060063911399e-03 -7.8096636126078062e-03
      7.6695606802876888e-03 2.0798036161872414e-04
      -3.3431628171232894e-03 -4.7783069655159150e-03
      6.4689330789815570e-03 -3.6727117020537671e-03
      -8.0998801691532819e-03 -5.0899051539710317e-03
      -7.6677159739082363e-04 -1.8007499537683171e-03
      -6.9888822840523963e-03 7.6975794736350083e-04
      8.3975144073257534e-04 -7.7862858268584994e-04
      -2.0667080453406093e-03 6.3302019852272693e-03
      1.5752390204636401e-03 -6.0632292577625308e-03
      6.4588859098609367e-03 -1.0563778108266583e-03
      4.7863533137555347e-03 1.9450094578259271e-03
      4.3654308586884389e-03 7.5994999499338798e-03
      4.7171756359229190e-03 -7.2286009403493374e-03
      -3.6073097136921487e-03 1.2794611562441046e-03
      -2.3716660037539010e-03 -7.2870404602726263e-03
      -9.6178046047163096e-04 7.6855074130091749e-03
      6.8036704805303251e-03 -5.3576291978323070e-03
      1.9110072355739824e-03 4.7243820863468993e-03
      -1.3256574915899548e-03 -2.8486247493681354e-03
      3.1512220219089703e-03 -5.7928213492167138e-03
      1.2688372289855958e-03 5.6308357360539130e-03
      -5.4699352939887045e-03 -7.0921536698192057e-03
      -3.7937409460901250e-03 2.7814489659263157e-03
      5.9588802145200933e-03 3.0239810677869417e-03
      -8.4939004492957633e-04 -1.1595862248702105e-04
      3.5787629003184611e-04 6.0152610535441041e-03
      -3.3905805512004050e-03 6.9414717056000561e-03
      -9.3540801343670172e-04 -4.6324377419287889e-03
      2.0961858074124893e-03 -7.4173754654592713e-03
      1.4802420881250113e-03 -4.2062041753750329e-03
      -2.7513967623968819e-03 -1.6066601845245627e-03
      -2.1779234834493084e-03 4.9686812761769875e-03
      3.4833018384670942e-03 -3.5637711661832762e-03
      1.5236089130046127e-03 -5.7734632756469891e-03
      -7.8456527024190099e-03 -4.0176193236565235e-03
      -6.0079514068633166e-03 -2.7800106562830785e-04
      8.1443105063119196e-03 6.4764113677662650e-03
      -6.0288776904086063e-03 -9.9618242603012434e-04
      7.3353477941476685e-03 -8.1307804965229384e-04
      5.7233257285843305e-03 -1.8521272765691550e-03
      6.4879654114650522e-03 5.4056524908011319e-03
      3.7021134472149616e-03 2.6584931418202067e-03
      2.6863956099703229e-04 -7.2275331290074423e-03
      6.5761592357520869e-03 3.6757756851955965e-03
      1.9119944212550929e-03 -6.4081608281463503e-04
      1.2250403993621840e-04 -1.6654981125980119e-03
      -6.1148443659441686e-03 6.8960908474606361e-03
      -2.2653977211049255e-03 7.7156064109148124e-04
      -1.8683093333959810e-03 -3.6364007152303005e-03
      -3.9721893392303496e-03 -4.7602745329191334e-03
      -7.2724527103833862e-03 -3.1526555145707388e-03
      -6.2285402879325314e-03 2.9997690734318223e-04
      4.1694987753823225e-04 -4.1019888305862170e-03
      -7.7689417632564274e-03 1.9725510909781160e-03
      3.9112110882056133e-03 3.2327532937703771e-03
      -4.0250430144456147e-03 5.6758804331308085e-03
      7.0224158653128047e-03 7.1297166371822108e-04
      3.4988234402060364e-03 3.5651575618462403e-03
      -3.8021403441770296e-03 2.0492834269031641e-03
      -6.6327301885416509e-03 -2.7003651169048692e-03
      3.1081189826174366e-03 -1.3879014672341958e-03
      -3.3125478716498247e-03 -1.4778248830404281e-03
      5.6435027559605484e-03 -3.4391411278597928e-03
      4.2481813212784806e-03 -6.8443121439995466e-03
      7.4711207735459664e-03 -1.8225493323149329e-03
      5.9083613637779704e-03 -1.3023072914315815e-03
      -5.2961679197105205e-03 -3.7825590698366306e-04
      -2.9965242851481646e-03 5.7984074839983859e-03
      -4.7564540307393237e-03 3.3146465114785559e-04
      -6.8990233604532079e-03 -4.0115120050938811e-03
      -4.9111414564180812e-03 -1.8491340015281256e-03
      2.3150462100113550e-03 6.5644851243574056e-03
      4.4323966536375416e-03 3.9279600807025751e-03
      5.5864134525807066e-03 7.3849479648135171e-04
      -6.3973461316751681e-03 -3.0498394486113928e-03
      -1.5137810246976841e-03 -1.7542534440050633e-03
      4.1837313986830861e-03 -2.8700722091576972e-03
      -5.9859176260833478e-03 8.5878117662482835e-04
      1.1244609601907751e-03 7.1300740730991935e-03
      -7.2531211996531052e-03 3.0102038610806199e-03
      -4.6589836307230782e-03 6.6605634622747536e-03
      -4.5621460156689726e-03 1.3337382677325194e-03
      -3.4172589394693381e-03 6.5230079121874002e-03
      1.8967192088302312e-03 2.2463765153954169e-03
      -6.5889177498083308e-04 -2.1730209468118927e-03
      6.7274964243070143e-03 6.0137346690423013e-03
      3.7007437203391801e-03 6.3212865748222321e-03
      3.1852172762832031e-03 6.3913716494580616e-04
      -7.5790047478811661e-03 -3.8842438997985159e-04
      -5.6112972559927560e-04 5.3414784597665852e-03
      2.1619966860182247e-03 -4.5346408322325220e-03
      3.5978565482717891e-03 -2.9978951802682853e-04
      1.0051709900975053e-04 1.7886580784273760e-03
      -3.4133715570219443e-03 -3.5940501525300885e-03
      -7.5906433590468508e-04 7.9085484991208658e-04
      -2.0789666146742770e-03 -7.1497073140653639e-03
      1.1549039706394046e-04 3.8643447492024896e-03
      -7.3740426880745721e-03 -2.2764388234244931e-03
      6.4188169205616199e-03 6.4922773781486533e-03
      4.5586038905325570e-03 4.1551643999768687e-03
      -6.0825806808190112e-03 -3.8154384463217838e-03
      -4.9992071096903196e-03 -6.3441466317719249e-03
      -8.1808702516023566e-04 5.0616160397929455e-03
      -5.0975619623307815e-03 -6.4298780341126467e-03
      1.2079144770013965e-03 -4.7123218154600235e-03
      -5.9690354397391229e-03 -2.5652671975159719e-03
      4.6070654148829384e-03 7.2022008430883003e-04
      4.9796591511095736e-03 4.8053715064014426e-03
      2.5756176222196145e-03 5.2972288381664698e-04
      3.4473925228436057e-03 -4.9746191870894399e-03
      2.5596297146616540e-03 5.9274464165773528e-03
      6.1597731431479305e-03 -3.1773169192588872e-03
      -4.3014863269186697e-05 -2.7023905719088643e-03
      -7.5657368611682773e-03 -3.9719896186640605e-03
      2.2522265820073229e-03 -7.1143229090175975e-03
      7.2196060792932290e-03 6.2965131008506142e-04
      3.8439666483870137e-03 5.1304614441922611e-04
      7.7060714352641781e-03 -3.7043224784790553e-03
      -1.1614306780461361e-03 3.6802093813643032e-03
      -5.4922924175283411e-03 3.6169408130869147e-04
      7.1126622284340794e-03 -6.2759340899755179e-03
      -6.8955230116692825e-03 7.8465153491286584e-03
      -3.4963240303411135e-04 1.2201249266642266e-04
      6.4018396811410493e-03 -6.3350396588000152e-03
      3.0239806118325663e-03 -5.8525714304164921e-04
      6.0804830093699027e-03 7.0757993553541088e-03
      -7.8665776961488231e-04 4.3429793112695443e-03
      -5.6536493744090213e-03 -2.4932053565180404e-03
      -9.8642672573849544e-04 -5.0573285824925636e-03
      2.7237854321954512e-04 -1.8525932663365713e-03
      -3.0971073414183931e-03 -2.8099486520504202e-03
      6.0823811409643378e-03 -6.8187483949906384e-05
      3.5887753255178746e-04 -7.1352218676878423e-03
      4.9142976617290238e-03 5.4617710947149822e-03
      3.8953544261422358e-03 -6.5833681310693256e-03
      -2.0636474164976455e-03 2.3951181447857939e-03
      -3.4462723490843259e-03 3.0882032535073899e-04
      4.5097345445468317e-03 -5.1241442163411982e-03
      -3.0150875008578921e-03 -3.4776974163185687e-03
      2.7034694619617475e-03 -3.8864742348280498e-03
      7.7547637033601455e-04 -6.3110586152915369e-03
      -1.7300990670878328e-03 -5.2498487708393547e-04
      -6.9878580013773128e-03 -9.2828078289017616e-04
      4.6304113684944009e-03 5.2245084383409886e-03
      6.9520611864595642e-04 -1.1749247869383686e-03
      -4.1667928654633918e-03 2.8556613457868018e-03
      -3.8576507461284783e-05 -6.7054288557298735e-03
      -6.3238538962317650e-03 6.6980239044530281e-03
      7.1855964787870394e-03 4.6400732479922610e-03
      3.7017509521545793e-03 -4.7458397991462283e-03
      -1.8314513107522577e-03 3.3768407503564513e-03
      5.6244408674896084e-03 -1.1066556301124976e-03
      3.8585405716435837e-03 2.6526686587970052e-03
      7.2593051461161233e-03 7.2038315406529200e-03
      1.7056392321502531e-03 5.8726944395726174e-03
      -3.0163674928419630e-04 -1.7496652072383238e-03
      3.5299940910193933e-03 -5.9356872299957501e-03
      -4.2912652305417852e-03 8.1967587743841995e-04
      -2.9754184107119333e-03 7.7471564307131360e-03
      -1.7967998070352192e-03 2.6038512588884054e-03
      4.2199745943394219e-03 5.9859583502058702e-04
      -4.4102319718284681e-03 4.7190128625992553e-04
      3.3481327958196265e-03 1.8284711097490299e-03
      -2.6091671933942779e-03 5.4419939053167348e-03
      -4.4317557761186788e-03 -2.7876137068942671e-03
      1.7176957406716002e-03 6.3856321124369552e-03
      -4.7618069768540536e-04 -7.2178408775443285e-03
      -3.5997552149130457e-03 7.1684768486483868e-03
      3.1552838844686295e-03 -4.7061830613236962e-03
      4.4048199925063071e-03 -6.7464217751195318e-03
      6.0717862035991645e-03 -4.5610800007674463e-03
      -4.1085844607242157e-04 -7.6753324949420804e-03
      5.9896504376093238e-03 3.4600628320777190e-04
      -4.3098471433215043e-03 -3.6573159699199143e-03
      -5.1274843073446817e-03 -3.5129233692094623e-03
      2.9038118655891846e-03 -5.5145995784524043e-03
      -1.9986595891534260e-03 -5.1493123207725384e-03
      -3.4041927012922775e-04 -1.1437966836760805e-03
      -3.7712885350722584e-03 -5.1109667491396988e-03
      3.0360977252858112e-03 -6.3297085274712115e-03
      -4.1595604320144777e-03 -5.0363749014731103e-03
      3.6312726895062551e-03 6.8376536581984601e-03
      -4.2767748953089118e-03 3.0080728054344578e-04
      7.1502726956498078e-03 -7.3283118635114062e-03
      6.5053091032633743e-03 -1.3479800951750897e-03
      -1.6840468278810589e-03 4.6037396914368105e-03
      -2.6214991152382172e-03 3.4811226275626526e-03
      5.2243897673949265e-03 5.4374925941312116e-03
      3.0856159636397200e-03 -3.9305615935244804e-03
      -4.5006847708672828e-03 -5.2431173622458308e-03
      -3.1589256759586353e-03 -7.4413249359329805e-03
      7.0886393343072311e-03 -7.9957439859897430e-04
      -2.9418160257886172e-03 5.0041757351659060e-03
      7.1976839157452729e-03 3.9630923013030620e-03
      5.4821963212349500e-03 4.5682925188415355e-03
      -7.0983421454512956e-03 7.8220940405086276e-03
      -4.4153955852730522e-03 6.0759083072142695e-04
      1.5264434768113178e-04 -1.3462991450072211e-03
      -1.5081754747336964e-03 -5.3628847173237881e-03
      4.3375985210977474e-05 2.1838057855325080e-03
      -3.7359448471307689e-03 -3.8767601640108521e-03
      7.5657401247496850e-03 6.5278687945550407e-03
      2.6635564188691140e-03 -4.2968846503539642e-03
      6.1670169594160796e-03 4.0195232841671600e-03
      -3.0664257498331043e-03 -6.5198451970036120e-03
      5.3270760025836052e-03 -1.6219708496358729e-03
      6.0038532214550964e-03 7.5868662452387322e-04
      -5.4556068570222405e-03 -4.4779629651646658e-04
      -3.4907967531847055e-04 -1.8529055421774080e-04
      6.1762119649153256e-03 1.1985980126252773e-03
      7.7174696422851914e-03 2.9820420853436751e-03
      -4.4642877421112257e-03 4.9954155694706907e-03
      -6.9137163886406096e-03 2.5063304170631524e-03
      -9.3815719736675956e-04 1.3612992202007568e-03
      -9.1386495583315743e-04 -4.5516464982127951e-03
      2.0660325866225684e-03 4.6820362523224109e-03
      -7.4424890577885544e-03 -5.0523475273483217e-03
      5.6742436025555643e-03 -6.7337880709294326e-03
      6.6921785103119941e-03 6.7517068417340094e-03
      4.1609913319323221e-03 -8.2865236022680090e-04
      3.6618998129928698e-03 6.0771125678306601e-03
      -7.1566251860005195e-03 -1.5054373855848727e-03
      5.6179647850951716e-03 -2.5030223126008572e-03
      -1.3683134377486951e-03 7.0376559368791614e-03
      -2.0539853766169528e-03 -4.9678341670493405e-03
      -4.0606974223380754e-03 -7.6451027843634578e-03
      2.6080708240962154e-03 1.6512363994643619e-03
      3.0212805100471862e-03 -7.3080839702397982e-03
      -3.7543754986143116e-03 2.9304402320733773e-03
      4.7807494193652282e-03 -3.9661972899028251e-03
      7.0627758233464616e-03 2.2211503233776888e-04
      -2.2122472790496056e-03 -5.9508536344226254e-03
      4.5827803563595285e-03 5.7669173561306925e-03
      -8.0171079567832739e-05 4.2061008671498614e-03
      -6.0484703141300321e-03 2.8808608609331922e-03
      -2.6169377501331905e-03 -3.2221615766055986e-03
      1.3925138887805912e-03 -3.8551588744971305e-03
      1.8233101903344269e-03 -2.8182400383003647e-03
      -2.2584017014979545e-03 -6.6445866858188523e-03
      4.2215311845024027e-03 6.5339093121993411e-03
      3.9739224118916635e-03 4.7549752168031386e-03
      5.9029010283511959e-04 5.0556757365163201e-04
      -3.4227157856603378e-03 5.5764998448424325e-03
      1.2914101705729509e-03 5.0569653860899665e-03
      4.5583308353638842e-03 -4.7300376068200103e-03
      3.8307401341391759e-03 9.6493059990812163e-05
      -2.4088011259102400e-03 -3.2084264953350650e-03
      5.6845368971683813e-04 6.3362240264974124e-03
      6.2697531126484462e-04 4.6551249113117605e-03
      -5.2554289070576533e-03 5.5191164762478078e-03
      2.5971352173348207e-03 -5.7410137196124925e-03
      -8.4555987775231502e-04 5.3154233922697641e-03
      -2.9343514517174004e-03 5.0236499396701826e-03
      5.7834219774484811e-03 -3.8156866006521001e-03
      -1.7558852067903442e-03 -2.8454696776475941e-03
      5.0787187643112196e-03 -3.5011726774618686e-03
      1.5986229213627620e-03 1.8010446461420423e-04
      -6.2440954253452719e-03 -5.5586474848048828e-03
      4.7020668993209081e-03 2.3880681646148028e-03
      6.4997927469164019e-03 5.6551365009046934e-03
      2.0248794266354763e-03 3.8104490906280498e-03
      -3.8803224156731919e-03 1.9885957211145935e-03
      8.8902743149804370e-04 2.2678851365325742e-03
      5.9406778596211400e-03 2.5112415541416232e-03
      -1.6613448099957969e-03 3.5002547786371694e-03
      -3.2629983720507756e-03 -2.2237405753474490e-03
      2.5048726257973003e-03 4.6000800810607452e-03
      1.5004481612736853e-03 -5.9734885240874281e-04
      -1.7764777653083851e-03 5.4308041565424197e-03
      -2.7557374290132926e-03 -4.9894236655952931e-03
      5.7745301788466675e-03 7.9898691726135672e-04
      2.0950308932314028e-03 -9.4781462770724019e-04
      3.6309341012439032e-03 4.7707051968055121e-03
      -3.8338861679470106e-04 -2.4143884116191797e-03
      5.4343797100958524e-03 6.3530937978503264e-03
      -7.3744217190585017e-04 9.3689226526232582e-04
      7.1656095297972077e-03 5.1469446163714093e-03
      3.9804057225336564e-03 -6.3256284036849464e-03
      7.3106156809436950e-03 7.6127499194516234e-04
      -2.0614963904312614e-03 -3.7844443475808856e-03
      5.5740622998074699e-03 2.5205040545319343e-03
      -4.3803351313584094e-03 6.4146833780992212e-03
      -4.9961830871360852e-03 -4.2268219774924736e-03
      1.9015721077282625e-03 5.0460367622957875e-03
      6.5896628201638947e-03 6.5363503178799487e-03
      -1.1297311954329751e-03 -6.6706494840783597e-03
      1.0131868200744134e-03 -7.7883001832144512e-03
      -1.5863963967901558e-03 -6.6188002639203857e-03
      3.9906115076352071e-03 2.9049042759349960e-03
      8.2546531818502395e-04 5.9087786507516487e-03
      -4.6355928939700239e-03 -4.9135711075622363e-03
      3.7318983060787678e-03 2.4857508706033716e-03
      -6.3496116684814280e-03 -4.8222186402467311e-03
      2.4585156130597762e-03 2.7527830951445220e-03
      -5.9089750013710477e-03 -6.3785893862011722e-03
      -7.2747484030453126e-03 -5.4511013710105763e-03
      -4.2514176556096017e-03 -1.6759874095471710e-03
      -3.8100180541290221e-03 8.0335507785109089e-03
      4.4775607667893310e-03 -4.9652075045945295e-03
      6.6441744338137558e-03 3.8373968710878692e-03
      -1.0230843994065712e-03 -5.8698092701555803e-03
      4.5495565541691675e-04 6.0451431536019838e-03
      5.1057019714793751e-03 -5.2616475711867051e-03
      -6.5846516609462747e-03 -5.8290145644332427e-03
      -5.4724154424339580e-03 6.7449081625000967e-03
      -3.8932089160680769e-03 8.8395677079744993e-04
      -1.2233628115434767e-03 -4.2598813266858165e-03
      -7.9686120344550843e-04 -1.2502227232700277e-04
      5.8353458694227877e-03 -5.3470353940920090e-03
      2.3723878938061863e-03 7.1440403647981881e-03
      -6.1674882299242624e-03 1.8847346141475829e-03
      1.0887143913210339e-03 -5.1240549573919837e-03
      1.5195749931346393e-03 7.0841662748262558e-03
      -3.6824890778443427e-03 -2.5244271827667302e-03
      -5.9959724217298910e-03 8.3276080073003207e-04
      1.5282135462358324e-03 -3.5321667177250185e-03
      -3.9487169982186906e-03 6.3749728792577773e-03
      -5.0170578096680118e-04 6.3580717273358216e-03
      5.8402982495877115e-03 7.5526684402008794e-03
      -3.4755753050349897e-03 1.8232511350752665e-04
      -4.0168081532298465e-03 -5.6256841366362532e-03
      1.3925504562900240e-03 4.9396417416796099e-03
      -1.2110500137470840e-03 -2.8732266344304088e-03
      1.7967055591636739e-03 -1.4074804592714698e-03
      -6.7528580498964399e-03 -7.5488071952154439e-03
      -6.4189140572562973e-03 2.9050586402897733e-03
      -3.7365743502806551e-03 6.4588489144618410e-03
      3.5500997413784206e-03 7.0608096685763613e-03
      -6.9863271169603811e-03 -1.2970326501219301e-03
      6.0794730416838965e-04 -3.6870418074053464e-03
      -7.1659807183523843e-04 -5.8762090203312372e-04
      -2.9992150362668401e-04 -6.5697280677782730e-03
      5.2166505806242741e-03 -7.6322531233424425e-03
      3.7643742706951252e-03 -7.1465579278279555e-03
      -5.9718801554115870e-03 1.6612500671457538e-03
      6.5178564784575425e-03 6.7814853644731108e-03
      -7.8556050976292639e-03 -1.3380503749802924e-03
      -7.9887906279837442e-04 -7.0414823509237518e-03
      3.1831351312451876e-03 -9.2431382424621085e-04
      4.4569576225046053e-03 -2.1294014699743489e-03
      -4.1045907955373296e-03 6.5178512191006194e-03
      -1.1086675936258406e-03 -6.4412626847485258e-03
      4.5795975837385353e-03 5.9402612760001104e-03
      -1.4193274756726609e-03 2.2890070356473588e-03
      -1.2661027447330255e-03 6.7178368998838103e-03
      4.7055059760036447e-03 -9.7100364135747756e-04
      -5.8918481440939428e-04 7.6093570394148878e-03
      -6.9045486745644719e-03 -5.1390507896230796e-03
      -6.6680513899340333e-03 1.8160020812462735e-03
      5.2114083899875525e-03 4.7573131229552137e-03
      -7.1671963101514486e-03 -5.7120579800816395e-03
      6.9490005142827807e-03 3.9769995954036276e-03
      7.3298743623825113e-03 1.1851664379024555e-03
      8.0584044411180483e-03 -5.6304994493786816e-03
      -1.4100757615168834e-03 -7.1557783561081714e-03
      5.7020589217426495e-03 5.4991773110489046e-03
      7.3614663444684716e-03 4.5598812982274375e-03
      -4.6302625186833458e-03 -4.2765610317366748e-03
      -5.2758570868503153e-03 -5.8258663180349021e-03
      -3.6044634335442886e-03 7.9136815411034306e-04
      -1.1483869752589629e-03 -5.5553687513605170e-03
      6.9192085186620123e-03 -7.1215085345904773e-03
      5.2831045551409135e-03 6.3166522199081939e-03
      -1.6013525857858895e-03 -3.9756952160596376e-03
      3.7804362466581690e-03 6.0525931753431595e-03
      -1.4441576588587223e-03 -5.2528433184949692e-03
      -1.8243446696239256e-03 -3.0021125827061706e-03
      -5.8275154719585106e-03 -1.8564692795238741e-04
      -3.5624786944838610e-03 -3.9531370520330797e-04
      -4.1059173865184038e-03 3.5840570712475403e-03
      7.5600961372567785e-03 -5.0228336158606507e-03
      -1.8701429355307505e-03 6.2461427819271668e-03
      2.6835691325542933e-03 2.6761534766236812e-03
      -4.7615768914106345e-03 6.9357107105276754e-04
      -5.7370060506372498e-03 -4.8003786078284648e-03
      -6.8688371956741713e-03 -2.3529609835111530e-03
      -3.7259304170568818e-03 -7.1943680055075064e-03
      -3.5144628085947288e-04 2.0317240994846839e-03
      -6.9084837285607655e-03 -3.2261008766358672e-03
      -2.9146188503091485e-03 -1.6436234550060715e-03
      7.4764974492931317e-03 5.6082221972149531e-03
      -5.9661396315341553e-03 -3.2168990751665527e-03
      5.2936877241950191e-03 1.4781068467078664e-03
      -2.2007344654742592e-03 1.2000180806242999e-03
      -2.5255672075429531e-03 1.0207116788611462e-03
      5.5712214517553774e-03 -5.1634959061256491e-03
      -2.7292985252513210e-03 -1.4908186239360932e-03
      -4.5780713194007276e-03 -1.0085577254775305e-03
      4.0286940693416611e-03 5.7717243677501574e-03
      1.6303666402058025e-03 5.1907681060181579e-03
      2.0817850115982658e-03 5.7762138904556472e-03
      -4.2952510526011361e-03 -5.8013662740823676e-03
      -1.6218994269759364e-03 -7.4896450328390827e-03
      2.2522510372015156e-03 7.7490468049950132e-03
      -2.7634025320132892e-03 6.7945714913456663e-04
      -6.9199219606441995e-03 3.8961318634565464e-04
      -5.3044165343767548e-03 3.4716385560945098e-03
      -3.3327156398291198e-03 -5.4701229994282780e-03
      5.6815234906614168e-03 2.7914587924716462e-03
      -5.6773640904295266e-03 -5.5501202520746497e-03
      -6.5386443029974402e-03 -2.7404267245458016e-03
      1.2905348999079458e-03 5.9292240041867389e-03
      -1.3894436854090977e-03 7.4779958630983509e-03
      8.0747929331184444e-03 -2.7792416152056694e-03
      -5.2424706839185678e-04 4.3229829232939072e-05
      2.3280237617512673e-03 5.7677832436420365e-03
      -4.7400794306009979e-03 -5.9330986036215420e-03
      1.6174317432547183e-06 -5.9225797402462834e-03
      -2.7342687058691554e-03 2.7183765886831311e-03
      -3.0679968672701827e-03 -6.6730068811702665e-03
      -3.8792295942682853e-04 -3.6835525843622254e-03
      -6.0028067475635079e-03 4.7726275527670801e-03
      5.1769719837599691e-03 5.1058175190750177e-03
      4.9029898226615213e-03 -4.0858898996348827e-03
      -1.7491021677394004e-04 -8.7638673173792085e-04
      -7.4105929372916424e-03 7.4582030880429081e-03
      -4.7754913148063743e-03 -1.5975200134436139e-03
      1.3262638387470567e-03 -1.2558661308915524e-03
      6.7656932042254384e-03 -5.4508799307472783e-03
      4.1311418006437410e-03 6.6791454724939546e-03
      -1.7796077821522139e-04 -7.3581375127560527e-03
      -5.6466544865033993e-03 1.2373312328232042e-03
      1.8879721401994453e-03 5.8387070907291378e-04
      -2.4229090374965740e-03 -6.7879815567588103e-04
      5.2875651345559117e-03 6.4971093377488541e-03
      6.1169267156296423e-03 5.5470689014733548e-03
      6.2702264321658702e-03 3.8782968181374634e-03
      5.7778133858121953e-03 8.9838774017729397e-04
      3.0414968186302247e-03 5.0397849230285167e-03
      -7.0898661236751823e-04 2.1205874543602167e-03
      3.8231135833297300e-03 2.9305847351475539e-03
      -2.2297611507725804e-03 3.9723380413176599e-04
      -6.3951933616569114e-03 -4.2600526061903699e-03
      -4.4571107428287892e-03 -4.2641656507062965e-03
      -4.4222395408540546e-04 -2.9759923465604829e-04
      6.3504815151764604e-03 2.7698698752947476e-03
      7.8289795768976440e-03 3.8978371209584480e-03
      2.5355729501198841e-03 -1.7064575754083854e-03
      -6.3288611485564162e-03 -1.2136959832965784e-03
      -4.9942095128857993e-03 6.0430934021733339e-03
      5.2691218310482370e-03 6.1122433403267345e-03
      -4.3020198585532405e-03 7.7018695442843425e-03
      6.7917907389451028e-03 -1.7237519948858180e-03
      1.8696698775298858e-03 4.8955639675588988e-03
      5.4397030759231763e-03 -1.5516529861300400e-03
      3.1905527595689370e-03 1.5050554423592889e-03
      -3.8279735161005930e-03 -6.2687360903281543e-03
      4.6179695187763001e-03 5.7257871716729974e-03
      7.0308260387036883e-03 -6.8895623032408588e-03
      6.2118940859057841e-03 5.3810088762167325e-03
      -4.7241892752347033e-03 1.5857247167428393e-03
      -4.5106619671059223e-03 -2.5249717452867902e-03
      -2.8525738228756085e-03 -5.2045147178790665e-03
      3.8443475343241131e-04 -7.8357087055917051e-03
      -4.7263779659764043e-03 -9.3543318044329350e-04
      9.1755939077642693e-05 -4.7069043352367043e-03
      -6.5449197463936775e-03 3.4073595788643440e-03
      3.9090449585848864e-03 6.4136027035338692e-03
      -5.6356259184823275e-03 -7.4608122618185374e-04
      3.2278805727672145e-03 6.4365723614262967e-03
      6.8080632746070780e-03 -2.9925231388781954e-03
      5.9654944413127416e-03 4.6961865689273954e-03
      1.5673035979264594e-03 -2.8849191954136997e-03
      1.9035073831528786e-03 4.6630570852633753e-03
      -1.8596549038103240e-03 2.7571731988490170e-03
      -5.7834671929275563e-03 -2.5077416449974604e-03
      6.4758998821461632e-04 6.7506632037673811e-03
      -5.9187732769716336e-03 -3.6320486383250293e-03
      -2.9880704153500935e-03 -3.0061325285163679e-04
      -3.1129688163901289e-03 1.3506080986165083e-03
      2.6180219532271013e-03 -7.5662268333617898e-03
      -3.5213364741948075e-03 -4.9093341069343559e-03
      -4.5322952110523106e-03 6.2870271263646500e-05
      -3.3983695996916115e-03 -7.8172705626741446e-03
      5.1088859098017969e-03 -3.2694970898967794e-04
      -2.4811286974676366e-03 6.4897543450896256e-03
      2.1320442337477170e-03 -4.0420177708140994e-03
      1.3876291318884949e-03 7.1910900725565031e-03
      -1.7320963011699473e-03 5.0358231048805661e-03
      4.7093690357612296e-03 -1.2203258937816019e-03
      7.2396183051101929e-03 5.3480580695380777e-03
      -1.4552504591881508e-03 -7.4641894732750706e-03
      9.4819469752919290e-04 -4.2284106274242655e-03
      -7.4999111547607526e-03 6.4316396647963433e-03
      4.8611746093957233e-03 6.7364241745519644e-03
      2.5662278579312902e-03 9.3709009939753265e-04
      2.4607932143861102e-03 -7.9870846345193158e-03
      7.0763612205892333e-03 -7.7801227296954618e-04
      -3.2978847235080673e-03 -6.6357908328143148e-03
      1.4716825462655465e-03 -2.4129460914161589e-03
      8.0024007423502991e-03 7.2213639953737372e-03
      1.4977513606887856e-03 -8.3470165933365091e-04
      4.9578255065542186e-03 -5.0753032631987395e-03
      -6.7469584794369467e-03 5.7334724747696618e-03
      -3.2707859668475920e-03 -2.2074299542697070e-03
      3.6811385920037152e-03 -4.2018474138057335e-03
      2.0163351657966413e-03 -1.7032160759407184e-03
      -3.9444871613013716e-03 4.8861732440380022e-03
      -4.7473500074408344e-03 2.5025379685277745e-03
      6.9875899968952458e-04 8.3519478126546176e-04
      -4.7372103465174956e-03 2.8807146763283596e-03
      7.4763665430818849e-03 -6.9805842757968313e-03
      -7.5142779422020019e-03 -8.7179496190021926e-04
      -1.5964146313735864e-03 -7.2627885446217861e-03
      6.6663822549119902e-03 -6.4609243133705160e-03
      -6.6511939590458303e-03 4.0972979495806187e-03
      3.8366203734266332e-03 -5.5004773358508828e-03
      2.9279664404139399e-03 -2.6556039414882254e-03
      -5.3800035002732026e-03 -4.0946960180193934e-03
      4.5442413180485095e-03 5.1511110457821583e-03
      7.1203945071313165e-03 -1.4728235727809477e-03
      3.5201337507395972e-03 7.3383999638862588e-03
      -2.0253645171500333e-03 -4.0161527246772724e-03
      6.9544747772128908e-03 -5.6251770405813745e-03
      -5.7757633446892699e-03 2.5511689928740133e-04
      7.0931343715903809e-03 -6.3963192172867001e-03
      5.7129547284000932e-04 5.3434914137908008e-03
      6.3178740686709589e-03 -7.8486004002705830e-03
      3.6887927467023304e-03 -4.5040732765542265e-03
      6.0483585445844368e-03 7.8584407147394061e-03
      -6.7103532046964487e-03 -5.6569348037116378e-03
      5.9445520450102842e-03 -2.4996600358999617e-03
      -5.6183625174524472e-03 -5.0152642510181153e-03
      -5.4156329436416685e-05 -7.1367641113480370e-03
      -3.4675040335235335e-03 3.5190091560843672e-03
      1.4569311418819952e-03 6.6129534980323380e-03
      6.6085218566173829e-03 1.0072342568042294e-03
      -2.9197675304062473e-03 6.4001625695979582e-03
      -2.9213382653707526e-03 -4.3596313490188825e-03
      6.3373091501464137e-03 1.9483018781467584e-03
      2.3805761128792481e-04 -3.7934124304882240e-03
      -3.8338202704797241e-03 4.7489739180999651e-03
      2.0104355560936595e-03 -3.5138323741422521e-03
      -4.6763571525643994e-03 -4.8856747645527185e-03
      2.0089365534397361e-03 7.4300592332613670e-03
      -5.1843512991489211e-03 6.2697888141060893e-04
      9.1281788688067460e-04 1.9110976761140641e-03
      -2.0195997622410224e-03 1.0079050344524961e-03
      -7.7458406460909875e-03 -4.7354739553937984e-03
      2.8763103506728917e-03 1.4625828383651631e-03
      5.3837317508639406e-03 -4.5471791748421678e-03
      4.1498675516905932e-03 -6.6652525797879876e-03
      4.8699634474328188e-03 -2.0494703043523591e-03
      2.3918527541416288e-03 -5.4363865842363499e-03
      -3.0035654448148088e-03 1.5501265928924298e-03
      1.1160323414520824e-03 -4.2392822904412228e-03
      -7.4310452993310043e-03 -5.2245170606474555e-03
      -5.7056115976433144e-03 -4.4818412295281052e-03
      -1.3036430775199275e-03 5.4394407101232998e-03
      -1.8147328713489588e-03 9.5472125516615801e-04
      9.0883264828248503e-04 -6.7554372448223824e-03
      2.9319868780493465e-03 -8.8395506055731672e-04
      6.5969121881302734e-03 1.8585236852394474e-03
      5.9537497531244521e-03 -7.2971078606561815e-03
      5.8678226639564263e-03 4.4465507098057841e-03
      2.1764191250022405e-03 7.8763795031498648e-03
      -5.3893683470415650e-03 1.3159898882085239e-03
      4.3288707865486069e-03 9.6523726543900560e-04
      -3.6508944103706117e-04 2.1074864546891583e-03
      -1.7289065640398746e-03 5.0267401768920254e-03
      -7.0095455623412576e-03 -4.9278557210681289e-03
      -6.5800141528711440e-03 -2.0673234078935703e-03
      1.9102282514401249e-03 7.0895357066111508e-03
      3.1699033156107640e-03 3.3906004075144819e-03
      6.3408811472078332e-03 1.4370305769609449e-03
      -4.9111282923474846e-03 7.2235053610731877e-03
      -5.9300472446098462e-03 6.8292273086950654e-03
      7.2891996379734125e-03 5.9067751225392092e-03
      2.3777320830963471e-03 5.4551784729480832e-03
      1.3670309308126810e-03 4.6514044091607084e-03
      3.5610180699697019e-03 -1.3292353855285492e-03
      3.4372698785226229e-03 -7.2561276239713471e-03
      4.7208871065315314e-04 -7.4686041168138557e-03
      -1.6352402689044519e-03 4.1301477104797027e-03
      1.9864718916830833e-03 -7.0481151321503581e-03
      7.6423065407605750e-03 7.5610010822563306e-03
      1.7369691272454017e-04 -5.0256253143101601e-03
      -5.8554613123741718e-03 -5.3778764495082823e-03
      8.2237270092082684e-04 -5.4088507754457031e-03
      4.0588512676174712e-03 1.8982872673989600e-04
      5.4061400645088360e-03 5.4690830280939911e-03
      -4.8295825818778278e-03 5.8114918270909957e-04
      -4.1183296002123742e-03 6.0041839441996479e-03
      5.9511512229408021e-03 4.1199827789844658e-03
      6.1323930158279317e-03 1.5825819066226758e-03
      -7.0595324255655996e-03 -5.4608158827201339e-03
      -5.7945661471608054e-03 2.5262748255007518e-03
      5.9826123725249310e-03 1.7079220407639675e-04
      3.2942959799855697e-03 -9.3523846318705199e-04
      -6.3654323539899796e-03 -6.1059922813029759e-03
      6.2048239438094175e-05 4.9697768500628625e-03
      1.8836471764433063e-04 -2.5778365657194006e-03
      6.6473557801423142e-03 -7.6392053970524279e-03
      5.7451431532205615e-04 -4.8198256564624502e-03
      7.4257130328678677e-03 6.1862260539440163e-03
      7.3422157726406216e-03 3.4339514428832043e-05
      4.9694542186913436e-03 -7.5676889203338460e-03
      -2.2193916727457669e-03 -1.5872760296088606e-03
      -6.2988818743796591e-03 -5.9959983864545305e-03
      -2.1476909646161313e-04 -7.1120191248292535e-03
      -5.8309125742124776e-03 7.1973707106733785e-03
      -5.1845801805927884e-03 -1.7818882410173230e-03
      1.8477288850464613e-03 2.6920065974321574e-03
      2.8290517831019713e-03 1.1725278763042836e-04
      5.2656429316688914e-03 -3.1960633034741571e-04
      -1.6519102043390996e-03 7.9268626070656718e-03
      3.0867597371547935e-03 3.1741155868698460e-03
      4.4870081162430991e-03 -5.4666176489047023e-04
      6.6671171837635011e-04 3.1206234337022372e-03
      -2.4367066340965286e-03 4.8507135801393233e-03
      -5.9636280726035329e-03 8.8458041175811886e-04
      5.7376445301778210e-03 -7.1784504027533477e-04
      1.2131301469033903e-03 5.8036604187005342e-05
      -4.8890675020974300e-03 3.3703108943923922e-03
      -3.8902941403244884e-03 -8.0185644419344185e-03
      -7.2057335394661651e-03 2.2492970062403398e-03
      -4.9342703835780410e-03 7.9648038539845893e-04
      -1.4956371902244089e-04 -3.0509681610801605e-04
      2.6803133043778017e-03 -2.4400839486592219e-03
      -3.4729788876901669e-03 -2.9681834710360792e-03
      4.5406197272513148e-03 1.8503222740717832e-03
      3.8431415961504081e-03 7.3260396994250911e-03
      5.2235684020509503e-04 -4.0453587791877584e-03
      4.9976559093359357e-03 -5.5609221382578317e-03
      1.7569547785928196e-03 -3.1006290640300145e-03
      -1.3171687174014131e-03 1.1483428817183955e-03
      -1.8174694992432185e-03 2.7775846764993757e-03
      -2.8219134146570753e-03 -7.6197299292552721e-03
      -4.8637706480914051e-03 -5.0696713333753928e-03
      2.1390617044926606e-03 2.4246728609245778e-04
      5.1739050140703954e-03 1.5387574920301705e-03
      -3.5586137676835144e-03 -5.0824623738464809e-03
      3.0443485437292870e-03 -6.9638926201810933e-03
      3.9779836475772245e-03 6.5402304858264426e-03
      -7.4961419409547052e-03 -3.1160509205559960e-03
      -4.7148903906285540e-03 -5.4497165480414042e-03
      -1.0932138586008820e-03 2.5760878900580901e-03
      -4.0671307443239796e-03 3.3912019717907070e-04
      -7.6480931521123591e-03 -9.8237654214445636e-04
      4.0214309904464205e-03 5.7254177740544169e-03
      -6.6572135821685637e-03 -6.8344075140457042e-03
      -2.4566038607383277e-03 6.9224472609310580e-03
      -5.4274585378756481e-03 7.9894781700975137e-03
      -2.3148316747271486e-03 2.6366774545244014e-05
      -2.6344329869345210e-03 2.4500796986380441e-03
      -3.0329498743487042e-03 -3.2157842342024285e-03
      8.3155495862699623e-04 6.0959934044081815e-03
      3.3604014176543216e-03 7.7152566982886164e-03
      -2.6923832041618589e-03 6.3539837448357067e-03
      1.1217189572627199e-03 4.9071815334038637e-03
      -1.5564285777422257e-03 5.1740978133156543e-03
      6.3405103938565929e-04 -1.2116356202609426e-03
      6.5708231457763337e-03 1.6202411728474862e-03
      1.7201380144220505e-03 -4.5327641610525080e-03
      4.6422167091921132e-03 -4.1266109589857269e-03
      -6.8171880286415016e-03 -3.0660485291045579e-03
      -1.6485039142682481e-03 -2.0613076609244025e-04
      2.1595636150574743e-04 6.8848369409379388e-04
      -6.8935024844863756e-03 5.8036496274779491e-03
      7.0009753809206644e-03 -2.8606179839833689e-03
      -5.6025170466499040e-03 6.2208407874136899e-03
      1.8936895136785099e-03 6.7005403088776843e-03
      -2.0609103720496151e-03 -3.8214713050870089e-03
      1.3988544100762062e-03 4.7541963431441082e-03
      7.6166131190802512e-03 2.6315178551163600e-03
      7.8459876522700752e-03 3.3089840510928505e-03
      -4.3962017826348881e-03 7.7646469290728465e-03
      -1.8940343806141794e-04 2.0046273582080016e-03
      -8.3200368844303446e-04 2.6857160682194929e-03
      6.7550191721773272e-03 7.1994039025854517e-03
      3.5138513939013600e-03 6.5689178034084748e-03
      -7.4950082409529165e-03 5.6948215700874391e-03
      -4.6951216811913282e-03 5.4176165084329053e-03
      2.3050246522582853e-03 2.8987879621572860e-03
      -2.2747887161562244e-03 -1.8065405459054601e-03
      -1.4063343315680093e-03 -5.5051514922026708e-03
      -6.9780922268571652e-04 2.3954664340819103e-03
      3.6873664351063490e-03 7.3472602054765633e-03
      -3.7851329956336286e-03 1.9916991775745712e-04
      -5.4046755085360226e-03 -6.6615904309897988e-03
      -6.2604446107763093e-03 -3.4109685277060298e-04
      -7.5769071078852284e-03 1.9388399336273234e-03
      -1.3143494681609319e-03 5.6340582264810630e-03
      -9.7597038478648593e-05 -5.5444666005822181e-03
      5.1601729416400925e-03 -1.2118388456232175e-03
      1.1808097804906577e-03 5.0777462042834063e-03
      -7.7308025042197130e-03 1.3346842104983405e-04
      7.2745720140402707e-03 1.9512683157218511e-03
      1.0211618386573968e-03 -5.4504541914712471e-05
      -4.4142973336402166e-04 5.0765887745217479e-03
      5.0367605760897648e-03 2.6646721765456460e-03
      1.1412922574591544e-03 2.0076230185327271e-04
      3.9744564304940019e-03 1.4261280301189391e-03
      3.9822913004381186e-03 -9.3203112704490221e-04
      -1.9798973212153716e-03 -3.5510147590843491e-03
      3.9935831914774591e-03 -1.4184941144052908e-03
      -4.8482320023704607e-03 4.9843871857319080e-03
      -7.4785644783740427e-03 1.0463205532810348e-04
      5.3070600947835453e-03 5.8613401145660620e-03
      2.5971048761594096e-03 -5.5117518039371552e-03
      6.4068018314137644e-03 2.2036867986016150e-04
      3.8829057505638718e-03 -2.8064345792405011e-03
      -2.5892566022327856e-03 6.2137183473005180e-04
      6.0653363970258377e-03 4.8513700960252891e-03
      5.0883639006020272e-03 -2.7798071338019513e-04
      2.7815235449579166e-03 -4.4707275152106830e-03
      2.5956481044634499e-03 4.9336840969278796e-03
      5.0012640239347908e-03 -5.7294632607398505e-03
      -2.5526493023454227e-03 -5.6438876145667241e-03
      -6.9480794351441310e-03 -5.0834773995736494e-04
      -6.8173236441270736e-04 -5.3578297260252284e-03
      6.9901081083706103e-03 7.5165347691083274e-03
      -3.3523301022004943e-03 1.3622073145690562e-03
      3.7886739590694165e-03 5.3697474638742136e-03
      7.4574542329073294e-03 -3.8587697695236455e-03
      -5.9175210377727114e-03 -6.8973361638870728e-03
      7.5396761753216352e-03 7.6298985493902282e-03
      -4.9428459488486017e-03 3.3463704263606195e-03
      1.3472670452890844e-03 2.9329054273954905e-03
      -8.8504587461791314e-04 5.2159170828990345e-03
      7.6839203324511034e-03 -2.1155885316274884e-03
      7.0269155342532691e-03 -6.0657927806060559e-03
      -5.5885528623472467e-03 -5.4176817813095532e-03
      -6.0247379871639249e-03 -7.1975047859544599e-03
      -1.2041297749682334e-03 -4.6737745755282842e-03
      -2.2507043853491021e-03 2.3302229887392817e-03
      -1.1250673622930341e-03 -3.6877700931136178e-04
      6.3086972631515182e-03 7.4638961552307434e-03
      4.7339407479617714e-03 -7.6443714376476341e-04
      2.6410271296637040e-03 -5.5952184016077981e-04
      6.0136520310494525e-03 -5.2107311471805712e-03
      6.7329493034180166e-03 1.5937874117881389e-03
      6.8616389903833081e-03 -1.8672573359087073e-03
      -2.9039083365597095e-03 6.0489588397667849e-03
      -6.8392378741738598e-03 -6.7204981194603323e-03
      9.1460180300011412e-04 -6.0665600777169478e-03
      3.9886765490614769e-03 -4.4282097818559435e-03
      -3.0061599885282844e-03 -4.5100841349526220e-04
      4.8366591126632243e-03 7.0857220925720629e-03
      -2.4712627942080879e-03 -5.4867017290253055e-03
      -1.9319477483636278e-03 -1.0539593193074697e-03
      -6.5059148215384653e-04 3.1098329875811574e-03
      7.4237892977061124e-03 3.3320581048282803e-03
      -7.1207925751457012e-04 5.5094327644836264e-03
      -5.4058990587612524e-03 7.3275113961233469e-03
      -5.1578474074434714e-03 -7.7035505769233086e-03
      1.3846086695131299e-03 -1.6584114797159875e-03
      -2.9440576290539031e-03 -1.0098550047458025e-04
      -4.0903245217602524e-03 7.6178394817020172e-03
      -2.1721718483859826e-03 5.1998289599335000e-03
      -2.6141611941939654e-03 5.6292816904612158e-03
      3.7126963604332155e-03 2.5237966991569641e-03
      -6.9989663817691360e-03 6.4607995578925131e-03
      -7.4108504112974953e-03 -5.7145047866800688e-03
      2.1949566727033675e-03 7.4730425723253729e-03
      -5.1341098643069294e-03 1.2410211070150868e-03
      6.8403493747042987e-04 -2.5726666384904414e-03
      8.3452966855155622e-04 3.8232359901807845e-03
      1.5406881647789473e-03 2.2230536486078870e-03
      -2.8509525992895506e-03 4.2818943857009847e-03
      3.4522885831482922e-03 -6.5456047909768621e-03
      -3.1359677352474345e-03 6.2185734053004814e-03
      -7.2584483369182856e-03 -3.6870517633900632e-03
      -6.3338953516290618e-03 3.9274860910682155e-03
      -5.7800140238218421e-03 4.6407710653741004e-03
      3.0846846632986268e-03 3.6329706576760669e-03
      -1.2966719721191010e-03 -5.8413071766006373e-03
      -3.2336297274281208e-04 5.6512721700712511e-03
      -3.7490287113592291e-03 -4.0013318149948922e-03
      6.1197619084538326e-03 -3.4718027017724470e-03
      3.0758602962576453e-03 -4.6552113401430398e-03
      -1.8662625573516167e-03 -7.0366729005504995e-03
      3.3239020868958947e-03 -1.5260901893890087e-03
      -1.7657025095075098e-03 -9.6817324615050603e-04
      -3.9801763196057865e-03 -5.8412415655907136e-03
      1.3945712465367839e-04 -1.3883783185432710e-03
      -1.2691124421768377e-03 4.5702563582034972e-03
      -1.7733591456578414e-03 -4.5222224620371154e-03
      3.9119540491850601e-03 6.8562906033820918e-03
      -6.0679526345104370e-03 2.5026617162408711e-03
      6.8355516528611779e-03 4.9915685800338378e-03
      4.9159709403344444e-03 3.7474957113919670e-03
      -3.3334391332825201e-03 -4.8023823098022894e-04
      -5.2083080784745394e-03 -7.4012235958926956e-03
      -2.1359264711620063e-03 1.0512910892279131e-04
      -4.0805940135279074e-04 3.1683622151297583e-03
      -7.7578866463883789e-03 1.8180292761912981e-05
      -3.0714407661797476e-03 3.2875118056465615e-03
      5.2476118527970510e-03 4.4835331211001938e-04
      -5.6284565223965171e-03 3.3719682695767242e-03
      -1.8988804937064121e-04 3.6726199621128631e-03
      -4.7559366754177899e-03 5.4472797920808455e-03
      -6.1822358513150171e-03 -2.6260906269010989e-03
      -2.8550749818133454e-03 4.6150234751790526e-03
      -7.3281266741545975e-03 3.8334905294075366e-03
      -2.2286014572325623e-03 -2.9723639553320509e-03
      -2.6503318392839962e-03 8.5332776752657640e-03
      -4.2209329094965572e-03 1.3682602136777667e-03
      6.6846422834353700e-03 3.7209744247194173e-03
      4.4250504968399561e-03 -6.5956286742284596e-03
      6.8972026343937188e-03 -2.3398466580520369e-03
      6.5238100890272792e-03 6.4344464273285006e-03
      -5.7473738409925257e-03 8.0483933355503575e-03
      6.5765683081424971e-04 2.7745324971823154e-03
      -1.5495839366989222e-03 -2.9352943991841993e-03
      3.1354421740010692e-03 -1.9319286488009657e-03
      -3.7761297400138866e-03 5.1530015130493824e-03
      3.0934662731653788e-03 -4.9266132566762938e-03
      -6.4269547832031398e-03 -3.4802202700091323e-03
      -5.5173211337555808e-03 6.7191516975736608e-03
      -2.0419210562182466e-03 1.5881312798773817e-03
      -4.3161616119302051e-03 -6.3140345190599028e-04
      5.6416280249582612e-03 -5.4660310121479845e-03
      2.8111231434623271e-03 -3.0801852679628147e-03
      -7.3002941813583733e-03 -2.2732162798857823e-03
      6.7338272085298934e-03 -4.6634769783304511e-03
      -2.0905149701145375e-04 -3.8637566070331320e-03
      3.8574857407782689e-03 -8.4701223510036839e-04
      -1.1680621211169705e-03 -1.5857573137018812e-04
      6.5935632103734194e-03 -7.3100136833935620e-03
      -1.7871920489091234e-03 -5.9310033043057644e-03
      -2.5691986906909549e-03 4.5515059333846464e-03
      -3.5217362643762103e-03 -7.4091541160005881e-04
      2.2761360757330425e-03 2.3726893697925007e-03
      1.3336670147312492e-03 -6.4361618440399006e-03
      -6.9059044134583180e-03 1.5907768049498840e-03
      -7.1031809863562317e-03 7.4100420792291063e-03
      6.6662897616717818e-03 -4.9099874399379535e-03
      2.0324758956025029e-03 -1.7457477538313632e-03
      -1.6530752573173178e-03 5.8802708182679438e-03
      6.2404482139627121e-03 -5.1468105676751178e-03
      5.5320476656541030e-03 -2.1902125040329052e-03
      4.6444195701148688e-03 -3.6082196480838112e-03
      4.7095527794192892e-03 3.5172696310801148e-03
      -1.4631550002281303e-03 3.5081165052570857e-03
      7.4995468496570471e-03 5.3481680162175971e-03
      5.6293222826414831e-03 -7.2347501136740995e-03
      1.8125617474778145e-03 -6.8418457431709077e-03
      -1.3293801120324623e-03 4.2732574584669336e-03
      2.7636263702934790e-03 4.1942631675039622e-03
      -6.6155672902947665e-04 3.7795560114031895e-03
      -1.1966703388707415e-03 -2.0481773303602058e-03
      -1.7129662589313382e-03 4.4344297052816839e-03
      1.4209841410670449e-03 -1.0526544797000094e-03
      1.4200425774193710e-03 5.6857784452764735e-03
      1.8873706391780759e-04 7.1787919945878395e-03
      5.6636149096858657e-03 -6.5183046597727780e-03
      5.9762970801387162e-03 -1.4642033131198199e-03
      7.6327925254897448e-03 1.7175476678756829e-04
      -2.1016642716474771e-03 2.7096502264957923e-03
      3.2695433105053693e-04 -4.5689324006158811e-03
      -5.6925306258396131e-03 -6.3406182076145836e-04
      5.5221915267576124e-03 1.9244490511258581e-03
      -6.5871150087424427e-03 7.1405277487326876e-03
      6.5542810111534689e-04 3.6650982311815985e-03
      -3.3604438837624465e-04 2.8444402389145480e-03
      3.6140133790798874e-03 5.9706527253975891e-03
      5.0816158961391042e-03 1.6777248847685930e-03
      1.3710792019467353e-03 2.6894647781745837e-03
      4.9066467304214080e-03 2.8249668506315351e-05
      2.7406887130520621e-03 -2.4140954937798475e-03
      1.6382280279653957e-03 -2.3794658100903193e-04
      -4.1808491956209235e-03 -5.4498080407734744e-03
      2.0269167303765862e-03 4.6904989879184896e-03
      7.6917484204321420e-04 1.4080782111565832e-03
      4.2473366860677868e-03 4.9795797899189189e-03
      2.5759100500327872e-03 4.8618655084301928e-03
      4.2451030998019341e-03 -4.1668296678308882e-03
      -5.1516819515487625e-03 -4.0190455347721013e-03
      -2.5114663701328800e-03 -3.8598054081823928e-03
      -4.2831630477370448e-03 -4.9297606841655272e-03
      -4.4248712310522593e-03 7.5910407415012877e-03
      5.5177511272204221e-03 5.2613124832289280e-03
      -4.5708202510948478e-03 6.2845626511172422e-03
      -3.8397735592422301e-03 -4.1645867036921424e-03
      3.1710421955718532e-03 1.0228074217161231e-03
      -4.2640015458104861e-03 5.6386113905801773e-04
      -4.1591316898313370e-03 4.4722380187717081e-03
      -4.2658686975766448e-03 5.9597258168203274e-03
      3.5451587672900684e-03 2.2768029235004481e-03
      3.1465466505907506e-03 -3.1936362895683976e-03
      -5.8695259303524119e-03 3.6780689410079548e-03
      6.7928508807716115e-03 3.5542543175834849e-03
      -7.5948348781929844e-03 1.2134649547913714e-03
      -5.5894307200294573e-03 -2.7962617467374644e-03
      -3.5437459205504940e-03 4.5805623896850662e-03
      2.3726601452867696e-03 -3.0157530318093285e-03
      6.5225993566105775e-03 -9.8138306792640881e-05
      3.0788088622629257e-03 -3.7509496707524926e-03
      -2.3691729901219186e-03 7.5660590270778378e-04
      9.7694538032811352e-04 -3.1514598074367725e-03
      4.0630466609639518e-03 -7.6325702010783297e-04
      -1.6779727457866588e-03 -5.2872110701068769e-03
      -7.1530809183460997e-03 7.3979814100477012e-03
      3.7239639825443517e-03 -4.9504272859837535e-03
      -2.6086920635034184e-03 -4.0993264443526314e-03
      1.3581009513022730e-03 5.4343947004542609e-03
      7.1132841266037918e-03 -5.1504799529257508e-03
      -6.7896315117076103e-03 -1.0486686533333199e-03
      -9.5115982902549932e-04 1.7447227764387952e-03
      -1.3377828612986628e-03 1.9354980158524928e-03
      -5.5760273856156738e-03 2.4445396308166727e-03
      -2.1814132428816307e-03 -6.3255281841593904e-03
      6.4041265094440733e-03 -6.5863290856790864e-03
      4.7655768062351096e-03 -6.7041713798231012e-04
      -6.7529847880465899e-03 2.0556206056056604e-04
      -1.8000625235717954e-03 4.2053211247657643e-03
      3.4407666697482252e-03 7.3128588962578945e-03
      3.5328077913884194e-03 3.3452765722096910e-03
      4.2527794628755928e-03 -6.7825195187419139e-03
      8.0565193096572996e-04 -6.3716301111546719e-03
      -8.7442140105560941e-04 3.8782121771353908e-03
      7.5461948490015418e-03 -9.2315326262093630e-04
      -1.6874702950220161e-03 -5.6032055315448706e-03
      -5.8258859233287514e-03 -3.5068580940301533e-03
      -2.5374844602738108e-04 -6.5608734754658707e-03
      -7.1863507984143990e-04 -7.2854554766900725e-03
      1.5796240843394939e-03 2.2457272073870905e-03
      3.4351329702781261e-03 -5.5789711297625300e-03
      4.5581558257516168e-03 2.4156617162392939e-03
      -6.9330252424842208e-03 -3.5355988030937187e-03
      -3.0140414066141120e-03 5.0013394861634624e-03
      2.1667176478954164e-03 -4.2010625189838313e-04
      -7.7113052970060282e-03 3.3635032374765058e-03
      -6.3850032135306586e-03 5.2862089330955042e-03
      -5.4697605897522658e-03 -1.4765852064543586e-05
      -6.3187986888865290e-03 -7.0993361829434403e-03
      -1.5898377138117248e-03 7.3731647370318260e-03
      -5.2081777528604557e-04 1.1413790343271901e-04
      3.8023575978850866e-03 -2.7204863021338039e-03
      5.2233295528461713e-03 4.5326158265620708e-03
      -7.1921518816323938e-03 1.0098816850075240e-04
      4.0640530713342378e-03 4.4389440957125275e-03
      5.9047382851348730e-04 -2.4763434579987602e-03
      -2.1009574832394806e-03 2.1196090322507443e-03
      -1.1742930980740234e-03 2.1462442389897215e-03
      4.3965675798164636e-03 7.9820988286094883e-03
      1.9942391037100033e-03 -5.5959072708221041e-03
      2.2682916939796211e-03 5.8210386582476887e-03
      -4.0998166358188108e-03 -1.1665114139799591e-03
      1.0882393243328184e-03 7.1109312764102983e-03
      5.0887348203205581e-03 3.8481057552695991e-03
      2.3923139419527546e-03 -7.3680483976706337e-03
      6.1979838492773158e-03 7.5064508396653767e-03
      -6.6900829093865400e-03 3.3681892599730584e-03
      1.5536573937160059e-04 7.5346163877429255e-04
      2.0987961745195316e-03 -4.2983508803101471e-03
      -5.1919392388560161e-03 7.4115082985202292e-03
      3.9594618148994197e-03 -6.5932303413838295e-03
      9.3096788123442852e-04 -3.4129167706853031e-03
      -9.8380805501905428e-04 -5.9441175481349620e-04
      -7.6459368964882334e-03 -4.8102371143984319e-03
      3.5040085801457273e-03 3.0473444775665653e-03
      1.4588207173615456e-03 -3.4571298159529729e-03
      -3.6420483172377558e-03 2.3344355234186640e-03
      6.5783661648856915e-03 1.7226843395364952e-03
      3.1972301414544967e-03 -1.4729839241425775e-03
      -5.1149518687407499e-03 4.1665790090314952e-04
      1.5437039524757183e-03 3.1867997512032131e-03
      7.0664805668114105e-04 -4.1540558791819230e-04
      -5.1192003568592990e-03 -4.9033785271492096e-03
      -4.2641613844571422e-03 -3.0618545438394584e-03
      2.0523406824672933e-03 2.4314127957428878e-03
      -2.8532318837577279e-03 -4.3308326325500369e-04
      7.4432954180615150e-03 3.0609077650577141e-03
      5.9673381504143442e-03 5.3053371328314848e-03
      1.2212970302147606e-04 -4.0730785098680644e-03
      -5.5794196248869915e-03 -6.0634921681994103e-03
      1.2828738710040006e-03 -1.5931845823469548e-03
      -4.1617695937995903e-03 3.5730260494686223e-03
      5.3441468321548157e-03 7.0744961339533332e-03
      -2.6351720776604973e-03 -5.9025032431169076e-03
      6.9978481914821158e-03 3.8283193072222495e-03
      -4.3703927021572844e-03 -4.4498050385479914e-03
      -3.2286363927299306e-03 -1.1775162184094771e-03
      -3.4111642803098491e-03 -3.8825335664553449e-03
      -7.3335469312307295e-03 -2.0136350694914440e-04
      -5.8897694504684954e-03 -7.6149201207729245e-03
      4.3706837157185443e-04 2.1394388449294493e-03
      -4.2579417769503429e-03 7.2356168748615611e-03
      3.7240729266249787e-03 -6.8711548113337844e-04
      6.7318215184927364e-03 6.3777450195067423e-03
      -3.0514868185383797e-04 8.5202339047137264e-05
      -6.7477677667429686e-03 3.9715269045003405e-03
      -2.5578653208441931e-03 -5.1035950393141429e-03
      1.2535552212304100e-03 -2.3162328937528899e-03
      7.7596121630676045e-03 -5.1281790992487768e-03
      -7.1554045840084412e-03 8.4219425975052794e-04
      6.5095780189942248e-03 -6.0038492649611072e-03
      5.6697971975331529e-03 -2.7900905032418868e-03
      5.9833055203701397e-03 -7.4711362207974322e-03
      -6.1646897909752967e-03 -6.1515250484636286e-03
      -6.5632597174547433e-03 -7.6935258849344006e-03
      -8.2897730988502959e-04 -4.7029974561896793e-03
      -4.6365781087762056e-03 -3.3797342847089085e-03
      3.4000116922754098e-03 -3.5081460967955995e-03
      2.3132548505953960e-03 -6.6469402669849646e-04
      4.8350652867896584e-03 6.8550455209174304e-03
      3.6178381485149017e-03 7.5018861785153164e-03
      -2.8557121261048586e-03 -4.5163906438229979e-03
      -5.2333632585958578e-03 3.7777521879836847e-03
      3.9224610646306146e-03 3.6682705119872204e-03
      -4.1006305525292776e-03 -4.4781787860479622e-03
      3.9758826537338891e-03 2.8643489365423897e-03
      3.9352863887806887e-03 -7.1226731233323386e-03
      -5.6645208995832336e-03 7.3489213534146799e-03
      7.0248767503869785e-03 6.7689704298067536e-03
      -6.5881610628242999e-03 3.6075686324928318e-03
      3.7228780897087073e-03 2.3334291805028966e-03
      -5.0441867976145941e-03 6.4380008884608406e-03
      7.3351524555748749e-03 -1.1660001482980647e-03
      6.8572799206822882e-03 5.5584511187316806e-03
      -7.1569692677849297e-03 6.9154089519380324e-03
      6.9413980569159291e-03 -3.9033080576547684e-03
      -4.7653408351707761e-03 -3.7561360215880310e-03
      -3.9554395766264062e-03 -6.9668206628025050e-03
      -6.2406822687341530e-03 -2.3075313101219019e-03
      1.3387322360189293e-03 2.8222196373766488e-03
      6.8248682885315706e-03 -7.4862069545356966e-03
      5.5200018174002812e-03 1.1729291422236674e-03
      6.6096977930704594e-03 1.1495995505949269e-03
      -3.3571640603728141e-03 -5.3971380487631846e-03
      -6.2599438534844598e-03 -2.5192932574143062e-03
      3.1296419310805181e-03 2.7045322835755679e-03
      6.2244314492125655e-03 3.2044241668898448e-03
      3.0411446333483321e-03 4.6065052533026786e-03
      8.3391204997474236e-04 2.7849941183176181e-03
      -4.3032024305309840e-03 3.8996979451572508e-03
      -6.4870075044204016e-03 3.1104850406758196e-03
      6.7961616665361668e-03 1.5586247286363221e-03
      4.7999235058161158e-03 5.5379194605479597e-03
      -3.6659352048277875e-04 3.4878587300466767e-03
      7.5565541176402483e-03 1.0439563719561736e-04
      -6.7314579907371361e-03 6.7311616070191982e-03
      -1.0834961955298399e-03 -4.5447802083301153e-03
      -2.9633208306742297e-03 -1.8936087561036783e-03
      6.0806126976782459e-03 -3.0258840901904978e-03
      -3.1235051323597321e-03 6.2255477483675907e-03
      1.3252750360148141e-03 -5.9311835851292031e-04
      1.0235716590398520e-03 1.7739940766877127e-03
      -4.8156316085632154e-03 -1.1928927787110395e-03
      -1.5337933595219848e-03 5.2485165734490677e-03
      -1.3369192911807763e-03 6.5735026270076621e-03
      6.8884481040766632e-03 3.5478705112114302e-03
      -6.5571114923654978e-04 4.1637280467261700e-03
      -6.2721707102174409e-03 -6.1744367446903816e-03
      1.5576587913516396e-03 5.1891015083928239e-04
      7.5373237520986415e-03 6.9904459887295423e-03
      -4.9054895913381294e-03 6.8085261772621404e-03
      1.6706277747776635e-03 -5.6783007961005180e-04
      7.0043996831801120e-03 -6.4625969376937925e-03
      4.3940070898492835e-03 -2.5879065636397988e-04
      6.5804692572577353e-03 -5.2414142721286562e-03
      -5.5547417382870272e-03 -2.2877038990814129e-03
      6.4749067686416042e-03 -6.0364580460341571e-03
      -7.1541336265228484e-03 -3.0641224172326467e-03
      1.4961131509044296e-04 6.4446612001971999e-03
      1.0240139411488217e-03 1.0753202955373926e-03
      4.6289306970156490e-03 -5.1277264897305937e-03
      5.8259523675630379e-03 7.2904522220034983e-03
      3.3671531482982399e-03 2.6567007739087857e-03
      1.4836273673957811e-03 2.2709909677153146e-03
      -4.7275087212015282e-03 4.7113133133817311e-03
      1.8285128138530904e-03 5.1733669585274211e-03
      1.3298106644002738e-03 -2.8394604917042049e-03
      4.7473808407285925e-03 5.1418136948743884e-03
      4.3995559473737527e-03 4.6329213969083785e-03
      -3.3741022713726317e-03 -1.9538027163899714e-03
      4.9921504714361365e-03 3.5196342454912248e-03
      -1.5835564900644481e-03 -5.6086727410441604e-03
      -5.1977792725139494e-03 3.7054978697675669e-03
      -2.0751202054993543e-03 2.7420579249208109e-03
      1.7269983690096581e-03 6.9308261608656751e-03
      2.4326130164234907e-03 -9.2065174951908566e-04
      3.0301217947568812e-03 -2.9813212508934285e-04
      -6.3044063542148079e-03 -2.6535249150420404e-04
      7.0618576894155398e-03 -6.6433458948968686e-03
      3.7254068283478436e-03 -9.9721433233452552e-04
      5.3443938896125609e-03 -1.5373977449256013e-03
      -1.5879417010031974e-03 -7.3713269655484347e-03
      5.7949476769030258e-03 -6.7126509963140422e-03
      -6.6984866824761494e-03 4.1260253484595756e-03
      7.2940863344361556e-04 7.4105708611370774e-03
      7.2166349000431290e-03 -2.2266956496477691e-03
      -2.6501800447141129e-03 -3.9185455461862879e-03
      2.4065444929758551e-03 2.2692284521776962e-03
      -7.5046095716189776e-03 -1.3135745032113240e-03
      1.9365678795080147e-03 -6.3902397803929237e-03
      7.7110187139115957e-03 4.5855439359041459e-03
      -4.4928458850541277e-03 -2.9699764365505297e-03
      2.2638983793656621e-04 -3.6809403614333231e-03
      6.6636372369074052e-03 7.1551726947516043e-04
      1.0358616297857304e-03 -3.8599677383202545e-03
      -6.7688827528297297e+00 -1.4605755039044110e-01
      -7.2186566502784974e-02 2.9471000850024504e-01
      -2.0620726375760923e-01 -7.2685803206635868e-01
      -7.2207453998626839e-02 2.7854235292380553e-01
      2.4901695818010825e-03 -3.6083552776815170e-01
      7.2529728461798726e-02 1.7858446286352905e-01
      -3.7659315494713252e-01 3.7556393404036448e-01
      -3.6986281310199282e-01 -1.1992524805791642e+00
      2.2804281507266211e-01 1.8842513599072849e-01
      3.3464382306963569e-01 -3.0322618574305260e-01
      5.5318015805872738e-03 -7.5987926103568104e-01
      1.0378165295396178e+00 2.4873923485981581e-01
      2.8426608534989350e-01 -1.4073905292350645e-02
      1.8842864503848383e-01 -1.6355166231079449e-01
      -3.4282923876847171e-01 -2.1557013327464114e+00
      6.6499214066390600e-01 -9.1006049453149696e-01
      -1.1016844776668321e-01 1.9225114344141328e-01
      -5.6100882058631685e-01 -1.9774244367737079e-01
      5.5868482919206308e-01 -1.7146156532534075e-02
      -5.7440608751647937e-01 -4.6898589316142514e-01
      -6.8664398223017331e-01 -4.1950704983236936e-01
      -3.3433765599583481e-01 -2.1898195011383248e-01
      1.5148358937205755e-01 3.1148610580503761e-01
      2.3277941857133999e-01 -4.0678741951959967e-02
      3.1080801587856349e-01 -2.5005210762342112e-01
      -1.6075029967509397e-01 -3.1367334636237088e-01
      1.2153271589799654e-01 -1.2715997105863337e+00
      3.0803052272990056e-01 1.7924040817011253e-01
      -1.3293145629851724e-01 2.2342354689167607e-01
      3.7055831964791663e-01 -2.1780851092349363e-01
      -1.1890702267107913e+00 1.3621175006907366e-01
      1.2711607083245952e-01 3.6891026052956566e-01
      -1.8685547889910803e-01 1.7228553408140773e-01
      1.8382130108561492e-01 1.3423974224286822e-01
      -1.5418888821415760e-01 -5.1740056066016638e-01
      -6.2114764812097445e-01 -3.5359426549064976e-01
      -2.2818813485788431e-01 -8.9133729821941496e-02
      4.0289466291834392e-01 1.4012040960520480e-01
      -3.9564691775877220e-01 -1.5617584241428392e-01
      -1.0015713054368966e-01 8.3160889956273951e-02
      2.0078789175497719e-01 -7.0140972743290497e-01
      1.7721742079019065e-01 -5.7686555809508260e-02
      2.0196550790128576e-01 1.0215857801163450e+00
      -6.6313889812190802e-02 2.4647863081511456e-01
      -5.8534017439332608e-01 -3.7144160741582943e-01
      5.8375153844437817e-02 -8.1590132307049118e-02
      3.4124647995840340e-01 2.1665921525163956e-01
      -2.9988972173039991e-01 -6.1889909333976874e-02
      2.2202137777381947e-01 -3.0777410808449707e-01
      -3.7503521489462260e-02 -2.3726001682452899e-01
      -6.7663012095984172e+00 -1.5160560123018052e-01
      -8.1707250754716659e-02 2.9489426273906194e-01
      -2.0012236860274094e-01 -7.2425687908594005e-01
      -6.8064487910243249e-02 2.6481156650701915e-01
      6.9530249432955020e-03 -3.5316280526515520e-01
      7.4309412830302846e-02 1.7632879761162809e-01
      -3.7283350578097868e-01 3.6601334455529483e-01
      -3.5923646506659984e-01 -1.1973323225073962e+00
      2.2910742910618204e-01 1.8037740964821514e-01
      3.2315610981684023e-01 -3.0622105224730373e-01
      8.3252373297612800e-03 -7.5114489442052390e-01
      1.0290891410077341e+00 2.4556800727824474e-01
      2.8520870966063733e-01 -1.5974020443554175e-02
      1.9543125034464984e-01 -1.6657174298850141e-01
      -3.5334141934980001e-01 -2.1450538748651415e+00
      6.5800735670330990e-01 -9.0952898222109702e-01
      -1.1238064261678656e-01 1.8967235503748109e-01
      -5.5319875401581964e-01 -1.9286054831023616e-01
      5.6499216070514768e-01 -2.0343220259848263e-02
      -5.8370243717189996e-01 -4.7782198039181922e-01
      -6.9546431270865461e-01 -4.1254608425945943e-01
      -3.4072181705861770e-01 -2.1925892586190907e-01
      1.5310817758900847e-01 3.0967403705605290e-01
      2.2450888058814791e-01 -4.3233768826594084e-02
      2.9990147325535055e-01 -2.4657436388797854e-01
      -1.5732606830566848e-01 -3.1853420188123932e-01
      1.1711424569889882e-01 -1.2751676202102888e+00
      3.1518574826399198e-01 1.8410189537245689e-01
      -1.3450549089033273e-01 2.2579263729107649e-01
      3.6155658630527177e-01 -2.1369987002346347e-01
      -1.1919348103380862e+00 1.4051461199708354e-01
      1.2252208593976212e-01 3.7611749963542573e-01
      -1.8307017113603577e-01 1.8187936976628577e-01
      1.9272683241132293e-01 1.3427632940815870e-01
      -1.4963781985567068e-01 -5.3131218445513861e-01
      -6.2158531525117189e-01 -3.4062035592085516e-01
      -2.2091505095076355e-01 -9.0253267977029705e-02
      4.1234473059518317e-01 1.4251865621280599e-01
      -4.0207230622302742e-01 -1.5964960621081048e-01
      -9.9585273611418737e-02 8.3529756030784288e-02
      1.9208916965957110e-01 -7.1009321840536033e-01
      1.7347604730987073e-01 -5.0606509672531996e-02
      2.0501270947982228e-01 1.0182386697513905e+00
      -7.7328142371339434e-02 2.5916399744581209e-01
      -5.8053016604828578e-01 -3.6941752210428902e-01
      5.2264315799856111e-02 -8.6380336512919487e-02
      3.4565738559325310e-01 2.1717210048025881e-01
      -2.9605691178559468e-01 -6.5438450562391240e-02
      2.1812198911321407e-01 -3.0177911825462528e-01
      -3.2700920644526892e-02 -2.3806137372437636e-01
      2.3982149656899435e-03 -3.8154986752776871e-03
      1.2821594185055485e-03 -4.0452684687005977e-03
      4.7131959052538110e-03 -7.2912198811254285e-03
      -5.1844187756026512e-03 -1.0968140046899557e-03
      8.3584037983172740e-04 -2.3562177537187818e-04
      -3.9952551235017527e-03 8.5961370268391752e-04
      -7.7826741856517360e-03 4.6825516100117114e-03
      -2.5818531215658965e-03 -6.5462192792870152e-03
      -7.6913407627428527e-04 4.4451487356941613e-03
      3.5680494661463080e-03 -3.8027244694347926e-03
      3.4060203672892221e-03 -2.6703298586922232e-03
      5.9606237258606927e-03 -6.4049328969037599e-03
      6.5789607616193293e-03 -2.9642277525857111e-04
      -5.4168565327066117e-03 -2.8257675174946850e-03
      -1.5369153893051324e-03 -5.8242921134967294e-03
      -2.1127957514679467e-03 -3.1682488509945429e-04
      -2.3715573029114232e-03 5.3358171832956309e-03
      1.2759432167491714e-03 -3.6819842470620437e-04
      5.1924553895456374e-03 5.7351585957316001e-03
      2.4135164827612755e-03 -3.0841248565231707e-03
      2.0724943086686126e-03 1.3876645626426781e-03
      -6.4576975282618319e-03 -7.8487964171908339e-03
      1.6162430156841840e-04 -1.7886586234675868e-03
      -2.2349275493386092e-03 -4.9172332922404107e-03
      -5.3594043498861208e-03 1.9480312773000180e-03
      5.9273147453878482e-03 4.0774691443245447e-03
      -1.1093068935104596e-03 -2.4890428172830189e-03
      3.8927710313317572e-03 -7.0319098978844537e-03
      -2.7190836990875714e-03 4.8072811384249356e-03
      3.4571209373816651e-03 4.1649099380408686e-03
      2.7055779220206376e-03 -2.7386629676894401e-03
      2.4798776571551191e-03 -3.1871529249579999e-03
      -2.7755563704357218e-03 -6.8912024072283100e-03
      -1.5618347719301331e-03 7.2706895151933718e-03
      3.6662465303302139e-04 -7.4143258813267011e-03
      1.6335832131580354e-03 4.5315381690723524e-03
      5.1815209340616009e-03 7.5086267033235522e-03
      -7.1849976969773129e-03 -4.6658526306920705e-03
      -1.5286361952346148e-03 6.5180874375528547e-03
      -1.9470647415518758e-03 3.6614901599671679e-03
      8.4499325394827522e-04 -9.1443662933037690e-04
      -3.4204434655228559e-03 2.0504802156233017e-03
      5.2159268914198980e-03 2.9795093006953609e-04
      -4.6199155762135212e-04 6.9225190796459342e-03
      -2.6658197740488617e-03 2.3284180961197069e-03
      2.5865486280243414e-03 3.0912204616763269e-03
      -5.8910580834842458e-03 3.1687520590903662e-03
      1.4014969814941834e-03 -4.6440020653243912e-03
      5.7318952160051078e-03 -7.4601246417966630e-03
      1.2465755550813654e-03 -4.4246927968011563e-03
      -6.7666990374464984e+00 -1.3630563953326674e-01
      -6.8205011214398675e-02 2.8543233672853613e-01
      -2.0424478148032951e-01 -7.3038035172030047e-01
      -7.8676720666806699e-02 2.7216900191930499e-01
      6.0388473053177912e-04 -3.4827238658061666e-01
      7.0084953038898223e-02 1.7342079706179730e-01
      -3.7343000832410606e-01 3.7155195365821331e-01
      -3.6648378904941309e-01 -1.1945164364627294e+00
      2.2603410937138851e-01 1.7956302784287886e-01
      3.2048474845783670e-01 -3.0159491534341543e-01
      1.0556314224365364e-02 -7.5693191704507856e-01
      1.0370302663675930e+00 2.4514368192640318e-01
      2.8079114670605548e-01 -3.8183417988141002e-03
      1.8878490661563599e-01 -1.6732271560285905e-01
      -3.5091749022417640e-01 -2.1511116422020122e+00
      6.5546381240959073e-01 -9.0375048568185123e-01
      -1.0336555873669971e-01 1.9704804585215324e-01
      -5.4874597930868152e-01 -1.9234395385950323e-01
      5.6428163298233669e-01 -2.5715309422005412e-02
      -5.7359185640244714e-01 -4.7857630986470256e-01
      -6.8376410157996714e-01 -4.2209865502602978e-01
      -3.3424042636562323e-01 -2.1833847160439859e-01
      1.4867435400022316e-01 3.1023585345543503e-01
      2.2114648274179552e-01 -4.0395499896243810e-02
      3.0032482834235907e-01 -2.4459180783249423e-01
      -1.5908689725353786e-01 -3.0644874664729599e-01
      1.1672816637487270e-01 -1.2647128192290111e+00
      3.1275610563667705e-01 1.8160585230540863e-01
      -1.3222799794120757e-01 2.2189738756625202e-01
      3.6514768787070667e-01 -2.1424221906754515e-01
      -1.2028738175668165e+00 1.3191692765753338e-01
      1.2235449279726739e-01 3.7999793935759896e-01
      -1.8833407558547768e-01 1.7406747158522506e-01
      1.8772881588515328e-01 1.4314254509500562e-01
      -1.5586410672577763e-01 -5.2627604178926246e-01
      -6.2395072480778113e-01 -3.4314095555334673e-01
      -2.3436686070092708e-01 -9.6392778308287796e-02
      3.9985296483495203e-01 1.4239759091454060e-01
      -4.0528686537035979e-01 -1.5162399800434817e-01
      -9.8073765458691134e-02 7.6093880576811448e-02
      1.9746448930800900e-01 -7.0250236533229793e-01
      1.7251677610922359e-01 -5.8910175335541715e-02
      2.0419408542431741e-01 1.0183305044247715e+00
      -6.9776031105335840e-02 2.5002139609711604e-01
      -5.8742697177153924e-01 -3.7627612546504202e-01
      5.4537123483193652e-02 -7.9135135369758330e-02
      3.3345443380801787e-01 2.0714008696072506e-01
      -3.0202169898410269e-01 -5.4922152360830610e-02
      2.2125815615342642e-01 -3.0042473083580551e-01
      -3.7319633413712229e-02 -2.4009560139431618e-01
      5.2582653309940705e-03 -1.0675110729061507e-03
      5.7791731368454858e-03 6.3691096365660572e-03
      2.9712986781603543e-04 3.1604061800571829e-03
      4.8875138384258570e-03 3.3954529557041167e-03
      -1.7503400599222100e-03 5.1703098031679016e-03
      2.7428995977633267e-03 -3.9801872658258497e-03
      3.5828166505660229e-03 7.8245366499062816e-03
      -1.1962341534010359e-04 5.3461736826368792e-04
      6.6574583062148250e-03 -3.0348659700268534e-03
      5.1771842641048138e-04 4.1861520137680148e-03
      -7.7493625693514298e-03 7.3421845879971491e-03
      3.9694920582022571e-03 4.8282235299333511e-03
      -6.6066730167051949e-03 1.0590826573002052e-03
      -4.2420462495171623e-03 6.1194249279855183e-03
      -5.8918238408104144e-03 4.7232200345119360e-03
      -7.3619307591335122e-03 4.2501903779690849e-03
      -2.2557536565577171e-03 5.3143015504194344e-03
      -2.1798383572607920e-04 -6.0411368991259758e-03
      -5.1558275471113319e-03 -5.4416272221221758e-03
      5.2180174567578157e-03 6.7373417082453009e-03
      6.1178340183804022e-03 -6.7761097985896517e-03
      1.2680006653833470e-03 8.1421796496748567e-03
      5.8409087769899695e-03 -5.7989345617605430e-03
      -3.6976646797812966e-03 -7.1391240751135831e-03
      -7.1335391064246403e-03 1.9859499559256493e-03
      -3.0042595113390930e-03 5.3602016027680215e-03
      -1.4769820284977280e-03 3.8641901812586704e-03
      4.8069569534323316e-03 -4.8168959376852991e-03
      1.6404374406200092e-03 -4.2731576305436959e-03
      5.5777872258070378e-03 -7.2196476095471897e-03
      -4.4035236491882157e-03 4.5325691194159773e-03
      4.4402988230734285e-03 7.8437856022314668e-03
      1.4475580222969055e-03 -3.0001180204920820e-03
      6.4961079074865201e-03 2.0883205424993148e-03
      -5.2831698294056820e-03 -6.3838594975552465e-03
      6.8959365512905628e-03 -3.6025947381241523e-03
      -4.3672489492921299e-03 1.3596455619631427e-03
      1.5168307973069644e-04 -5.0672031679291406e-04
      3.7771841698471067e-03 -6.7363050674778789e-03
      1.7639323804904189e-03 7.2512269696627593e-03
      7.1341555788154223e-03 5.7311014314087132e-03
      5.5850023254965246e-04 -2.3465851095221114e-03
      -6.8537413628969339e-03 9.6756854030446168e-04
      -1.1166936154578884e-03 -6.0365980748501146e-04
      -7.1276038000201566e-03 2.2642222438672790e-03
      2.3405532980790753e-03 5.3174895076581559e-03
      -1.0517513472382580e-03 -5.5493406782317059e-03
      2.0635124944339070e-03 -1.9666352994865199e-04
      3.2624713053683980e-03 -8.6179806534192045e-04
      4.7470657764214427e-03 -7.8716217322961878e-03
      4.1801522728879036e-03 -3.3537100957329270e-03
      -5.1454786915457575e-03 3.9662633475805809e-03
      -2.0701995038261648e-03 -2.3034838827941276e-03
      2.8384350330214543e-03 -3.3080262746718919e-03
      5.8607541771592770e-03 -2.3394546103694832e-03
      -5.8312576087685454e-03 -3.8971814873350334e-03
      7.7540380287699469e-03 7.4258328526102466e-04
      3.2992865668297574e-04 7.6557821481872308e-04
      -7.4650268785290850e-03 6.5201662574005731e-03
      5.6590584767506899e-03 -2.7271365864631539e-04
      4.1503569318053022e-03 4.0544096778044733e-03
      6.6745431091777422e-03 -2.9707814285683492e-03
      -2.7744145688977659e-03 -3.2387011801675394e-03
      3.2347268198321278e-03 -1.9020372211011765e-03
      -3.4186711886072057e-03 4.8862475938423935e-03
      -2.5960144006554760e-03 5.9940440301740894e-04
      -1.4733726396833546e-03 1.7755319564989427e-03
      -3.7601352772828069e-03 7.4758165756911854e-03
      4.9286033383640765e-03 -3.8067174128536968e-03
      -6.3619799650862640e-04 7.3650174271393150e-03
      -1.2555167049223671e-03 -5.8761760002787357e-03
      -5.9406890400262374e-03 -7.8594448393410569e-03
      -7.1430069678451967e-03 7.1515292054581117e-03
      -2.4344358765330566e-03 4.4499847350827938e-03
      -2.9332768217423420e-03 3.1143801443862273e-03
      -6.2514003021272649e-03 6.3640143860555828e-03
      -1.2532673642553108e-03 5.7392733910062270e-03
      7.5462534735799608e-04 4.5837725450113562e-03
      -6.4008712917325000e-03 1.3656345964194121e-04
      -5.4283419923341729e-03 3.8641554674202299e-03
      2.0658324151254892e-03 -3.1723017669186490e-03
      4.0093771909111642e-03 7.3535500727053673e-03
      5.6824158104744442e-03 6.6113352411482169e-04
      4.4825934251281957e-03 -2.3914543224983023e-03
      1.4688908647547232e-03 4.9852703256677662e-03
      -7.4432740488723876e-03 1.4624841291251197e-03
      -2.5228657321755186e-03 -2.1360177060085694e-03
      -3.6627265966332726e-03 -2.0419319598571095e-03
      -3.6338695322727570e-04 -5.8794929576236202e-04
      2.1146834056923304e-03 -4.3805153934930248e-04
      -3.3812258772680601e-03 -7.2917668514474263e-03
      -2.2816897690289300e-04 -2.2594745985389806e-03
      -5.9971272363711515e-03 6.4758232510983968e-03
      -3.3946267833180995e-04 7.8497977692513869e-03
      4.5056375968051138e-03 -7.0679452933560174e-03
      -2.2657702393900659e-04 3.2592211046682407e-03
      -5.3045562324517508e-03 -3.1006429077784304e-03
      -6.8087657322879218e-03 9.2539144197706022e-04
      -1.8102847518517429e-03 2.8990993825391042e-03
      1.9835928752373129e-03 7.9136555607992943e-04
      6.5554842185609336e-03 5.6813098029397302e-03
      4.3961768196626927e-03 -2.2239957087443331e-03
      2.5186837173033338e-03 4.3373500003466865e-03
      3.6275371888093389e-03 6.8873690741517741e-04
      -3.5323890982742160e-03 -4.7465693581480208e-03
      -2.2633901966079444e-03 -1.5536335145842576e-03
      -3.9482267030607087e-04 -2.4785126963879807e-03
      5.0352499556006328e-03 2.6784962041448627e-03
      2.2609698839044061e-03 3.1569835501805846e-03
      1.5818909759560903e-03 -8.9722355324035473e-04
      2.4743775834096639e-04 -2.1152290835286750e-03
      -1.6952051899220262e-03 -2.8276672112102757e-03
      -5.5186311729423440e-03 7.2073669260711128e-03
      -2.8884979306006350e-03 1.1130786402900640e-03
      4.6616982607325099e-03 -1.1698688988206148e-03
      -5.3694171953654777e-03 -2.9872656511399716e-03
      -1.0373038464026301e-03 -6.4556028550960716e-03
      6.8144334187867882e-03 -2.2919605333939228e-03
      5.4616216245843459e-03 -8.9113400794515096e-04
      -4.2683832527466411e-03 -6.2296361238465599e-03
      5.4357848130363717e-03 -1.9979790730318496e-04
      1.5293096900807694e-03 3.0982267501838876e-03
      3.3741084115039496e-03 1.0947527128096206e-03
      -5.6782121502074916e-03 2.2263925888746931e-03
      6.0717133456939768e-04 -4.4399771132868854e-03
      -3.2686530008177537e-03 -1.7844715092987548e-04
      -4.2902480030118156e-03 5.4657609746582864e-03
      5.9999851941600615e-03 -4.9477533806583859e-03
      -5.6313059294566589e-03 3.2802795604258707e-03
      8.7804920884454582e-04 4.7801485205937093e-03
      -7.3030146046636655e-03 -3.3070421726691786e-04
      -1.1209573186025457e-03 -3.6276967792518966e-03
      1.3389262118404825e-03 1.7217126835035896e-04
      -6.5415098285189421e-04 4.5531790886942916e-03
      6.1704645149300869e-03 1.6578614545743899e-03
      4.3350829881719337e-03 -1.6378994393247187e-03
      4.2602336820247690e-04 -4.5210666828942479e-03
      4.0040420662153849e-03 5.6760533796962739e-03
      7.4917523778443833e-03 3.6897916937045205e-03
      5.7236225747670075e-04 5.7688409450322477e-03
      1.4699102811582556e-03 -5.1492842876844887e-03
      -5.4593573800824930e-03 -7.2548844438242001e-03
      -6.7115785478997830e-03 3.8127809253403733e-03
      -4.6317284668564301e-03 -5.2351253715102715e-03
      3.3945550530289376e-03 6.9105532328586679e-03
      -6.2121495227967140e-03 -4.8189317452972009e-03
      -5.7501753326007236e-03 -6.4720519345192401e-03
      -3.6962575932390366e-03 6.8248146250511925e-03
      6.5549085692954449e-03 6.4838657569613939e-03
      6.2769567615135659e-03 8.2667901876816983e-04
      4.5717871993566596e-03 5.3143381343638465e-03
      5.6847880644009564e-03 7.1761700766000648e-03
      4.6827332884301649e-03 -3.1152058183253847e-03
      6.4222562653704820e-03 -7.7241796471306150e-03
      -3.0253102819659487e-03 -2.5274026824707594e-03
      -7.6456733395918143e-03 5.5783675827391459e-03
      3.6563933631444971e-03 7.0858067818832535e-03
      4.7789325373843490e-04 2.8991393368547141e-03
      -6.9891886352700903e-03 -3.0950691463382139e-03
      2.6571943927436621e-03 6.4204992880043045e-04
      -7.4872259976926873e-03 7.0318411869992369e-03
      -3.7179200560878119e-03 6.2009810190375716e-04
      -3.5095293169499619e-03 4.9483937542053446e-03
      -2.0342999284798089e-03 3.3002030131988928e-03
      9.1862406009553593e-06 -7.3034425619888481e-03
      8.9737980093222963e-04 2.7238733148559507e-03
      2.5365486047335410e-03 -1.5296431358404962e-03
      7.8167977726906826e-03 3.9024893030504245e-03
      2.0680026936245113e-03 5.0188056443279967e-03
      -3.9265692913037446e-03 -7.0356164866032201e-03
      5.6915074978410637e-03 -7.0466095893356954e-03
      1.7579289691978549e-04 5.8903945918669393e-03
      -4.1192421552422032e-03 -3.2457736722667041e-03
      2.4285473600334185e-03 4.5760592948893911e-03
      -2.6186334095873358e-03 5.3807460512096325e-03
      3.1653872551488365e-03 6.1707698300010189e-03
      1.1536475829250570e-03 7.7455924930188332e-03
      -5.7227197354256347e-03 5.8245895924183538e-04
      -6.2690723450180910e-03 -6.7837421451610253e-03
      5.8275275197252480e-03 1.9637041557960047e-03
      -4.5145975298132793e-04 1.6063957242020942e-03
      6.7886523772600826e-03 -5.6149771243776308e-03
      1.7470724132500847e-03 5.7471137809866077e-03
      -9.9664561157412814e-04 7.2490277959724389e-03
      5.3119450603011497e-03 4.3460960535966235e-03
      1.3115756754085441e-03 4.0696097510472352e-04
      4.9096505175287332e-03 6.5249422731750257e-03
      4.6467105593112719e-03 1.6178095335671215e-03
      -3.8075406078351155e-03 -4.7493398883945411e-03
      1.1987562983897081e-04 9.2625549701125644e-04
