<?xml version="1.0"?>
<opencv_storage>
<SimpleOcr type_id="opencv-ml-ann-mlp">
  <layer_sizes type_id="opencv-matrix">
    <rows>1</rows>
    <cols>5</cols>
    <dt>i</dt>
    <data>
      256 40 40 40 95</data></layer_sizes>
  <activation_function>SIGMOID_SYM</activation_function>
  <f_param1>6.6666666666666663e-01</f_param1>
  <f_param2>1.7159000000000000e+00</f_param2>
  <min_val>-9.4999999999999996e-01</min_val>
  <max_val>9.4999999999999996e-01</max_val>
  <min_val1>-9.7999999999999998e-01</min_val1>
  <max_val1>9.7999999999999998e-01</max_val1>
  <training_params>
    <train_method>BACKPROP</train_method>
    <dw_scale>1.0000000000000000e-02</dw_scale>
    <moment_scale>1.0000000000000000e-02</moment_scale>
    <term_criteria><epsilon>9.9999999747524271e-07</epsilon>
      <iterations>1</iterations></term_criteria></training_params>
  <input_scale>
    1. 0. 1. 0. 1. 0. 1. 0. 1. 0. 1. 0. 1. 0. 1. 0. 1. 0. 1. 0. 1. 0. 1.
    0. 1. 0. 1. 0. 1. 0. 1. 0. 1. 0. 1. 0. 1. 0. 1. 0. 1. 0. 1. 0. 1. 0.
    2.1774448532130083e-01 -1.0314212462587934e-01
    3.8425497409641324e-02 -1.0314212462587934e-01 1. 0.
    3.8425497409641324e-02 -1.0314212462587934e-01 1. 0. 1. 0. 1. 0. 1.
    0. 1. 0. 1. 0. 1. 0. 1. 0. 1. 0. 1. 0. 1. 0. 1. 0.
    4.6654502068013567e-02 -1.9594890868565698e-01
    3.6778219854863729e-02 -1.3162731316477547e-01
    3.5320217308103155e-02 -1.3644757633761956e-01
    3.3654244103748267e-02 -1.6154037169799168e-01
    9.3628373055804293e-02 -1.3206528409976606e-01
    2.7995719541310105e-01 -1.0314212462587932e-01 1. 0. 1. 0. 1. 0. 1.
    0. 1. 0. 2.7995719541310105e-01 -1.0314212462587932e-01
    5.4355992096430647e-02 -1.2759353934214773e-01
    2.4514724207898599e-02 -2.3817989940937273e-01
    1.5547668058768302e-02 -2.9426007547016214e-01
    1.4589871367384774e-02 -3.3648850700989519e-01
    1.2634206448367687e-02 -3.8567577579227674e-01
    1.2969680792403885e-02 -4.3523518280193252e-01
    1.6207254061744298e-02 -3.4922367436200608e-01
    1.8590384356416349e-02 -2.9333669631861164e-01
    1.7412420053417303e-02 -2.6576851660479045e-01
    3.1340019551626443e-02 -1.6230831178316010e-01 1. 0. 1. 0. 1. 0. 1.
    0. 1. 0. 3.3668418666706480e-02 -1.4105295399314924e-01
    2.2250999340092833e-02 -2.1993356189839125e-01
    1.4587098568312673e-02 -3.6222068971210097e-01
    1.3278013385721391e-02 -4.6459069993829366e-01
    1.0981069206289064e-02 -4.6432584212277017e-01
    9.6076395708785938e-03 -6.0689942173518363e-01
    9.2696963568857892e-03 -6.7580965229253653e-01
    9.3886937923049075e-03 -6.7509649784457704e-01
    1.1192046814645765e-02 -5.2567276723104628e-01
    1.7430641038858059e-02 -3.2200815813890415e-01
    6.2194088959948934e-02 -1.4664711502135327e-01 1. 0. 1. 0. 1. 0. 1.
    0. 1. 0. 4.2976307418682698e-02 -1.6285758600763969e-01
    2.2948705021520754e-02 -2.2852078895114350e-01
    1.3523715239127520e-02 -3.4407178666285493e-01
    1.2315199121752182e-02 -4.3880998975927510e-01
    1.1197075583570944e-02 -5.3698817219736028e-01
    1.0180881971817898e-02 -5.4944612494221434e-01
    9.5178613216738220e-03 -5.7758390020473249e-01
    1.2902579133508955e-02 -4.8893984084876035e-01
    1.0504422960051640e-02 -5.1803391124044140e-01
    1.5623244900996161e-02 -3.3992891800377961e-01
    1.2725327064231867e-01 -1.0314212462587934e-01 1. 0. 1. 0. 1. 0. 1.
    0. 1. 0. 3.8425497409641324e-02 -1.0314212462587934e-01
    3.0569746087384206e-02 -2.1205750180617045e-01
    1.4445373052769210e-02 -3.1734203748557205e-01
    1.3434657245064126e-02 -3.9002931244091432e-01
    9.4790769855205657e-03 -6.3070784868921581e-01
    9.2879229789796843e-03 -6.4272427014539413e-01
    9.5717723315090885e-03 -6.1642213814918534e-01
    9.4986139683880116e-03 -6.6110353219980555e-01
    1.2033863707880460e-02 -4.9250170627620238e-01
    1.7095805668819061e-02 -2.8864918202932394e-01
    7.1003636517815480e-02 -1.0314212462587934e-01 1. 0. 1. 0. 1. 0. 1.
    0. 1. 0. 3.6815306831209350e-02 -1.2943486822762024e-01
    1.9442931144994419e-02 -2.2819861291230292e-01
    1.4731752601568686e-02 -3.1401893703343775e-01
    1.1353271043630176e-02 -4.5699903653517671e-01
    9.5251358992377178e-03 -6.1833171674314746e-01
    8.5199286899744070e-03 -7.3468690345547727e-01
    8.3766239996037172e-03 -7.8405200636290784e-01
    9.3515141312218823e-03 -7.0352917364045042e-01
    1.1559656500114536e-02 -4.7589280602050477e-01
    1.6715688402702173e-02 -2.7431324441908095e-01
    3.2374416904897577e-02 -1.9492806810106753e-01 1. 0. 1. 0. 1. 0. 1.
    0. 1. 0. 1.3064669119278050e-01 -1.0314212462587934e-01
    1.8492720949769427e-02 -2.6337527836882141e-01
    1.3825246793404066e-02 -3.3617179045014095e-01
    1.2187084841899176e-02 -4.0948605068781235e-01
    9.4462477324619518e-03 -6.2186140335596896e-01
    8.3483658964640748e-03 -8.0109161591754219e-01
    8.5050168142961676e-03 -7.3734019455308664e-01
    8.9079515290535812e-03 -6.5843826986330789e-01
    1.0543534578334708e-02 -6.0064851724155199e-01
    1.2131084725278889e-02 -3.9177018881216458e-01
    3.8422241398815123e-02 -1.0596449733146908e-01
    4.0997915646270026e-02 -1.0314212462587932e-01 1. 0. 1. 0. 1. 0. 1.
    0. 1. 0. 2.3007248009266189e-02 -2.5283754654393581e-01
    1.2286977046245668e-02 -4.1491181436164321e-01
    1.0074671674410830e-02 -5.4891053249211008e-01
    9.4347306212830568e-03 -6.5189022945370512e-01
    8.5729009589984688e-03 -7.4376683899016183e-01
    8.7068007556615513e-03 -7.4475224147900809e-01
    9.6208807112458591e-03 -6.3285140594289868e-01
    1.1494014028157657e-02 -4.9738833336585403e-01
    1.6183517643295942e-02 -3.3763928388434267e-01
    3.2658546065801826e-02 -1.8048143878469430e-01
    2.0413545498871952e-01 -1.0314212462587934e-01 1. 0. 1. 0. 1. 0.
    6.5323345596390248e-01 -1.0314212462587934e-01
    3.6775464065034236e-02 -1.2968189959775231e-01
    2.8063365175194418e-02 -2.1534940223912349e-01
    1.2575237143757270e-02 -4.0399603960786518e-01
    1.1271077470187140e-02 -4.7694454137002429e-01
    9.6149067108132272e-03 -6.1444314359312735e-01
    9.1089946391902966e-03 -6.9976255659800835e-01
    9.2928856859251837e-03 -7.0224869830796732e-01
    1.0189403075614714e-02 -6.6853209863480534e-01
    1.1976672810303204e-02 -5.2508255005171423e-01
    1.5300985828753484e-02 -3.4709078379961855e-01
    2.1565245456222761e-02 -2.2427855274471672e-01
    2.7279147973889330e-02 -1.5362467543190308e-01 1. 0. 1. 0. 1. 0.
    3.8425497409641324e-02 -1.0314212462587934e-01 1. 0.
    3.2912992824026932e-02 -1.6595077434430422e-01
    1.4647876532916531e-02 -3.2225328372416367e-01
    1.0942066574469530e-02 -4.8467595942492403e-01
    1.0164907295278912e-02 -6.3857017619183731e-01
    9.4804446618725093e-03 -7.0334919975660470e-01
    8.9678203178573616e-03 -7.5225852750531907e-01
    9.4212798162174784e-03 -6.8110894502928043e-01
    1.0429616301063243e-02 -5.4585318156722573e-01
    1.6325156869259526e-02 -3.2220704347222751e-01
    2.5360221758333364e-02 -1.8739869130894760e-01
    3.7909881595390611e-02 -1.1971541556439140e-01 1. 0. 1. 0. 1. 0.
    4.6659532568850176e-01 -1.0314212462587934e-01
    1.2725327064231867e-01 -1.0314212462587934e-01
    5.1056500192625330e-02 -1.8057877962865379e-01
    2.1522293869527091e-02 -2.6053303105217002e-01
    1.6279655660131554e-02 -3.0588616161405080e-01
    1.2164988810054780e-02 -4.7353819599560604e-01
    1.1523240812537245e-02 -4.6044444341464613e-01
    1.0603549010684834e-02 -5.5082646702873317e-01
    1.1307139241716313e-02 -5.0096577966719957e-01
    1.3156410293815892e-02 -4.3887014969581645e-01
    2.3948187559515187e-02 -2.7754688950553918e-01
    4.1976365787500601e-02 -1.4051036126763361e-01
    2.7995719541310105e-01 -1.0314212462587932e-01 1. 0. 1. 0. 1. 0. 1.
    0. 1. 0. 8.4446813158646827e-02 -1.2978141811749933e-01
    3.2202235344173429e-02 -1.8168840152081006e-01
    2.2635225267797432e-02 -2.2015734892047187e-01
    2.1311674204074375e-02 -2.5461842338552015e-01
    1.9102266866067405e-02 -2.6521989469834639e-01
    2.1321100399447845e-02 -2.4822249517672965e-01
    1.8939710102498074e-02 -2.8070644025597147e-01
    2.3746005070692015e-02 -2.0146610617871333e-01
    3.6341828325334474e-02 -1.4536731330133790e-01
    2.7995719541310105e-01 -1.0314212462587932e-01 1. 0. 1. 0. 1. 0. 1.
    0. 1. 0. 1. 0. 4.6659532568850176e-01 -1.0314212462587934e-01
    8.8274791346473300e-02 -1.0314212462587934e-01 1. 0.
    3.8425497409641324e-02 -1.0314212462587934e-01
    3.0961886931647815e-02 -1.4633565507694599e-01
    2.4664906794747726e-02 -1.8018363490057812e-01
    2.7316619464761889e-02 -1.4664711502135330e-01 1. 0. 1. 0. 1. 0. 1.
    0. 1. 0. 1. 0. 1. 0. 1. 0. 1. 0. 1. 0. 1. 0. 1. 0.
    7.5373091072757981e-01 -1.0314212462587935e-01
    2.7316619464761889e-02 -1.4664711502135330e-01
    6.5323345596390248e-01 -1.0314212462587934e-01
    6.1240636496615863e-01 -1.0314212462587935e-01 1. 0. 1. 0. 1. 0. 1.
    0. 1. 0. 1. 0.</input_scale>
  <output_scale>
    5.2631578947368418e-01 4.9999999999999994e-01 5.2631578947368418e-01
    4.9999999999999994e-01 5.2631578947368418e-01 4.9999999999999994e-01
    5.2631578947368418e-01 4.9999999999999994e-01 5.2631578947368418e-01
    4.9999999999999994e-01 5.2631578947368418e-01 4.9999999999999994e-01
    5.2631578947368418e-01 4.9999999999999994e-01 5.2631578947368418e-01
    4.9999999999999994e-01 5.2631578947368418e-01 4.9999999999999994e-01
    5.2631578947368418e-01 4.9999999999999994e-01 5.2631578947368418e-01
    4.9999999999999994e-01 5.2631578947368418e-01 4.9999999999999994e-01
    5.2631578947368418e-01 4.9999999999999994e-01 5.2631578947368418e-01
    4.9999999999999994e-01 5.2631578947368418e-01 4.9999999999999994e-01
    5.2631578947368418e-01 4.9999999999999994e-01 5.2631578947368418e-01
    4.9999999999999994e-01 5.2631578947368418e-01 4.9999999999999994e-01
    5.2631578947368418e-01 4.9999999999999994e-01 5.2631578947368418e-01
    4.9999999999999994e-01 5.2631578947368418e-01 4.9999999999999994e-01
    5.2631578947368418e-01 4.9999999999999994e-01 5.2631578947368418e-01
    4.9999999999999994e-01 5.2631578947368418e-01 4.9999999999999994e-01
    5.2631578947368418e-01 4.9999999999999994e-01 5.2631578947368418e-01
    4.9999999999999994e-01 5.2631578947368418e-01 4.9999999999999994e-01
    5.2631578947368418e-01 4.9999999999999994e-01 5.2631578947368418e-01
    4.9999999999999994e-01 5.2631578947368418e-01 4.9999999999999994e-01
    5.2631578947368418e-01 4.9999999999999994e-01 5.2631578947368418e-01
    4.9999999999999994e-01 5.2631578947368418e-01 4.9999999999999994e-01
    5.2631578947368418e-01 4.9999999999999994e-01 5.2631578947368418e-01
    4.9999999999999994e-01 5.2631578947368418e-01 4.9999999999999994e-01
    5.2631578947368418e-01 4.9999999999999994e-01 5.2631578947368418e-01
    4.9999999999999994e-01 5.2631578947368418e-01 4.9999999999999994e-01
    5.2631578947368418e-01 4.9999999999999994e-01 5.2631578947368418e-01
    4.9999999999999994e-01 5.2631578947368418e-01 4.9999999999999994e-01
    5.2631578947368418e-01 4.9999999999999994e-01 5.2631578947368418e-01
    4.9999999999999994e-01 5.2631578947368418e-01 4.9999999999999994e-01
    5.2631578947368418e-01 4.9999999999999994e-01 5.2631578947368418e-01
    4.9999999999999994e-01 5.2631578947368418e-01 4.9999999999999994e-01
    5.2631578947368418e-01 4.9999999999999994e-01 5.2631578947368418e-01
    4.9999999999999994e-01 5.2631578947368418e-01 4.9999999999999994e-01
    5.2631578947368418e-01 4.9999999999999994e-01 5.2631578947368418e-01
    4.9999999999999994e-01 5.2631578947368418e-01 4.9999999999999994e-01
    5.2631578947368418e-01 4.9999999999999994e-01 5.2631578947368418e-01
    4.9999999999999994e-01 5.2631578947368418e-01 4.9999999999999994e-01
    5.2631578947368418e-01 4.9999999999999994e-01 5.2631578947368418e-01
    4.9999999999999994e-01 5.2631578947368418e-01 4.9999999999999994e-01
    5.2631578947368418e-01 4.9999999999999994e-01 5.2631578947368418e-01
    4.9999999999999994e-01 5.2631578947368418e-01 4.9999999999999994e-01
    5.2631578947368418e-01 4.9999999999999994e-01 5.2631578947368418e-01
    4.9999999999999994e-01 5.2631578947368418e-01 4.9999999999999994e-01
    5.2631578947368418e-01 4.9999999999999994e-01 5.2631578947368418e-01
    4.9999999999999994e-01 5.2631578947368418e-01 4.9999999999999994e-01
    5.2631578947368418e-01 4.9999999999999994e-01 5.2631578947368418e-01
    4.9999999999999994e-01 5.2631578947368418e-01 4.9999999999999994e-01
    5.2631578947368418e-01 4.9999999999999994e-01 5.2631578947368418e-01
    4.9999999999999994e-01 5.2631578947368418e-01 4.9999999999999994e-01
    5.2631578947368418e-01 4.9999999999999994e-01 5.2631578947368418e-01
    4.9999999999999994e-01 5.2631578947368418e-01 4.9999999999999994e-01
    5.2631578947368418e-01 4.9999999999999994e-01 5.2631578947368418e-01
    4.9999999999999994e-01 5.2631578947368418e-01 4.9999999999999994e-01
    5.2631578947368418e-01 4.9999999999999994e-01 5.2631578947368418e-01
    4.9999999999999994e-01 5.2631578947368418e-01 4.9999999999999994e-01
    5.2631578947368418e-01 4.9999999999999994e-01 5.2631578947368418e-01
    4.9999999999999994e-01 5.2631578947368418e-01 4.9999999999999994e-01
    5.2631578947368418e-01 4.9999999999999994e-01 5.2631578947368418e-01
    4.9999999999999994e-01 5.2631578947368418e-01 4.9999999999999994e-01
    5.2631578947368418e-01 4.9999999999999994e-01 5.2631578947368418e-01
    4.9999999999999994e-01 5.2631578947368418e-01 4.9999999999999994e-01
    5.2631578947368418e-01 4.9999999999999994e-01 5.2631578947368418e-01
    4.9999999999999994e-01</output_scale>
  <inv_output_scale>
    1.8999999999999999e+00 -9.4999999999999996e-01
    1.8999999999999999e+00 -9.4999999999999996e-01
    1.8999999999999999e+00 -9.4999999999999996e-01
    1.8999999999999999e+00 -9.4999999999999996e-01
    1.8999999999999999e+00 -9.4999999999999996e-01
    1.8999999999999999e+00 -9.4999999999999996e-01
    1.8999999999999999e+00 -9.4999999999999996e-01
    1.8999999999999999e+00 -9.4999999999999996e-01
    1.8999999999999999e+00 -9.4999999999999996e-01
    1.8999999999999999e+00 -9.4999999999999996e-01
    1.8999999999999999e+00 -9.4999999999999996e-01
    1.8999999999999999e+00 -9.4999999999999996e-01
    1.8999999999999999e+00 -9.4999999999999996e-01
    1.8999999999999999e+00 -9.4999999999999996e-01
    1.8999999999999999e+00 -9.4999999999999996e-01
    1.8999999999999999e+00 -9.4999999999999996e-01
    1.8999999999999999e+00 -9.4999999999999996e-01
    1.8999999999999999e+00 -9.4999999999999996e-01
    1.8999999999999999e+00 -9.4999999999999996e-01
    1.8999999999999999e+00 -9.4999999999999996e-01
    1.8999999999999999e+00 -9.4999999999999996e-01
    1.8999999999999999e+00 -9.4999999999999996e-01
    1.8999999999999999e+00 -9.4999999999999996e-01
    1.8999999999999999e+00 -9.4999999999999996e-01
    1.8999999999999999e+00 -9.4999999999999996e-01
    1.8999999999999999e+00 -9.4999999999999996e-01
    1.8999999999999999e+00 -9.4999999999999996e-01
    1.8999999999999999e+00 -9.4999999999999996e-01
    1.8999999999999999e+00 -9.4999999999999996e-01
    1.8999999999999999e+00 -9.4999999999999996e-01
    1.8999999999999999e+00 -9.4999999999999996e-01
    1.8999999999999999e+00 -9.4999999999999996e-01
    1.8999999999999999e+00 -9.4999999999999996e-01
    1.8999999999999999e+00 -9.4999999999999996e-01
    1.8999999999999999e+00 -9.4999999999999996e-01
    1.8999999999999999e+00 -9.4999999999999996e-01
    1.8999999999999999e+00 -9.4999999999999996e-01
    1.8999999999999999e+00 -9.4999999999999996e-01
    1.8999999999999999e+00 -9.4999999999999996e-01
    1.8999999999999999e+00 -9.4999999999999996e-01
    1.8999999999999999e+00 -9.4999999999999996e-01
    1.8999999999999999e+00 -9.4999999999999996e-01
    1.8999999999999999e+00 -9.4999999999999996e-01
    1.8999999999999999e+00 -9.4999999999999996e-01
    1.8999999999999999e+00 -9.4999999999999996e-01
    1.8999999999999999e+00 -9.4999999999999996e-01
    1.8999999999999999e+00 -9.4999999999999996e-01
    1.8999999999999999e+00 -9.4999999999999996e-01
    1.8999999999999999e+00 -9.4999999999999996e-01
    1.8999999999999999e+00 -9.4999999999999996e-01
    1.8999999999999999e+00 -9.4999999999999996e-01
    1.8999999999999999e+00 -9.4999999999999996e-01
    1.8999999999999999e+00 -9.4999999999999996e-01
    1.8999999999999999e+00 -9.4999999999999996e-01
    1.8999999999999999e+00 -9.4999999999999996e-01
    1.8999999999999999e+00 -9.4999999999999996e-01
    1.8999999999999999e+00 -9.4999999999999996e-01
    1.8999999999999999e+00 -9.4999999999999996e-01
    1.8999999999999999e+00 -9.4999999999999996e-01
    1.8999999999999999e+00 -9.4999999999999996e-01
    1.8999999999999999e+00 -9.4999999999999996e-01
    1.8999999999999999e+00 -9.4999999999999996e-01
    1.8999999999999999e+00 -9.4999999999999996e-01
    1.8999999999999999e+00 -9.4999999999999996e-01
    1.8999999999999999e+00 -9.4999999999999996e-01
    1.8999999999999999e+00 -9.4999999999999996e-01
    1.8999999999999999e+00 -9.4999999999999996e-01
    1.8999999999999999e+00 -9.4999999999999996e-01
    1.8999999999999999e+00 -9.4999999999999996e-01
    1.8999999999999999e+00 -9.4999999999999996e-01
    1.8999999999999999e+00 -9.4999999999999996e-01
    1.8999999999999999e+00 -9.4999999999999996e-01
    1.8999999999999999e+00 -9.4999999999999996e-01
    1.8999999999999999e+00 -9.4999999999999996e-01
    1.8999999999999999e+00 -9.4999999999999996e-01
    1.8999999999999999e+00 -9.4999999999999996e-01
    1.8999999999999999e+00 -9.4999999999999996e-01
    1.8999999999999999e+00 -9.4999999999999996e-01
    1.8999999999999999e+00 -9.4999999999999996e-01
    1.8999999999999999e+00 -9.4999999999999996e-01
    1.8999999999999999e+00 -9.4999999999999996e-01
    1.8999999999999999e+00 -9.4999999999999996e-01
    1.8999999999999999e+00 -9.4999999999999996e-01
    1.8999999999999999e+00 -9.4999999999999996e-01
    1.8999999999999999e+00 -9.4999999999999996e-01
    1.8999999999999999e+00 -9.4999999999999996e-01
    1.8999999999999999e+00 -9.4999999999999996e-01
    1.8999999999999999e+00 -9.4999999999999996e-01
    1.8999999999999999e+00 -9.4999999999999996e-01
    1.8999999999999999e+00 -9.4999999999999996e-01
    1.8999999999999999e+00 -9.4999999999999996e-01
    1.8999999999999999e+00 -9.4999999999999996e-01
    1.8999999999999999e+00 -9.4999999999999996e-01
    1.8999999999999999e+00 -9.4999999999999996e-01
    1.8999999999999999e+00 -9.4999999999999996e-01</inv_output_scale>
  <weights>
    <_>
      -7.0663511885764698e-03 -3.1319616385449660e-03
      -8.2230975538369637e-04 -6.5059386202973336e-03
      -7.6566506050802204e-03 -2.5135917027173738e-03
      7.3853611719644219e-03 7.9154135231619127e-03
      -6.6065326771522596e-03 5.6815807848128097e-03
      -2.8859582044450205e-03 -1.4997155772638029e-04
      -3.8116735313184925e-03 1.6491189986482799e-03
      2.4628472888740698e-03 -7.0593483148477399e-03
      -4.5206809314938363e-04 -7.7769797901344993e-03
      -6.4497761595361551e-03 4.2831237567853295e-03
      5.6025261815212894e-03 -4.8991868525682441e-03
      5.8367898434421808e-05 3.9876540885075565e-03
      7.6861190505569357e-04 -6.5647332279186794e-05
      4.9932421910389539e-03 -1.8716054694214986e-03
      7.2533921507402328e-03 -7.0378466135009405e-03
      -2.0601282147366621e-03 7.1535648194627627e-03
      -2.2263523161520052e-03 -6.6790669027169654e-03
      -7.1109729836221127e-03 -1.9057486222298938e-03
      -1.1850566750871547e-03 -4.5729120152022337e-03
      1.3841531769830692e-04 -2.3453345990381968e-03
      6.0334746755879316e-03 -5.7407652723476363e-04
      -2.2347291697526179e-04 1.3823718927301846e-03
      -1.3648459855269699e-03 -5.8032754119277516e-03
      5.8545022955124922e-03 8.3835706630365631e-03
      5.0982784479872492e-03 3.4279400634000794e-03
      -2.4291674705546099e-03 -5.1657657548539182e-03
      7.9366060063911399e-03 -7.8096636126078062e-03
      7.6695606802876888e-03 2.0798036161872414e-04
      -3.3431628171232894e-03 -4.7783069655159150e-03
      6.4689330789815570e-03 -3.6727117020537671e-03
      -8.0998801691532819e-03 -5.0899051539710317e-03
      -7.6677159739082363e-04 -1.8007499537683171e-03
      -6.9888822840523963e-03 7.6975794736350083e-04
      8.3975144073257534e-04 -7.7862858268584994e-04
      -2.0667080453406093e-03 6.3302019852272693e-03
      1.5752390204636401e-03 -6.0632292577625308e-03
      6.4588859098609367e-03 -1.0563778108266583e-03
      4.7863533137555347e-03 1.9450094578259271e-03
      4.3654308586884389e-03 7.5994999499338798e-03
      4.7171756359229190e-03 -7.2286009403493374e-03
      6.5761592357520869e-03 3.6757756851955965e-03
      1.9119944212550929e-03 -6.4081608281463503e-04
      1.2250403993621840e-04 -1.6654981125980119e-03
      -6.1148443659441686e-03 6.8960908474606361e-03
      -2.2653977211049255e-03 7.7156064109148124e-04
      -1.8683093333959810e-03 -3.6364007152303005e-03
      -3.9721893392303496e-03 -4.7602745329191334e-03
      -7.2724527103833862e-03 -3.1526555145707388e-03
      -6.2285402879325314e-03 2.9997690734318223e-04
      4.1694987753823225e-04 -4.1019888305862170e-03
      -7.7689417632564274e-03 1.9725510909781160e-03
      3.9112110882056133e-03 3.2327532937703771e-03
      -4.0250430144456147e-03 5.6758804331308085e-03
      7.0224158653128047e-03 7.1297166371822108e-04
      3.4988234402060364e-03 3.5651575618462403e-03
      -3.8021403441770296e-03 2.0492834269031641e-03
      -6.6327301885416509e-03 -2.7003651169048692e-03
      3.1081189826174366e-03 -1.3879014672341958e-03
      -3.3125478716498247e-03 -1.4778248830404281e-03
      5.6435027559605484e-03 -3.4391411278597928e-03
      -3.4133715570219443e-03 -3.5940501525300885e-03
      -7.5906433590468508e-04 7.9085484991208658e-04
      -2.0789666146742770e-03 -7.1497073140653639e-03
      1.1549039706394046e-04 3.8643447492024896e-03
      -7.3740426880745721e-03 -2.2764388234244931e-03
      6.4188169205616199e-03 6.4922773781486533e-03
      4.5586038905325570e-03 4.1551643999768687e-03
      -6.0825806808190112e-03 -3.8154384463217838e-03
      -4.9992071096903196e-03 -6.3441466317719249e-03
      -8.1808702516023566e-04 5.0616160397929455e-03
      -5.0975619623307815e-03 -6.4298780341126467e-03
      1.2079144770013965e-03 -4.7123218154600235e-03
      -5.9690354397391229e-03 -2.5652671975159719e-03
      4.6070654148829384e-03 7.2022008430883003e-04
      4.9796591511095736e-03 4.8053715064014426e-03
      2.5756176222196145e-03 5.2972288381664698e-04
      3.4473925228436057e-03 -4.9746191870894399e-03
      2.5596297146616540e-03 5.9274464165773528e-03
      6.1597731431479305e-03 -3.1773169192588872e-03
      -4.3014863269186697e-05 -2.7023905719088643e-03
      4.6304113684944009e-03 5.2245084383409886e-03
      6.9520611864595642e-04 -1.1749247869383686e-03
      -4.1667928654633918e-03 2.8556613457868018e-03
      -3.8576507461284783e-05 -6.7054288557298735e-03
      -6.3238538962317650e-03 6.6980239044530281e-03
      7.1855964787870394e-03 4.6400732479922610e-03
      3.7017509521545793e-03 -4.7458397991462283e-03
      -1.8314513107522577e-03 3.3768407503564513e-03
      5.6244408674896084e-03 -1.1066556301124976e-03
      3.8585405716435837e-03 2.6526686587970052e-03
      7.2593051461161233e-03 7.2038315406529200e-03
      1.7056392321502531e-03 5.8726944395726174e-03
      -3.0163674928419630e-04 -1.7496652072383238e-03
      3.5299940910193933e-03 -5.9356872299957501e-03
      -4.2912652305417852e-03 8.1967587743841995e-04
      -2.9754184107119333e-03 7.7471564307131360e-03
      -1.7967998070352192e-03 2.6038512588884054e-03
      4.2199745943394219e-03 5.9859583502058702e-04
      -4.4102319718284681e-03 4.7190128625992553e-04
      3.3481327958196265e-03 1.8284711097490299e-03
      7.1976839157452729e-03 3.9630923013030620e-03
      5.4821963212349500e-03 4.5682925188415355e-03
      -7.0983421454512956e-03 7.8220940405086276e-03
      -4.4153955852730522e-03 6.0759083072142695e-04
      1.5264434768113178e-04 -1.3462991450072211e-03
      -1.5081754747336964e-03 -5.3628847173237881e-03
      4.3375985210977474e-05 2.1838057855325080e-03
      -3.7359448471307689e-03 -3.8767601640108521e-03
      7.5657401247496850e-03 6.5278687945550407e-03
      2.6635564188691140e-03 -4.2968846503539642e-03
      6.1670169594160796e-03 4.0195232841671600e-03
      -3.0664257498331043e-03 -6.5198451970036120e-03
      5.3270760025836052e-03 -1.6219708496358729e-03
      6.0038532214550964e-03 7.5868662452387322e-04
      -5.4556068570222405e-03 -4.4779629651646658e-04
      -3.4907967531847055e-04 -1.8529055421774080e-04
      6.1762119649153256e-03 1.1985980126252773e-03
      7.7174696422851914e-03 2.9820420853436751e-03
      -4.4642877421112257e-03 4.9954155694706907e-03
      -6.9137163886406096e-03 2.5063304170631524e-03
      1.2914101705729509e-03 5.0569653860899665e-03
      4.5583308353638842e-03 -4.7300376068200103e-03
      3.8307401341391759e-03 9.6493059990812163e-05
      -2.4088011259102400e-03 -3.2084264953350650e-03
      5.6845368971683813e-04 6.3362240264974124e-03
      6.2697531126484462e-04 4.6551249113117605e-03
      -5.2554289070576533e-03 5.5191164762478078e-03
      2.5971352173348207e-03 -5.7410137196124925e-03
      -8.4555987775231502e-04 5.3154233922697641e-03
      -2.9343514517174004e-03 5.0236499396701826e-03
      5.7834219774484811e-03 -3.8156866006521001e-03
      -1.7558852067903442e-03 -2.8454696776475941e-03
      5.0787187643112196e-03 -3.5011726774618686e-03
      1.5986229213627620e-03 1.8010446461420423e-04
      -6.2440954253452719e-03 -5.5586474848048828e-03
      4.7020668993209081e-03 2.3880681646148028e-03
      6.4997927469164019e-03 5.6551365009046934e-03
      2.0248794266354763e-03 3.8104490906280498e-03
      -3.8803224156731919e-03 1.9885957211145935e-03
      8.8902743149804370e-04 2.2678851365325742e-03
      2.4585156130597762e-03 2.7527830951445220e-03
      -5.9089750013710477e-03 -6.3785893862011722e-03
      -7.2747484030453126e-03 -5.4511013710105763e-03
      -4.2514176556096017e-03 -1.6759874095471710e-03
      -3.8100180541290221e-03 8.0335507785109089e-03
      4.4775607667893310e-03 -4.9652075045945295e-03
      6.6441744338137558e-03 3.8373968710878692e-03
      -1.0230843994065712e-03 -5.8698092701555803e-03
      4.5495565541691675e-04 6.0451431536019838e-03
      5.1057019714793751e-03 -5.2616475711867051e-03
      -6.5846516609462747e-03 -5.8290145644332427e-03
      -5.4724154424339580e-03 6.7449081625000967e-03
      -3.8932089160680769e-03 8.8395677079744993e-04
      -1.2233628115434767e-03 -4.2598813266858165e-03
      -7.9686120344550843e-04 -1.2502227232700277e-04
      5.8353458694227877e-03 -5.3470353940920090e-03
      2.3723878938061863e-03 7.1440403647981881e-03
      -6.1674882299242624e-03 1.8847346141475829e-03
      1.0887143913210339e-03 -5.1240549573919837e-03
      1.5195749931346393e-03 7.0841662748262558e-03
      -1.4193274756726609e-03 2.2890070356473588e-03
      -1.2661027447330255e-03 6.7178368998838103e-03
      4.7055059760036447e-03 -9.7100364135747756e-04
      -5.8918481440939428e-04 7.6093570394148878e-03
      -6.9045486745644719e-03 -5.1390507896230796e-03
      -6.6680513899340333e-03 1.8160020812462735e-03
      5.2114083899875525e-03 4.7573131229552137e-03
      -7.1671963101514486e-03 -5.7120579800816395e-03
      6.9490005142827807e-03 3.9769995954036276e-03
      7.3298743623825113e-03 1.1851664379024555e-03
      8.0584044411180483e-03 -5.6304994493786816e-03
      -1.4100757615168834e-03 -7.1557783561081714e-03
      5.7020589217426495e-03 5.4991773110489046e-03
      7.3614663444684716e-03 4.5598812982274375e-03
      -4.6302625186833458e-03 -4.2765610317366748e-03
      -5.2758570868503153e-03 -5.8258663180349021e-03
      -3.6044634335442886e-03 7.9136815411034306e-04
      -1.1483869752589629e-03 -5.5553687513605170e-03
      6.9192085186620123e-03 -7.1215085345904773e-03
      5.2831045551409135e-03 6.3166522199081939e-03
      2.2522510372015156e-03 7.7490468049950132e-03
      -2.7634025320132892e-03 6.7945714913456663e-04
      -6.9199219606441995e-03 3.8961318634565464e-04
      -5.3044165343767548e-03 3.4716385560945098e-03
      -3.3327156398291198e-03 -5.4701229994282780e-03
      5.6815234906614168e-03 2.7914587924716462e-03
      -5.6773640904295266e-03 -5.5501202520746497e-03
      -6.5386443029974402e-03 -2.7404267245458016e-03
      1.2905348999079458e-03 5.9292240041867389e-03
      -1.3894436854090977e-03 7.4779958630983509e-03
      8.0747929331184444e-03 -2.7792416152056694e-03
      -5.2424706839185678e-04 4.3229829232939072e-05
      2.3280237617512673e-03 5.7677832436420365e-03
      -4.7400794306009979e-03 -5.9330986036215420e-03
      1.6174317432547183e-06 -5.9225797402462834e-03
      -2.7342687058691554e-03 2.7183765886831311e-03
      -3.0679968672701827e-03 -6.6730068811702665e-03
      -3.8792295942682853e-04 -3.6835525843622254e-03
      -6.0028067475635079e-03 4.7726275527670801e-03
      5.1769719837599691e-03 5.1058175190750177e-03
      1.8696698775298858e-03 4.8955639675588988e-03
      5.4397030759231763e-03 -1.5516529861300400e-03
      3.1905527595689370e-03 1.5050554423592889e-03
      -3.8279735161005930e-03 -6.2687360903281543e-03
      4.6179695187763001e-03 5.7257871716729974e-03
      7.0308260387036883e-03 -6.8895623032408588e-03
      6.2118940859057841e-03 5.3810088762167325e-03
      -4.7241892752347033e-03 1.5857247167428393e-03
      -4.5106619671059223e-03 -2.5249717452867902e-03
      -2.8525738228756085e-03 -5.2045147178790665e-03
      3.8443475343241131e-04 -7.8357087055917051e-03
      -4.7263779659764043e-03 -9.3543318044329350e-04
      9.1755939077642693e-05 -4.7069043352367043e-03
      -6.5449197463936775e-03 3.4073595788643440e-03
      3.9090449585848864e-03 6.4136027035338692e-03
      -5.6356259184823275e-03 -7.4608122618185374e-04
      3.2278805727672145e-03 6.4365723614262967e-03
      6.8080632746070780e-03 -2.9925231388781954e-03
      5.9654944413127416e-03 4.6961865689273954e-03
      1.5673035979264594e-03 -2.8849191954136997e-03
      -6.7469584794369467e-03 5.7334724747696618e-03
      -3.2707859668475920e-03 -2.2074299542697070e-03
      3.6811385920037152e-03 -4.2018474138057335e-03
      2.0163351657966413e-03 -1.7032160759407184e-03
      -3.9444871613013716e-03 4.8861732440380022e-03
      -4.7473500074408344e-03 2.5025379685277745e-03
      6.9875899968952458e-04 8.3519478126546176e-04
      -4.7372103465174956e-03 2.8807146763283596e-03
      7.4763665430818849e-03 -6.9805842757968313e-03
      -7.5142779422020019e-03 -8.7179496190021926e-04
      -1.5964146313735864e-03 -7.2627885446217861e-03
      6.6663822549119902e-03 -6.4609243133705160e-03
      -6.6511939590458303e-03 4.0972979495806187e-03
      3.8366203734266332e-03 -5.5004773358508828e-03
      2.9279664404139399e-03 -2.6556039414882254e-03
      -5.3800035002732026e-03 -4.0946960180193934e-03
      4.5442413180485095e-03 5.1511110457821583e-03
      7.1203945071313165e-03 -1.4728235727809477e-03
      3.5201337507395972e-03 7.3383999638862588e-03
      -2.0253645171500333e-03 -4.0161527246772724e-03
      2.3918527541416288e-03 -5.4363865842363499e-03
      -3.0035654448148088e-03 1.5501265928924298e-03
      1.1160323414520824e-03 -4.2392822904412228e-03
      -7.4310452993310043e-03 -5.2245170606474555e-03
      -5.7056115976433144e-03 -4.4818412295281052e-03
      -1.3036430775199275e-03 5.4394407101232998e-03
      -1.8147328713489588e-03 9.5472125516615801e-04
      9.0883264828248503e-04 -6.7554372448223824e-03
      2.9319868780493465e-03 -8.8395506055731672e-04
      6.5969121881302734e-03 1.8585236852394474e-03
      5.9537497531244521e-03 -7.2971078606561815e-03
      5.8678226639564263e-03 4.4465507098057841e-03
      2.1764191250022405e-03 7.8763795031498648e-03
      -5.3893683470415650e-03 1.3159898882085239e-03
      4.3288707865486069e-03 9.6523726543900560e-04
      -3.6508944103706117e-04 2.1074864546891583e-03
      -1.7289065640398746e-03 5.0267401768920254e-03
      -7.0095455623412576e-03 -4.9278557210681289e-03
      -6.5800141528711440e-03 -2.0673234078935703e-03
      1.9102282514401249e-03 7.0895357066111508e-03
      5.7451431532205615e-04 -4.8198256564624502e-03
      7.4257130328678677e-03 6.1862260539440163e-03
      7.3422157726406216e-03 3.4339514428832043e-05
      4.9694542186913436e-03 -7.5676889203338460e-03
      -2.2193916727457669e-03 -1.5872760296088606e-03
      -6.2988818743796591e-03 -5.9959983864545305e-03
      -2.1476909646161313e-04 -7.1120191248292535e-03
      -5.8309125742124776e-03 7.1973707106733785e-03
      -5.1845801805927884e-03 -1.7818882410173230e-03
      1.8477288850464613e-03 2.6920065974321574e-03
      2.8290517831019713e-03 1.1725278763042836e-04
      5.2656429316688914e-03 -3.1960633034741571e-04
      -1.6519102043390996e-03 7.9268626070656718e-03
      3.0867597371547935e-03 3.1741155868698460e-03
      4.4870081162430991e-03 -5.4666176489047023e-04
      6.6671171837635011e-04 3.1206234337022372e-03
      -2.4367066340965286e-03 4.8507135801393233e-03
      -5.9636280726035329e-03 8.8458041175811886e-04
      5.7376445301778210e-03 -7.1784504027533477e-04
      1.2131301469033903e-03 5.8036604187005342e-05
      -2.3148316747271486e-03 2.6366774545244014e-05
      -2.6344329869345210e-03 2.4500796986380441e-03
      -3.0329498743487042e-03 -3.2157842342024285e-03
      8.3155495862699623e-04 6.0959934044081815e-03
      3.3604014176543216e-03 7.7152566982886164e-03
      -2.6923832041618589e-03 6.3539837448357067e-03
      1.1217189572627199e-03 4.9071815334038637e-03
      -1.5564285777422257e-03 5.1740978133156543e-03
      6.3405103938565929e-04 -1.2116356202609426e-03
      6.5708231457763337e-03 1.6202411728474862e-03
      1.7201380144220505e-03 -4.5327641610525080e-03
      4.6422167091921132e-03 -4.1266109589857269e-03
      -6.8171880286415016e-03 -3.0660485291045579e-03
      -1.6485039142682481e-03 -2.0613076609244025e-04
      2.1595636150574743e-04 6.8848369409379388e-04
      -6.8935024844863756e-03 5.8036496274779491e-03
      7.0009753809206644e-03 -2.8606179839833689e-03
      -5.6025170466499040e-03 6.2208407874136899e-03
      1.8936895136785099e-03 6.7005403088776843e-03
      -2.0609103720496151e-03 -3.8214713050870089e-03
      3.9822913004381186e-03 -9.3203112704490221e-04
      -1.9798973212153716e-03 -3.5510147590843491e-03
      3.9935831914774591e-03 -1.4184941144052908e-03
      -4.8482320023704607e-03 4.9843871857319080e-03
      -7.4785644783740427e-03 1.0463205532810348e-04
      5.3070600947835453e-03 5.8613401145660620e-03
      2.5971048761594096e-03 -5.5117518039371552e-03
      6.4068018314137644e-03 2.2036867986016150e-04
      3.8829057505638718e-03 -2.8064345792405011e-03
      -2.5892566022327856e-03 6.2137183473005180e-04
      6.0653363970258377e-03 4.8513700960252891e-03
      5.0883639006020272e-03 -2.7798071338019513e-04
      2.7815235449579166e-03 -4.4707275152106830e-03
      2.5956481044634499e-03 4.9336840969278796e-03
      5.0012640239347908e-03 -5.7294632607398505e-03
      -2.5526493023454227e-03 -5.6438876145667241e-03
      -6.9480794351441310e-03 -5.0834773995736494e-04
      -6.8173236441270736e-04 -5.3578297260252284e-03
      6.9901081083706103e-03 7.5165347691083274e-03
      -3.3523301022004943e-03 1.3622073145690562e-03
      -7.1207925751457012e-04 5.5094327644836264e-03
      -5.4058990587612524e-03 7.3275113961233469e-03
      -5.1578474074434714e-03 -7.7035505769233086e-03
      1.3846086695131299e-03 -1.6584114797159875e-03
      -2.9440576290539031e-03 -1.0098550047458025e-04
      -4.0903245217602524e-03 7.6178394817020172e-03
      -2.1721718483859826e-03 5.1998289599335000e-03
      -2.6141611941939654e-03 5.6292816904612158e-03
      3.7126963604332155e-03 2.5237966991569641e-03
      -6.9989663817691360e-03 6.4607995578925131e-03
      -7.4108504112974953e-03 -5.7145047866800688e-03
      2.1949566727033675e-03 7.4730425723253729e-03
      -5.1341098643069294e-03 1.2410211070150868e-03
      6.8403493747042987e-04 -2.5726666384904414e-03
      8.3452966855155622e-04 3.8232359901807845e-03
      1.5406881647789473e-03 2.2230536486078870e-03
      -2.8509525992895506e-03 4.2818943857009847e-03
      3.4522885831482922e-03 -6.5456047909768621e-03
      -3.1359677352474345e-03 6.2185734053004814e-03
      -7.2584483369182856e-03 -3.6870517633900632e-03
      -2.8550749818133454e-03 4.6150234751790526e-03
      -7.3281266741545975e-03 3.8334905294075366e-03
      -2.2286014572325623e-03 -2.9723639553320509e-03
      -2.6503318392839962e-03 8.5332776752657640e-03
      -4.2209329094965572e-03 1.3682602136777667e-03
      6.6846422834353700e-03 3.7209744247194173e-03
      4.4250504968399561e-03 -6.5956286742284596e-03
      6.8972026343937188e-03 -2.3398466580520369e-03
      6.5238100890272792e-03 6.4344464273285006e-03
      -5.7473738409925257e-03 8.0483933355503575e-03
      6.5765683081424971e-04 2.7745324971823154e-03
      -1.5495839366989222e-03 -2.9352943991841993e-03
      3.1354421740010692e-03 -1.9319286488009657e-03
      -3.7761297400138866e-03 5.1530015130493824e-03
      3.0934662731653788e-03 -4.9266132566762938e-03
      -6.4269547832031398e-03 -3.4802202700091323e-03
      -5.5173211337555808e-03 6.7191516975736608e-03
      -2.0419210562182466e-03 1.5881312798773817e-03
      -4.3161616119302051e-03 -6.3140345190599028e-04
      5.6416280249582612e-03 -5.4660310121479845e-03
      1.4209841410670449e-03 -1.0526544797000094e-03
      1.4200425774193710e-03 5.6857784452764735e-03
      1.8873706391780759e-04 7.1787919945878395e-03
      5.6636149096858657e-03 -6.5183046597727780e-03
      5.9762970801387162e-03 -1.4642033131198199e-03
      7.6327925254897448e-03 1.7175476678756829e-04
      -2.1016642716474771e-03 2.7096502264957923e-03
      3.2695433105053693e-04 -4.5689324006158811e-03
      -5.6925306258396131e-03 -6.3406182076145836e-04
      5.5221915267576124e-03 1.9244490511258581e-03
      -6.5871150087424427e-03 7.1405277487326876e-03
      6.5542810111534689e-04 3.6650982311815985e-03
      -3.3604438837624465e-04 2.8444402389145480e-03
      3.6140133790798874e-03 5.9706527253975891e-03
      5.0816158961391042e-03 1.6777248847685930e-03
      1.3710792019467353e-03 2.6894647781745837e-03
      4.9066467304214080e-03 2.8249668506315351e-05
      2.7406887130520621e-03 -2.4140954937798475e-03
      1.6382280279653957e-03 -2.3794658100903193e-04
      -4.1808491956209235e-03 -5.4498080407734744e-03
      -7.1530809183460997e-03 7.3979814100477012e-03
      3.7239639825443517e-03 -4.9504272859837535e-03
      -2.6086920635034184e-03 -4.0993264443526314e-03
      1.3581009513022730e-03 5.4343947004542609e-03
      7.1132841266037918e-03 -5.1504799529257508e-03
      -6.7896315117076103e-03 -1.0486686533333199e-03
      -9.5115982902549932e-04 1.7447227764387952e-03
      -1.3377828612986628e-03 1.9354980158524928e-03
      -5.5760273856156738e-03 2.4445396308166727e-03
      -2.1814132428816307e-03 -6.3255281841593904e-03
      6.4041265094440733e-03 -6.5863290856790864e-03
      4.7655768062351096e-03 -6.7041713798231012e-04
      -6.7529847880465899e-03 2.0556206056056604e-04
      -1.8000625235717954e-03 4.2053211247657643e-03
      3.4407666697482252e-03 7.3128588962578945e-03
      3.5328077913884194e-03 3.3452765722096910e-03
      4.2527794628755928e-03 -6.7825195187419139e-03
      8.0565193096572996e-04 -6.3716301111546719e-03
      -8.7442140105560941e-04 3.8782121771353908e-03
      7.5461948490015418e-03 -9.2315326262093630e-04
      6.1979838492773158e-03 7.5064508396653767e-03
      -6.6900829093865400e-03 3.3681892599730584e-03
      1.5536573937160059e-04 7.5346163877429255e-04
      2.0987961745195316e-03 -4.2983508803101471e-03
      -5.1919392388560161e-03 7.4115082985202292e-03
      3.9594618148994197e-03 -6.5932303413838295e-03
      9.3096788123442852e-04 -3.4129167706853031e-03
      -9.8380805501905428e-04 -5.9441175481349620e-04
      -7.6459368964882334e-03 -4.8102371143984319e-03
      3.5040085801457273e-03 3.0473444775665653e-03
      1.4588207173615456e-03 -3.4571298159529729e-03
      -3.6420483172377558e-03 2.3344355234186640e-03
      6.5783661648856915e-03 1.7226843395364952e-03
      3.1972301414544967e-03 -1.4729839241425775e-03
      -5.1149518687407499e-03 4.1665790090314952e-04
      1.5437039524757183e-03 3.1867997512032131e-03
      7.0664805668114105e-04 -4.1540558791819230e-04
      -5.1192003568592990e-03 -4.9033785271492096e-03
      -4.2641613844571422e-03 -3.0618545438394584e-03
      2.0523406824672933e-03 2.4314127957428878e-03
      -8.2897730988502959e-04 -4.7029974561896793e-03
      -4.6365781087762056e-03 -3.3797342847089085e-03
      3.4000116922754098e-03 -3.5081460967955995e-03
      2.3132548505953960e-03 -6.6469402669849646e-04
      4.8350652867896584e-03 6.8550455209174304e-03
      3.6178381485149017e-03 7.5018861785153164e-03
      -2.8557121261048586e-03 -4.5163906438229979e-03
      -5.2333632585958578e-03 3.7777521879836847e-03
      3.9224610646306146e-03 3.6682705119872204e-03
      -4.1006305525292776e-03 -4.4781787860479622e-03
      3.9758826537338891e-03 2.8643489365423897e-03
      3.9352863887806887e-03 -7.1226731233323386e-03
      -5.6645208995832336e-03 7.3489213534146799e-03
      7.0248767503869785e-03 6.7689704298067536e-03
      -6.5881610628242999e-03 3.6075686324928318e-03
      3.7228780897087073e-03 2.3334291805028966e-03
      -5.0441867976145941e-03 6.4380008884608406e-03
      7.3351524555748749e-03 -1.1660001482980647e-03
      6.8572799206822882e-03 5.5584511187316806e-03
      -7.1569692677849297e-03 6.9154089519380324e-03
      6.8884481040766632e-03 3.5478705112114302e-03
      -6.5571114923654978e-04 4.1637280467261700e-03
      -6.2721707102174409e-03 -6.1744367446903816e-03
      1.5576587913516396e-03 5.1891015083928239e-04
      7.5373237520986415e-03 6.9904459887295423e-03
      -4.9054895913381294e-03 6.8085261772621404e-03
      1.6706277747776635e-03 -5.6783007961005180e-04
      7.0043996831801120e-03 -6.4625969376937925e-03
      4.3940070898492835e-03 -2.5879065636397988e-04
      6.5804692572577353e-03 -5.2414142721286562e-03
      -5.5547417382870272e-03 -2.2877038990814129e-03
      6.4749067686416042e-03 -6.0364580460341571e-03
      -7.1541336265228484e-03 -3.0641224172326467e-03
      1.4961131509044296e-04 6.4446612001971999e-03
      1.0240139411488217e-03 1.0753202955373926e-03
      4.6289306970156490e-03 -5.1277264897305937e-03
      5.8259523675630379e-03 7.2904522220034983e-03
      3.3671531482982399e-03 2.6567007739087857e-03
      1.4836273673957811e-03 2.2709909677153146e-03
      -4.7275087212015282e-03 4.7113133133817311e-03
      3.3100469601026685e-03 -1.8368902694012581e-03
      2.8300519750230819e-03 4.5590129150825049e-03
      7.7699983405599094e-04 3.4532902886328547e-04
      7.0208404507425450e-04 5.5573989482110295e-03
      9.3710612894214130e-04 -6.2421460640954890e-03
      -2.2015100191007534e-03 -2.0809373353176393e-03
      -3.1001827634447375e-03 3.8006801510225376e-03
      -5.7526459550959388e-03 -4.7158147870963018e-03
      2.4418228076141324e-03 9.4445321544989538e-04
      6.0077140213582163e-03 -3.9494951025827885e-03
      -1.8614748803252234e-03 -3.9764233753826917e-03
      7.1102576444586106e-03 5.4561185176897897e-03
      3.0615080007634181e-03 -4.8076181882426719e-03
      -4.6895761870257057e-03 6.8574321766499717e-03
      7.1092177297690075e-03 -6.4023704517798506e-03
      1.0368512659239852e-03 -6.8627731590553687e-03
      -3.9779714188899794e-03 8.2215164560225408e-04
      -5.7495794289190499e-03 -4.9448330676821013e-03
      -5.9529918686339264e-03 7.4870396851066008e-03
      5.2641322050611134e-03 3.1468504611905290e-03
      5.8915901914158254e-03 -7.3849411091406495e-03
      -6.6906322769086238e-03 4.7432671538995023e-03
      6.8618949889242796e-03 2.9464820092819101e-03
      4.8450501334578542e-03 -8.1733874685751776e-03
      5.3999614904364007e-03 1.4305764389008684e-03
      -4.2182565059663952e-04 -4.3366025872185023e-03
      6.5946640270919134e-04 -5.7499093340471780e-03
      4.8737020802969312e-03 -2.7956567153283982e-03
      3.5064368411339957e-03 -7.1032731270635856e-03
      -5.4799992314371803e-03 -6.9443616068339663e-03
      9.3196086884868193e-04 4.7579432397743641e-03
      -1.6171308874251974e-03 2.2848909361113056e-03
      4.0041323115072190e-03 -6.7077333394467047e-03
      2.3130291191401841e-03 3.8373514989430337e-03
      -3.4029628515592145e-03 4.2450874294901741e-03
      -5.9479326946718621e-03 -6.3312608486558453e-03
      -6.1901662689933089e-03 -1.7566367583298466e-03
      2.0604871415780910e-03 -6.2937700547555740e-05
      3.5433964445069556e-04 4.2899759577926548e-03
      -4.0322174503597766e-03 -5.6892367692047809e-03
      2.3982149656899435e-03 -3.8154986752776871e-03
      1.2821594185055485e-03 -4.0452684687005977e-03
      4.7131959052538110e-03 -7.2912198811254285e-03
      -5.1844187756026512e-03 -1.0968140046899557e-03
      8.3584037983172740e-04 -2.3562177537187818e-04
      -3.9952551235017527e-03 8.5961370268391752e-04
      -7.7826741856517360e-03 4.6825516100117114e-03
      -2.5818531215658965e-03 -6.5462192792870152e-03
      -7.6913407627428527e-04 4.4451487356941613e-03
      3.5680494661463080e-03 -3.8027244694347926e-03
      3.4060203672892221e-03 -2.6703298586922232e-03
      5.9606237258606927e-03 -6.4049328969037599e-03
      6.5789607616193293e-03 -2.9642277525857111e-04
      -5.4168565327066117e-03 -2.8257675174946850e-03
      -1.5369153893051324e-03 -5.8242921134967294e-03
      -2.1127957514679467e-03 -3.1682488509945429e-04
      -2.3715573029114232e-03 5.3358171832956309e-03
      1.2759432167491714e-03 -3.6819842470620437e-04
      5.1924553895456374e-03 5.7351585957316001e-03
      2.4135164827612755e-03 -3.0841248565231707e-03
      5.4937623433348112e-03 7.9150205877731514e-03
      6.8116072634093984e-03 -4.7186588566262748e-03
      2.7394821113356210e-03 -3.1769906250783543e-03
      -5.7671826231056808e-03 -8.1595205628929223e-04
      -9.4917872232716690e-04 6.3209951234394221e-03
      -4.6462854420012490e-03 -7.2446031370492830e-03
      6.2963859581786067e-05 -2.1130023112862068e-04
      -2.3736219025163444e-03 2.0229329338271673e-05
      4.3311710634056716e-04 -7.9176549323999052e-03
      -8.1513605904407101e-03 -2.3182247029457045e-03
      3.1630377634529428e-03 -1.0290793847801511e-03
      6.3239944724340748e-03 1.8605655842679715e-03
      -4.1343064307466519e-04 5.4479453052935431e-03
      -4.3333146098736277e-03 3.0863788845854438e-03
      -9.7903372593566643e-04 -1.8126799073806326e-03
      -8.4914769883911133e-03 -5.5276430941004920e-04
      2.8249176110935188e-03 5.6190540563422417e-03
      6.5132618487162659e-03 4.5365675018542467e-04
      -3.5618807836023964e-04 -1.0821132043623964e-03
      6.0783633190930591e-03 -6.4435662420904722e-03
      5.2582653309940705e-03 -1.0675110729061507e-03
      5.7791731368454858e-03 6.3691096365660572e-03
      2.9712986781603543e-04 3.1604061800571829e-03
      4.8875138384258570e-03 3.3954529557041167e-03
      -1.7503400599222100e-03 5.1703098031679016e-03
      2.7428995977633267e-03 -3.9801872658258497e-03
      3.5828166505660229e-03 7.8245366499062816e-03
      -1.1962341534010359e-04 5.3461736826368792e-04
      6.6574583062148250e-03 -3.0348659700268534e-03
      5.1771842641048138e-04 4.1861520137680148e-03
      -7.7493625693514298e-03 7.3421845879971491e-03
      3.9694920582022571e-03 4.8282235299333511e-03
      -6.6066730167051949e-03 1.0590826573002052e-03
      -4.2420462495171623e-03 6.1194249279855183e-03
      -5.8918238408104144e-03 4.7232200345119360e-03
      -7.3619307591335122e-03 4.2501903779690849e-03
      -2.2557536565577171e-03 5.3143015504194344e-03
      -2.1798383572607920e-04 -6.0411368991259758e-03
      -5.1558275471113319e-03 -5.4416272221221758e-03
      5.2180174567578157e-03 6.7373417082453009e-03
      4.1801522728879036e-03 -3.3537100957329270e-03
      -5.1454786915457575e-03 3.9662633475805809e-03
      -2.0701995038261648e-03 -2.3034838827941276e-03
      2.8384350330214543e-03 -3.3080262746718919e-03
      5.8607541771592770e-03 -2.3394546103694832e-03
      -5.8312576087685454e-03 -3.8971814873350334e-03
      7.7540380287699469e-03 7.4258328526102466e-04
      3.2992865668297574e-04 7.6557821481872308e-04
      -7.4650268785290850e-03 6.5201662574005731e-03
      5.6590584767506899e-03 -2.7271365864631539e-04
      4.1503569318053022e-03 4.0544096778044733e-03
      6.6745431091777422e-03 -2.9707814285683492e-03
      -2.7744145688977659e-03 -3.2387011801675394e-03
      3.2347268198321278e-03 -1.9020372211011765e-03
      -3.4186711886072057e-03 4.8862475938423935e-03
      -2.5960144006554760e-03 5.9940440301740894e-04
      -1.4733726396833546e-03 1.7755319564989427e-03
      -3.7601352772828069e-03 7.4758165756911854e-03
      4.9286033383640765e-03 -3.8067174128536968e-03
      -6.3619799650862640e-04 7.3650174271393150e-03
      6.5554842185609336e-03 5.6813098029397302e-03
      4.3961768196626927e-03 -2.2239957087443331e-03
      2.5186837173033338e-03 4.3373500003466865e-03
      3.6275371888093389e-03 6.8873690741517741e-04
      -3.5323890982742160e-03 -4.7465693581480208e-03
      -2.2633901966079444e-03 -1.5536335145842576e-03
      -3.9482267030607087e-04 -2.4785126963879807e-03
      5.0352499556006328e-03 2.6784962041448627e-03
      2.2609698839044061e-03 3.1569835501805846e-03
      1.5818909759560903e-03 -8.9722355324035473e-04
      2.4743775834096639e-04 -2.1152290835286750e-03
      -1.6952051899220262e-03 -2.8276672112102757e-03
      -5.5186311729423440e-03 7.2073669260711128e-03
      -2.8884979306006350e-03 1.1130786402900640e-03
      4.6616982607325099e-03 -1.1698688988206148e-03
      -5.3694171953654777e-03 -2.9872656511399716e-03
      -1.0373038464026301e-03 -6.4556028550960716e-03
      6.8144334187867882e-03 -2.2919605333939228e-03
      5.4616216245843459e-03 -8.9113400794515096e-04
      -4.2683832527466411e-03 -6.2296361238465599e-03
      4.5717871993566596e-03 5.3143381343638465e-03
      5.6847880644009564e-03 7.1761700766000648e-03
      4.6827332884301649e-03 -3.1152058183253847e-03
      6.4222562653704820e-03 -7.7241796471306150e-03
      -3.0253102819659487e-03 -2.5274026824707594e-03
      -7.6456733395918143e-03 5.5783675827391459e-03
      3.6563933631444971e-03 7.0858067818832535e-03
      4.7789325373843490e-04 2.8991393368547141e-03
      -6.9891886352700903e-03 -3.0950691463382139e-03
      2.6571943927436621e-03 6.4204992880043045e-04
      -7.4872259976926873e-03 7.0318411869992369e-03
      -3.7179200560878119e-03 6.2009810190375716e-04
      -3.5095293169499619e-03 4.9483937542053446e-03
      -2.0342999284798089e-03 3.3002030131988928e-03
      9.1862406009553593e-06 -7.3034425619888481e-03
      8.9737980093222963e-04 2.7238733148559507e-03
      2.5365486047335410e-03 -1.5296431358404962e-03
      7.8167977726906826e-03 3.9024893030504245e-03
      2.0680026936245113e-03 5.0188056443279967e-03
      -3.9265692913037446e-03 -7.0356164866032201e-03
      -5.4775238224429867e-03 1.4810961217239576e-03
      -3.7806571649939082e-04 6.2942663731229967e-03
      2.5228446334823176e-03 -7.6017789566905046e-03
      -3.2676590936598130e-04 5.1635969247056440e-03
      3.5343711500253538e-03 -2.0645377733239365e-03
      -5.0463920173950925e-03 -3.7006491040940796e-03
      3.4835236758295595e-03 -7.2572950585033883e-03
      2.1037787846337314e-03 -1.5527457024456452e-03
      -5.1179470093045487e-03 4.5235195436457935e-03
      -1.6552934518041555e-03 -1.9040229385688754e-03
      5.4540868939194206e-03 4.3314365272758724e-03
      -5.6445702394397005e-03 -4.4964283901658270e-03
      8.9823841529778660e-04 3.6606205542381062e-03
      -6.5644208972389963e-03 -7.4092117215114814e-03
      -1.1832567590496039e-03 -1.7870365677206614e-03
      -3.1131749908252832e-03 -1.6746031164537151e-03
      3.6827333278515672e-03 -7.4028297118878686e-03
      7.7738775332960707e-03 5.1500725639198643e-03
      -3.8752942633608401e-04 -4.8805275651283798e-03
      -7.2333805034783373e-03 -4.0818744302703498e-03
      -3.7947561518664004e-03 -7.1117149963679984e-03
      6.0096983203772195e-03 -3.0776459605025481e-03
      -2.0451504599961622e-03 5.3301272960771815e-03
      -7.7206258751642536e-03 1.9199545241896246e-03
      6.5001278116193703e-03 -6.7104642712043907e-03
      3.0458337283512820e-03 6.0515092876426528e-03
      -1.6630724002886848e-03 6.9763608246975108e-03
      -8.5100316917760283e-04 -9.7333759772730299e-04
      -4.3725481403974328e-03 6.7060671873858304e-03
      -3.0139299076392986e-03 -4.2902241124221623e-03
      -6.6255713434205735e-03 -6.2684961744883744e-03
      -1.8757764716326412e-03 6.2585970052388600e-03
      8.0820207152666333e-04 5.2731208065768939e-03
      -2.8905185256364622e-03 3.1859606659272481e-03
      -6.3666154445406317e-03 9.6125681439029388e-04
      3.1923631814249303e-03 1.3799500015240220e-03
      -3.9704475483212723e-03 -6.0736338650876770e-03
      -7.4364598380125728e-03 2.7621338669438699e-03
      -5.4022450025259933e-03 -1.2803312503833417e-03
      3.1072049274415243e-03 -6.8029624002037808e-03
      5.6335635703275034e-03 -5.5807868491453416e-03
      4.3818226284959901e-03 -6.5058032187494605e-03
      -7.1997428647105734e-03 -3.1180825657475099e-03
      7.6582182282793542e-03 7.9088213734993390e-03
      -5.7507329237743831e-03 3.2654936494659912e-05
      -6.1219133179846554e-04 7.1440386782670017e-03
      1.9008246555611559e-03 1.8385239467471649e-03
      2.5376205811046795e-03 -5.4631106318227462e-03
      5.9448895034687633e-03 3.6677180130459293e-03
      4.4757676370378039e-03 -2.9522982139032839e-03
      -8.1387884992088644e-03 -2.1308044602510838e-03
      -2.0979067065054814e-03 -7.5089706862712735e-03
      -2.0288772345403443e-03 8.1282612118301729e-04
      4.2087635895306334e-03 7.0372980465861048e-03
      2.5792851194557528e-03 5.5622865636793016e-03
      7.5440336785545280e-03 -6.6579855010119168e-03
      5.8848474194893334e-03 -1.7290479220232306e-03
      -6.8333414809466581e-03 6.5258116447885865e-04
      7.8235573218067497e-03 3.7172420988185739e-03
      5.8921274168397507e-03 -5.4603884924156075e-03
      5.2864349618589508e-04 -2.1037093179557338e-03
      9.0239455492161446e-04 3.7785344345003333e-03
      -2.4754118401366502e-03 4.0098371082750517e-03
      6.5354626912160528e-03 -2.0734191434392747e-03
      2.1550468062972858e-03 -4.5468989271847662e-03
      -3.3964100192714216e-03 5.5215794185594158e-03
      1.8028007508686175e-03 -3.1522647597584880e-03
      -7.6852512468239152e-04 4.9130875154068153e-03
      -7.5841193463422668e-03 -5.7783190944541239e-03
      2.7450162325495815e-03 -3.4553696701105281e-03
      -1.9379488419425718e-04 2.6094955561263384e-03
      3.2878859068367367e-03 -4.1191102718277917e-03
      4.9760190831581617e-03 2.5176759984155447e-03
      6.3714043732184629e-03 -4.7850422391863415e-03
      -6.4838784939658363e-03 2.1340127512778492e-03
      -1.8057783978824008e-04 -3.5802870794264755e-03
      -1.4125459953778980e-03 -1.8725671584893914e-04
      2.3628413125433502e-03 -5.4588852279837483e-03
      -1.5274877890115591e-03 -6.5826429022773495e-04
      2.6906826274087190e-03 3.6129701377059952e-04
      -2.7681591144632718e-03 -6.1263013111600142e-03
      4.3641535278693515e-03 -3.2296988829747151e-03
      4.2473707042947843e-03 6.9024294112012647e-03
      -1.7916501990702023e-03 -1.5547686909116371e-03
      7.1076356733383280e-03 5.1578671931255806e-03
      3.6961394570344556e-03 -1.9683937259258291e-03
      -3.7138344330466568e-03 1.3136975651680679e-03
      -7.4470372879250563e-03 4.5937850058649365e-03
      -2.3001393749597951e-03 3.0574137129588210e-03
      -2.8668459298712839e-03 -4.0035796376992295e-03
      5.0673216620333132e-03 -7.4934964128930137e-03
      -6.1940639086887732e-03 -1.8060431912489427e-03
      -3.7466311091443167e-03 -5.8127043339616458e-03
      7.4958761291277175e-03 -4.2696383728371250e-03
      -2.1049656588422445e-03 -5.5213555236492086e-03
      -7.8614871512971418e-03 -6.4794856740964619e-03
      -5.3687630381571915e-04 -2.6679807981438409e-03
      -5.5329066264149414e-03 6.2439514600453128e-03
      5.8493349870171601e-03 7.0669353281479341e-03
      -2.0230694487996981e-03 5.5588004841335787e-04
      -5.3172559270517651e-03 3.5378992888393727e-03
      -6.8452018774844961e-03 -5.8142115318983237e-03
      -3.8213997117489619e-03 -5.3830122308941471e-04
      -3.5854034260344933e-03 6.9779015386881070e-03
      -6.9671040691559561e-03 -5.6504531786221290e-03
      -5.1070042965106486e-03 7.5436750608878333e-04
      4.9896822899841205e-03 -2.5114565352654908e-03
      -7.4149404441528977e-03 -5.4206886386752124e-03
      -4.8054786539637202e-03 -7.8200382537867864e-03
      5.2453656936926824e-03 7.8809827314484486e-03
      -5.6364650066424195e-03 5.3714579565418826e-03
      1.0770312840757662e-03 -6.1441351900223071e-03
      2.7186414240997752e-03 7.2656929498585944e-03
      2.5644731985781928e-03 -5.4181555039641768e-03
      1.3318032144131089e-03 3.7745520413289451e-03
      -2.7054856274824411e-03 -7.6324393023889155e-03
      2.6505638913953190e-03 6.0368913327544691e-04
      4.5648298425092684e-03 6.2018234420609022e-03
      -3.7775465413810443e-03 1.2039212146910761e-03
      3.6003687870489703e-03 -6.5106863201682850e-03
      -2.9052811372051314e-03 1.7006224799546105e-03
      6.6489318188505059e-03 -3.6662998815517336e-03
      6.3683900709619991e-03 -4.3631900143948791e-04
      5.4096459361975624e-03 -2.2565232063023908e-03
      -1.3147358666693969e-03 -1.0022463092299897e-03
      -2.5564051311945625e-03 -3.8879689655986920e-03
      7.3002325933043547e-03 2.2664941068943228e-03
      -6.8375389831514246e-03 3.6973818996990796e-03
      3.5163564384115965e-03 -7.1704186031572347e-03
      3.9419824841862823e-03 2.4105432453014734e-03
      6.8211728425326404e-03 4.4841061918857086e-03
      1.2924108479857206e-03 7.6642913378154704e-04
      -3.3705591803177056e-03 -6.8289815704190588e-03
      -1.6173834726217503e-03 5.2723397161897941e-03
      -3.4040855870817628e-03 -4.4567799602140334e-03
      -4.8112888946311681e-03 -1.1268276161458921e-03
      1.4080416969972855e-03 5.6905141098764517e-04
      -5.5567945577455567e-03 4.5440685956986233e-03
      4.2400626729906217e-03 -1.6270684849679087e-03
      7.5979620687905052e-03 -6.3846420403055734e-03
      -1.9510389367025352e-03 2.2555020643511316e-03
      -6.7116512704148566e-04 1.0117742808672201e-03
      -4.8428535861682834e-03 -6.7494895890495721e-03
      -1.2308029085718512e-03 6.7885132774445347e-03
      -3.6534447747064353e-03 7.9055099355563197e-04
      -4.6916062607197870e-03 -7.0340828330409007e-03
      4.1152430256707765e-03 6.7813050898996256e-03
      -7.1218408016377622e-03 6.9123372464217599e-03
      -9.3060217267684374e-04 3.5355751594146933e-03
      6.2038826321004666e-03 -8.1385019869692453e-03
      4.5688820097113487e-03 -5.0812227739433970e-03
      -7.2407283797642653e-03 5.6590897704558371e-03
      -5.4934057727472297e-03 -3.0176714847780237e-03
      -6.4809855373064457e-03 6.7691182805327266e-03
      -1.8109012640715623e-03 -3.8527044760296356e-03
      -2.3449219265327041e-03 7.7415796637332239e-03
      -6.2928601231322222e-03 2.9294403717586542e-04
      1.1630654947975471e-03 1.7956358799799616e-03
      -5.8721357454703969e-03 5.3360162855071343e-03
      6.8586842984866220e-03 6.7051003187822240e-03
      -4.2049626556495872e-03 8.0550220720456735e-03
      3.5402678529777485e-03 -7.8929769500133264e-04
      3.9727122543379949e-03 -2.2853252058131867e-03
      7.4126948942068172e-03 -6.7077015513177535e-03
      7.8907513443977687e-03 -1.1789994405104589e-03
      7.0126437127956747e-03 -1.7116526340116419e-03
      5.1840753917293736e-03 3.3280269941117838e-03
      -4.0839569460396795e-03 5.1289456042152978e-03
      -3.6246706742654863e-03 4.5985226543184743e-03
      -6.8922582831738594e-03 -2.3972309672172531e-04
      -6.2248715626577605e-03 5.3806286838315731e-03
      -1.9429461624001249e-03 9.7885073245413410e-04
      1.8995429563011981e-03 7.4829462825225911e-03
      6.8859965823547913e-03 -4.0259705519754144e-03
      6.7874362172817377e-03 -3.7239167660488618e-03
      -3.7906392978502537e-03 -5.9747011219131330e-03
      -2.5063948472429181e-03 -5.5358018178937700e-03
      -1.9304096767917660e-04 -4.0342358651066797e-04
      -1.8957732854284041e-03 6.5945837361373128e-03
      7.0627968426453880e-03 3.6116796131372645e-03
      -4.7865133998243568e-03 2.8017350999627183e-03
      -5.5118447791396687e-03 -2.1022842994063463e-03
      9.2253245890879453e-04 8.4920853070578472e-04
      -1.3254836661668176e-03 -7.6106869927729370e-03
      5.6884255586620816e-04 6.3686223209878726e-03
      5.9416866633304902e-03 -3.6970866149664944e-03
      2.7673581518824313e-03 -1.8729495601928130e-03
      -5.7620469647833906e-04 3.5341509507901209e-03
      1.5819233389531414e-03 1.3825551410539983e-03
      5.7048401396802978e-03 -5.7332108658072990e-03
      5.6956802978758571e-04 -4.4200100793952198e-03
      -6.8813451471009361e-03 -7.1823803129021343e-03
      3.1543461980510857e-03 -2.6897431998591016e-03
      2.1765743800739464e-03 -1.5546600643991009e-03
      -3.9597459718233464e-03 4.1987315846584682e-03
      -6.4685827857047448e-03 7.1948369587637694e-03
      1.2265559001719405e-03 1.2654441725638212e-04
      5.7978468129792602e-04 -6.9033030828299794e-03
      -2.9994527353837438e-04 2.2453734192138673e-03
      5.3341560861630494e-03 1.3461008988214002e-03
      2.9536022020287479e-03 -3.8558827510292999e-04
      6.4586786255876752e-03 1.1490111098199707e-03
      3.2616453385388650e-03 4.2738932415500603e-03
      6.7882404315434729e-03 -1.4803710559527347e-03
      -4.0080467809929339e-03 -1.8544321466654350e-03
      5.1260193218832222e-03 1.1657471144182717e-03
      6.6266666112109835e-03 -2.6482005535600154e-03
      4.0862929181032532e-03 -2.7589975090590627e-03
      7.7190090241204962e-03 -2.2857252948976291e-03
      4.9755198319886788e-03 -6.2128205616900241e-04
      -4.9487632601796861e-03 1.9137599429433326e-04
      -1.0080165655999909e-04 -4.0215229321682571e-03
      -6.5101460667955340e-03 -6.7526050102539176e-03
      6.2420506207750380e-03 4.4158715328671523e-03
      5.8817539983796949e-03 1.0662794035569685e-03
      2.7420912465774385e-03 -2.0677417403445674e-03
      -6.0288508628301178e-03 -5.9059363384325984e-03
      2.7688935970245133e-03 6.4054502692862244e-03
      -6.1244272610264817e-03 -2.1261828951586251e-03
      -1.3131297288987656e-04 3.3876580714030217e-04
      5.0071178713599592e-03 2.3713707299702026e-03
      2.2425187837176210e-03 3.9734687505549411e-03
      -1.5153350230887610e-03 2.1657682671119031e-03
      -3.2200540044217281e-03 6.9028082327239225e-04
      9.5241873271534707e-04 -7.2681791767037303e-03
      -6.7909802845449460e-03 -3.0159557168331005e-03
      -2.5151080292931333e-03 6.1717768506652339e-03
      1.6908703386076464e-03 -3.4643141888955676e-03
      -3.6975486302969454e-03 3.4442868040410247e-03
      -8.1583537008542064e-03 8.4919196438679682e-03
      -4.5279075607590298e-03 -8.0124110288430934e-03
      -1.8291207129176763e-03 -2.0491283894790158e-03
      5.4932789492740967e-03 -1.2934358049982615e-03
      3.6801000164413396e-03 -7.5759427475603136e-03
      6.6203810561689313e-03 3.4665824107155377e-03
      4.5567520948025407e-03 7.9418258565422898e-03
      2.1889468045741488e-03 -5.0638648746969715e-03
      -2.6400067499663051e-03 -8.0105650387083066e-04
      5.5269799462461912e-03 -3.3216510570936914e-04
      -7.4291393754408021e-03 -2.8125379596902820e-03
      -7.3522852118498572e-03 -1.6932608581257157e-03
      -6.1763450851545490e-03 -2.1949551977212792e-03
      -3.0855180550238698e-03 7.8357656480097602e-03
      -4.8231786333195669e-03 -3.5424429315270857e-03
      -8.1680185418234134e-03 -1.3886222247801961e-03
      7.2616272001173982e-04 4.4613966816245115e-03
      7.8396960967619493e-03 7.0714228129520112e-03
      -2.4720124375747447e-03 3.6623464715428264e-03
      1.8104339743514662e-03 -3.8009633693114708e-03
      6.0096050902091363e-04 -1.0958900328752524e-03
      3.4229178769890176e-03 1.8542464023417896e-03
      8.2220222891464284e-04 -3.6163252995315034e-04
      -4.8092729090871067e-03 4.3461632615513189e-03
      3.0964124695114122e-04 3.4753996368994239e-03
      1.9862381481156165e-03 3.1742759688551522e-05
      -4.0021144169384735e-03 -8.4771717959820990e-04
      -5.9694466033238551e-03 -3.7971434324509147e-03
      -2.9020233792787261e-03 -4.0309538406900127e-03
      -6.0056542663510393e-03 -4.2014083375325963e-04
      -7.4076180951133577e-03 -5.1312971507579417e-03
      -5.8163721312875201e-03 -4.2174215411994488e-03
      -6.6651394327679921e-03 4.8562303120760061e-03
      -3.4783235897745410e-03 9.4965032591275405e-04
      -2.0980928608175450e-03 -6.2997910230740460e-03
      -1.9752189078758196e-03 -7.9209819349069233e-03
      -2.3492451168139221e-03 -5.7766059395603451e-03
      -5.9379235359504163e-03 -2.0448189162299646e-03
      -4.6660233418617334e-03 5.2894711656090504e-03
      -1.6546465231071826e-03 3.3233998667968239e-03
      -2.2336646521124324e-03 -5.4532397051104799e-03
      1.6250470975538519e-04 6.9101337640109003e-03
      -7.3762116611871768e-03 -2.3368612784219268e-04
      -4.9649924532196620e-03 -6.5405365182173818e-03
      1.2622500776799796e-03 -5.5909057274024553e-03
      -5.8534176313632140e-03 -2.7105643111445163e-03
      4.3247241222429825e-03 -3.5308449510271988e-03
      -5.3701487515036084e-03 2.2126858218889586e-03
      8.0000228070625980e-03 -7.6895372285122111e-04
      5.2619005417576534e-03 -3.8842229037432553e-03
      -1.1433325934485572e-03 3.8797614475204207e-03
      -3.3263482812423157e-03 5.4183088422807731e-03
      4.3567693828645898e-03 6.8396547728612651e-03
      5.4014804444147725e-03 5.4900821927583313e-03
      -4.6337986103159074e-04 -6.0288097088895343e-03
      4.6916349139013731e-03 1.0701112826099644e-03
      5.0291859563398609e-03 -6.1350616967954120e-03
      7.3593544193161940e-03 -3.8198477634316052e-03
      5.3673346130950622e-03 1.0064547322598115e-03
      2.6391042485175292e-03 1.8575446750671643e-03
      1.1549660463587501e-03 -7.8987155442711583e-03
      -7.0083790729799905e-03 2.5823180290038652e-04
      1.5954310428582263e-03 6.9423049121193001e-03
      3.5921676755443195e-03 -5.8726457688747704e-03
      -5.2235442443788081e-03 7.3276737915804980e-03
      7.3187879982792477e-03 1.2049180016247087e-03
      2.6525960818309081e-03 6.6253587898089886e-03
      3.5556870531819381e-03 7.1086277281642348e-03
      -7.6786746900611609e-03 5.5226529191746100e-03
      2.4546601159945611e-04 6.7069841345716308e-03
      -5.4892554335973336e-03 -2.2069095218409224e-03
      6.2309970402336596e-03 7.4276348377517835e-03
      -8.3870935699605531e-04 4.8731496427108527e-03
      2.9091008266545456e-03 3.1030061005658124e-03
      -3.3222067879123381e-03 7.7032049501501703e-03
      -1.3646110875430154e-04 2.2777605100310207e-03
      2.3518125394824532e-04 -7.0736993635664306e-04
      6.4967086821943474e-03 -4.4525591992864806e-03
      -4.4723741599284137e-03 -4.1150992309099488e-03
      -3.7976761565231580e-03 -6.2857045991812875e-03
      4.7168576636201828e-03 -4.0660375709663859e-03
      -4.5789576765201505e-03 1.0117601579589883e-03
      6.6291348280420898e-03 -6.4769862405559247e-03
      -1.1588283636944357e-03 1.4914058946270913e-03
      -3.5371187632897527e-03 -1.8966518749076228e-03
      5.7193577713722209e-03 -4.7307581482421267e-03
      2.7713097832967001e-03 5.0144997190785584e-03
      6.9509894797209577e-03 -8.5815117397489865e-04
      7.4516773308992302e-03 2.1476622505315515e-03
      -5.1589502164385770e-03 2.5995930370528312e-03
      6.5232776421539160e-03 4.0526503048978852e-03
      5.0127236926181713e-03 4.3181499123920849e-03
      1.8497413421658189e-03 4.8265413923573707e-03
      2.9522626814467044e-03 -4.1446985794048779e-03
      5.7797679081011332e-03 1.4829385496218582e-04
      5.9940100341796443e-04 -2.8601536942819538e-03
      -7.2583811546893312e-03 2.9772632618527586e-03
      4.2438265343211620e-03 -2.4780429665360137e-03
      6.5854428676848410e-03 -2.1897574910606458e-03
      4.0919558519024303e-05 -2.9496005829577087e-03
      5.4552900007985771e-03 -1.8471758517286864e-03
      3.3624606258597484e-03 6.8643706117419902e-03
      1.1028927705723764e-03 -7.4988172419928664e-03
      2.9429027794134290e-04 -7.3008473134274967e-03
      -1.9309686843429718e-03 -7.3012777309959887e-03
      5.4443271617871112e-03 5.5444222598884608e-03
      3.6987745479361172e-03 1.6809379862191825e-03
      -6.3719318163577357e-03 -1.0724149925039218e-03
      -9.0842547541059276e-04 -4.7445322646325998e-03
      -5.2387489442660383e-03 4.6521800282575184e-03
      6.8578836996580151e-03 6.9661458107246341e-03
      -1.5902912190037938e-03 -2.1655303283695474e-03
      3.3844920706563248e-03 5.7699423300306156e-04
      6.5559443797017060e-03 -3.3671073312597625e-03
      -1.5141800229612349e-03 6.0544057229788163e-03
      8.0059910944831872e-04 1.4712431459477924e-03
      -1.4677182488146013e-03 3.9474851272604996e-03
      7.4610531766021214e-03 -2.4772628106072003e-03
      2.4798035108042644e-03 4.4162253092610605e-03
      -6.2706241090268559e-03 5.5854953821355535e-03
      6.5420140990416940e-04 2.7772640874816215e-03
      -2.7560645208168848e-03 4.0234225403095979e-03
      -4.8873296624166304e-03 7.1763427195748507e-03
      -7.5502023457726291e-05 -1.5808830209512305e-03
      5.3292015113580848e-03 -7.9152027754098714e-03
      -1.0714796904311197e-05 4.4241018825452085e-03
      -4.5827252329088252e-03 4.6537056343769513e-03
      3.8157286620218410e-03 4.9530503847370518e-03
      -6.2589098887271283e-03 -7.1919482586146914e-03
      4.2674584955596055e-03 -6.3904988135514407e-04
      -1.2943139578684042e-03 -2.2321270307238037e-03
      -9.7107265986474988e-04 4.5871035370846662e-03
      -9.2828816668375565e-04 -3.0406103106091309e-03
      -2.7050910818726200e-03 -8.4460490119188630e-04
      1.3887623711223629e-03 1.7217579694752774e-03
      -2.4407335008469581e-03 -3.0038220498411184e-03
      -2.8334044911650811e-03 5.6049136310593823e-03
      7.2019131203459623e-03 -6.4605410848076273e-03
      1.0689708502697379e-03 1.6499668719704424e-03
      -7.8696197419001292e-04 -1.7075432284888341e-05
      7.4668472397703065e-03 7.9410764505703450e-03
      -3.6947940884117739e-03 5.9199846601415062e-03
      4.4511478740746927e-03 7.4253665098794486e-03
      -4.4421206702079568e-03 4.1248462098519402e-03
      5.5319690529346995e-03 -7.2053681669443578e-03
      3.9444667578012911e-03 -2.7659908266906277e-03
      -6.2441753224567629e-03 -3.0221158495552613e-03
      -2.1169484771000574e-03 -1.4330936114587672e-03
      2.8035908263504385e-03 6.8835238704935322e-03
      5.3148377897264763e-03 -3.6523350889277902e-05
      -7.4328427679850925e-03 7.4119918253309526e-03
      -9.9022945673405511e-04 -5.9424300783664508e-03
      -5.4661285568763278e-03 3.2758855813037318e-03
      6.1886878253122560e-03 2.9861005098448783e-03
      4.3634109632233239e-03 7.6235061829190733e-04
      2.3035233423218953e-03 -7.8441061984833964e-03
      -3.1379893779976448e-03 -4.6423567734803963e-03
      -2.2026936438734263e-03 7.2611633073973482e-03
      1.7104197809805829e-03 5.5337222645533641e-03
      -4.1615581291169361e-05 -8.1203016189920225e-03
      5.4546968024383937e-03 -2.2057113014677236e-03
      -9.0997639105145939e-04 5.2227301615928728e-03
      -8.3586568979411176e-05 3.3195605931774628e-05
      5.6858079873202631e-03 -5.7614126467775938e-03
      3.3838829457270877e-03 -5.3066239537617787e-03
      -2.4561127612402465e-03 5.1133183477401001e-03
      -4.8877689881562736e-03 -5.2939925117055720e-03
      4.1430140143876065e-04 5.8872417403677060e-03
      4.8746308004776672e-03 -5.8064295624410947e-03
      4.5037565012759845e-03 6.6377651948639118e-03
      4.0364067965841487e-03 -5.2559403612252240e-03
      -6.0743104864641739e-03 2.3809294298027016e-03
      -3.6494102794680000e-03 -5.1650629084641630e-03
      7.2396356015386526e-03 2.2990345791593968e-03
      9.1861121804204097e-04 4.4968571275933308e-03
      7.0865355525588942e-03 -4.3487625258321061e-03
      -4.9589091029815712e-03 -7.0739334958627373e-03
      1.2810741131904072e-03 4.0402773354322793e-03
      -6.8135464516593100e-03 -1.1033164818190519e-03
      -1.8350905699763920e-03 -5.9709978372453438e-03
      1.8447528668575602e-03 5.8573160350863657e-03
      6.8914845035633488e-03 -2.1230110648024032e-03
      -3.5336164688293736e-03 -4.2067776577550571e-03
      -6.2065394127543893e-03 5.7751130034427124e-03
      -7.7231705253691871e-03 -1.7363943317352168e-03
      -7.4562156019041773e-04 -4.1766226608190345e-03
      2.0276195762222128e-03 -1.5356711884382591e-04
      -5.0382444552720031e-03 -6.1727575123725308e-03
      5.1024324784113978e-03 -5.0892730403435359e-03
      1.7332686651847346e-03 2.1223634889289116e-03
      1.2579028527101900e-03 -6.0278116203573177e-03
      -2.6529349817572662e-03 2.5997052884666268e-03
      -1.2717242807569716e-03 -6.4663663853903779e-03
      6.1840434887108636e-03 -7.6222800646857441e-03
      -7.7749540350096555e-03 4.2017438453751856e-03
      -6.3039569327411396e-04 3.3259994233759615e-03
      2.1959949956926106e-03 -2.2675510209189250e-03
      4.9664321893469910e-03 -3.3426794454259269e-03
      -4.9634489111029323e-03 -4.8547926557299548e-03
      -4.0044419652999208e-03 -5.1957442848165009e-04
      -6.1843653011631394e-03 2.4815107299002021e-03
      5.9446716540817327e-03 3.3873197380971123e-03
      4.5653895637487686e-03 -6.4545294860415652e-03
      1.5394310822062444e-03 6.5285795933796211e-03
      -4.0122763581197660e-03 -3.8898622692951890e-03
      -3.9470742700814252e-03 -1.9717535051097411e-03
      5.2866405890547386e-03 3.6471432790059753e-03
      -2.0371409058231047e-03 7.0230700442921396e-03
      -6.7922803892204626e-03 3.6942262025418775e-03
      -6.5680647929665615e-03 5.1843945622478127e-03
      8.4184331763102087e-04 -5.2496970527877293e-03
      -7.2315892652342617e-03 7.2401618260349030e-03
      3.4747927460095133e-03 -5.9632266648134355e-03
      6.3716694962048107e-03 6.5031378836746690e-03
      3.7586951678238727e-03 -2.9184435188323492e-03
      5.9919950007757006e-03 -1.9762819915679799e-03
      -4.1402997567139476e-03 -6.7355009360353397e-03
      2.4922088165795749e-03 7.1681835244352260e-03
      -7.6056851935238159e-03 4.0793063040216633e-03
      5.8882878195212285e-03 -3.9548964234435314e-03
      7.1599009433201428e-03 2.6855704962600135e-03
      5.3687883125856748e-04 6.6084839021228253e-03
      -7.3829254772627220e-04 3.4015037606594683e-03
      -6.3180453092627131e-03 4.6812475956378692e-03
      -1.5527442017868082e-03 -2.3600649865148819e-04
      -5.2901505267287565e-03 -4.3906337184608591e-03
      -6.4089873160573345e-03 5.0610629708085914e-03
      -8.3289580362072985e-03 -1.3438787450386377e-03
      6.0696031443951545e-03 -5.1585073275131881e-03
      4.5083342301238082e-03 7.6611649770319933e-03
      -5.3983112996684396e-03 -7.9549557973693230e-03
      1.8497023342029966e-03 9.8903451620903555e-04
      5.1042458685170971e-03 4.4487366441564149e-03
      8.8129407404473649e-03 -1.3926579291785423e-03
      -3.1100895051077836e-03 5.1543506657241445e-03
      -4.3583547499612529e-03 3.4427426105122440e-03
      7.7982582809515023e-03 -1.6844390707750189e-03
      3.4482589913052628e-03 3.9080023061478867e-04
      8.4185443772730921e-04 5.4935276414177954e-03
      6.3111910051369350e-03 -4.0696090419127893e-03
      -3.5172931719636862e-03 5.6710456994606487e-03
      7.2421034272975972e-03 3.5067572067635899e-03
      5.3856186923184396e-03 3.1159384029007223e-03
      -2.9181601700749180e-04 -3.8294339485729603e-03
      -7.0854987781747848e-04 -3.7027777122293579e-03
      5.8650798226268629e-03 -4.6619505678838925e-03
      3.9078244227897935e-03 -6.4547938797828311e-03
      -3.0419118009519916e-04 -1.9652651762538296e-03
      -8.2150653313491496e-04 6.2585715984014387e-03
      4.0240064246037351e-03 -3.3635098220025465e-03
      1.5342192607435254e-03 -2.1868565138571145e-03
      3.0700866945976200e-03 5.9733527366874631e-03
      -3.7398913232993872e-03 3.8000481270378588e-03
      7.1141769009484444e-04 -2.9310013135671643e-03
      5.1747678665970921e-03 3.2850019412700706e-03
      -2.0415230398941886e-03 -3.2872943358162632e-04
      1.7668502724299370e-03 -2.7335421309580589e-03
      -1.7653903089108237e-03 -1.5877856437634496e-03
      8.8737311345962223e-05 7.0404851884269832e-03
      6.3284116084473549e-03 6.1474985831786932e-03
      -5.6446511105573529e-03 -1.3894102805308884e-03
      -5.3851961605845379e-03 -7.7089227096327432e-03
      4.7595709782069758e-03 2.4759425644640964e-04
      5.3725730203714730e-03 5.4124579001133153e-03
      2.5069874731985702e-03 -9.5581572983433158e-04
      -4.5970964744852455e-03 5.7013280129026679e-03
      -3.7847456362017962e-04 -6.7223168462243058e-03
      -7.8801152602386263e-04 6.2556014094633221e-03
      -5.8516753946313178e-03 7.0637492971031878e-03
      -2.2632549157949461e-03 -3.2411358202149779e-04
      3.7323567590798238e-03 5.6440403193484170e-03
      1.9679126617051807e-03 -6.6566723332449201e-03
      5.5126969655969029e-03 3.5217775005641093e-04
      -4.3573600483308500e-03 5.4009154803588760e-03
      2.4149665547674184e-03 -1.3371126083386281e-03
      3.3561647627491364e-03 -3.6776788066750525e-04
      -4.7118978638201903e-03 1.9167931851161563e-03
      4.2073282466812160e-03 -3.4561377677466282e-03
      1.3194996245214871e-03 -6.6536101170966934e-03
      -3.2211822723370053e-03 4.8147558783797010e-03
      6.7906632954080623e-03 -1.2915078255260376e-03
      8.5174173477087639e-03 -2.5823971286432221e-04
      6.1739702722929711e-03 -6.0223130173858372e-03
      -3.6998231529961744e-03 -3.1294907927534076e-03
      4.7053004617227693e-03 -4.7591780269467081e-03
      -3.5352099117609021e-03 5.8477927538914017e-03
      -7.7860870552303955e-03 -3.8197578743807336e-03
      6.1962598178876491e-03 -5.8261102580020960e-03
      5.0198273882418563e-03 2.2043060750555218e-03
      -7.2839225046158603e-03 4.9893109948653488e-04
      -7.9808672801632494e-03 4.7541697023469175e-03
      -7.1555220510040509e-03 -5.3613287780912870e-03
      -2.1100938247142951e-03 -1.1593321299363864e-03
      -3.0536295429135106e-03 5.0618298705048517e-03
      8.7465446520267043e-04 7.0181985135734891e-03
      -2.0838301139745031e-03 2.5785362350011524e-03
      7.2331694005330731e-03 2.9129761276241312e-03
      -3.8462842178896982e-03 1.8354673473939750e-03
      -8.4748976606182237e-04 -5.3090998378945977e-03
      -1.9123035322180454e-03 -5.7510186890206852e-03
      -1.8156224754979084e-03 -5.1351692178744409e-03
      7.1698575839102838e-03 -2.5620575744291600e-03
      2.4137304708745405e-03 -5.1159349143165412e-04
      -2.6017743466702353e-03 -3.7433846030473870e-03
      -4.0877089874725932e-04 -5.6275105758435192e-03
      5.0978955310799212e-03 6.9903930422663277e-03
      4.2208944014976684e-04 5.6343367985671683e-03
      6.9407944814933028e-03 3.1214988614246893e-03
      5.0698252819876555e-03 1.0235571959056355e-03
      2.8700619272665202e-03 1.1688149613753637e-03
      2.9812314290107011e-03 1.3412509064874810e-03
      5.0928454030219105e-03 6.3336414222851583e-03
      4.1810194771897099e-03 -2.5334453004537188e-03
      -1.2100299753120564e-03 -6.6181945252110326e-03
      -2.5808256436588295e-03 5.4854604079725639e-03
      6.7309783076487965e-03 -6.0310368028000591e-03
      -3.2331496780346356e-03 -3.0658356783319078e-03
      6.4171470369760496e-03 2.5655618978756727e-03
      -3.1515641819465853e-03 5.0604530369123312e-03
      6.2949717266949281e-03 7.4183305254322592e-03
      3.6949965608471789e-03 3.6872401352988525e-03
      -6.8138072480613109e-03 6.5258592210909331e-03
      2.3579196641140944e-03 1.3019146889388714e-03
      -1.2471005210337291e-03 3.6823243217249117e-03
      2.7080181824416594e-03 7.5194759266609425e-04
      -4.6796600808649436e-03 -1.3827693993618298e-06
      7.4454980274080446e-03 -7.2013611132411524e-03
      3.0641589112600288e-03 -6.6350573158688864e-03
      2.6276357384298040e-03 -3.6306430379617490e-03
      -5.2676875483776784e-03 -2.9870323232497140e-03
      -7.5201172001722509e-03 -1.2144350838592800e-03
      -5.8514392559876722e-04 -2.8967604742653622e-03
      4.1519408531676726e-03 2.1898760992582916e-03
      -4.3267485227620134e-03 -7.2241657755053321e-03
      -1.1372567686727022e-03 4.7747156964581218e-03
      7.6145182143518607e-03 8.1018892752850874e-03
      1.9093841260152350e-03 -6.0041574565655384e-03
      5.1504720571661353e-05 -3.6883374765746767e-03
      -5.1516557563224281e-03 -7.2998975336506814e-03
      -3.9469002065493043e-03 1.7339569503739588e-03
      1.0127240628395608e-03 -7.2587451671300698e-03
      1.6023800881439269e-03 -1.9241274277575237e-03
      -6.7345468651623551e-03 7.7420101793686715e-03
      6.1219914621133608e-03 6.3923823775472836e-03
      -7.1030553033528711e-03 -6.2015552924718819e-03
      5.1363434901722724e-03 -4.0161841427101760e-03
      -2.4284850165550292e-03 9.8129397495484282e-04
      3.8990006910528553e-03 -1.1080657030633854e-03
      6.0898541283435604e-04 7.1382356994077268e-03
      -3.6275275312785938e-03 2.9588905190792627e-03
      1.8561418901781213e-03 1.4735758755376955e-03
      -4.8499157793633983e-03 -1.1362992689938453e-03
      7.5224796653656041e-03 -2.4032846900359366e-04
      9.1585214548838695e-04 2.7832263467250759e-03
      -3.3195609895517929e-04 1.0018025464359280e-03
      -2.5792661310832083e-03 -7.4011696460544009e-03
      2.3811128733327038e-03 -1.8247917203736571e-03
      -6.7782103691935037e-03 -2.7253571112513669e-03
      4.6031750902346515e-03 -1.1284953661034041e-03
      5.2968588593410902e-03 -6.0050297955922217e-03
      1.1112723041515544e-03 4.0694958291283513e-03
      7.6491020508401351e-04 -2.4647353767020354e-04
      -7.1153628993693620e-03 -6.8093354811849076e-03
      -2.2395060297744993e-03 -4.5536477745756919e-03
      7.5000470866819829e-03 -4.6802806545813242e-03
      4.0507309770784683e-03 -3.7430509272346046e-03
      5.1298210115106428e-03 -6.8548002962661100e-03
      -9.1112771879451649e-04 -3.2936554535069437e-03
      3.0493139820074451e-03 -1.2194220395466767e-03
      8.5338834721023858e-03 2.1574311938720898e-03
      4.1598885852357024e-03 -6.8635415024687514e-03
      -5.4728438180519116e-03 -2.2538754013616226e-03
      1.4072206946709037e-03 -2.6122861182916075e-03
      -8.8071722363409517e-05 -3.0108917127937506e-03
      -6.4466578589229576e-05 -6.7549655015173198e-03
      -6.9259997384876325e-04 4.3060964976881179e-03
      7.4054397317628766e-03 1.1538070592676736e-03
      -1.7561902263533307e-03 1.1265589447083087e-03
      -2.9980628768577098e-03 -3.3395952576111350e-03
      1.3638812112517086e-03 6.2095864283008579e-03
      4.0718578317768929e-03 -2.5381954248774644e-03
      -4.6792388036670665e-03 3.9645986025091734e-03
      -9.2708221249911702e-04 1.9744530435264235e-03
      -4.9566186196219122e-03 1.6490001514161577e-03
      -4.6545390545775544e-03 -4.9107837800981338e-03
      -3.5935326162665313e-03 5.6958684636457535e-03
      -2.3671520108743882e-03 7.8362385841065983e-04
      3.7931199034027365e-03 -3.9089232587285316e-03
      -3.9067405336648481e-03 5.5830437716136727e-04
      4.2039703572594432e-04 8.0199802549841964e-03
      -3.1962953888690429e-03 7.2133554197861237e-03
      -3.8006131328107368e-03 3.0299052205101525e-03
      -5.3199472544345162e-03 -3.6978674334977903e-03
      1.5793939237492831e-03 7.9468157047992895e-03
      5.9995131936530794e-03 -1.8916561149042231e-03
      -7.1273648610934714e-03 4.1608435693317233e-03
      3.2708241349640784e-03 -3.8118108285468315e-03
      4.6652324902125113e-03 4.0559344963060984e-03
      -4.1932801742083963e-04 -3.5728186638093718e-03
      4.0379756189241786e-04 -1.3629559886389011e-03
      1.8638756242609152e-03 2.4656904567884456e-03
      2.0782006243605794e-03 -4.8983819397708222e-03
      -4.3585319029307776e-03 5.8192252899176219e-03
      2.1571946428042450e-03 3.9078160016815982e-03
      4.6956282538028141e-03 -6.0801123505374068e-03
      5.2770643407531155e-03 -2.8622146411201138e-04
      -2.8514283199876202e-03 6.0974535851585103e-03
      1.1051182810811137e-03 -7.2950059407673436e-03
      -2.0371981537141708e-03 -6.5699642205569566e-03
      4.2939244359419095e-03 1.3063381993293770e-03
      -8.5116637644742205e-04 -3.0968670643128689e-03
      5.9285704407037942e-04 -5.8164671644856019e-03
      4.5063737172867610e-04 -4.5902702562476564e-03
      -5.8914184580693175e-03 5.9985934711959624e-03
      2.3877144014090882e-03 -4.7610553303531209e-03
      -4.7767374515359532e-03 -1.1374651054048097e-03
      -7.1136719478436328e-03 6.0164993297366996e-03
      1.2515305337275847e-03 -3.7687652347559554e-03
      5.0615398602862956e-03 2.8031763275557457e-03
      5.9355165553259467e-03 -3.6489784228218511e-03
      -1.7182060263310356e-03 4.6105882953699799e-03
      -1.5406667342864686e-03 -3.4002985939535809e-04
      5.8129920426716929e-03 -6.5935477844589873e-03
      -6.0090930941114106e-03 -4.9632436544561568e-03
      -5.1966097079117002e-04 3.5927664876781763e-03
      2.9461641288665704e-03 -5.9498084483349464e-03
      -2.1926335521023086e-03 2.4407342715043550e-03
      5.8356379881191597e-03 -6.9985107609259554e-03
      1.5307468106330240e-03 -6.3398208282413457e-03
      5.9884083969673572e-03 6.4567234615060783e-03
      7.4146403403885655e-03 7.0426097231597127e-03
      1.0882821909033518e-03 -3.6424948579796590e-04
      1.2878605139618232e-03 2.8050099642187203e-03
      -4.1541473631401607e-03 4.6913953339737429e-03
      -5.9815184388310278e-03 -2.8337904540531242e-03
      -2.7638377629383526e-03 -3.8677973794467701e-03
      -1.8527496876348346e-03 -7.8110797673310907e-04
      -5.1458270278457894e-03 -7.0371189899961382e-03
      -3.6929486687712976e-03 2.1718830321692482e-04
      6.4121858479407627e-04 -3.8191951027353012e-03
      9.8983764624404453e-04 7.6518743245460805e-03
      -2.2138346217019295e-03 -2.4054460477959476e-03
      4.3612241430048843e-03 -4.9576744621814359e-03
      3.4182238744248227e-03 -6.8689851982995844e-03
      -4.8791600431580427e-03 -5.7043563918556519e-03
      -3.5812552429410355e-03 7.1485907738132268e-03
      -2.7991433825208458e-03 2.6454646421390053e-03
      -3.9610400550563266e-03 2.0137550187243349e-03
      1.7171888802842332e-03 4.1437492548157401e-03
      1.7879122632375869e-03 4.8972366890644506e-04
      -2.4085421159573115e-03 6.7093146345258495e-03
      -4.0598532515384441e-03 -5.1392984520518851e-03
      1.8643018067743434e-03 3.7565272231520966e-03
      5.5364058730911258e-03 1.5938734233327772e-03
      -2.7219423749474886e-03 -1.1143028717928425e-04
      6.0043959419352798e-03 -7.4627612828410995e-03
      -4.0357792813728336e-03 3.6799094538973592e-03
      -5.6679130812604612e-03 -6.5030043477942246e-03
      -1.1800145295854734e-03 -6.1780405865929332e-03
      -7.8477720476062447e-03 7.8408872648091966e-03
      6.0248610951488127e-03 2.3236768998783522e-03
      -4.9420034290245437e-03 5.4846959790277516e-03
      -5.4738902541528510e-03 8.2866331488675056e-04
      1.3338717211147939e-03 7.8301322218564916e-03
      6.0803974210349087e-03 3.2643838838463273e-03
      5.4689981930132227e-03 4.8266785746414629e-03
      -4.1479770885943235e-03 -2.3132796696129806e-03
      -6.6359336259477295e-03 2.0355355535931958e-03
      6.9609405932282691e-03 -2.2950133565239747e-03
      3.3367045833179098e-03 3.6533298508284982e-03
      -4.9764308716656559e-03 -6.4890070910819100e-03
      6.2534725634736266e-03 -1.7465452932317789e-03
      4.6811073320279653e-03 -6.7555075511292386e-03
      4.4654962029593865e-03 3.3970102678180267e-03
      -2.2485107848054628e-03 -6.7004018413191931e-03
      -1.8942736950518242e-03 -2.4755710227395895e-03
      2.5210768625374158e-03 4.1462526522516568e-03
      -4.0869717519910768e-04 -3.7399196500984945e-03
      4.5214294506935905e-03 -2.8666145183292263e-03
      -3.8837923507574995e-03 -1.3402842936249295e-03
      -5.1773789120111062e-03 -7.7860337326512673e-03
      5.1178077660726301e-03 -2.8364742702035018e-03
      -4.3691931706768342e-03 -5.5412042784189633e-03
      4.3428189441864617e-03 6.7201009765631347e-03
      -1.4812448083095175e-03 -3.4211602549512349e-03
      -2.8345957377905605e-03 4.1756100741822049e-04
      -4.8123719904074984e-03 5.5876312416074459e-03
      4.2934466562808667e-03 -9.5682460664612374e-04
      -4.0678149006764036e-03 -7.6406027090153063e-03
      -1.5359570863129094e-03 -6.1866064575690557e-04
      -2.0541766282894743e-03 -4.2762401384160631e-03
      -6.6126089598428908e-03 4.8155265220686961e-03
      3.8496402765919070e-03 -3.3056994506772391e-03
      3.2477012598424262e-04 3.9428580252356153e-03
      6.6645278391352326e-03 -1.5065651666140705e-03
      -3.2297014874934655e-03 -2.0162003466667180e-03
      4.8234554557051673e-04 -7.2347760947799617e-03
      5.4320632074876642e-03 9.9430937216248862e-04
      2.1986246454571024e-03 4.3710256266099277e-03
      -5.1077890579439844e-03 6.1260599199134454e-03
      3.7933210045449552e-03 4.4314692056394624e-03
      6.2655753737117115e-03 -5.5258274285492235e-03
      3.1963340625379855e-03 -1.8463485672539071e-03
      6.6459470966815752e-03 -5.2814001529827631e-03
      -5.3750474270645504e-03 3.2113603916576763e-03
      -1.5803020640472600e-04 -4.3517881934960461e-03
      7.3484914096176069e-04 -7.3797601397502790e-03
      6.7933334039628197e-04 1.8062605411802554e-03
      -3.4520561844533621e-03 2.1797202826618583e-03
      2.4202156278253571e-03 6.5459989102078214e-03
      -7.0281000109771678e-03 -8.0643079151256573e-03
      -5.4330044816185983e-03 5.8765887980854331e-03
      3.8361358541886405e-03 -7.8565257073406735e-03
      -4.0094838005288744e-03 -6.9274358318072975e-03
      -4.2816179035994380e-03 -2.0798472787858504e-03
      5.9710540638639809e-03 -1.9781120203270103e-04
      -5.5709068885846673e-03 -1.6542514998353279e-03
      -1.2031767122125260e-03 5.7543743047809856e-03
      -4.4115582066343523e-03 2.3382162959713695e-03
      6.0350068321234171e-04 -6.0996343030914567e-04
      -2.2173324770536013e-03 -1.3600649775636885e-04
      -6.4637404802558073e-03 2.6703576929411098e-03
      4.6143020262695315e-03 -2.9796297025518762e-03
      -6.3804303055802359e-03 2.8833696829345390e-03
      3.0423686602009305e-03 3.7898910285185678e-03
      -9.4192919309690596e-05 3.5631618011802498e-03
      6.7608170645904343e-03 1.1970850947680364e-05
      3.4804421538676029e-03 3.2762846035187024e-03
      -1.0966035482870167e-03 2.7770000954444023e-03
      5.9077769222780948e-04 -3.5394754215941173e-04
      5.9853016230220569e-03 -3.2743184019580597e-03
      -2.0997108939438767e-03 6.7121239234505959e-03
      1.0119515366040933e-03 2.4389746087996843e-03
      -3.1141918483529730e-03 4.7689008730549378e-03
      -4.3123802535618297e-05 2.7303959719447496e-03
      6.5413055005501966e-03 -2.8970230396700822e-03
      3.7187603565596358e-03 4.8179282038369664e-03
      -4.9434878684805937e-03 -1.8014339559302092e-03
      -6.3145898524493706e-04 1.6956820330724599e-03
      4.6919975214184496e-04 1.4307716905115006e-03
      3.6479253796162093e-03 -4.8909483194849006e-04
      -5.2833942389348531e-03 3.4795153693618929e-04
      5.8997658065217933e-03 -1.7129802466536498e-03
      2.7135377020032097e-03 -5.2134064228257114e-03
      -8.8579791941785729e-04 -2.6437364004205941e-03
      -3.9627117946464136e-03 -5.7422443866492166e-03
      1.9156261104404555e-03 1.9696726334634518e-03
      -6.2848750188250480e-03 -1.2122744019176523e-03
      -2.6909251107469223e-03 -5.1367236613314316e-03
      -1.8072770283325684e-03 4.9714843439497298e-03
      -6.5741733612285080e-03 -1.7219481570769264e-03
      -5.8731090543530434e-03 2.1398619563510078e-03
      -2.0798897617666772e-03 5.5513495224588484e-03
      -7.2832501443791881e-03 -4.2052269173233729e-03
      6.0867700238288322e-03 -8.1012849343079524e-03
      -2.3741932703561794e-03 8.6226916656311874e-03
      -6.5276168001625768e-03 1.6445107485950055e-03
      7.0426282331573420e-03 -6.9803582022630664e-03
      7.8943006670118120e-03 7.0631505958494607e-03
      -2.5686389400154741e-03 4.8310112045177626e-03
      -1.5804285129844492e-03 8.7235456886652777e-04
      6.8347216161214702e-04 -4.0463657280091691e-03
      6.7404296569184242e-03 4.9604912857735273e-03
      4.4816200770090254e-03 -4.7791073366625992e-03
      -6.2989127646310480e-03 2.0047452893715939e-04
      2.4220101179237368e-03 2.8576274966751231e-03
      -3.8525622330572093e-03 -2.2153590235262435e-03
      -4.7116792979735762e-03 4.6073646050669463e-03
      2.8363477478600633e-03 6.0838671790616897e-03
      6.2646356470400641e-03 -3.0241285137039566e-03
      5.0856653440253634e-04 4.1258775473496214e-03
      -6.5919062743699094e-03 -9.7286924871521521e-05
      -6.7954871294950781e-03 5.2649686175192884e-03
      -1.1552930701081280e-03 6.6795805827390160e-03
      -6.3840149526433075e-03 2.2269540470825351e-03
      -2.5633322510935472e-03 6.7880416900445118e-03
      6.1162836607785145e-03 -4.1439162590591067e-03
      1.4127373224576700e-03 -3.1915036956526932e-04
      -6.5728596471249605e-04 2.8789062640311130e-04
      -6.7769371279425786e-03 -6.0221755757516654e-03
      -6.6649550523787890e-03 -5.4549504768174736e-03
      -8.5321339459879376e-04 1.3181795400351970e-03
      -6.4210472838518492e-03 3.3398647727277634e-03
      5.4821667495216246e-03 -8.2069134295775304e-04
      3.7214728079792742e-03 -1.5158147924046940e-03
      -5.1213872514392104e-03 -2.8835965416172046e-03
      -5.9786882960459987e-03 4.7454463747155897e-03
      4.7927596506516972e-03 -7.5038150818623170e-05
      -5.0751391581826113e-03 -1.8323989048752684e-04
      -2.7764540575403161e-03 -2.7497329807773733e-03
      -6.8283143238951436e-03 4.7859425550333013e-04
      2.6502908968411417e-03 4.4547015195490845e-03
      -2.6579441645535151e-03 2.4742783423203070e-03
      -3.0987179379615929e-03 3.8549389493238179e-03
      -3.8908328778437615e-03 -1.7920032907154616e-03
      -4.2709536577224790e-03 4.2262607353507637e-03
      -1.7888411677627668e-03 -2.6684174039165922e-03
      3.1499409886854937e-03 3.9927079148178732e-03
      -5.7808921249440180e-03 -3.0633594937672674e-03
      -1.2977899229286991e-03 8.8559864677704590e-04
      2.8056157245922046e-04 -4.8615998033434979e-03
      5.3129433271587104e-03 5.5280830532886188e-03
      -4.9835089838734222e-03 -7.3709895702501801e-03
      -6.6214442055347817e-03 -1.9482973850758168e-03
      -6.0248469445594787e-03 3.5680556036449128e-03
      -6.8335217654311737e-03 -5.6872019301624577e-04
      -4.8539830835357886e-03 -3.4651123193123071e-04
      4.6935961264432998e-03 1.1192266879390790e-03
      -1.8270892189599470e-03 5.0522017895391460e-03
      7.7318900588400257e-04 7.6421665819852861e-03
      -1.7381069046462267e-03 -3.4744678506467772e-03
      6.7922387275602845e-03 -4.8589307053316317e-03
      -6.8748973422215415e-03 2.2353177171213247e-03
      -1.1303811742636935e-03 2.4545362655214969e-03
      3.0270498760742582e-03 9.8150803242897842e-04
      -1.6309421838266946e-03 -3.6332268330222452e-03
      5.4241863780022485e-03 5.3190775226283956e-03
      -3.0375192796894732e-03 3.3482578381054096e-03
      -3.9742151271246005e-03 6.3062906790366047e-03
      -6.8860850057118573e-03 -7.7805380074846770e-03
      3.2048685489941319e-03 1.5762432328321507e-03
      5.3288741957587442e-03 9.8735946964101590e-04
      1.7406528166361730e-03 -5.3381262335925623e-03
      5.2242754906731501e-03 2.1053149239404082e-03
      5.6158214497558428e-03 -1.2659823977683937e-03
      1.9340690899899123e-03 6.0357083934389662e-03
      -6.3758755257619319e-03 3.1024309796810726e-03
      5.7910043231607245e-03 -6.9504707706265776e-03
      4.3007933986543845e-03 -7.0196329860517798e-03
      6.7928328576927633e-04 4.2780270970159606e-03
      -7.3706550495449248e-03 -6.6956641799092182e-03
      1.2284757059209072e-03 2.6518401770501054e-03
      -3.8221445499547371e-03 -2.5677266279353628e-03
      -6.1325648022597153e-03 -3.5210727212872158e-03
      -1.8934489000497475e-03 7.7302241480439477e-03
      6.7183610092634008e-03 6.4311024011669514e-03
      4.7868395721496881e-03 -5.3165783818242638e-03
      -6.0229617426031008e-03 -4.7210904913621296e-03
      -4.0449633137107930e-03 -6.3210850706756673e-03
      2.5003763274773789e-03 1.3953593658016666e-03
      6.2313771750550414e-03 -2.4577050125777150e-03
      1.9022575552580321e-03 3.0968684371899930e-03
      -8.6790200190193373e-04 -9.8388357249367992e-04
      3.3319253203007305e-04 4.8598214889911057e-03
      -3.7876757496437606e-03 -3.9988201836278482e-04
      4.6169248829841216e-04 -3.5142692027803181e-03
      -6.3154581138183258e-03 3.2038587449263194e-03
      -2.6439361301412224e-03 1.0107205155549159e-03
      6.9509731477812456e-04 -7.0501671815653378e-03
      6.4535817977919834e-03 4.2501271425337845e-03
      -1.1470172800887122e-04 -5.7831034502156065e-03
      -3.6770807232296716e-03 3.4640778004816890e-03
      -2.5839819494488732e-03 7.1286281025098371e-03
      -7.2185038471492737e-03 1.2954018461536988e-03
      2.9910254371840598e-05 -9.8273509954417606e-04
      -5.5875722910731793e-03 2.3176758301760845e-03
      3.2302749094498839e-03 5.2921758124208958e-03
      -1.3690223751525157e-05 -7.7773727467838889e-04
      1.0588807361164732e-03 -6.6387780386161959e-03
      -2.8257151582601076e-03 -2.5789669882768755e-03
      -1.8703198495916521e-03 2.3994875657014549e-03
      3.3327618765495747e-03 -5.9753178844489992e-03
      -5.5606525981740972e-03 4.1384306749044173e-03
      4.1651552378576895e-03 2.4245392321314658e-03
      -1.1636948039586632e-03 2.3361753992309888e-03
      4.2219198939248848e-03 -6.3992777013331314e-03
      8.1068501501656938e-04 -2.4929319677890779e-03
      6.5177465326121046e-04 5.9556317651742125e-03
      -4.4556448407255950e-03 -6.3507873348696365e-03
      -7.9827318847328042e-03 7.0492431853041689e-03
      -6.1410087481464440e-03 2.0226022237443513e-03
      -4.0083429658196333e-03 -1.4873158791254112e-04
      -5.1783005320619789e-03 -8.3881111758594019e-04
      -3.6728241801274254e-03 4.5368753815904668e-03
      2.6103431300265453e-03 6.5312450621692756e-03
      -2.9375714476311578e-03 2.9664059754758512e-03
      -2.4869861849192753e-03 -4.0636715299855984e-03
      -6.0547023666623738e-04 6.2537126186705070e-03
      -2.5815658736297567e-03 -2.1496105947485292e-03
      3.1863948371883065e-03 3.9388493204408660e-03
      -7.1020970150032199e-03 6.4785507741332380e-03
      1.2553886067723620e-03 3.4974512145166769e-03
      9.5241670367270863e-04 -1.9708446954667754e-04
      -4.2910080810928968e-04 3.9014251783948067e-04
      -4.4804549653237376e-03 -1.0411504683272639e-03
      4.5032110802988041e-03 3.1952067595376011e-03
      1.0143167607304770e-03 -3.0868955917183706e-03
      -5.9539457631310952e-03 2.6965133022954944e-03
