<?xml version="1.0"?>
<opencv_storage>
<SimpleOcr type_id="opencv-ml-ann-mlp">
  <layer_sizes type_id="opencv-matrix">
    <rows>1</rows>
    <cols>4</cols>
    <dt>i</dt>
    <data>
      7 16 16 2</data></layer_sizes>
  <activation_function>SIGMOID_SYM</activation_function>
  <f_param1>5.9999999999999998e-01</f_param1>
  <f_param2>1.</f_param2>
  <min_val>-9.4999999999999996e-01</min_val>
  <max_val>9.4999999999999996e-01</max_val>
  <min_val1>-9.7999999999999998e-01</min_val1>
  <max_val1>9.7999999999999998e-01</max_val1>
  <training_params>
    <train_method>BACKPROP</train_method>
    <dw_scale>1.0000000000000000e-02</dw_scale>
    <moment_scale>1.0000000000000000e-02</moment_scale>
    <term_criteria><epsilon>2.0000000298023224e-01</epsilon>
      <iterations>100000</iterations></term_criteria></training_params>
  <input_scale>
    6.7626071363762148e+03 -1.0413453124501805e+01
    9.0261796859081127e+06 -1.0763015764810557e+00 1.
    -2.2369174568215300e-10 1. -7.3555057661031653e-11 1.
    -1.5335905679766882e-20 1. -6.9976345800081300e-16 1.
    2.0215583722664754e-21</input_scale>
  <output_scale>
    5.2631578947368418e-01 4.9999999999999994e-01 5.2631578947368418e-01
    4.9999999999999994e-01</output_scale>
  <inv_output_scale>
    1.8999999999999999e+00 -9.4999999999999996e-01
    1.8999999999999999e+00 -9.4999999999999996e-01</inv_output_scale>
  <weights>
    <_>
      -1.9563852607821272e-01 -8.0385597962964711e-02
      -2.7466485087423265e-02 1.8803866234047645e-01
      -1.6589687394309219e-01 -1.0309583336857764e-01
      -7.7076074760967381e-02 1.1203961838946490e-01
      3.8762627697484182e-02 1.2332495454226625e-01
      -2.8207268025308274e-01 2.2051704499420896e-01
      -3.6561772872246483e-02 -1.4035692561653842e-01
      -4.2090094369380493e-02 -8.9417204462879346e-02
      1.6614654807668716e-01 1.2859008360146237e-01
      -1.0971026882181162e-01 6.6363189909035961e-02
      2.4584354836187550e-01 1.0179976832084751e-01
      -4.7039577921837043e-02 -1.8646183702047428e-01
      -1.4316062358337900e-01 3.2948501108111744e-01
      -1.4367671397695359e-01 -2.3624454481296853e-01
      -1.6896774154338937e-01 -1.7245787858139328e-01
      2.2417024081899045e-01 2.0340051203749521e-01
      1.8161739563806811e-01 1.0641622822093909e-01
      5.4534458964536410e-02 1.7699171497630697e-01
      2.3086181078074780e-02 1.8888303421635805e-01
      -1.1351900251350526e-01 2.3420966342902749e-01
      1.7114873866830441e-01 6.0185763281820494e-02
      4.6541870548988840e-02 -1.3608535662084761e-01
      5.2164345285553249e-02 -1.2792275684147192e-01
      -2.9978988161850267e-02 -1.5508402946475968e-02
      -9.4268954005959027e-02 -3.8401745782731217e-01
      -2.7452058509146932e-01 1.4540559567401554e-01
      -1.2088718206207860e-01 -1.5988965612073328e-01
      -2.0085529567091986e-01 -5.4488934317800117e-03
      -2.1303773570826948e-01 -1.6457251651281640e-01
      -4.9855129973967877e-02 1.5754568403470740e-01
      -2.0754164211527457e-01 9.0055338379576841e-02
      -1.1285717023140168e-01 -1.4427325453566389e-01
      1.2788060984086183e-01 1.3613737463214862e-01
      2.3786591709416163e-01 1.1559278449961007e-01
      -2.3220778096380087e-01 -1.9126044991778127e-01
      -1.0275645532189319e-01 -1.5401694391667925e-01
      -2.2184277225542864e-01 -1.4286291733212797e-01
      -3.2107150213467162e-01 -4.7288491113525087e-02
      -1.2483689365461728e-01 1.6778088647205552e-01
      -1.8256206519170326e-01 -2.2959803721555319e-01
      1.9878238353724378e-01 3.2699701284329107e-02
      -3.1814450127850107e-02 1.8127728970102741e-01
      -1.2687538369447077e-01 -8.8775262616214171e-02
      -3.3197790974941699e-01 -1.8166552681595721e-01
      -5.1707119206041277e-02 4.6399958896339586e-03
      5.2735297117351268e-02 1.6595566023495806e-01
      2.3753799768896267e-01 1.1156048378444039e-01
      -2.3810769302027002e-01 8.1867632059200765e-02
      3.5665582822991912e-02 -1.3175355647082354e-01
      2.6436452005643524e-01 1.2642257458918213e-01
      -8.5203049896616118e-02 1.6629599543948062e-01
      1.2664700182242500e-01 -1.2615751699661587e-01
      -1.6034038288107738e-01 1.7409698071865354e-01
      -1.0450703426291516e-01 -3.6363218188775553e-02
      1.7262807642968941e-01 1.8990689791480606e-01
      1.7023374820639373e-01 -2.3593495674271855e-01
      -5.3954448750192854e-02 -1.5802726504357004e-01
      -9.6885096094740483e-02 7.5480426111861121e-02
      4.6645647685047774e-02 -3.9915644065823402e-02
      -3.9067292864474266e-02 -1.9021115630283231e-03
      -2.3975452805788307e-05 -2.6438392911876205e-02
      -2.7136112643832803e-02 -6.0115878494745471e-02
      -1.1867545658858292e-01 -3.3136588816200595e-02
      6.1565912909444652e-02 2.4835261175223836e-02</_>
    <_>
      -4.8772325994768724e-02 7.8816129281360919e-02
      9.3150583079218890e-02 1.2573272991808743e-01
      4.5175995427531382e-02 9.2528433314116407e-02
      -6.9622332341157098e-02 7.4991748482277854e-02
      3.9924058437813090e-02 -1.0512840316529469e-01
      -9.1660242983090182e-03 1.0444460149685973e-01
      6.6999509659200748e-02 -1.7170127102540334e-02
      -3.4147216298004102e-02 9.9325060543336036e-02
      -3.1773179136927024e-02 1.2707844961253664e-01
      9.6135649352393129e-03 1.4965628315076491e-02
      -1.4537646038498112e-02 -5.0784527847150013e-02
      2.5630550761145454e-02 6.1402539641729613e-02
      3.3184710627315699e-02 -5.2770444303104819e-02
      3.2677399163480746e-02 -4.7964536269825983e-02
      -1.1395435953591116e-03 1.0120954146467626e-01
      7.9482252399799100e-02 -1.5122449682063210e-01
      -5.4246005839828394e-02 8.2493110276131099e-02
      -7.8892052599285098e-02 -1.2913943481719226e-01
      -8.0028224852737265e-02 -3.6159532964407121e-03
      6.0741135394035903e-02 -6.1665455084152540e-02
      1.1239726234096849e-01 1.0658227694963170e-01
      -2.8360716362043400e-02 -2.4109987048856592e-02
      1.0978533682623398e-01 -1.1881721655760907e-01
      7.5031523729898103e-02 -4.8679351864508481e-02
      5.0134324718973222e-02 -1.5330991300092835e-02
      -7.0919676857105110e-02 2.1916500376325403e-02
      -6.2654308959115695e-02 -2.5941861828961445e-02
      -6.2196062800041627e-02 6.9164973411978359e-02
      7.0917572106660637e-02 -1.4804581285697876e-02
      -6.6433954983892887e-02 -3.8862826102949763e-02
      1.0624343432065522e-01 9.0790228225233346e-02
      4.8782226418231024e-02 -3.3310455293790960e-03
      -3.6818583136683479e-02 1.7736333638182420e-02
      1.5135065203006703e-01 9.8579903386768752e-02
      -3.0219371261781126e-02 -1.0711893896504040e-02
      6.8531414265187884e-02 6.8167011459175406e-02
      8.3111651772205405e-02 -4.6417409373000894e-02
      8.1908000271364426e-02 5.1944714797546816e-02
      5.6469844786354348e-02 -3.4190567480630617e-02
      8.6032445695511953e-02 1.4475571359506254e-01
      7.9195601707361021e-02 -1.2875311664185451e-01
      2.3076999067761633e-04 -2.8350725258980924e-02
      5.9194829435893680e-02 7.4847656690209582e-02
      4.9044040040783853e-02 8.2555183722878761e-02
      -7.8823968525410570e-02 7.8614822865346504e-02
      1.1219339435446565e-01 -9.9825684135760526e-02
      -7.5444202723970025e-02 1.1095385950117240e-01
      -1.7770365340187985e-02 1.4104114994054623e-01
      -8.9443663904580029e-02 -4.6080346820672469e-02
      -9.6705404279797971e-02 4.5955569499293421e-02
      5.3345977129692385e-02 1.1027497952556244e-01
      1.1489077029488907e-01 -7.1863820387987762e-02
      -6.9853356389341065e-02 7.3547712763395598e-02
      6.5139266340753496e-02 -6.1634688337103760e-03
      6.7884152654904592e-02 -2.5229634025780531e-02
      6.0657256905394868e-03 1.7969798933381523e-02
      3.4889083919392549e-02 5.4056025209821390e-02
      4.8322674078025610e-02 3.8581210794169610e-02
      -1.0284963419863795e-01 -4.3561123823243959e-02
      -7.1148320576409477e-02 1.0866738025511739e-01
      4.0102685631148295e-04 2.0499588771537625e-02
      -3.2762681692670555e-02 -8.8152041578102941e-02
      4.5600503476778020e-02 8.9906619156693412e-03
      1.0305674445571332e-01 -2.8042761435431090e-02
      -5.9307139078290147e-02 -6.9315731410375864e-02
      -3.2682272580230931e-02 1.2506815026142423e-01
      -8.8677434992072562e-02 -8.8025980523500687e-03
      1.1471454570873096e-01 8.0237378737740284e-02
      -1.3487948753992330e-02 -9.8390558849879489e-02
      6.9220280168422660e-02 -3.3719864930082111e-02
      1.6076513213715893e-02 -9.1297519118719250e-02
      2.5633374504835771e-02 -1.4513884275756272e-01
      -6.0609207667272763e-02 -3.0482108151248952e-02
      -1.2372846851514600e-03 1.2211531488313309e-02
      7.1975225749088614e-02 -1.0771248862733618e-01
      1.1396166045744431e-01 1.7467076510497748e-03
      7.9773472395464548e-02 -7.7251902272703329e-02
      -9.2371053489491192e-02 8.4481720580107514e-02
      -7.5026355262495376e-03 -1.2029033559517750e-01
      9.2210574449477181e-02 6.1351324616391228e-02
      6.1443576254232406e-02 -8.2596779235005850e-03
      8.4500813698887567e-02 -1.1603308511841931e-02
      -5.8220083456712098e-04 -1.0118331655282771e-01
      5.2728916657529254e-02 -4.9943825564278017e-02
      6.7023559064101873e-02 -2.9066583568745630e-02
      3.4836128950559875e-02 1.0714566569047843e-01
      -2.7383556564623227e-02 -2.5439473055233530e-02
      1.0429879177488635e-01 1.8589801238618194e-02
      1.0018792506262486e-01 6.3518759099287780e-02
      -5.6304316013027884e-02 1.3617514322652213e-01
      -8.0190726029816240e-04 -1.0373494693766387e-01
      -4.4240154738219524e-02 -9.1365041813905867e-03
      -1.5256761031802509e-02 -8.4753924394619026e-02
      4.5455202238603880e-02 1.0999053299615537e-01
      1.4556586872794103e-01 -3.1603497788319515e-02
      6.4729724922950982e-02 4.8270454538009266e-02
      -6.9630983059954202e-02 -8.5409299302393021e-02
      -2.9055602993669653e-02 -1.7834958185079547e-02
      -1.0849966452456797e-01 -4.3102196890135801e-02
      9.7875120434005175e-02 5.8193031368696954e-02
      1.0732486220979452e-01 4.8988391389749857e-02
      1.1364998647841941e-01 4.0178137290815083e-02
      2.8040930847849782e-02 -1.1895354186194800e-01
      8.1495690755889902e-02 -5.7338870350174143e-03
      8.8176305582014683e-02 8.9539295526510354e-02
      -1.2815838950107447e-01 -9.6074708716344277e-03
      -1.1194272876219262e-01 1.0395355935320282e-01
      -1.4174517864330103e-02 -5.7218933273717347e-02
      1.0892082271252254e-01 2.3562582348068482e-02
      2.0095459410149581e-02 -8.5289001079731457e-04
      1.0033713327707366e-01 7.8965878277654833e-02
      3.9338316812738965e-02 7.6569507855131363e-02
      -7.8197553869682773e-02 -3.3474248717089108e-02
      -1.3106405892218615e-02 -1.4877225111371101e-01
      -6.9372936878013367e-02 -2.4576768185028217e-02
      1.2990686298974628e-02 8.3033247557476056e-02
      -6.8240242110544400e-02 3.1181937388726894e-02
      9.6404839755602809e-02 7.3683444583592883e-02
      6.0902666221418399e-02 -9.7133708774009807e-03
      9.6686996387528909e-02 -8.7500737261887972e-03
      5.7387545950310016e-02 -6.9346924285175984e-02
      -1.0568617541429194e-01 -3.5719364826417126e-02
      9.9969066753442304e-02 -9.4620099792719972e-02
      2.7624211792564829e-02 6.2966348447228843e-02
      5.1413500046018995e-02 1.0851579657386747e-01
      -9.8299779654473243e-02 -8.8211377826734771e-02
      8.4407052724090034e-02 -1.6537865296678729e-02
      4.5555818588461694e-02 -1.8655677468027809e-03
      -7.9797960744555141e-02 4.2529575538823076e-02
      -6.1255498635794291e-02 1.4232511622104840e-02
      4.7569012924826709e-02 -3.5157709929501291e-02
      8.2039634556764201e-03 -7.5054479148931250e-03
      -1.4089227609570006e-04 3.2196502749212764e-03
      -1.7347896668525181e-02 1.4031013024202708e-02
      -4.3283757904945562e-02 -7.2043379735199182e-03
      -5.6645012720750676e-02 -7.8842367238751349e-02</_>
    <_>
      -6.5488912600888838e-01 -6.8107895406417340e-01
      -6.0440498829110167e-01 -9.6489566633503165e-01
      3.8680027766114339e-01 2.0363391025515559e-01
      -7.3808253438635485e-01 -8.8094258813163973e-01
      -6.5072278389452687e-01 -4.3865659795453243e-01
      1.5968565139697985e-01 9.0180311906264493e-02
      8.9355890268533023e-01 -1.9125531716674413e-01
      -4.2734422720415111e-01 -9.5480479044903188e-01
      -9.4438035452393734e-03 2.4031214885585672e-01
      3.4697186118011375e-01 4.2240580667055722e-01
      -1.5532817160624098e-02 -6.9182434419106320e-01
      -2.9799633016738175e-01 4.1691295304729348e-01
      8.1536099477272905e-01 3.3706825613908342e-01
      7.0634806821004403e-01 -6.0422844687946087e-01
      -5.4227497851990247e-01 7.9519222189839189e-01
      -6.0500395158852549e-01 8.2692470486992609e-01
      8.3199390873501866e-01 6.2084354613728343e-01</_></weights></SimpleOcr>
</opencv_storage>
