<?xml version="1.0"?>
<opencv_storage>
<SimpleOcr type_id="opencv-ml-ann-mlp">
  <layer_sizes type_id="opencv-matrix">
    <rows>1</rows>
    <cols>5</cols>
    <dt>i</dt>
    <data>
      7 40 40 40 95</data></layer_sizes>
  <activation_function>SIGMOID_SYM</activation_function>
  <f_param1>6.6666666666666663e-01</f_param1>
  <f_param2>1.7159000000000000e+00</f_param2>
  <min_val>-9.4999999999999996e-01</min_val>
  <max_val>9.4999999999999996e-01</max_val>
  <min_val1>-9.7999999999999998e-01</min_val1>
  <max_val1>9.7999999999999998e-01</max_val1>
  <training_params>
    <train_method>BACKPROP</train_method>
    <dw_scale>1.0000000000000000e-02</dw_scale>
    <moment_scale>1.0000000000000000e-02</moment_scale>
    <term_criteria><epsilon>2.0000000298023224e-01</epsilon>
      <iterations>100000</iterations></term_criteria></training_params>
  <input_scale>
    1.3321181347874567e+03 -2.5178865078974484e+00
    2.7042161277768417e+05 -5.2534591454749835e-01 1.
    -2.0393092261222366e-09 1. -4.9271134665173621e-10 1.
    -1.7594908609008745e-18 1. -6.5532606311252446e-13 1.
    -1.9023855602195830e-19</input_scale>
  <output_scale>
    5.2631578947368418e-01 4.9999999999999994e-01 5.2631578947368418e-01
    4.9999999999999994e-01 5.2631578947368418e-01 4.9999999999999994e-01
    5.2631578947368418e-01 4.9999999999999994e-01 5.2631578947368418e-01
    4.9999999999999994e-01 5.2631578947368418e-01 4.9999999999999994e-01
    5.2631578947368418e-01 4.9999999999999994e-01 5.2631578947368418e-01
    4.9999999999999994e-01 5.2631578947368418e-01 4.9999999999999994e-01
    5.2631578947368418e-01 4.9999999999999994e-01 5.2631578947368418e-01
    4.9999999999999994e-01 5.2631578947368418e-01 4.9999999999999994e-01
    5.2631578947368418e-01 4.9999999999999994e-01 5.2631578947368418e-01
    4.9999999999999994e-01 5.2631578947368418e-01 4.9999999999999994e-01
    5.2631578947368418e-01 4.9999999999999994e-01 5.2631578947368418e-01
    4.9999999999999994e-01 5.2631578947368418e-01 4.9999999999999994e-01
    5.2631578947368418e-01 4.9999999999999994e-01 5.2631578947368418e-01
    4.9999999999999994e-01 5.2631578947368418e-01 4.9999999999999994e-01
    5.2631578947368418e-01 4.9999999999999994e-01 5.2631578947368418e-01
    4.9999999999999994e-01 5.2631578947368418e-01 4.9999999999999994e-01
    5.2631578947368418e-01 4.9999999999999994e-01 5.2631578947368418e-01
    4.9999999999999994e-01 5.2631578947368418e-01 4.9999999999999994e-01
    5.2631578947368418e-01 4.9999999999999994e-01 5.2631578947368418e-01
    4.9999999999999994e-01 5.2631578947368418e-01 4.9999999999999994e-01
    5.2631578947368418e-01 4.9999999999999994e-01 5.2631578947368418e-01
    4.9999999999999994e-01 5.2631578947368418e-01 4.9999999999999994e-01
    5.2631578947368418e-01 4.9999999999999994e-01 5.2631578947368418e-01
    4.9999999999999994e-01 5.2631578947368418e-01 4.9999999999999994e-01
    5.2631578947368418e-01 4.9999999999999994e-01 5.2631578947368418e-01
    4.9999999999999994e-01 5.2631578947368418e-01 4.9999999999999994e-01
    5.2631578947368418e-01 4.9999999999999994e-01 5.2631578947368418e-01
    4.9999999999999994e-01 5.2631578947368418e-01 4.9999999999999994e-01
    5.2631578947368418e-01 4.9999999999999994e-01 5.2631578947368418e-01
    4.9999999999999994e-01 5.2631578947368418e-01 4.9999999999999994e-01
    5.2631578947368418e-01 4.9999999999999994e-01 5.2631578947368418e-01
    4.9999999999999994e-01 5.2631578947368418e-01 4.9999999999999994e-01
    5.2631578947368418e-01 4.9999999999999994e-01 5.2631578947368418e-01
    4.9999999999999994e-01 5.2631578947368418e-01 4.9999999999999994e-01
    5.2631578947368418e-01 4.9999999999999994e-01 5.2631578947368418e-01
    4.9999999999999994e-01 5.2631578947368418e-01 4.9999999999999994e-01
    5.2631578947368418e-01 4.9999999999999994e-01 5.2631578947368418e-01
    4.9999999999999994e-01 5.2631578947368418e-01 4.9999999999999994e-01
    5.2631578947368418e-01 4.9999999999999994e-01 5.2631578947368418e-01
    4.9999999999999994e-01 5.2631578947368418e-01 4.9999999999999994e-01
    5.2631578947368418e-01 4.9999999999999994e-01 5.2631578947368418e-01
    4.9999999999999994e-01 5.2631578947368418e-01 4.9999999999999994e-01
    5.2631578947368418e-01 4.9999999999999994e-01 5.2631578947368418e-01
    4.9999999999999994e-01 5.2631578947368418e-01 4.9999999999999994e-01
    5.2631578947368418e-01 4.9999999999999994e-01 5.2631578947368418e-01
    4.9999999999999994e-01 5.2631578947368418e-01 4.9999999999999994e-01
    5.2631578947368418e-01 4.9999999999999994e-01 5.2631578947368418e-01
    4.9999999999999994e-01 5.2631578947368418e-01 4.9999999999999994e-01
    5.2631578947368418e-01 4.9999999999999994e-01 5.2631578947368418e-01
    4.9999999999999994e-01 5.2631578947368418e-01 4.9999999999999994e-01
    5.2631578947368418e-01 4.9999999999999994e-01 5.2631578947368418e-01
    4.9999999999999994e-01 5.2631578947368418e-01 4.9999999999999994e-01
    5.2631578947368418e-01 4.9999999999999994e-01 5.2631578947368418e-01
    4.9999999999999994e-01 5.2631578947368418e-01 4.9999999999999994e-01
    5.2631578947368418e-01 4.9999999999999994e-01 5.2631578947368418e-01
    4.9999999999999994e-01 5.2631578947368418e-01 4.9999999999999994e-01
    5.2631578947368418e-01 4.9999999999999994e-01 5.2631578947368418e-01
    4.9999999999999994e-01 5.2631578947368418e-01 4.9999999999999994e-01
    5.2631578947368418e-01 4.9999999999999994e-01 5.2631578947368418e-01
    4.9999999999999994e-01 5.2631578947368418e-01 4.9999999999999994e-01
    5.2631578947368418e-01 4.9999999999999994e-01 5.2631578947368418e-01
    4.9999999999999994e-01 5.2631578947368418e-01 4.9999999999999994e-01
    5.2631578947368418e-01 4.9999999999999994e-01 5.2631578947368418e-01
    4.9999999999999994e-01</output_scale>
  <inv_output_scale>
    1.8999999999999999e+00 -9.4999999999999996e-01
    1.8999999999999999e+00 -9.4999999999999996e-01
    1.8999999999999999e+00 -9.4999999999999996e-01
    1.8999999999999999e+00 -9.4999999999999996e-01
    1.8999999999999999e+00 -9.4999999999999996e-01
    1.8999999999999999e+00 -9.4999999999999996e-01
    1.8999999999999999e+00 -9.4999999999999996e-01
    1.8999999999999999e+00 -9.4999999999999996e-01
    1.8999999999999999e+00 -9.4999999999999996e-01
    1.8999999999999999e+00 -9.4999999999999996e-01
    1.8999999999999999e+00 -9.4999999999999996e-01
    1.8999999999999999e+00 -9.4999999999999996e-01
    1.8999999999999999e+00 -9.4999999999999996e-01
    1.8999999999999999e+00 -9.4999999999999996e-01
    1.8999999999999999e+00 -9.4999999999999996e-01
    1.8999999999999999e+00 -9.4999999999999996e-01
    1.8999999999999999e+00 -9.4999999999999996e-01
    1.8999999999999999e+00 -9.4999999999999996e-01
    1.8999999999999999e+00 -9.4999999999999996e-01
    1.8999999999999999e+00 -9.4999999999999996e-01
    1.8999999999999999e+00 -9.4999999999999996e-01
    1.8999999999999999e+00 -9.4999999999999996e-01
    1.8999999999999999e+00 -9.4999999999999996e-01
    1.8999999999999999e+00 -9.4999999999999996e-01
    1.8999999999999999e+00 -9.4999999999999996e-01
    1.8999999999999999e+00 -9.4999999999999996e-01
    1.8999999999999999e+00 -9.4999999999999996e-01
    1.8999999999999999e+00 -9.4999999999999996e-01
    1.8999999999999999e+00 -9.4999999999999996e-01
    1.8999999999999999e+00 -9.4999999999999996e-01
    1.8999999999999999e+00 -9.4999999999999996e-01
    1.8999999999999999e+00 -9.4999999999999996e-01
    1.8999999999999999e+00 -9.4999999999999996e-01
    1.8999999999999999e+00 -9.4999999999999996e-01
    1.8999999999999999e+00 -9.4999999999999996e-01
    1.8999999999999999e+00 -9.4999999999999996e-01
    1.8999999999999999e+00 -9.4999999999999996e-01
    1.8999999999999999e+00 -9.4999999999999996e-01
    1.8999999999999999e+00 -9.4999999999999996e-01
    1.8999999999999999e+00 -9.4999999999999996e-01
    1.8999999999999999e+00 -9.4999999999999996e-01
    1.8999999999999999e+00 -9.4999999999999996e-01
    1.8999999999999999e+00 -9.4999999999999996e-01
    1.8999999999999999e+00 -9.4999999999999996e-01
    1.8999999999999999e+00 -9.4999999999999996e-01
    1.8999999999999999e+00 -9.4999999999999996e-01
    1.8999999999999999e+00 -9.4999999999999996e-01
    1.8999999999999999e+00 -9.4999999999999996e-01
    1.8999999999999999e+00 -9.4999999999999996e-01
    1.8999999999999999e+00 -9.4999999999999996e-01
    1.8999999999999999e+00 -9.4999999999999996e-01
    1.8999999999999999e+00 -9.4999999999999996e-01
    1.8999999999999999e+00 -9.4999999999999996e-01
    1.8999999999999999e+00 -9.4999999999999996e-01
    1.8999999999999999e+00 -9.4999999999999996e-01
    1.8999999999999999e+00 -9.4999999999999996e-01
    1.8999999999999999e+00 -9.4999999999999996e-01
    1.8999999999999999e+00 -9.4999999999999996e-01
    1.8999999999999999e+00 -9.4999999999999996e-01
    1.8999999999999999e+00 -9.4999999999999996e-01
    1.8999999999999999e+00 -9.4999999999999996e-01
    1.8999999999999999e+00 -9.4999999999999996e-01
    1.8999999999999999e+00 -9.4999999999999996e-01
    1.8999999999999999e+00 -9.4999999999999996e-01
    1.8999999999999999e+00 -9.4999999999999996e-01
    1.8999999999999999e+00 -9.4999999999999996e-01
    1.8999999999999999e+00 -9.4999999999999996e-01
    1.8999999999999999e+00 -9.4999999999999996e-01
    1.8999999999999999e+00 -9.4999999999999996e-01
    1.8999999999999999e+00 -9.4999999999999996e-01
    1.8999999999999999e+00 -9.4999999999999996e-01
    1.8999999999999999e+00 -9.4999999999999996e-01
    1.8999999999999999e+00 -9.4999999999999996e-01
    1.8999999999999999e+00 -9.4999999999999996e-01
    1.8999999999999999e+00 -9.4999999999999996e-01
    1.8999999999999999e+00 -9.4999999999999996e-01
    1.8999999999999999e+00 -9.4999999999999996e-01
    1.8999999999999999e+00 -9.4999999999999996e-01
    1.8999999999999999e+00 -9.4999999999999996e-01
    1.8999999999999999e+00 -9.4999999999999996e-01
    1.8999999999999999e+00 -9.4999999999999996e-01
    1.8999999999999999e+00 -9.4999999999999996e-01
    1.8999999999999999e+00 -9.4999999999999996e-01
    1.8999999999999999e+00 -9.4999999999999996e-01
    1.8999999999999999e+00 -9.4999999999999996e-01
    1.8999999999999999e+00 -9.4999999999999996e-01
    1.8999999999999999e+00 -9.4999999999999996e-01
    1.8999999999999999e+00 -9.4999999999999996e-01
    1.8999999999999999e+00 -9.4999999999999996e-01
    1.8999999999999999e+00 -9.4999999999999996e-01
    1.8999999999999999e+00 -9.4999999999999996e-01
    1.8999999999999999e+00 -9.4999999999999996e-01
    1.8999999999999999e+00 -9.4999999999999996e-01
    1.8999999999999999e+00 -9.4999999999999996e-01
    1.8999999999999999e+00 -9.4999999999999996e-01</inv_output_scale>
  <weights>
    <_>
      -1.8998037262580053e-01 -7.4624002012810720e-02
      -2.3767037015857029e-02 1.8500241526003383e-01
      -1.6485315270655015e-01 -1.0070603570041407e-01
      -7.1085415135291957e-02 1.1324815349648953e-01
      3.3947172632639855e-02 1.1924505306745772e-01
      -2.8792293873720715e-01 2.1899891055448106e-01
      -3.7422686189470485e-02 -1.4330021045656866e-01
      -3.7244406350354316e-02 -8.6703062947111609e-02
      -1.2544966893199400e-01 -1.1645283797166502e-01
      2.2184267920719319e-01 1.3814652700523952e-01
      -1.4600780547815223e-01 -2.7776362857028231e-01
      -2.7968298562766832e-02 -6.6473990819788484e-02
      -2.5235239470243084e-02 -7.3897639301948120e-02
      -1.6718045012064120e-01 -6.5752130080203489e-02
      -1.9522017988135812e-01 1.1056399162764806e-01
      1.7753181212545519e-01 1.1338181332752466e-01
      6.1954135736284877e-04 8.3407145990551324e-02
      -2.8845518324552122e-02 -7.2313397886103151e-02
      5.2280551124932746e-02 3.0410514840093578e-01
      1.3953218012671531e-01 2.0293772841592167e-01
      1.7089141404680372e-01 1.3052976122702281e-01
      -1.0779435535415986e-01 6.4723167863087031e-02
      2.4786918452835582e-01 1.0290933604059682e-01
      -4.3947029037358608e-02 -1.8517466455734041e-01
      -1.4600240848579629e-01 3.2696963018301883e-01
      -1.4819534457687172e-01 -2.3707029664918355e-01
      -1.7004242760772917e-01 -1.7375315342168893e-01
      2.2692604624029039e-01 2.0437474428537300e-01
      -8.0495374111109991e-02 -1.1842442214231920e-01
      1.3713104428551520e-01 -1.7097347581074399e-01
      -1.1775683212381759e-01 1.3827759686102906e-01
      -2.1087893528946877e-01 1.1915121077909972e-01
      -3.7114879771929066e-01 1.4647646807390383e-01
      -1.7240762491213704e-01 -2.7142678868663176e-02
      -8.2506563347860357e-02 -1.1562914953498175e-01
      -1.5283979906646308e-01 -1.2008738449742931e-01
      -1.5562805671458990e-01 6.8067455751244690e-02
      1.7464635536195891e-01 -2.4739483535095977e-01
      -2.5758613407858266e-01 9.6981532928804903e-02
      -7.5299776374295385e-02 -2.1097541857501739e-01
      1.8161739564471055e-01 1.0641622822987522e-01
      5.4534458972541930e-02 1.7699171496867419e-01
      2.3086181074860372e-02 1.8888303421790067e-01
      -1.1351900250237391e-01 2.3420966342768079e-01
      1.7114873866225025e-01 6.0185763275284326e-02
      4.6541870542078666e-02 -1.3608535662282867e-01
      5.2164345292594824e-02 -1.2792275684696536e-01
      -2.9978988150548856e-02 -1.5508402940179945e-02
      -1.3880128759359550e-01 1.1884910815999594e-01
      2.1996911755505466e-01 -7.6497366090455127e-02
      1.6978196184801644e-01 -9.3614583602143295e-02
      1.9181147559470205e-01 9.7001125575001859e-02
      -8.8960008922865014e-02 1.3102330582310534e-01
      -1.0706377738904405e-01 1.9598690671114435e-01
      1.9172899842089006e-01 1.2636508649388783e-01
      3.3637755349773718e-01 1.3190181647743368e-01
      -2.8337443997835304e-02 2.3010533032347613e-01
      1.4550827057524857e-01 -1.2202257562772573e-01
      -2.0189423808956009e-01 -2.4301528807951483e-02
      1.5251981391614075e-01 -1.8031224932060849e-01
      -9.4268954002557581e-02 -3.8401745782732588e-01
      -2.7452058509062188e-01 1.4540559567368469e-01
      -1.2088718206018437e-01 -1.5988965612057796e-01
      -2.0085529566792618e-01 -5.4488934308642616e-03
      -2.1303773570842210e-01 -1.6457251651370808e-01
      -4.9855129975332660e-02 1.5754568403398148e-01
      -2.0754164211307460e-01 9.0055338377728916e-02
      -1.1285717022785263e-01 -1.4427325453482820e-01
      1.2826520998964666e-01 1.9362113874862003e-01
      1.4290014986563743e-01 -2.0194576509056494e-02
      1.7469396978307274e-02 -3.7779338871120026e-03
      2.4636209039882342e-01 3.1438469131076868e-01
      -6.1842146247959036e-02 -2.5271240705414139e-01
      1.5435265983208971e-01 2.8877622477963300e-01
      -4.5336072935348033e-02 9.0522529111014591e-02
      -4.7503526058134807e-02 1.3018954051866924e-01
      1.8144286110083246e-01 1.4537212023565077e-01
      -3.3189415759058982e-02 2.4628737763710548e-01
      -7.6105180395261013e-02 8.6859222842731079e-02
      -2.0398721796436259e-01 1.9613581895875509e-01
      1.2788060984086183e-01 1.3613737463214862e-01
      2.3786591709416163e-01 1.1559278449961007e-01
      -2.3220778096380087e-01 -1.9126044991778127e-01
      -1.0275645532189319e-01 -1.5401694391667925e-01
      -2.2184277225542864e-01 -1.4286291733212797e-01
      -3.2107150213467162e-01 -4.7288491113525087e-02
      -1.2483689365461728e-01 1.6778088647205552e-01
      -1.8256206519170326e-01 -2.2959803721555319e-01
      -9.4554029349977448e-02 -1.3420619299191838e-01
      -2.6740071207653558e-02 1.5862256789070339e-01
      -1.4377759808631399e-01 2.4237453698059791e-01
      2.9409909075845612e-02 3.0526491972369833e-02
      1.4718298997589541e-01 -2.1791007110594035e-01
      -1.7144414208195502e-01 -1.1405473839264076e-01
      -1.7449483698899179e-01 2.1231355346307174e-01
      4.3934261422239045e-02 1.5782329626679081e-01
      -1.7740874266224818e-01 1.7025353064093854e-01
      2.3325287217271143e-01 -3.4139823312668280e-02
      -2.2162913025272638e-01 -7.5130532740851297e-02
      7.7319337690557141e-02 -9.0027898330875905e-02
      1.9878238353725358e-01 3.2699701284330418e-02
      -3.1814450127846942e-02 1.8127728970102608e-01
      -1.2687538369446591e-01 -8.8775262616211770e-02
      -3.3197790974940844e-01 -1.8166552681595080e-01
      -5.1707119206045961e-02 4.6399958896325942e-03
      5.2735297117346480e-02 1.6595566023495187e-01
      2.3753799768896339e-01 1.1156048378443166e-01
      -2.3810769302026194e-01 8.1867632059203735e-02
      2.0316632615475019e-01 1.7045936524640631e-01
      3.0613649915015407e-02 -2.1291131617666079e-01
      -1.2932695482500683e-01 -1.6138154505609070e-01
      -2.5288001290774781e-01 -2.8963497380049223e-02
      -4.7201083437211529e-02 1.7705588975992470e-01
      1.4637442223823563e-01 -2.3032257339028639e-02
      2.0420487099094736e-01 -1.3119172052934475e-01
      9.4350322905058834e-02 -1.3721439894135498e-01
      2.5789107935009720e-01 -1.6143166535955492e-01
      2.3667283291590624e-01 -1.0725422247709683e-01
      1.2798938584343603e-01 -1.7713328481215868e-01
      1.0009369908205985e-01 -4.5467596426716723e-02
      3.5665582822991912e-02 -1.3175355647082354e-01
      2.6436452005643524e-01 1.2642257458918213e-01
      -8.5203049896616118e-02 1.6629599543948062e-01
      1.2664700182242500e-01 -1.2615751699661587e-01
      -1.6034038288107738e-01 1.7409698071865354e-01
      -1.0450703426291516e-01 -3.6363218188775553e-02
      1.7262807642968941e-01 1.8990689791480606e-01
      1.7023374820639373e-01 -2.3593495674271855e-01
      -2.2919948579358557e-01 -1.5120054426132273e-01
      -2.2278495774085633e-01 2.2383513329143068e-01
      2.7585389299437396e-01 -8.3216524712104667e-02
      4.2802064584405601e-02 3.4231567602995600e-01
      -2.6069747918428465e-01 -1.6150207221291911e-03
      -8.0358021002545368e-02 -2.8213124097862952e-01
      -1.1346874220992094e-01 2.1196366198457081e-01
      -1.4372983910344556e-01 2.0779052944580334e-01
      1.9562532307281869e-01 -1.4312309663952441e-01
      -1.4828202501121521e-01 1.8169264729860501e-01
      6.1522844205194264e-02 2.1763325622046586e-01
      2.5049951205474863e-01 -7.2656553830322837e-02
      -7.4881523761100285e-02 -2.1878446661147391e-01
      -1.3409754738761070e-01 1.3664612022800035e-01
      6.4518767926053142e-02 -9.1029466253069666e-02
      -1.4550848209494696e-01 -2.7852376590915422e-02
      1.4297864510872968e-01 1.5472601213244364e-01
      9.9316978114618829e-02 7.0468766240974839e-02
      7.7890260870633471e-02 4.4803680294781177e-02
      -4.9091337497191211e-02 -3.2909317618437392e-02
      -3.8951792913658578e-02 9.4951258439934343e-03
      -1.1637415487071992e-02 -4.3759298376723653e-03
      -1.7916899068568935e-02 -1.8625348608834174e-03
      1.1497204438476578e-02 -3.8823511777205187e-02
      -3.1783404706145338e-02 -8.5647287255318366e-03
      -6.9984185056620801e-03 -9.8203992843979349e-02
      2.8041973100224379e-02 1.0110942428905825e-01
      1.3502497058388072e-01 1.0790656597868241e-01
      1.4741666308836388e-01 -1.0185487568475931e-02
      4.5343695044417417e-02 1.1261028179203819e-01
      3.5573216587916880e-02 2.5604987773648769e-01
      6.3669225329913162e-02 1.1107012293590078e-01</_>
    <_>
      -1.7509404600997897e-02 -4.6835792544367573e-02
      1.9932408880562802e-02 5.5445199311963365e-02
      1.3519749279974796e-02 -1.2713550210701670e-02
      -1.2350170861321919e-02 -4.1716611255488693e-02
      -2.8551570844034767e-02 -3.3182207103065153e-04
      2.2198348343431745e-02 -5.0497421087246731e-02
      4.2615437341390634e-03 3.3800795640803585e-02
      1.5361157418745724e-02 -3.3341467373755616e-02
      4.4942566454077147e-02 -6.9985788754348428e-03
      2.9151737339705209e-02 -2.5828931021125647e-03
      -8.9846039286945942e-03 4.9241833967977683e-02
      -9.4909724494085020e-03 -8.0402297300279195e-03
      -2.7699366950395023e-02 2.4391687323646400e-02
      2.0700503704218248e-02 -2.0199310068946638e-02
      -1.6608353896037209e-02 2.6322966657117683e-02
      -1.4468035794177243e-03 1.3874517097234038e-02
      -3.6706436085055083e-02 -3.4676914681684191e-02
      -2.2818883109052328e-02 1.7051750341423793e-02
      -1.5367106674616191e-02 3.9502606205896761e-02
      9.8225430299491660e-03 3.9902072696561153e-02
      7.0217927318676099e-02 2.3285869152158717e-02
      -3.0223188102984418e-02 2.9227488320184698e-02
      6.8242929245488373e-02 5.1009451194768745e-03
      8.8373841033947496e-03 1.9493439655702292e-02
      3.8943788835311549e-02 -4.1241736912636905e-02
      -3.6587342398051247e-02 -1.9368363985398446e-02
      3.4293697962414962e-03 9.4570152544584032e-03
      -4.3318709288771094e-02 4.7682543774584404e-02
      3.7999376537645596e-02 -6.7423252715275966e-02
      9.3553103899070185e-03 -2.0756213044817999e-02
      -2.5838728362473515e-02 -1.7527302776568027e-02
      -4.2583095005389732e-02 3.0329418391066766e-02
      -1.2958787642816190e-03 -1.0029006206824922e-02
      3.7448417155113323e-02 4.1214574312476993e-02
      -2.2797121451554912e-02 1.0219759887834007e-03
      -2.8278825363349580e-02 4.3645745551655721e-02
      -1.9196067879287439e-02 3.2430767572873775e-02
      1.2633020729396602e-03 7.8177280884149741e-02
      5.9973850118286251e-02 -4.7566333827081225e-02
      1.4606959068936708e-02 5.0914246170386063e-02
      7.1864138420127486e-03 -8.4880007207588284e-03
      -2.9038716192077468e-02 1.3928846583253216e-03
      5.7024100432051306e-02 6.1006705533336807e-02
      2.5055482977284382e-02 -2.0869847649719171e-02
      -3.7948923638268794e-04 -3.8908636776891284e-02
      -9.6486179101199366e-04 -2.1595263216954173e-02
      -2.9118548181361833e-02 3.8364703112011588e-02
      -4.0511987564711395e-02 -2.0580580152964149e-02
      3.4569302548608669e-02 3.4836869040417870e-02
      -1.8008728491318918e-02 -6.3548821918843227e-03
      -1.0076253583264420e-02 -2.9271625143608083e-02
      9.9239617686814035e-03 1.6347079505461739e-02
      -2.6056254144227731e-02 5.2203061627904800e-02
      3.0835655821510564e-02 4.7907322517659820e-02
      2.4927581148700299e-02 4.3566480786301459e-02
      -2.1268430183860917e-02 1.6786367552687472e-02
      3.2790526762361751e-02 -3.1269380002149480e-03
      4.1320737732605084e-02 5.7495012071638124e-02
      -7.8623781468234368e-03 -4.9257662996229232e-02
      5.7156695854116743e-02 -3.5293064079396108e-03
      -4.8180315903571476e-02 -1.5508782829213141e-03
      6.3616034360870965e-03 -4.1949991338223094e-02
      5.3878256183263369e-02 -3.0373455702656846e-02
      -1.9339675839535869e-02 2.5135748297060004e-02
      -6.2884738814610000e-02 -2.8045852330868884e-03
      3.7529733364924378e-03 2.0801308669459579e-02
      4.7532885489572657e-02 -4.0414625915054563e-02
      -1.4563133836332407e-02 -3.8601703001979848e-02
      4.4528648958169520e-02 6.1272564207956199e-03
      -4.3290452474728090e-02 -3.9368011735995585e-02
      -2.6417335547765552e-02 -1.2714455040192705e-03
      -3.7169395561929296e-02 -2.3683590307383390e-02
      -3.8666583353732194e-02 3.4953161011946961e-02
      -4.8608968892648909e-02 2.2927453738682973e-02
      2.1761951690097668e-02 9.8314016291502632e-03
      9.4215550726073696e-03 -6.3747555406656803e-02
      5.3135652417408419e-03 -3.8237882631606199e-02
      -3.1968851271336390e-02 -4.5261219994034055e-02
      3.0555151889325272e-02 -2.0715060339466301e-03
      -6.1943836001727065e-02 -4.9052502329785801e-02
      9.5017060451937588e-03 -2.2327573266205788e-03
      4.1835771101128148e-02 5.5684366562561184e-03
      -5.2777454591823279e-02 -2.1124747506860209e-02
      4.5431539745597604e-02 -3.9624425139209989e-02
      2.0001763564886546e-02 -2.2346820955996067e-02
      2.7952145100042278e-02 2.3942040879744368e-03
      5.0973135603471539e-02 2.6281340634031876e-02
      2.2596399089766850e-02 -1.8299464534329141e-02
      3.2300800739112095e-02 -4.0040327554018602e-02
      -1.2215007734546720e-02 -4.1140320254531411e-02
      -7.5391061100716561e-03 5.8931484111273821e-03
      6.1726051358982049e-02 -3.1213531396985444e-02
      8.0723812344748267e-03 2.7195864227760883e-02
      -6.8248586910740067e-03 -3.5598938945463038e-02
      -2.4265240604685968e-02 2.9672657694069550e-02
      -5.1224153998218593e-02 2.2768045441184655e-02
      -3.4174614834886236e-02 2.6463763555719003e-02
      -2.8175180013710402e-02 1.7286238249015529e-02
      3.9583056192375662e-02 1.0850796288939861e-02
      -3.7317922888675567e-02 -4.6272277441148660e-02
      7.1788802804087198e-02 -1.9316134891886275e-02
      -1.8104619393223668e-02 -1.5293890150767852e-02
      -1.5865950918453421e-02 -2.3133776678527434e-02
      -2.4319769882396505e-02 2.4734601791529941e-02
      3.6372017859378644e-02 3.1822205772376280e-02
      -9.4056760147682543e-03 1.7303306720036549e-02
      2.3328371627842074e-02 4.6373903275610659e-03
      -3.7201866779735589e-02 4.0311174743420428e-02
      -3.8758806233336433e-02 2.0645926768473596e-02
      2.4928240644324109e-02 -2.1302347326803934e-02
      5.6451543742884885e-03 -5.0003987054650020e-03
      1.9963934894673040e-02 -3.8294779020476198e-02
      2.0082336085834571e-02 1.3263220874920753e-02
      1.9468765189534127e-02 -1.8796913516900102e-03
      -4.6816869917194325e-02 -8.7050207796873155e-03
      3.5981958632257734e-02 -1.5393878488159186e-02
      3.5693534540235765e-02 1.4079089473435894e-02
      -4.8579403857527030e-03 -1.2542729336399213e-02
      4.6650611359377786e-02 -2.3798670343697429e-02
      3.0233423177321306e-02 3.0695758704852860e-02
      8.5619934014830784e-02 3.3577726866736039e-02
      1.4423107078794725e-03 4.6876619646261858e-02
      -1.2428814982512878e-02 -2.9713761777384280e-02
      1.7909958749187039e-02 -3.6381633096052100e-02
      1.4458030432422499e-02 -3.8213852300494996e-02
      -2.4280684190638981e-02 -4.7956780971703535e-02
      1.9354926792531941e-02 5.2396307899583473e-02
      -3.0602332261130662e-02 2.9708853975423138e-02
      2.0404124565037832e-02 -1.5719438550489021e-02
      -2.9213101481460491e-02 2.7304662674526286e-02
      5.7482163807934371e-03 4.4354319749526680e-02
      3.0715273388076007e-02 -4.4965023581583302e-02
      -5.0506589006856811e-02 2.6809842067997938e-02
      5.1262858523090447e-02 3.3794148607064513e-02
      -9.0909486931993813e-03 -3.0168588122506397e-02
      9.7772948175345892e-03 4.6244726249346182e-02
      -2.2633027226537990e-02 -4.1155912060833424e-02
      4.3573985167782527e-02 -7.7647570812851415e-03
      3.4527482968027559e-02 -4.7291921809564264e-02
      -5.8301583657865055e-03 -3.9266835261320349e-03
      2.1489512378041344e-02 3.5086991198498549e-02
      1.5796609152571622e-02 2.5902360938553703e-02
      1.8666790906384342e-02 1.1233131400226849e-02
      3.0803277889794610e-02 -4.2020278430537121e-02
      4.2945266759346130e-02 -2.0734212547076050e-02
      2.4015226675547716e-02 -4.3463844802767222e-02
      2.2695315730275238e-03 7.9743336724825229e-03
      -2.5296691145595230e-02 -4.1183375362405218e-02
      9.6572935677941823e-03 -1.1024742504946200e-02
      3.9857884651031607e-02 4.5899555041609891e-02
      -4.6020939377190012e-02 2.4694654965929493e-02
      -7.4889779454702134e-03 -4.9560301554993268e-02
      -1.8170249457141425e-02 2.6886392335771336e-02
      -4.7344595407814653e-02 3.8594479656181599e-03
      4.3278030998995916e-02 9.5740133087740212e-03
      -3.1788214455676547e-02 2.0565307752117738e-02
      3.6783013864361710e-02 -2.9656735283923886e-04
      4.0723276570906540e-02 -3.1390806454103914e-02
      -3.5188293414247132e-02 -3.8098477297026860e-02
      5.2481499101136560e-03 -5.6425835946339797e-03
      -4.7699716568480523e-02 2.7440092392151186e-02
      -4.0287478289045683e-03 1.7104125148413599e-02
      -3.2495863476299451e-02 8.5802477842882151e-03
      6.2911601240832823e-02 -1.0694731975122811e-02
      -8.7984447049166404e-04 2.9987897513113464e-02
      1.8025250719620894e-02 6.0676965657717970e-02
      -7.6711029404396289e-03 -3.1589308280801580e-02
      -3.9689379647474536e-02 3.0764392487421187e-03
      -1.7354151135546017e-02 1.6234611624792273e-02
      -2.7118564078196798e-02 -2.8049355576351614e-02
      -4.4511345783723212e-02 -4.4731463649734737e-02
      6.7093836469439158e-02 1.4863457416444245e-02
      2.4782968048283359e-02 -4.7927532340045147e-02
      -1.4941720328759062e-02 -2.2696196640026828e-02
      -8.1518269770764224e-03 -4.2646531558600605e-02
      4.8395062245476517e-03 1.4554165784767838e-03
      -1.7325271516064430e-02 -1.0936406173418739e-02
      -3.6835894821132066e-02 -2.1657864773953480e-02
      -7.9572379530092018e-03 5.2790691309899287e-02
      -4.5864480964724924e-02 -3.2838579152641628e-02
      -4.5165723671676773e-03 4.7049458225700440e-02
      -1.3873819410092776e-02 -2.5179850452647336e-02
      -1.5440809801875469e-02 -5.6624644825063061e-02
      1.6166323810768470e-02 1.1282476642380457e-02
      -2.4673071072646272e-02 -1.4649087118613895e-02
      1.8374016316935089e-02 2.0657189588404293e-02
      3.7501989854707291e-02 2.4786652970560964e-02
      4.3561487614174485e-02 -2.0651822990217242e-02
      4.0836496540994034e-02 1.2015631898540588e-02
      2.9358355760556922e-02 2.2550331933475869e-02
      9.9633024953685854e-04 -3.1550067457567901e-02
      2.4714414056171471e-02 -2.4442100733006521e-02
      -1.3866124530919142e-02 2.7963435196132213e-02
      -4.3304009580736859e-02 -1.2217444434574291e-03
      -1.6856301977475553e-02 -3.0013444239788859e-02
      -2.1362646508777151e-02 -2.7718492673259394e-02
      -3.6604155545358702e-02 1.9324431508041206e-02
      2.9208169798269915e-02 -4.2188009926194654e-02
      -3.2330048412637216e-02 5.3294663478391947e-03
      -4.5734291579499084e-02 -7.0743136918664851e-02
      -7.8878871534503153e-02 -6.8434771082213908e-03
      3.4650717455794455e-02 -3.6615828543432899e-02
      5.3726315063109591e-02 -3.8370474139284891e-02
      -2.4976777172334919e-02 4.2248100541069200e-02
      3.0139542054756163e-02 5.8156846078052903e-02
      1.5100377244957301e-02 3.8277923021824375e-03
      -2.7989979522330455e-02 -2.2804714620798396e-02
      -2.9063738266467229e-02 -1.6031719509157487e-02
      -7.1758849093399406e-03 6.0455374203703588e-02
      1.1645642747769344e-02 -3.5617974053542091e-02
      4.7092815558027266e-02 -3.6632567183728884e-02
      7.7024968601862413e-03 1.1287514749080935e-02
      3.4381594213065553e-02 -3.2857393619713481e-02
      -5.7415952583930022e-02 7.9248505142736955e-03
      3.8873562123108357e-02 -4.4522365138742664e-02
      3.4546776829619666e-02 -1.4571103128880434e-02
      -3.2068577471846320e-02 -4.3590593278389413e-02
      3.7586804101393492e-02 -3.9539443049291030e-02
      -1.4525302391874361e-02 4.1926064476692372e-02
      -1.7848595630032164e-02 -2.2519198838166266e-02
      -7.4082819569009179e-03 5.1518009110385829e-03
      3.0976317880311393e-02 -1.1897723246281942e-02
      -4.6762772771891059e-02 -1.2388289681127092e-02
      8.5165997918998006e-03 3.2136247848446368e-02
      -2.1546622963337415e-02 -2.1730850339542373e-02
      -1.8540723172580938e-02 -4.1075215623565357e-03
      -3.3804306826850108e-02 -3.8563249588282181e-02
      -4.0269239600779806e-02 3.8283716094035136e-02
      -3.8783127009549521e-02 -4.8009980838355011e-02
      2.3361716905344866e-02 1.5529522989779620e-02
      -5.5464394433859740e-03 1.2403253883817600e-02
      -1.5620320524873990e-02 5.3289430535467280e-02
      -1.8819170904932708e-02 3.9346183230828176e-02
      -4.5945480391334947e-02 4.0234076200958938e-02
      -1.1009780497530854e-02 9.9862894178178712e-03
      6.1893831125857200e-03 -9.5620160399906423e-03
      2.3832382790501695e-02 -2.0172623867253221e-02
      -4.7871587451652237e-02 -5.8168055551290863e-02
      3.4544640243043857e-02 1.3378206362213669e-02
      2.5834943625637565e-02 -2.2110160178106131e-02
      -1.2985098057430366e-02 5.1961838796954332e-02
      -2.8565828812240467e-02 -1.2778198676572089e-02
      -5.5599845484515367e-02 5.7758922064767362e-03
      1.7914645457118173e-02 -1.6180473800712036e-02
      3.1926629861516870e-02 -2.9114955928994060e-02
      -3.8719655143626512e-02 2.3206125932892858e-02
      -2.7049558309454443e-02 -1.3786414051813006e-02
      -1.9891059850175422e-02 3.5025752262667922e-02
      3.4394600750141099e-02 1.2408783072112529e-04
      -7.6804359455448900e-03 -4.3188340561812776e-02
      2.7096984994847396e-02 4.7342920520790970e-02
      7.9845507792296513e-03 8.5635123192096749e-03
      -4.5257702858925282e-02 1.5782627880629410e-02
      -7.2517821703694642e-03 -9.2533882971464632e-03
      1.4912509079128406e-02 1.7859493902153523e-02
      1.0737271204699271e-02 -5.5540877855864536e-03
      3.7677207237022045e-02 -1.8094454215075939e-02
      -2.6291086471280943e-02 -3.5870107088025432e-02
      1.1788594139526662e-02 5.3781482646350033e-03
      -6.1948238764066799e-02 -1.4264579578102097e-02
      -2.3756114254914300e-02 1.2640931587069930e-02
      -3.0958280470297441e-02 4.3415376748459543e-02
      1.3069529181854228e-03 -4.6386762845410323e-02
      1.9326077562553556e-02 -1.1943660671492473e-02
      3.2615792003710828e-02 5.2607362747187816e-02
      3.6010265580615750e-02 4.6182369757501132e-02
      3.8252448614041250e-02 -3.1602457514126284e-02
      -3.6839112788623368e-02 3.3542249230305007e-02
      -4.3940190961928069e-02 5.8392177886812703e-03
      -2.0612356203702345e-02 3.1076968998957188e-02
      -3.4090446351709346e-02 3.9486788020082021e-02
      -1.0393475284317940e-02 -4.1065532670149230e-02
      3.8136415898671373e-02 1.0349825017626808e-02
      -3.6111317036460764e-03 3.2284592195663618e-02
      1.8867675837512473e-02 2.9664969568942032e-02
      1.3843245318879396e-02 4.2247740750632541e-02
      -3.9141797912672568e-02 2.4615075109548423e-02
      -3.1553939790236712e-02 -1.2770890659683409e-03
      -3.6313149397793502e-02 3.2616211390280724e-02
      -9.1843553310201383e-03 -6.8032692023497515e-02
      5.8609545741435627e-02 4.3943138053950788e-02
      4.1513199183996569e-02 5.0633460999487290e-02
      -6.1637668432680079e-02 1.2167919142665261e-02
      3.1045336082738333e-02 -4.8431407657477832e-02
      9.7097177552146023e-03 3.7094868308413550e-03
      -2.5078445347417790e-02 9.5839819951066777e-03
      2.3027640105751535e-02 1.5831487036079641e-02
      3.8288015853597097e-02 1.1759682812828970e-02
      7.4274335353219376e-03 -1.9207277373819973e-02
      -2.5964065261491705e-02 -2.8506507515439573e-02
      -3.1512862346902960e-02 8.9011480085602057e-03
      3.1623764287967718e-02 -3.9942961028209207e-03
      -2.2298226280969911e-02 -1.7806937961080467e-02
      5.2654513577675033e-02 -1.5681927244370127e-02
      1.9448165746715686e-02 -2.1949433341306664e-02
      1.1988928924704215e-02 1.8920105047954418e-02
      4.1153949627966334e-02 -3.8062708272757637e-02
      -1.1763012728126668e-02 4.7295463555808590e-02
      -6.4780834771398241e-03 2.3444128056342103e-02
      -2.8941497685408473e-02 7.9297010864015360e-03
      4.8658473737873027e-02 4.9635593018262723e-02
      -3.0489593977894018e-02 -4.9737025662057517e-02
      -1.7016869538420999e-02 4.2885181042886224e-02
      2.2746868477570979e-02 3.2176787603586908e-02
      1.7585261410727478e-02 -4.7767275370832744e-02
      -2.4093495794038092e-02 -2.6001168031236557e-02
      4.0848553733988015e-03 -3.4075670757958199e-02
      -3.3038577318477286e-02 3.2477914043323293e-02
      -2.7264479934483856e-02 -3.1966363582366729e-02
      3.4914296465621747e-02 -1.4913796425211142e-02
      -8.4262536675503222e-03 -7.6861744814145320e-03
      1.7864074441617378e-03 -2.0810271683290339e-02
      2.5301785669503821e-02 9.3394814676762417e-03
      6.3060836730884076e-03 4.5650674236671046e-02
      2.6553632497875738e-02 9.5907711259801275e-04
      6.8772195317561152e-03 -4.3000234106611739e-02
      1.0938104426375928e-02 4.2694217383837947e-02
      -1.6572275062497564e-02 -4.3820202500865196e-03
      -2.7226661342045166e-02 -1.9494138921136526e-02
      5.0965626723834305e-02 3.8300361035910696e-02
      2.3394256414442139e-02 2.9706918824631570e-02
      -4.5942755043089388e-02 4.3562160786800724e-03
      -1.0738069315048155e-02 3.8531594543751276e-02
      2.9065606894743308e-02 -9.6671988812703988e-03
      1.0037990123167672e-02 -1.9624988652109970e-02
      -3.8984578026227970e-02 4.4204681338539012e-02
      -5.7926645554223447e-03 1.9358521877672223e-02
      3.7307689030131201e-02 -2.3121630787512920e-02
      -1.3579909053016641e-02 -5.3002450228199778e-02
      1.8653521962319963e-02 4.6568948856768967e-02
      -4.5276523673966937e-02 6.0416799532487780e-03
      -2.9812180678982388e-02 -3.4282036807009697e-02
      4.5892166765889683e-02 2.4167225488509626e-02
      -1.7294069488249309e-03 2.3453641762786741e-02
      -5.8310596126431427e-02 4.0802509254222866e-02
      3.4097577280162106e-02 -1.7563934918065346e-02
      4.6742598476520514e-02 1.4547338401440658e-02
      4.1475941144938251e-02 3.1758114699293682e-02
      -3.8011362746982524e-02 3.2495065784512792e-02
      -6.7315892812202091e-03 -1.3132395986004713e-02
      -3.4582185755830497e-02 3.8408959475148940e-02
      8.2842237928781020e-03 -1.7050962119244478e-02
      -1.6911852175677082e-02 -3.1380529940377044e-02
      1.0648539753520323e-02 -3.8307718286201144e-02
      2.0337038164846555e-02 1.0093916595637626e-02
      -4.6655572789338788e-02 2.5479888151320292e-02
      -2.0064796388679040e-02 2.6225019302592557e-02
      6.5974691205250516e-03 4.2050989174684084e-02
      2.4362573143394276e-03 2.8211750648432905e-02
      1.9710882264982965e-02 -1.5114514428637017e-02
      5.4868449155835467e-03 5.2972018608830355e-03
      -2.4259329475577851e-02 -1.4293452769607367e-02
      -1.8201269512844154e-03 1.7181432645081655e-02
      -1.5150292677277003e-02 -2.1130555217257836e-03
      2.2600771750372783e-02 -3.9813623030256429e-02
      -3.4526674308377858e-02 -1.9779123385573184e-02
      -2.1454849882124042e-02 4.9570537411792008e-02
      3.0109711205953047e-02 -3.0196013365128057e-03
      3.5223901138502239e-02 2.1548940574460131e-02
      1.6916695140886277e-02 -5.3989538387372707e-02
      3.8403181273200512e-02 1.9473462388987377e-02
      -3.9520743316054173e-02 3.8214339297062583e-02
      -9.1063651188914053e-03 2.7704436530928009e-02
      -1.9625447966606171e-02 -1.8748435033384307e-02
      -4.6546864657280258e-02 -2.3842172226766035e-02
      -1.5327414646121704e-02 3.3918232096376698e-02
      1.2212628850483034e-02 -4.3632673358224405e-02
      1.3488229783422118e-02 -3.8146264090344079e-02
      2.0169022953250419e-03 -5.4327279738911174e-02
      4.0985276186802096e-02 4.1302900927641335e-02
      -9.3533711989102243e-03 2.3706222470320254e-02
      -4.7187285801628268e-03 -2.1504468072413539e-02
      -5.9121969807708792e-03 -6.4385182454159964e-03
      1.5439916411797490e-02 7.8125679454332016e-03
      4.5329957874885855e-02 3.9688050966874576e-02
      -3.6642398505779383e-02 4.4323815997846079e-02
      1.5917928980206653e-02 -4.6888495679479544e-02
      -1.5769898990800734e-02 2.9923420423370532e-02
      2.5890896712197742e-02 -8.4228161445472870e-03
      -5.0938630671269886e-02 1.3591246899348581e-02
      1.6384446309976583e-02 4.6467341788762238e-02
      -2.1344973429569414e-02 8.8243037227721845e-03
      -5.3130441502900298e-02 3.5192939979506656e-02
      -4.9902552556598236e-02 -1.5295201486996051e-02
      1.5902044786822982e-02 -4.0740778361250028e-02
      -1.2692175666062813e-02 -3.1776431892925935e-02
      4.0751114210740255e-04 -9.0810181225767575e-03
      -2.8472078671272088e-02 2.8935673823406963e-02
      2.0184134615131390e-02 3.3307103216071228e-02
      -1.8415505139768664e-02 -2.4478211196425938e-02
      -3.5132023667392070e-02 1.6882958029116546e-02
      2.3508323327032905e-02 3.8140091950644030e-02
      -4.4345673485715213e-02 3.3851785272233079e-02
      -2.3239853906490946e-02 4.4170472242638696e-02
      8.1840537965079865e-03 6.6230822310452790e-03
      3.2127522000624346e-02 -3.4577565987665065e-02
      1.3108963915522858e-03 1.1127722954432958e-02
      -3.0489089556476529e-02 1.8560279004755198e-03
      -9.3771174602520907e-03 4.4124618507014421e-02
      4.1151097709765355e-02 -4.1787027374388122e-02
      3.5580623532762573e-04 2.1045745639932414e-02
      2.9912160707986756e-03 2.2838288498953155e-02
      2.6805677130530760e-02 -1.5320832053379075e-03
      -1.5799053903397399e-02 -3.5395408496850665e-03
      1.9011288233680271e-02 -1.7253864664131643e-02
      -4.1341631609421024e-02 2.1748195900798500e-02
      -1.6845801736940301e-02 -2.6068808604041781e-02
      -3.9556585411491098e-03 -2.9032287507563870e-02
      5.3737607652648775e-03 -4.9513614554399919e-02
      3.8460157542342978e-02 -1.5302602972431011e-02
      3.0046426807317509e-02 1.0512500733594240e-02
      -1.2529146878973789e-02 -3.0083103545339832e-02
      -1.0710925997752002e-02 4.0330063654771299e-02
      2.4124035653091534e-02 -3.2387201465469355e-02
      -6.6797633005888308e-03 -2.7229663336200253e-02
      1.8913009649375090e-02 2.5919947124549260e-03
      -4.9887609950113009e-03 -4.7279211297624642e-03
      4.6012413545671246e-02 8.2717167229227062e-03
      4.9510463819850033e-02 3.6467667972074680e-02
      -5.0052148986162628e-02 -2.4249095146366896e-02
      -5.9503975309386789e-03 -4.3674163953303674e-02
      -8.9365511677128306e-03 2.6886135218406611e-02
      -1.4113802739703233e-02 3.7615419662410159e-02
      -4.9413016247210235e-02 -4.6175256724541201e-03
      -3.5439901570112897e-02 3.6732473676199036e-02
      6.9265394883452737e-03 -2.1899239342103846e-02
      -2.4561836585415657e-02 2.8130296625346683e-02
      2.5840546503478175e-02 -3.1320896010171011e-02
      -4.3962766076503013e-02 2.3326964662849697e-02
      4.5948602636937536e-02 -8.7686433741200284e-04
      -4.6571828282521476e-03 4.3302032959439303e-02
      1.2176544978124353e-02 4.4696485087907967e-02
      1.0159610257374184e-02 3.5855814498211847e-02
      -2.1820578764098146e-02 3.9918164152068572e-02
      -4.1169475299509426e-03 -3.9018127260248094e-02
      2.4563433493042255e-02 4.9239100974825069e-02
      -2.5593497883366984e-02 1.7788972580543513e-02
      -2.1146713343597943e-02 -2.1043438599870224e-02
      -3.3829191228887841e-02 2.7488352778092643e-02
      -3.6962395344427350e-02 -3.1597660556324278e-02
      -2.2143374479162224e-02 3.1525633732907947e-02
      -4.6835010636925280e-02 2.9658689961219169e-02
      1.3556575003870379e-02 2.5191478066992703e-02
      -2.3699168026629629e-02 4.4019167906581967e-02
      1.9301349777691854e-02 -4.3598181891869890e-02
      3.1720744497988028e-02 2.9857370502112363e-02
      -2.7512352986864531e-02 3.4352555225795611e-02
      1.6800509985683196e-02 3.2849022552308087e-02
      -4.5015722584268753e-02 2.8605801460967448e-02
      3.9228909908464005e-02 4.4138397644766313e-02
      -1.3477095397236094e-02 1.4177821487644793e-02
      -1.2641430319880718e-02 -1.5247785737408781e-02
      3.2526353402587110e-02 4.4957113088122079e-02
      2.3617813338841970e-02 -1.3309348138727304e-02
      3.4095735065310967e-02 -4.4145333435864936e-02
      4.1731443852777855e-02 -4.4349520873478383e-02
      -1.8560617762738998e-03 -3.2287312018598899e-02
      -8.5120031207446770e-03 7.4105448621491748e-03
      2.9707031421681625e-02 7.7707997191805390e-03
      2.1742514170096535e-02 -4.3546632671165084e-02
      6.1116505080791757e-02 -4.8732759810119992e-02
      1.2317713271316529e-02 2.2688252405773750e-02
      -3.4691556809621398e-03 7.6902256995655194e-03
      -1.8191150365834800e-02 -2.6661802443621548e-02
      4.3049714185100521e-02 2.3360001404202111e-02
      4.5742258923644058e-02 2.9654849437124986e-02
      1.6148234441319985e-02 9.4184998024761969e-03
      -1.3292604582359509e-02 -1.2056681570438658e-02
      -1.2319408294506597e-02 6.0190358014020643e-03
      3.6701602710465110e-02 -9.2471609551287928e-03
      -3.9775257599488710e-02 1.4015007822848884e-02
      4.7201356095124908e-02 -4.0301813225769985e-02
      1.4957049951831627e-02 2.3502248685571124e-02
      2.1371681703348289e-02 4.4664323913817701e-02
      5.3620327771937003e-02 2.7784199153870544e-02
      -1.2718477343990507e-03 -2.4992495356122583e-02
      -1.3936869560826756e-02 -3.7191873590794650e-03
      2.2538433527558594e-03 5.7192138819049332e-02
      -2.1866330617712728e-02 -4.2590375331131948e-02
      4.2916975023140347e-02 1.2537688632208294e-02
      7.6637725681176112e-03 -1.7579721883350507e-02
      1.7698242062085357e-02 3.0860428942265466e-02
      1.8269602526383846e-02 3.0131733828885177e-02
      -3.4307772200244807e-02 -1.5002153448545046e-03
      -3.1043799968453554e-02 2.8623302699589275e-02
      -1.6588931191673144e-02 3.1890907316668535e-02
      2.3255385689953612e-02 3.7684272888731732e-02
      3.4580702965530959e-02 2.6118398037497680e-02
      -2.9847016115163638e-03 5.0852969022040506e-02
      5.1621879053805560e-02 8.6182247943129408e-03
      -4.6129588738540915e-02 5.6776234862986504e-02
      5.4815387012195411e-02 -1.1131902613829245e-02
      5.2667013602813811e-02 -4.7260103665292940e-03
      -1.8956533457472287e-02 4.5189842078980143e-02
      -9.3979782290938164e-03 -3.6765748587693957e-02
      -5.0967819003653624e-02 2.7059405963948166e-02
      -9.7182441827887329e-03 5.0112232263257582e-02
      1.1910852027029973e-02 1.3459818862127153e-02
      4.8307313858610531e-04 -1.1979161545529037e-02
      5.5021250303595365e-02 2.2103518913323204e-02
      3.9219519495466690e-02 -8.2502556595257805e-04
      -3.1693103077891804e-02 -3.4523925379954107e-02
      -1.0787887995405931e-02 -4.1812430047940198e-02
      3.5949749051449847e-02 4.5413108510307225e-04
      -1.0548459981704202e-02 7.5591433662528908e-03
      8.0374740817919215e-03 -2.6687178942784523e-02
      -4.1937926572525396e-02 -4.8115456388627437e-02
      2.5274001980280351e-02 3.2892247303389105e-02
      3.7305621246395276e-02 -2.2039424802231262e-02
      2.1647870201554217e-03 2.9178666929868979e-02
      6.0468342664252838e-03 2.6527804199366491e-02
      1.6763942034103672e-02 -4.8623299806889876e-02
      6.3168511879736254e-03 -3.3765111233275164e-02
      -4.5865625800065597e-02 1.5753940322076450e-02
      -4.0230157719641536e-02 2.7180985651612359e-02
      5.1150999157931039e-02 -1.1048679754583788e-02
      -3.3551774426709625e-02 5.3978006946866245e-03
      -3.3550621341191918e-02 2.1204417582361575e-02
      3.1199828988552995e-03 -2.9593160254003482e-02
      4.4565704471441177e-03 -5.1894504991643140e-03
      1.1491153482835045e-02 4.5292773167798096e-02
      1.7785759862136860e-02 -4.5430548778085292e-02
      -4.1966598244681061e-02 4.0964713996866936e-02
      -2.0772701469535387e-02 5.0555396541081009e-02
      2.8219047361561233e-02 1.3413981198468176e-02
      3.0877092618462745e-02 -2.5396486008264139e-02
      -2.0574680614805566e-02 -4.0416737051295702e-03
      1.0206952018454587e-02 3.3983896642497576e-02
      -1.8751253856159413e-02 2.9797637142650671e-02
      -3.2762649245718568e-02 -2.9695626245390162e-02
      2.1775780106751949e-02 1.7862621106630956e-02
      -4.6825169699948918e-02 2.0436714707156283e-02
      3.8343495038938490e-02 3.6871664752079224e-02
      3.4873892762626493e-02 -2.0270439026067007e-02
      1.0866410567015917e-02 -2.7906395115354386e-02
      4.3104468644902021e-02 3.4693269499220677e-03
      -2.4273530248021764e-02 -2.0575021346784426e-02
      -3.0617241370018602e-02 -5.4846136703930265e-02
      3.5516718892328984e-02 -1.6805342754442988e-02
      -7.3858483613499538e-03 -3.1663526512259704e-02
      5.8506854895956820e-02 4.1797378273804073e-02
      1.7087564119596041e-02 1.3545488917025570e-02
      3.6546083810782290e-03 6.2183203427269287e-03
      -5.5379795427153371e-02 3.4734593948009956e-02
      3.1698880061360062e-02 -2.8922871768577323e-03
      -2.8965773961746443e-02 2.8961848023540238e-02
      -5.5705366108719276e-02 1.2661643445358138e-02
      2.6950046197200039e-02 1.7665689739398232e-02
      -2.3339289045974525e-02 -4.6011599518116730e-02
      -2.5675338557442345e-02 7.2009834645368719e-03
      3.1991492049745747e-03 4.0537591763023961e-02
      -3.6801556581236169e-02 4.8574692424763075e-02
      1.8302474489759791e-02 -4.3395465998206102e-02
      -3.3869810842595348e-02 6.6375865676402386e-03
      -4.9835937486016307e-02 1.4888729222079946e-02
      -8.9877531452246563e-03 2.7920337516491079e-02
      -2.3595868874027537e-02 1.9835747222677422e-02
      -2.7101901481883541e-02 4.6070710915515928e-02
      -3.3472836189231581e-02 -4.1041478855579766e-03
      -3.2848317719203539e-02 4.8311894683568009e-03
      -5.3008156297510066e-02 5.6838021650384594e-03
      -3.0176442644834382e-02 -3.1354676570879460e-02
      2.9947400452202981e-03 1.8431174121007685e-02
      4.1051425913440499e-02 2.8573201162029809e-02
      -4.5948972381220927e-02 -1.2848588243360663e-02
      -1.5031445746639786e-02 2.9733983862783066e-02
      1.6631263149347982e-02 3.5740496952442816e-02
      2.5313915488901509e-02 -1.4460294239252250e-02
      3.8880701251020354e-02 -1.2543958079077733e-02
      -8.6130641058272533e-03 -4.2144172509999585e-02
      -5.0920378211623811e-02 4.9902268626979239e-02
      -2.0012388633540022e-02 2.7727734576852869e-03
      -2.3960565565832120e-02 -2.9562443734700506e-02
      -3.1489629348447505e-02 2.1884093433393696e-02
      1.9060429633425264e-02 4.3485656823004461e-02
      -2.4590830123499698e-02 8.6011306119164188e-03
      3.6528874031555462e-02 4.9746307129856920e-02
      -1.2290165543956734e-02 -3.7799663224694822e-03
      -6.2881387004767968e-03 -4.3827507649306818e-02
      1.6182339633960575e-02 -2.6547807215633375e-02
      -3.8545811757303428e-02 -6.0283944064640216e-03
      3.5272724602604999e-02 -5.5281449142235359e-02
      -1.6174116520228814e-02 -4.5085308999006785e-02
      4.6331483718633999e-02 3.2625307417944692e-03
      2.2822041234882334e-02 8.3484142092418029e-03
      4.3329335833885887e-02 -1.8038619001090593e-03
      3.9209668487332240e-02 -3.8720329863823164e-02
      3.7624951772306285e-02 -1.8764874643607665e-02
      4.3092845153516586e-02 1.0500326490693827e-02
      -2.8048687799882503e-02 -8.5776759590442900e-03
      -5.0176125390899301e-02 -3.0058927613427829e-02
      -6.2944040506032308e-03 -3.2145156702194692e-02
      -1.9625879149076233e-02 -6.3251581270072469e-04
      4.3456013154918309e-02 3.0073447392552938e-02
      3.2496406909597896e-02 -1.9067933981402985e-03
      3.2682434477754103e-02 -6.0679709901229707e-02
      -4.1193794727877507e-02 2.3501635292935610e-02
      3.8276437636224889e-02 -4.2541232101651630e-02
      -1.0648881685131369e-02 -6.1603709497579616e-03
      -4.0034418857310100e-02 3.6767970404758227e-03
      -1.3488869794197570e-03 -4.2191318110193575e-02
      3.6113623215189052e-02 -4.1497238740658034e-02
      -1.4716784795883909e-02 2.4610005747408847e-02
      1.3521228488032243e-02 3.0090888708305064e-02
      -2.5913910828524601e-02 5.9232362390049774e-02
      2.7543227746419721e-02 6.3028389958860551e-02
      4.3185887571391024e-02 -5.7877760702563980e-02
      1.8154979619189694e-02 -2.2150934635486379e-02
      -3.9859905232457894e-02 -6.2484867271311063e-03
      8.5088305406787555e-03 3.8107351025513686e-02
      -4.8848108158941625e-02 -2.3243914251901462e-02
      4.3977111663659287e-02 -3.4675445969907254e-04
      -2.6006757793075744e-03 4.4296239458914255e-02
      -1.6005400162835574e-02 -2.9273305641428746e-02
      -2.4086365331189189e-02 -3.0040217446840264e-02
      -1.2549073809385882e-02 3.3382541760318726e-02
      3.2889565606519966e-03 3.4972437408988533e-02
      2.0304044019403823e-02 -3.0793725216258977e-02
      6.3127849496960632e-03 -1.0772435259072934e-02
      -3.8163644137988320e-03 -6.5107994081450293e-02
      -7.9715050915565439e-02 2.2702778876736406e-02
      2.7162544354489736e-02 2.0028049810780157e-02
      -7.5783634767456571e-03 2.8515999540054974e-04
      5.1603646047219481e-02 -1.2573269428825695e-02
      -2.6832999166473928e-02 -3.8590664127761326e-02
      2.6015792923725963e-02 5.2663753380650269e-02
      2.2503391813723746e-02 -3.2327880631169738e-02
      1.3219661072474459e-02 -7.2397150767666901e-03
      -2.2975923312010395e-02 1.0152490233896003e-02
      1.9723559705527669e-03 -3.1137157793382119e-02
      2.4127783518123835e-03 1.6211568418027022e-02
      -2.5593688551561300e-02 7.1460601026385046e-03
      2.1927760272387166e-02 -2.4263166867412689e-03
      2.5439882604096669e-02 -1.8836730852539414e-02
      4.4750036700493719e-02 -1.1055664946571894e-02
      4.7929576289951932e-02 -8.1845577908838743e-03
      -4.6256130175068820e-02 -8.4153952924029378e-03
      1.5418113332261705e-02 -4.0741342007011079e-02
      -2.7064415336710300e-02 2.1743199976001448e-02
      -1.0138773427761753e-02 -1.4204576573433105e-02
      -1.7291145934902049e-02 9.9901915408789326e-03
      4.7754778181580606e-03 -6.1053844501736031e-02
      7.5161724841781652e-03 -5.6309408965643910e-02
      2.5712606018944206e-02 4.1370801250339019e-02
      -9.9896119750691736e-03 1.8307492521325435e-04
      4.7800249308596984e-02 3.8943158419068279e-04
      2.7994435834462521e-02 -5.4876280337347060e-02
      3.0275369626319514e-02 1.5910730240374885e-02
      2.0775998051872979e-02 3.9501371205171110e-02
      1.5396004504383727e-02 4.0488005900462696e-03
      5.1319526490007483e-02 -3.3191524705524451e-02
      7.2396108518092570e-02 1.7816323750016579e-02
      2.0251779238877346e-02 1.5249043537030013e-02
      -1.8001067630563163e-02 3.1777134554651670e-02
      -2.2624981255383862e-02 -4.2649527865434841e-02
      -1.1811315976090033e-02 -5.9689495312708528e-02
      -2.8065701003111228e-02 3.9043545412235398e-02
      1.4502640795286665e-02 2.9482593483224899e-02
      -8.7784795273168747e-03 -4.2327747123180097e-02
      5.0779174370595833e-03 -6.2014967244531857e-02
      -6.5856368904101733e-03 1.5596509301128469e-02
      -3.8548796719523153e-02 2.8819921524729845e-02
      -5.8720479863655821e-03 -3.6498721821029735e-02
      7.0823255690621355e-03 4.3230745600755967e-02
      4.2614752286140485e-02 4.3031447775061429e-03
      -3.9718198980321681e-02 -4.3272062675196815e-02
      -1.9351332044531211e-02 1.8789784404117302e-02
      -1.4246491669580296e-02 9.9880841483625457e-03
      3.4028563798596277e-02 -4.6269751150706542e-02
      -3.8883941478426769e-02 2.9482796405148622e-02
      2.5754179571739637e-02 -1.5042892255893010e-02
      3.0269781315213646e-03 -2.9197411548340924e-02
      -5.2528946736173053e-02 1.7330712683551918e-02
      -3.3373410860228804e-02 2.9519808307949400e-02
      3.9456636912402462e-02 4.2428447948664377e-02
      4.7365296550609857e-02 -9.5224220982762376e-04
      1.9163143971842475e-02 -1.4210115269919421e-02
      1.0636147970688496e-03 -1.8065078255223646e-02
      -4.3050157819579257e-02 1.2828388582008295e-02
      2.3622228400697678e-02 4.9988818670774983e-04
      2.9563482637971081e-02 4.5288000215652394e-04
      -1.7464608641765040e-02 1.3625287869954617e-02
      3.2103056853541837e-03 1.9777855990755964e-02
      -4.2665978507508633e-02 -2.9551013383612287e-03
      2.8375323546079821e-02 -3.1555870829367699e-02
      -3.6616378657052230e-02 3.1589761861580655e-02
      5.0499216809343050e-02 -5.4581174919912337e-02
      -1.6242111176160659e-02 3.4388262375808006e-02
      5.8065531422170523e-03 1.2346556843684499e-02
      -2.4511468415582889e-02 1.4542666615036790e-02
      -2.7558494586944312e-02 -3.3198943489091810e-02
      1.3198272215174970e-02 -2.6197414138757910e-02
      4.2498130686044001e-02 -1.8359887018346470e-03
      -2.0909570334402411e-02 3.0258706443533366e-02
      2.9452508528345821e-02 3.1031186770331492e-02
      -2.0951465992191623e-02 1.8173048037504289e-02
      -3.9604255467775941e-02 1.8847201105721856e-02
      3.5573543684640767e-02 4.8173154256739726e-03
      2.2545061589563351e-02 -6.4501633162046467e-03
      -3.5804859534322849e-03 -4.6348457915693864e-02
      -5.9219335987796072e-02 2.7188652751745254e-02
      -4.0882694434678728e-02 -2.0847069018329889e-02
      3.8825526413921410e-02 -1.8332000055210212e-02
      -9.5182306387112787e-04 4.9127137964092023e-02
      -3.2900773810917022e-02 -1.6566212813547334e-02
      -3.2583381356578282e-02 -3.6754464624407326e-03
      2.1121221188095222e-03 -4.0063355639539444e-02
      3.1646315918798018e-02 4.8887811167711327e-03
      -3.2924294953648958e-02 6.2876236363894750e-02
      4.0544454458386628e-02 2.4693855691371905e-02
      -2.8755849100351651e-02 4.6494274034107462e-02
      -5.4087174164209459e-04 7.1049637997198179e-03
      -4.0797826662602515e-03 -1.3614934320211785e-02
      2.7152130981507060e-02 1.5918968210803637e-02
      -1.3971513203477729e-02 -4.1443673739363127e-02
      -3.5421890904068484e-02 -4.1678236249040455e-02
      -3.1981713335378768e-02 -4.1777926779269642e-02
      2.9164097855279642e-02 2.7147016735124831e-03
      1.5414242892860402e-03 1.3614366075233994e-02
      -4.5192400417054066e-02 2.2354214602220972e-02
      -1.7744078456731330e-02 -1.7759934527112442e-03
      -2.1144672332342386e-02 1.9755549994523228e-02
      3.4694885061522775e-02 6.0329034348949135e-03
      1.3054592276630051e-03 -3.6213733020503576e-02
      1.6698780839369660e-02 -2.6817697985508569e-02
      2.5776974487596901e-02 -3.0041866723152524e-02
      -3.6278304007890859e-02 -1.8447974609656970e-02
      -1.5398773550097497e-04 1.2143414959056173e-02
      -2.3988777551764727e-04 3.8913483715690263e-02
      2.7395046431583515e-02 -1.1199041835650620e-02
      -3.6198988526947015e-02 -2.1804519041734933e-02
      2.4730264498907292e-02 -1.8542513076652195e-02
      -1.5572126606073064e-02 -4.6398279067116521e-02
      -4.5432114523163092e-02 1.5618423448742064e-02
      8.6545300917094080e-03 -2.7888719139672270e-03
      -1.6584969964117235e-02 2.3400726108386130e-02
      -4.1619675393740937e-02 -2.7860143975607268e-03
      1.6880504680330949e-02 3.6617933360242778e-02
      4.0095352138679180e-02 5.0792724232225098e-02
      -2.5463242463921221e-02 -2.4437331088045253e-03
      -1.0487911077569963e-01 8.1446522980696857e-03
      -4.5433355512316163e-02 -3.6385985404998884e-02
      -6.2687148912873289e-02 -5.9548731964274414e-03
      2.2116638244509449e-04 -2.7784613698358532e-03
      -4.3531673050901332e-02 7.5862603541084588e-03
      3.6398289954456875e-02 6.4202999417695738e-03
      -9.6835698940365145e-03 8.5274684068347758e-03
      9.0668535909455995e-03 -3.2644335786374899e-02
      -4.3900185801019356e-02 4.2919715530249050e-02
      5.8770638224815786e-03 2.0782367946301776e-02
      -3.1515388872926278e-02 -3.3908829490743128e-02
      8.3672678681590465e-02 5.7589799170532259e-04
      4.0536893159902235e-02 9.4756934096931703e-03
      -2.7974954206600292e-02 -4.9977935980101681e-02
      -3.4102107735970222e-02 -1.3549648421122096e-02
      -1.0498801567126672e-02 -4.9467289278765862e-02
      -5.5779468264308182e-03 4.6286432418232430e-02
      1.1643281780662191e-02 1.5736173889598106e-02
      -3.5786858730744824e-02 2.9567115603653287e-03
      -2.1408445817882010e-02 -8.2543260419868245e-02
      -6.3670562658834834e-02 -3.2415946384363903e-02
      -3.3325646846631758e-02 -1.8404352279111816e-02
      -1.3818429689475753e-02 -1.1071618580353292e-02
      -3.9295699994931826e-03 3.7750813252873862e-02
      -4.6021530159659964e-02 -2.6051529925091771e-02
      2.5161034629014496e-02 1.2718562900308206e-02
      -9.7421223129494743e-03 2.1670691962962216e-02
      -2.5428798768925669e-02 -5.2141024993477498e-03
      -1.3941202557372119e-02 6.5635184239431410e-03
      -2.8847801644012468e-02 -1.5168388023826584e-02
      -4.6346619377964901e-02 2.6872296368353428e-02
      2.0338435079572403e-02 -4.9742266446396392e-02
      3.5669992837526594e-02 -7.8549832510255383e-03
      1.5030467973847966e-02 -3.6078725697038593e-02
      -1.2069698064103367e-04 -2.8564405448062050e-02
      -2.3757821388003062e-02 -1.6187498318238423e-02
      -2.8721860747658673e-02 -4.8581548425884564e-03
      2.4315357229499530e-02 -4.6665647456379841e-02
      -1.3842512617726050e-02 4.5469787549068344e-02
      1.4380274854876873e-02 3.9323210660824448e-02
      -4.3322130876943345e-02 -2.9677190165495158e-02
      1.1075863992729132e-02 -5.0644490465239864e-03
      -2.9510129290284719e-02 -4.0663290371624465e-02
      2.1312998137528918e-02 -8.9137477164584460e-03
      -1.6886856108650049e-02 2.3427202558381120e-02
      -1.1358395439138020e-02 9.5713191158872911e-03
      5.6659247503647502e-02 -1.1701419976650442e-02
      3.7164243358493068e-02 3.5005690053504158e-02
      2.2701303104683376e-02 -5.4999299967113486e-03
      -2.0742604693370817e-02 -4.5134394191284316e-02
      4.3212222085257102e-03 -4.2180007101583664e-02
      -2.8956137881258886e-04 -1.5180680932913970e-02
      -3.8266674746980936e-02 -3.5384078456801846e-02
      -4.0445778121371054e-02 -2.7666218938066530e-02
      -2.3819780587493500e-02 -2.0362536331226325e-02
      3.4786829696111361e-02 -5.8462062856089202e-02
      -5.0534503607238563e-03 -3.4365390408808302e-02
      -4.8550686839911343e-03 -4.1563959754725079e-02
      2.8970240010729200e-02 -4.1997351672923816e-02
      -4.8380025934215889e-03 -5.9994432266173937e-02
      -6.7250824590452729e-01 8.8341464773253275e-02
      -1.1754668142265112e-02 -1.9568499025036801e-01
      -1.3762868648296650e-01 -2.1815477692442317e-01
      1.8073594987659858e-01 1.1477517999173874e-01
      -2.1677331939778105e-01 1.9222421006546506e-01
      3.5172694499091585e-02 2.7660119494457719e-01
      1.7500139017506747e-01 -1.8823829449189933e-01
      1.4042075000712837e-02 -8.3565205886266244e-02
      -5.6117028312852722e-02 2.0590819787709655e-01
      7.8416793585571826e-02 1.0521661037536259e-02
      -8.0742051979502613e-03 -1.0346214925036697e-01
      2.7752182134888442e-01 1.0527303103158585e-01
      5.6367155255210716e-02 -6.7151644970034396e-02
      -1.4967624266677976e-01 -7.0386907245104546e-02
      3.9774336071197527e-02 -1.1360000151482023e-01
      -6.8383479145952109e-02 -1.0910380246205562e-01
      -1.2900760421091217e-01 9.8408657490608332e-03
      -8.8086913784323262e-02 -3.6373437231003319e-01
      -1.9410555168518759e-01 8.2984294231402328e-02
      -1.7267664620912021e-01 -3.7073172858524189e-01</_>
    <_>
      -1.2163440758346661e-02 9.2787651297431464e-03
      9.7889245331661628e-02 8.7971814215795099e-02
      2.7884151763920662e-02 -8.2617355826310940e-02
      9.3002035566866620e-02 1.1069491927679186e-01
      4.0824140146615569e-02 -3.2544404455192709e-02
      8.2730863349573414e-02 6.5443793409962772e-02
      -8.6595990341173740e-02 1.6084112352165864e-01
      -2.2683508081348232e-02 2.6104222098952402e-02
      -3.2091308008377652e-02 1.9715494968475061e-01
      9.3586707345024320e-02 -6.0311024039806163e-02
      -6.4005746125175386e-02 -1.7630864041488743e-02
      2.3028385282236448e-02 -7.4204923096530651e-02
      9.5401881315220274e-02 -2.2335999891037978e-02
      5.8410868479758300e-02 1.2240759975369398e-02
      -1.5179001855740143e-02 3.9370161918080779e-02
      -1.3508246803368767e-01 -4.8077827721608776e-02
      1.5523338350128577e-01 -3.8119039894443645e-02
      -1.3738127871358094e-01 3.9907652968213914e-02
      -9.6001023805074137e-02 1.6557408847718110e-02
      -1.8897323154158432e-01 9.5780355103862458e-02
      3.2494703617563382e-02 -2.3492395965962653e-02
      2.2747985504522089e-02 1.8750229190063229e-02
      4.8923109268026822e-02 1.1930106408369508e-02
      -3.7151987069255168e-02 -4.0253150008982289e-02
      -3.1320887248589828e-02 1.6130463113577180e-02
      -5.8569605526788721e-02 -2.7308992230180760e-03
      2.7688474939857564e-02 1.7661297062126560e-02
      -2.4964924920290156e-02 -5.5427246499124394e-04
      -3.6626109364226160e-02 -5.2651574485357143e-02
      1.4191896572127024e-02 -2.4568418396842201e-03
      9.4591224686145121e-03 -3.0264697865610517e-02
      -3.0343616517919570e-03 2.1890239919077127e-03
      1.4082716847203816e-02 -1.0129564894400259e-02
      6.5057116126596400e-03 7.8756030431090234e-03
      -4.5281464978376727e-02 -2.4951556816419460e-02
      5.6501753145747596e-02 -1.4140771972626138e-02
      -1.4138851989713399e-02 -2.8401394471083249e-02
      5.0555392685790020e-02 -1.6008243438730883e-02
      -2.0253281758350401e-02 -4.4500129952443124e-02
      6.1066480445811644e-02 9.0852874477576080e-03
      9.9171083295852436e-03 5.1135086151829448e-02
      3.4585923578908433e-02 -2.9218058385939591e-02
      -1.1733783494930015e-02 -2.2870557397450406e-02
      -2.2147270943256088e-02 -3.0168837406850557e-02
      -3.3329735664360441e-02 -8.1357458952640068e-03
      4.2916897024171154e-02 2.9801417150285874e-02
      5.0722748872381540e-02 3.6897461687635011e-02
      1.2489592615440311e-02 2.6612533991112491e-02
      -6.9025653224312261e-03 2.2881567136027424e-02
      -2.1203854842506187e-02 -2.7189211451429052e-02
      1.0280343557497985e-03 3.2158230057001441e-02
      -2.9544794825801683e-02 -4.4364161857898918e-02
      1.2187982135350089e-02 1.8488169583988252e-02
      -4.8755066247644828e-02 -3.9896543961284808e-02
      1.5163082967100184e-03 1.7670749661592083e-02
      3.7388327035055402e-02 -1.2048488107071599e-03
      2.2616427324390516e-02 1.3249730587114438e-02
      -2.5722481528410061e-02 -2.5207605526493433e-02
      -3.5993885679683153e-02 7.7133631065138802e-03
      -3.5219004356964310e-02 -2.4339526914146349e-02
      -5.6687687891305493e-03 3.6691635902992480e-02
      2.1429013859043354e-03 1.9648280628563327e-02
      -1.5061697214295292e-02 -6.8882052589497089e-02
      3.7302250766213851e-02 3.2882096890128568e-02
      5.7617441837526442e-02 -4.6641767033763513e-02
      -1.9473038511023475e-02 -1.5238085563450432e-02
      -3.9330120801801496e-02 3.2037378011076763e-02
      -2.6126223245719325e-03 -2.6824713260555095e-02
      -2.9747704857555238e-02 9.8034475444382346e-02
      2.5796188778283054e-02 -1.3785927736578503e-02
      -6.7607072512767402e-02 -4.2224448141813965e-03
      -3.3373591866953684e-02 -4.6963370953403673e-02
      6.5312791042258220e-02 -4.6466897267154070e-02
      4.5048038460405735e-03 7.9378893201835206e-04
      1.5721812590278824e-02 1.9433037542575738e-02
      -1.3344015580649054e-02 -3.4611546687843319e-03
      8.0095689943683393e-02 2.0940141533777046e-02
      -8.6388609299216778e-03 2.8161857665988659e-02
      6.1051276347049398e-03 -2.7603199554069899e-02
      -1.1230949146678405e-01 9.1320948211603359e-02
      1.1609466097281595e-02 -3.5926224439584091e-02
      -3.1145941148125800e-02 5.6993324533431429e-02
      -2.2938106570529956e-02 -1.2443042053513311e-02
      3.5411283548194915e-02 4.7916059940989311e-02
      -7.8649793546500604e-03 4.4574472621554811e-02
      5.3293704442897688e-02 4.7639514917739371e-02
      -6.2299470610045482e-02 2.4991583890090558e-02
      -2.6018808488658153e-03 4.4114180909536407e-02
      -2.6835567516520231e-02 3.0677586707521753e-02
      2.1402169383086062e-02 -3.8515056973677658e-02
      3.1993251422450478e-02 -1.9966991091556301e-03
      1.8410929538118957e-03 4.8017696265820519e-03
      5.5118882194670100e-02 -1.8561314798298811e-03
      2.1824617734774360e-02 7.1620121960834140e-03
      4.3613798124693778e-02 -1.4193448534962792e-03
      6.4726613824378307e-03 -4.7793800479368612e-02
      2.8512857440428353e-02 -1.2784022792398190e-02
      -7.9555806981050983e-02 2.8426828703881215e-02
      2.2926763433238326e-02 -7.1514525989855634e-03
      -3.3873951124145062e-02 9.3556204071867252e-02
      -3.9478857876782812e-02 1.3052556311270927e-02
      6.3906468779624248e-02 8.2155757630336335e-02
      -1.0886246735134317e-02 -6.0965410880573390e-02
      4.5312637906421538e-02 2.8439139885504255e-02
      4.6402748783530311e-02 3.6082228047271736e-02
      5.5317164810689906e-02 -2.0758570425323742e-02
      -7.9943100723301699e-02 7.3796476665087096e-02
      -4.3791997416889272e-02 5.5293385883542198e-02
      -4.6808458046586468e-02 6.5452517924519671e-02
      5.2338551171738627e-02 8.7602232096868939e-03
      2.9222999848013364e-02 -4.5676281445787774e-02
      -8.5638732599430650e-03 -5.8828672531434964e-02
      -1.7576805875203418e-02 -5.9298262350691043e-02
      5.4597594749160129e-02 9.6381799315788472e-03
      -9.7079984694679027e-03 7.0563890675318583e-02
      -3.3211578246493824e-02 -2.8387781718926960e-02
      3.1553777489831146e-02 3.0059224928738283e-02
      -2.4946017364197284e-02 -8.4597016589644369e-03
      7.7751455209459685e-03 -3.2604642913269345e-02
      -6.9408191945780129e-02 9.2716968285998971e-02
      8.3321359385515621e-03 2.2077093883116721e-02
      -3.6463115153565942e-02 -6.9352022795824697e-02
      4.4367651482332002e-02 1.0208406644102884e-02
      -5.1532623182487400e-02 -1.2850041650705543e-02
      -4.2726840816660074e-04 5.7328027139480604e-02
      -3.0483254332115409e-02 -5.5312064919842474e-02
      4.9041679769042817e-04 -5.9983931557060825e-02
      -1.0611861032303519e-02 -3.8254679183581407e-02
      2.1562254974756612e-02 -3.9687935933948822e-02
      -1.8949096402983687e-02 -1.3493297303233294e-02
      7.3750103622484561e-02 4.8122305119919721e-03
      -2.5852039052368871e-03 -5.0875100180056559e-03
      -4.8073762699828430e-02 4.2930857832542503e-02
      3.4382510132775358e-02 -4.3300623832292544e-02
      2.7744542072695375e-02 -1.7151056322596663e-02
      4.8059059960330858e-02 -3.0376306802268910e-02
      -7.0935776612021481e-02 -3.3931937681050191e-02
      4.3388084814554299e-02 -2.7738053276705005e-02
      1.0086063969150684e-02 1.3311174513213052e-02
      6.4348465968924462e-02 -5.4312016066965285e-02
      5.0642204288285891e-02 -1.5426607105983011e-02
      -2.2272052674485954e-02 -7.9917833302304651e-03
      -3.5981360138370853e-02 4.2805399507193698e-02
      -1.5425611958917182e-02 1.2198932368805121e-03
      2.3672952535517662e-02 -3.8890212485032848e-02
      -4.0666832068048608e-02 -3.0007901841610996e-02
      1.4439196631740148e-02 -7.0974052906617957e-02
      3.6493104885874421e-02 -1.3906563586285541e-02
      -1.9627500056902652e-02 -7.7345034677628627e-02
      -1.8690957504034725e-02 -1.7625676778109806e-02
      6.6623901747066448e-03 -2.5712056856154460e-02
      -3.0045581899010198e-02 4.5694355720364087e-02
      1.8532499527114953e-02 2.5839560653040113e-02
      2.6576433585886697e-02 -3.6604112248607136e-02
      2.4993716242737867e-02 -1.2074487218600518e-03
      -1.5317606613872978e-02 3.9971431922305241e-02
      -7.5216574404878805e-02 -7.9335044309774300e-03
      8.9055787644110290e-04 4.9851782289301975e-05
      4.5764671193354228e-02 8.4190285082011377e-03
      3.7838903858255828e-02 -3.0733009031748325e-02
      -2.6073252884735731e-02 -4.5339930619757877e-02
      -4.7072506928358404e-03 8.7729104418667214e-02
      -1.2269160905642010e-02 -5.5539774025762947e-02
      6.9201037023574732e-02 2.4999441222167490e-02
      1.5229940062874977e-02 -2.2277904760894763e-03
      -1.4891080234872530e-02 6.1947810236273208e-02
      2.6540401677755492e-02 6.7778382027150988e-02
      -4.1685025218643076e-02 -2.1887398995025852e-02
      2.7602713697870401e-02 9.4094585207836867e-02
      3.4809711647201758e-02 -5.1632579269320515e-02
      -7.2986307111648274e-02 -2.8901902695335473e-02
      4.3262904163426839e-02 1.0983851179930301e-02
      2.0470600851733738e-02 -5.0562384781888396e-02
      3.0858218915321800e-03 -2.5193545628895479e-02
      -1.6882804373023523e-02 1.2494174501799508e-02
      -6.0507797537373120e-02 -2.3669267396790813e-02
      7.2435376822570716e-02 -9.1563571787634645e-03
      -7.2524336008414750e-02 4.5617892190727809e-02
      -5.3291772380487379e-03 -2.8743965645348403e-02
      -4.9722805657768293e-02 6.8606639910830880e-02
      2.1497147118469700e-02 -1.9552199533022195e-02
      5.8620685310893624e-03 -7.6493865670280353e-02
      3.4425212965473698e-02 2.6556145650200178e-02
      1.0956544216759408e-02 -6.9594542218724104e-02
      -3.0256584439816447e-02 1.0607833788721968e-02
      -3.6883166286030590e-02 3.3516589841770160e-02
      1.9097664814731553e-02 -7.8543907852598793e-02
      1.0209902045941334e-02 -2.5606828809407945e-02
      1.8206664675769844e-02 -7.7871021904273544e-02
      2.2137652887021401e-02 -1.3970885784374092e-02
      6.9335382816271565e-02 4.4248549884913418e-02
      -5.4096263204876309e-02 4.0427258710764594e-02
      -1.3421599506376039e-02 5.1860506397665970e-02
      -1.9281726944504817e-02 4.1938925045076965e-02
      1.8342434589157335e-02 -6.6685955383141954e-02
      6.7404119213428232e-02 3.2945100241958465e-02
      -3.7471966916574964e-02 -2.7153782721254620e-02
      2.6117529935308744e-02 -3.8731085406259164e-02
      5.3205996056766729e-02 9.9074265445679207e-03
      1.0856762704637023e-02 -7.1962977201271594e-02
      3.6869865566382040e-02 5.1016424442835037e-02
      -6.9249081524398685e-03 -1.9359360921213674e-02
      -3.5670512350047087e-03 -3.1240695610646615e-02
      -4.1986888278198617e-02 1.0936000479455634e-02
      -1.1486398268368031e-02 4.3733040046875386e-02
      -2.2573741885844767e-02 3.6327481115901950e-02
      -1.5670843842345510e-02 1.9806716803772099e-02
      -9.7457821669938542e-03 2.7620340400664665e-02
      -2.7283961333632301e-02 -3.6938140065659548e-02
      -1.4986011395698853e-02 -3.6702347273334088e-02
      5.9833108144553934e-02 2.9322511488938368e-02
      -4.5769291647271143e-02 5.2686357540955631e-02
      3.8238036084440354e-02 -3.0654103166986784e-02
      -3.3361903521506510e-02 2.7616402639954438e-02
      1.2746645641187115e-02 -1.3034005345000743e-02
      2.8032780774333979e-02 -4.0727548258460103e-02
      8.0316340130511480e-03 2.9223986313213681e-02
      3.4524885016672176e-02 -5.3852125676222100e-02
      -1.6644634769185693e-02 -9.1246229027725067e-03
      8.7657684691782763e-03 -3.5905037841374214e-02
      2.9310249131395162e-02 6.6149678714134694e-03
      -8.0730030117066691e-03 -7.3281308757509669e-02
      3.9819086474115320e-02 8.1075667205225466e-02
      -8.4726925668531419e-02 -1.5509744318840397e-03
      -1.9068899763676473e-02 5.1859781226030494e-02
      -3.5024045582450099e-02 -5.1100665775115142e-02
      3.3311083006545776e-02 -6.0204934055757033e-02
      2.2089062496627718e-02 -3.9753094817149712e-02
      5.8093334637868727e-02 -8.6961552805440712e-02
      -5.4030355189030613e-02 4.7571933159948322e-02
      2.9817660510849806e-02 -2.1354969146258056e-02
      -2.4114275954703251e-02 3.6098298629169592e-02
      -5.8789880151285751e-02 2.4893306165458554e-02
      2.0546923277997845e-02 -3.9255316542988083e-02
      -1.3987600707333833e-02 -4.2953648067667834e-02
      9.8719354001608695e-02 2.5013733149950295e-02
      -7.6892561744163826e-02 5.4488063203187130e-03
      1.4130275062937944e-02 -6.4942311633903238e-02
      5.3819455484673484e-02 -2.1469575726327697e-02
      9.4108904533846571e-02 -1.1767874728264403e-01
      4.4694346897756136e-02 4.7989165020521585e-02
      -1.7765582042512211e-02 1.9787912859622121e-02
      -4.9681234177886981e-02 4.6847375294633209e-03
      -2.8131973574041177e-02 -5.5729394560194004e-02
      -2.8588015823190364e-02 -9.0016803947290530e-03
      -4.1676417235224049e-02 -3.3914253768923167e-02
      3.8910536999890104e-02 2.8828185584067970e-03
      -6.1827179737401648e-03 2.7070187070880408e-02
      -8.4096206334570781e-03 -6.9577844152090063e-02
      -5.8852325584941204e-02 -1.6884403515953668e-02
      5.8057308589965793e-02 3.2672654962444210e-02
      9.0219184292326497e-03 2.8255000348475248e-02
      -1.4016156712552772e-02 5.7187963331818983e-02
      -4.6149715542540624e-02 -4.5578598500728880e-02
      3.6247313467593550e-02 -1.6482236281763391e-02
      -6.6419128191495475e-03 5.2053476255788475e-02
      -7.1646933955101716e-02 -2.4198341747224860e-02
      6.2358195602072439e-02 -3.6440553494532707e-02
      1.4045305507450482e-02 5.4090219455818787e-02
      9.0231198522565434e-02 -7.8197366486634015e-02
      -1.5620741811084854e-02 3.8999541298819676e-02
      7.5302568343931240e-03 4.1139556426184463e-02
      3.8769533306473918e-02 -6.7953583754828351e-02
      8.9584952294003622e-02 6.2742644957307650e-02
      7.3832748803150008e-02 -4.3935399429016510e-02
      8.3724612400793791e-02 -1.1620355464850549e-02
      1.2139406765667915e-02 7.4777628883323399e-02
      -2.0119754343399483e-02 5.8115952336161708e-02
      1.0843956420192042e-03 6.8138074961813261e-02
      4.0755808371393212e-02 -4.9443800797383489e-02
      1.7138206910130148e-02 -3.6861010806882526e-02
      4.2581649585932219e-02 -5.0079518276215769e-02
      1.7325067822729936e-02 -6.5238876414223393e-02
      3.2356377579869304e-02 9.7595143343529173e-03
      3.8860554409391609e-02 5.9569907403259348e-03
      -7.0885867821245924e-02 -6.1626435011639100e-02
      2.4414938907596079e-02 -2.9447470167601845e-02
      -4.6276803486158626e-02 2.4324827839614215e-02
      -3.5391642281786491e-02 4.2467853047818256e-02
      -2.9701818427922987e-02 8.3845746952521030e-03
      2.4358858509183651e-02 2.5543352194533520e-02
      -4.1052747970649846e-02 -3.2514366802027329e-02
      -3.6986322610276956e-02 -4.3476850532300590e-02
      -1.6754797664107212e-02 -5.2795633898422558e-03
      3.0321159519984802e-02 -1.7123281402441654e-02
      4.1858505180297080e-02 1.1587844368299169e-02
      2.2829743773568164e-02 4.2341498778747412e-02
      1.0905703583180599e-02 -4.1244307580658175e-02
      1.9423948964508709e-02 -3.0720362546700294e-02
      2.6894329925268901e-02 1.3321784539018916e-02
      2.6386038918114120e-02 1.0842069206617953e-02
      3.7716891911251563e-02 1.1379594598756015e-02
      -1.3539178656526363e-02 -3.2580297677483536e-02
      -5.7467647705601197e-03 -4.6908260988454322e-03
      2.6099943557041910e-02 -5.7564942610336522e-03
      -3.0511346381751400e-03 -2.3395434803964141e-02
      -2.6866310948742287e-02 -3.5979151649878749e-02
      4.9823082858466976e-02 4.3795664818515212e-02
      4.4905493517922702e-02 4.9395022620187939e-02
      3.1111530934052830e-02 2.9604609517294982e-02
      -1.3629888629525388e-02 -4.1171467524043548e-02
      3.9307069648769045e-02 2.3487233788509792e-02
      -1.7236322725069350e-02 -5.0249350888078498e-02
      -3.3032896268713176e-02 2.2057149937768496e-03
      1.0473524581543157e-02 -1.7059949452673438e-02
      3.9343731089186679e-02 -3.7951180667916820e-02
      -7.1830162824079336e-02 -2.3155874217494044e-02
      -3.8362341878588897e-02 3.0295248227930036e-02
      3.7012238134452043e-02 8.5978257287574016e-03
      4.5792150355756296e-02 1.4324908651338160e-02
      -8.2943682894366880e-03 1.3964382170270358e-02
      -2.7743736580875100e-02 -5.0862679401020204e-02
      4.4895245597657507e-02 7.9040697408363191e-03
      2.8755202833504988e-02 -5.3013279691331329e-02
      3.2957634469475312e-02 3.5956879066116880e-02
      5.0488521775461882e-03 4.2399989138859319e-02
      2.4417567692033643e-02 -1.8563541568797456e-02
      -1.4384266308899650e-02 -4.6493154055041938e-03
      -4.1224923135124950e-02 -4.0284810252760324e-02
      -4.5127029248056991e-02 3.6025438101869096e-02
      -2.6503252119449636e-02 -3.3160443998579058e-02
      -6.6939576439356352e-03 -4.0099359371404415e-02
      1.5397481829179039e-02 -1.7147966673206182e-02
      2.3750311578925043e-02 1.2614523230113639e-02
      4.0739412455382554e-02 -5.1294149895874740e-02
      -1.2818265592098890e-02 -2.7645259362809513e-02
      -2.1614559542412544e-02 3.1389535297415012e-02
      2.0645913571227553e-02 2.3910730717390846e-02
      1.5775983466443017e-02 9.5529754153006966e-03
      2.9984461772371133e-02 1.4393236997611405e-02
      1.0563406504855938e-03 -4.2882132576140666e-02
      -4.5147836529184873e-02 -1.2469168256032147e-03
      1.9667549664279419e-02 4.1352655954396252e-02
      2.6754799454807080e-02 -1.8930948284292672e-02
      1.7256141790421065e-02 5.4271622340790623e-02
      -9.8313960939230508e-03 -2.3031715867397527e-02
      4.0835979258721157e-02 -2.5877077475985749e-02
      -2.6359361540190956e-02 -5.1066125268725025e-02
      3.4199423010077422e-03 -2.5655315441234956e-02
      -5.9258850019855688e-02 -2.5704739839095447e-02
      1.3322402385737661e-02 -5.7824537174912486e-03
      -6.8563520846950665e-02 -5.2710990940849120e-02
      -2.3864413936413011e-02 5.1962844276997551e-02
      -5.0720540755305306e-02 -3.2415820075417011e-02
      -5.9177768614584424e-02 1.4842126803542958e-02
      1.2844802411030842e-02 -6.3305677405843556e-03
      4.8967079187359701e-02 -8.2696686152906235e-02
      -3.6380659417414161e-02 -3.8649455413325796e-02
      -3.0686569060060256e-02 -6.1735080748097769e-02
      1.0939283177849521e-02 -1.9527872194990741e-02
      2.0425415522353219e-02 2.2959526880784856e-02
      -3.2066890967513528e-02 8.1817548948548823e-03
      -1.0076920286153780e-03 2.8991796386529746e-02
      -1.8529105122909815e-02 -2.2793018972087780e-02
      4.9843948653947402e-02 -3.2056343269593827e-02
      7.7628077855103825e-02 2.7478110830671466e-02
      -3.9566943418447811e-02 -2.8350911807936658e-02
      7.6889131556401605e-02 -1.4738406301147623e-02
      -1.6332842581204998e-02 4.6494515186104986e-02
      8.6303985413162906e-02 -7.8837985566268920e-02
      2.1916111099338682e-02 -4.4483580590938293e-02
      -4.6564980688708818e-02 1.6928416361207194e-02
      1.8986778698511727e-02 1.0550994372046213e-03
      -7.3087928428107032e-02 -1.9182459777696021e-02
      -4.7784356614212625e-02 -2.5535781948372374e-02
      5.6721800597104577e-03 1.9852118313139506e-02
      -3.7615231564290780e-02 -3.2453776286147963e-02
      -2.7687691449293048e-02 -1.5866628550677008e-02
      -6.8612488791026920e-03 -3.6308370852884651e-02
      3.6898524968257240e-02 4.8245303732511180e-02
      -4.1318894414711010e-02 3.4424269876463284e-02
      -5.3997270381751616e-02 -2.5820450858867694e-02
      1.0042689864732611e-02 5.4096062829247504e-02
      3.8777013544946656e-02 5.8788385902500725e-02
      -1.1415340576419818e-02 -2.9925977943404403e-02
      5.8096513945497891e-02 -2.2243114848628901e-02
      -3.2693404291370604e-02 -2.3432997438864848e-02
      -3.1793821932214777e-02 2.2909688658997760e-02
      1.0374375769926026e-02 -6.5055769066008481e-03
      2.2236836972069979e-02 -2.8987823372970591e-02
      5.1588750232714066e-02 -1.7374587861268481e-02
      1.3904347318846749e-03 -2.8136912594083998e-03
      -3.1285632159108664e-02 5.1309001514957429e-03
      -6.5497304768864844e-03 -4.0723617461504005e-02
      -3.8675950640599928e-02 3.4145128403503464e-02
      1.6374653577246847e-02 -2.3093908740919076e-02
      -4.3259830986130586e-02 -3.0355940719815927e-02
      3.1416296903472182e-02 -3.9952853443849610e-03
      -2.2632756412002335e-02 -3.7815288829369395e-02
      -1.4116184293441516e-02 1.1336230457476395e-03
      4.5276844015794760e-03 -3.4675010686562764e-02
      -1.4322527214960107e-02 2.4638055190796031e-02
      -2.4574602849804839e-02 1.6126479061476216e-02
      -7.0145125844841161e-03 -2.7810306135785046e-02
      4.7293615970087528e-02 -2.2316472320092533e-02
      -4.4498852399514642e-02 3.4846419093069465e-02
      4.7603709343956462e-02 -1.8952461851199524e-02
      4.6236057087206843e-02 2.2212482565337522e-02
      -3.6662030796749415e-02 3.6230647923971751e-02
      -2.4198237725842557e-02 3.1214379093521861e-02
      -1.6877915067235960e-02 -2.8071988461510402e-02
      4.2595325817005010e-03 7.4700239967242744e-03
      -4.8565731690279133e-02 -4.0914871800738890e-02
      -4.3796208340485011e-02 -2.7098222383904629e-02
      7.5531116536258222e-03 -3.9237416469612783e-02
      -1.0030632582139357e-02 -4.3777067962990131e-03
      3.1272046479613430e-02 -2.8185331780669745e-02
      -1.8994789885807269e-02 -2.2358097769941167e-02
      1.9936081776524804e-02 5.7582026418293054e-02
      -2.0347254771961375e-02 3.5575545942903866e-02
      6.8154011661476421e-03 3.5845805743081390e-02
      -1.8347498103310562e-02 -3.0350954194599385e-02
      6.6313400295750469e-04 -4.5615328358706068e-02
      1.8949487338801169e-02 3.1522475006908052e-02
      -3.9201451984071989e-02 -3.4875598153319108e-02
      -7.7660761971482953e-03 -1.1919780034079289e-02
      -2.2247596003381982e-03 -4.1371105664991387e-02
      7.2219708588136056e-03 -3.2307767852834630e-02
      2.7537164416479246e-02 3.0500543937571810e-02
      -5.2838355367434711e-02 7.8083206600958700e-03
      -3.7559538681664367e-02 -2.6832261848168396e-02
      -1.0937057654877244e-02 3.0222700135540823e-02
      -7.7864668189898522e-03 -4.5629424849307501e-02
      5.1848933086158101e-02 -1.9306186860238748e-02
      1.5365997876824989e-02 -1.0776895892447182e-02
      4.9464760013429199e-02 3.2275166269231693e-02
      4.3212770043647333e-02 -1.1139758710203992e-02
      4.3404575657543616e-03 -1.7790519269251792e-02
      -6.0509063304621490e-03 -2.5973065639885396e-03
      -1.2155580446919282e-02 -2.8103611566409562e-03
      -1.4472795130290416e-02 3.0228019612934805e-02
      2.1200836805307877e-02 -3.2788014770291710e-02
      7.8844002742642343e-03 -1.3278067315639402e-03
      3.8725983552866786e-02 2.1740855741010350e-02
      4.2070342892671898e-02 5.7203105254420142e-02
      -1.2466726553159509e-02 -3.3196724717946741e-02
      -2.3680975050500992e-02 2.9979504899892855e-02
      -4.8758643813124863e-02 4.9787726082948930e-03
      1.2912923487211727e-02 -3.1738960986509449e-03
      -8.5821339707903802e-02 9.4796421097515821e-02
      3.7696301481171715e-02 1.8729576532831211e-02
      -7.1460594260992619e-02 -6.8363417193638171e-02
      -6.0921675623248411e-03 3.4746632361660902e-02
      -4.6433334201499803e-02 -7.1298224941018423e-02
      -1.9993987116500057e-02 1.9943822781784068e-02
      -7.9789086410546314e-02 -5.7721347708355623e-02
      9.5213331557816749e-02 -4.8683539257143242e-02
      -3.2036268873763013e-02 -1.3387322859245696e-03
      -1.2750657761230645e-02 -1.3273687360154585e-01
      1.3302690304834847e-03 4.4034011127662927e-02
      3.4747667911490747e-02 5.3853935595975955e-02
      1.3222872144604545e-04 -6.3862491776671667e-03
      4.0435348471693569e-03 1.3819913125360437e-02
      -5.7683103034609530e-02 8.5432118370516088e-03
      4.8609581499296436e-02 -7.0560564203835975e-04
      6.9480723236387404e-02 2.2246686049010794e-02
      -1.0922588838139372e-01 1.8747566934346160e-02
      6.3564705674254721e-02 2.0062353325377851e-02
      5.7606611890232161e-02 -6.2911707220146551e-03
      1.0014264278507584e-01 -6.7169998785413049e-02
      2.2555662649043219e-02 -3.1380882898458320e-02
      -3.0599561195916884e-02 -3.6694111463001795e-03
      -3.0459545735216979e-02 4.6685425620039057e-02
      -4.9892440000165426e-03 -4.2676013190445873e-02
      -4.8203351472744384e-02 -4.4349970042252421e-03
      -1.2633308100450904e-02 1.6596904940561145e-02
      1.5733928317509461e-02 -2.0809770376691725e-02
      -4.1100262189194936e-02 -3.9029490892456872e-02
      2.3458591957165778e-02 2.3255542927095620e-03
      4.1461718465946151e-02 -2.2764761043157198e-02
      -2.2737979983914081e-02 2.5025976219999913e-02
      -2.7630180946869354e-02 2.9459675215374969e-02
      6.2452347869867055e-03 1.0514210383171905e-02
      5.8410357199676355e-03 -3.6233304752307426e-02
      2.9214453635802350e-02 -2.8023161140001394e-02
      4.9777403672163247e-02 4.5799825870327875e-02
      -4.5351860547233953e-02 -4.4260508389183897e-02
      -1.6926509669281005e-03 -8.3261872080306210e-03
      7.1236404485155091e-03 1.9232562530025608e-02
      6.7897462415021051e-02 -3.0335236826644851e-02
      3.4526511080284698e-02 6.2015074969972552e-03
      1.8776707314497994e-02 3.7091352357205100e-02
      -7.1191615750429279e-03 4.5714810588637217e-02
      -1.2833276776291251e-02 5.6152036760097820e-03
      -4.5471741086041940e-02 4.8512131821201752e-02
      -3.6052646139160968e-02 -2.3126786727262399e-02
      -1.2379987404020043e-02 -6.3374517437601197e-02
      -4.8222059763348236e-02 -1.5858486908989410e-02
      -3.9613675947636699e-02 -2.4020553078559051e-04
      -4.5645987515027735e-02 -3.5257305246713395e-02
      -1.3159957235146258e-02 3.3515810278443516e-03
      -4.7155650669981931e-02 3.3884791986876724e-02
      6.5266096635680929e-03 4.1044919869958646e-02
      -1.5065114403116014e-02 4.8895095626944961e-02
      4.8291586188815544e-02 -5.4767669424616472e-02
      -7.3778367316440626e-03 -1.6019705750057740e-02
      1.1757622779295580e-02 3.2597413312728925e-02
      2.4843402933910189e-02 4.3796623989574013e-02
      6.3534653294914107e-03 3.8867528877018498e-02
      4.7783425000056799e-02 3.0089947589102856e-02
      -5.1139580698466719e-03 1.1065287805031798e-02
      -1.5984336892836040e-02 5.1716318110018710e-03
      2.9999200813094151e-02 3.6705049607420791e-02
      6.6423718452332983e-02 5.3061383447492283e-02
      3.8562855863911269e-02 -1.7382352294917223e-02
      3.9162294625920892e-02 -1.9034543610148792e-03
      -1.7596117342965890e-02 -2.7953384928439758e-03
      1.4192257769020479e-02 -4.1102694035400018e-02
      3.2466088196415582e-02 5.9450272769760129e-02
      4.1785069446784610e-02 5.5423356372795328e-03
      1.8746712261216089e-02 -8.1148226460973846e-03
      -7.9119437137931056e-03 -5.7002612797958643e-03
      4.9617300985911744e-02 -1.4062775703768429e-02
      -1.6414256055623258e-02 3.7294696549729653e-02
      4.2092398250305668e-02 3.9341732294250115e-02
      2.7534665717648128e-02 -2.4599439293299878e-02
      1.1351775032208890e-02 4.1578844056728313e-02
      3.3320078166382543e-02 4.8437124383439209e-02
      -4.7794528888018169e-02 -4.4649030976608300e-02
      5.1500030807158830e-03 3.9382572659965073e-02
      1.9945418912092706e-02 -1.1970598824855131e-02
      -1.6663939946810456e-02 7.3220945051549163e-02
      -4.8727415326909891e-02 1.4997668335484557e-02
      1.4749914218218292e-02 -1.3666802529158060e-02
      4.0291830059570231e-02 -6.4164430106823531e-02
      6.6813572615683700e-02 4.3900553939033561e-02
      -2.6869380290764507e-03 7.8043583277786946e-02
      -2.0510996676605303e-02 -1.9691502893902781e-02
      -2.5669527721478493e-02 8.1887515037556008e-02
      4.2931241821152072e-02 -2.8794709011570510e-02
      -6.0187867350148310e-03 -4.4656159230348817e-02
      2.0106805670442013e-02 -3.3515128389861919e-02
      -1.5759811100702872e-02 -6.2635261218562978e-03
      -1.9676609868448800e-02 -4.6937768439590681e-02
      -2.1121588401926735e-02 3.9784818911430091e-02
      -7.4378980985598669e-02 4.1234197227852924e-02
      6.8962884322185617e-03 -2.3753983385979907e-02
      -1.3477977854537826e-02 3.6235116344788758e-02
      -6.2939728840012088e-02 -5.8665372975219190e-02
      -3.2287302180144549e-02 3.1201565808609152e-02
      -6.0676512174484387e-02 -6.1213409118950294e-03
      -4.9343921708152969e-03 -7.6264236527037003e-03
      2.0685504983131604e-02 2.8896464504821640e-02
      -3.6849248911409185e-02 3.5648951653507614e-02
      1.6927713103465157e-02 -1.7301959868424411e-02
      -1.7671363392280183e-02 -9.1686392951497407e-03
      -1.8200536522442849e-02 2.4533467216058143e-02
      -5.7598455771943911e-02 2.4579086975239011e-02
      2.1899287241382584e-02 7.9963606173694676e-02
      5.4761736700957173e-02 -4.4483398906971221e-02
      -6.5604680913480873e-02 4.0866770764828135e-02
      -1.9059158067481336e-02 -7.8410254594958994e-03
      -2.8712241396279384e-02 -5.9006475920907638e-02
      2.7657523946725674e-03 3.9929987439011452e-02
      4.3188779973275717e-03 -1.1758589608589115e-02
      -4.6134312303736331e-02 2.9192818483435381e-02
      5.6682204397446735e-02 -2.3208647451663820e-02
      -3.4517469591203692e-02 -2.4488443306228177e-02
      2.9600637671646821e-02 -2.8875377486689474e-02
      -3.3426582731714599e-03 8.7186075898671028e-03
      -1.4289179684765388e-02 -3.8807634927679663e-02
      1.5641718698506314e-02 -1.7178939301411119e-02
      -2.4875817782966398e-02 -1.3324482070162902e-02
      2.3902050572126670e-02 1.2151463566184286e-02
      -1.5783615001932101e-02 -5.2387911108079679e-02
      -8.5602924448226741e-03 -2.0146916764883439e-02
      1.3226027226281687e-02 -4.2344587813217822e-02
      1.3473985279122273e-02 -5.6408780658582002e-03
      2.6729948841939442e-02 -1.0064971802046753e-02
      -3.8725254680144996e-02 -3.0243258821588518e-02
      2.6762641110555950e-02 4.1136399217795078e-02
      3.9289201495925088e-02 2.1190367171627450e-02
      -4.2271476706104642e-02 3.8061830366923267e-02
      -4.2625260817501301e-02 4.9265754113719208e-03
      2.8467465125195261e-02 3.4522365327133681e-02
      3.0012802435806157e-02 1.4411605510032696e-03
      -2.9083092070334042e-02 8.5145987622845393e-03
      -1.2361513981057877e-02 1.5234586521460206e-02
      2.2514708832286092e-02 -1.4494631404512313e-02
      2.9419376540066620e-02 2.5700251358154031e-02
      4.3420155917295200e-02 3.2332405446742943e-02
      -3.0735148435647702e-02 4.3308589923394376e-02
      2.2624108144476767e-03 -3.1675719780164820e-02
      1.6133093838068019e-02 -4.5336651124435758e-04
      5.3155677454239769e-02 -1.6340404403225241e-03
      1.3488645395312610e-02 1.3388379993542851e-02
      -2.6359200120359527e-02 3.6124030412375427e-02
      -2.8344562744321081e-02 -1.5044989983635982e-02
      9.4633819500573226e-03 4.0949648892288311e-02
      2.6398697548052686e-03 -2.3033865498827251e-02
      -6.3730777972441352e-02 -1.5916084626256127e-02
      3.6598456351221238e-03 -7.9391690340135258e-03
      -1.4150053731321959e-02 1.8823119637097683e-02
      -3.0336811256311408e-02 -1.6483169232231618e-02
      8.1826809269245470e-03 -1.8875396334516441e-02
      -2.4675055015814133e-02 -7.4314628316429531e-03
      7.1562267136358465e-02 -4.2547582732614594e-02
      1.2777483024245848e-02 1.3156485355051583e-02
      -9.3741060889543509e-03 3.2746188757388675e-02
      -6.8592382416509029e-02 7.1573916173932231e-02
      -6.0007188338660269e-03 1.2430836891921851e-02
      -1.1326721035231073e-02 -3.6037925718616216e-03
      5.1291638124606312e-02 -2.9307522353906955e-02
      -4.6043558797693469e-03 4.8557621434914225e-02
      -3.3080199971829978e-03 1.3737199584627166e-02
      4.2280228029884688e-02 3.7766267908019278e-03
      -1.9156471934963504e-02 4.3928177300814379e-02
      -1.9141945859844026e-02 2.6059435138023751e-02
      -2.4787441448463485e-02 3.2467278685019231e-02
      2.3848730664647981e-02 3.3674089448161589e-02
      -6.2794270440047720e-02 -2.5739307295419810e-02
      2.8638047654615546e-02 3.2719562815900501e-02
      4.6844748249417735e-02 2.9920728662297006e-02
      2.5651699886144144e-02 -2.7480165264264314e-03
      1.3507348819640616e-02 -1.5164229047214102e-02
      -2.8545063570408070e-02 3.5899151193991764e-02
      6.0469791443299994e-03 -2.7795292213472666e-02
      2.6856339725455564e-02 5.1933796787440839e-02
      -2.8137167614442462e-03 2.6024680187359331e-02
      -1.7610882872683861e-02 7.5354115630834190e-03
      -5.6734795288079553e-03 3.7745112210709336e-02
      -1.1028570594912232e-02 7.2434304862043358e-02
      -4.1036539149374565e-02 -3.4879328973300004e-02
      1.2706784986560670e-02 -1.6968307545964529e-02
      5.2633561816190548e-02 -2.5492210933083879e-02
      2.7094482232814070e-02 -1.4041400155919391e-02
      -2.2605648125551919e-02 3.8200620241192508e-02
      -5.1512482638564977e-02 -2.1125461224439770e-02
      -4.0511336222023651e-02 3.7103995914460476e-03
      1.3154453524277151e-02 7.2651643018233139e-03
      -2.3178644218777560e-02 -2.3740860023090674e-04
      3.5770630007879667e-02 -1.5691764078373312e-02
      6.0512321722433465e-03 8.1597283213443606e-03
      4.3130303361588282e-02 4.3069794606372773e-03
      -1.5409888176137547e-02 6.7285200207410301e-02
      -2.4678541005335557e-02 2.8014126153799047e-02
      2.1383461844647761e-02 2.3212381696952882e-02
      -3.8663486050350228e-02 -3.6012284213384760e-02
      -5.5759840848712348e-02 -2.4939319631840151e-02
      -5.3055956202043265e-02 5.3629367013575367e-02
      -1.9983049663872213e-02 2.2027490078936434e-02
      5.1292694222569879e-02 7.2079262761165899e-02
      -3.3412226758745986e-02 -4.2221261014657903e-02
      -1.5862388159545823e-02 2.1633105618832322e-02
      6.0854987141513175e-02 1.1352281062131800e-03
      4.8325550417970063e-02 -2.8400681545501436e-02
      -2.4672509090892917e-02 2.6091486285472414e-02
      3.6974988630571734e-02 -8.6938833872369781e-03
      -3.9080184192922918e-02 7.4173906273157453e-02
      1.5390585712358447e-02 -5.1050852076296997e-02
      8.3181891303589234e-03 -4.5409490044063507e-02
      -4.0798753166365845e-02 1.6172517507771447e-02
      2.3131127281427636e-02 6.9802690844031063e-04
      6.3610953920141978e-04 1.6233017737214146e-02
      2.0474353657562130e-02 -1.1088572658340623e-04
      -2.6248099546496793e-02 -4.4022557844235019e-02
      1.0347100542884591e-02 -2.5816428145122337e-02
      -4.4404483128023059e-02 5.9888708750733759e-02
      -7.1314752759042690e-03 -7.3381248289816382e-03
      -4.7382660334301066e-02 3.3385800964466361e-02
      4.6792464328555654e-02 9.8536752226674289e-04
      4.0641489444278457e-02 -2.9154183901690070e-02
      1.2144063540079591e-02 -1.8633926935595572e-02
      4.9274671490866142e-03 -3.0784088537559276e-02
      -3.7993478066214358e-02 -1.8666122748259573e-02
      2.3649501500330499e-02 -4.4238184005626215e-02
      3.5824007062503979e-02 -4.0292024455581416e-02
      5.5952199489010798e-02 -2.8726600958020061e-02
      -2.0768009113264565e-02 2.7103112029342468e-02
      -3.4406501325977348e-03 -3.8014403641303464e-02
      2.1239482512832329e-02 -2.2651097493409187e-02
      -1.4871614839562309e-02 -3.3700075798669828e-02
      -2.5918782845421103e-02 4.8015845118487825e-02
      2.7397501069899209e-02 -1.2308392034405936e-02
      -2.7393800814298878e-02 -2.4893349319389454e-02
      -2.7570034907385077e-02 3.8896663491687063e-05
      2.4513755789887463e-02 1.4238685011403365e-02
      -1.8144927369233232e-02 -1.6698151678574667e-02
      -6.1639969694892403e-03 -3.5508417216768826e-02
      -2.0715309950624768e-02 -3.6316997938463498e-02
      5.7329300603314358e-03 -1.5413380933916169e-02
      -2.1632376552119560e-02 1.0217834819551345e-02
      3.6073000031589474e-03 -3.5999458326211625e-02
      6.2627429117822500e-02 -3.4600722216279300e-02
      -2.5850760844638790e-02 -5.8021154051238637e-02
      3.0546471087500519e-02 4.2130438409957234e-02
      4.8129233350292421e-02 -1.0973748118751894e-02
      1.5688786243423930e-02 4.5854887729716361e-02
      -3.1134699464205599e-02 2.8653988248491514e-02
      5.5464279311745919e-03 3.0643955779512667e-02
      -1.8711329596012401e-02 -2.5017721160379831e-02
      3.3732467756291733e-02 -4.3888822835364029e-02
      -3.3128898280964825e-02 -2.2644743001641914e-02
      -2.7250456376915429e-02 2.9703632304803891e-02
      3.6687728388096495e-02 -1.4175758499485852e-02
      -4.2306799704788053e-02 -2.8742275662557739e-02
      -2.7046241600719806e-02 3.0466695095473614e-02
      -3.1086910633423222e-02 5.2138839720745005e-02
      -2.0909955992191375e-02 -1.6940281380436038e-02
      -6.2826096616283286e-02 4.7586509299477706e-02
      -1.4694424305025509e-02 4.2757081717145005e-02
      6.8527154714294755e-02 2.0864616626198360e-02
      -4.5531853520629287e-02 -3.2460347496092806e-02
