<?xml version="1.0"?>
<opencv_storage>
<SimpleOcr type_id="opencv-ml-ann-mlp">
  <layer_sizes type_id="opencv-matrix">
    <rows>1</rows>
    <cols>5</cols>
    <dt>i</dt>
    <data>
      256 30 20 10 95</data></layer_sizes>
  <activation_function>SIGMOID_SYM</activation_function>
  <f_param1>6.6666666666666663e-01</f_param1>
  <f_param2>1.7159000000000000e+00</f_param2>
  <min_val>-9.4999999999999996e-01</min_val>
  <max_val>9.4999999999999996e-01</max_val>
  <min_val1>-9.7999999999999998e-01</min_val1>
  <max_val1>9.7999999999999998e-01</max_val1>
  <training_params>
    <train_method>BACKPROP</train_method>
    <dw_scale>1.0000000000000000e-02</dw_scale>
    <moment_scale>1.0000000000000000e-02</moment_scale>
    <term_criteria><epsilon>9.9999999747524271e-07</epsilon>
      <iterations>100000</iterations></term_criteria></training_params>
  <input_scale>
    1. 0. 1. 0. 1. 0. 1. 0. 1. 0. 1. 0. 1. 0. 1. 0. 1. 0. 1. 0. 1. 0. 1.
    0. 1. 0. 1. 0. 1. 0. 1. 0. 1. 0. 1. 0. 1. 0. 1. 0. 1. 0. 1. 0. 1. 0.
    2.1774448532130083e-01 -1.0314212462587934e-01
    3.8425497409641324e-02 -1.0314212462587934e-01 1. 0.
    3.8425497409641324e-02 -1.0314212462587934e-01 1. 0. 1. 0. 1. 0. 1.
    0. 1. 0. 1. 0. 1. 0. 1. 0. 1. 0. 1. 0. 1. 0. 1. 0.
    4.6654502068013567e-02 -1.9594890868565698e-01
    3.6778219854863729e-02 -1.3162731316477547e-01
    3.5320217308103155e-02 -1.3644757633761956e-01
    3.3654244103748267e-02 -1.6154037169799168e-01
    9.3628373055804293e-02 -1.3206528409976606e-01
    2.7995719541310105e-01 -1.0314212462587932e-01 1. 0. 1. 0. 1. 0. 1.
    0. 1. 0. 2.7995719541310105e-01 -1.0314212462587932e-01
    5.4355992096430647e-02 -1.2759353934214773e-01
    2.4514724207898599e-02 -2.3817989940937273e-01
    1.5547668058768302e-02 -2.9426007547016214e-01
    1.4589871367384774e-02 -3.3648850700989519e-01
    1.2634206448367687e-02 -3.8567577579227674e-01
    1.2969680792403885e-02 -4.3523518280193252e-01
    1.6207254061744298e-02 -3.4922367436200608e-01
    1.8590384356416349e-02 -2.9333669631861164e-01
    1.7412420053417303e-02 -2.6576851660479045e-01
    3.1340019551626443e-02 -1.6230831178316010e-01 1. 0. 1. 0. 1. 0. 1.
    0. 1. 0. 3.3668418666706480e-02 -1.4105295399314924e-01
    2.2250999340092833e-02 -2.1993356189839125e-01
    1.4587098568312673e-02 -3.6222068971210097e-01
    1.3278013385721391e-02 -4.6459069993829366e-01
    1.0981069206289064e-02 -4.6432584212277017e-01
    9.6076395708785938e-03 -6.0689942173518363e-01
    9.2696963568857892e-03 -6.7580965229253653e-01
    9.3886937923049075e-03 -6.7509649784457704e-01
    1.1192046814645765e-02 -5.2567276723104628e-01
    1.7430641038858059e-02 -3.2200815813890415e-01
    6.2194088959948934e-02 -1.4664711502135327e-01 1. 0. 1. 0. 1. 0. 1.
    0. 1. 0. 4.2976307418682698e-02 -1.6285758600763969e-01
    2.2948705021520754e-02 -2.2852078895114350e-01
    1.3523715239127520e-02 -3.4407178666285493e-01
    1.2315199121752182e-02 -4.3880998975927510e-01
    1.1197075583570944e-02 -5.3698817219736028e-01
    1.0180881971817898e-02 -5.4944612494221434e-01
    9.5178613216738220e-03 -5.7758390020473249e-01
    1.2902579133508955e-02 -4.8893984084876035e-01
    1.0504422960051640e-02 -5.1803391124044140e-01
    1.5623244900996161e-02 -3.3992891800377961e-01
    1.2725327064231867e-01 -1.0314212462587934e-01 1. 0. 1. 0. 1. 0. 1.
    0. 1. 0. 3.8425497409641324e-02 -1.0314212462587934e-01
    3.0569746087384206e-02 -2.1205750180617045e-01
    1.4445373052769210e-02 -3.1734203748557205e-01
    1.3434657245064126e-02 -3.9002931244091432e-01
    9.4790769855205657e-03 -6.3070784868921581e-01
    9.2879229789796843e-03 -6.4272427014539413e-01
    9.5717723315090885e-03 -6.1642213814918534e-01
    9.4986139683880116e-03 -6.6110353219980555e-01
    1.2033863707880460e-02 -4.9250170627620238e-01
    1.7095805668819061e-02 -2.8864918202932394e-01
    7.1003636517815480e-02 -1.0314212462587934e-01 1. 0. 1. 0. 1. 0. 1.
    0. 1. 0. 3.6815306831209350e-02 -1.2943486822762024e-01
    1.9442931144994419e-02 -2.2819861291230292e-01
    1.4731752601568686e-02 -3.1401893703343775e-01
    1.1353271043630176e-02 -4.5699903653517671e-01
    9.5251358992377178e-03 -6.1833171674314746e-01
    8.5199286899744070e-03 -7.3468690345547727e-01
    8.3766239996037172e-03 -7.8405200636290784e-01
    9.3515141312218823e-03 -7.0352917364045042e-01
    1.1559656500114536e-02 -4.7589280602050477e-01
    1.6715688402702173e-02 -2.7431324441908095e-01
    3.2374416904897577e-02 -1.9492806810106753e-01 1. 0. 1. 0. 1. 0. 1.
    0. 1. 0. 1.3064669119278050e-01 -1.0314212462587934e-01
    1.8492720949769427e-02 -2.6337527836882141e-01
    1.3825246793404066e-02 -3.3617179045014095e-01
    1.2187084841899176e-02 -4.0948605068781235e-01
    9.4462477324619518e-03 -6.2186140335596896e-01
    8.3483658964640748e-03 -8.0109161591754219e-01
    8.5050168142961676e-03 -7.3734019455308664e-01
    8.9079515290535812e-03 -6.5843826986330789e-01
    1.0543534578334708e-02 -6.0064851724155199e-01
    1.2131084725278889e-02 -3.9177018881216458e-01
    3.8422241398815123e-02 -1.0596449733146908e-01
    4.0997915646270026e-02 -1.0314212462587932e-01 1. 0. 1. 0. 1. 0. 1.
    0. 1. 0. 2.3007248009266189e-02 -2.5283754654393581e-01
    1.2286977046245668e-02 -4.1491181436164321e-01
    1.0074671674410830e-02 -5.4891053249211008e-01
    9.4347306212830568e-03 -6.5189022945370512e-01
    8.5729009589984688e-03 -7.4376683899016183e-01
    8.7068007556615513e-03 -7.4475224147900809e-01
    9.6208807112458591e-03 -6.3285140594289868e-01
    1.1494014028157657e-02 -4.9738833336585403e-01
    1.6183517643295942e-02 -3.3763928388434267e-01
    3.2658546065801826e-02 -1.8048143878469430e-01
    2.0413545498871952e-01 -1.0314212462587934e-01 1. 0. 1. 0. 1. 0.
    6.5323345596390248e-01 -1.0314212462587934e-01
    3.6775464065034236e-02 -1.2968189959775231e-01
    2.8063365175194418e-02 -2.1534940223912349e-01
    1.2575237143757270e-02 -4.0399603960786518e-01
    1.1271077470187140e-02 -4.7694454137002429e-01
    9.6149067108132272e-03 -6.1444314359312735e-01
    9.1089946391902966e-03 -6.9976255659800835e-01
    9.2928856859251837e-03 -7.0224869830796732e-01
    1.0189403075614714e-02 -6.6853209863480534e-01
    1.1976672810303204e-02 -5.2508255005171423e-01
    1.5300985828753484e-02 -3.4709078379961855e-01
    2.1565245456222761e-02 -2.2427855274471672e-01
    2.7279147973889330e-02 -1.5362467543190308e-01 1. 0. 1. 0. 1. 0.
    3.8425497409641324e-02 -1.0314212462587934e-01 1. 0.
    3.2912992824026932e-02 -1.6595077434430422e-01
    1.4647876532916531e-02 -3.2225328372416367e-01
    1.0942066574469530e-02 -4.8467595942492403e-01
    1.0164907295278912e-02 -6.3857017619183731e-01
    9.4804446618725093e-03 -7.0334919975660470e-01
    8.9678203178573616e-03 -7.5225852750531907e-01
    9.4212798162174784e-03 -6.8110894502928043e-01
    1.0429616301063243e-02 -5.4585318156722573e-01
    1.6325156869259526e-02 -3.2220704347222751e-01
    2.5360221758333364e-02 -1.8739869130894760e-01
    3.7909881595390611e-02 -1.1971541556439140e-01 1. 0. 1. 0. 1. 0.
    4.6659532568850176e-01 -1.0314212462587934e-01
    1.2725327064231867e-01 -1.0314212462587934e-01
    5.1056500192625330e-02 -1.8057877962865379e-01
    2.1522293869527091e-02 -2.6053303105217002e-01
    1.6279655660131554e-02 -3.0588616161405080e-01
    1.2164988810054780e-02 -4.7353819599560604e-01
    1.1523240812537245e-02 -4.6044444341464613e-01
    1.0603549010684834e-02 -5.5082646702873317e-01
    1.1307139241716313e-02 -5.0096577966719957e-01
    1.3156410293815892e-02 -4.3887014969581645e-01
    2.3948187559515187e-02 -2.7754688950553918e-01
    4.1976365787500601e-02 -1.4051036126763361e-01
    2.7995719541310105e-01 -1.0314212462587932e-01 1. 0. 1. 0. 1. 0. 1.
    0. 1. 0. 8.4446813158646827e-02 -1.2978141811749933e-01
    3.2202235344173429e-02 -1.8168840152081006e-01
    2.2635225267797432e-02 -2.2015734892047187e-01
    2.1311674204074375e-02 -2.5461842338552015e-01
    1.9102266866067405e-02 -2.6521989469834639e-01
    2.1321100399447845e-02 -2.4822249517672965e-01
    1.8939710102498074e-02 -2.8070644025597147e-01
    2.3746005070692015e-02 -2.0146610617871333e-01
    3.6341828325334474e-02 -1.4536731330133790e-01
    2.7995719541310105e-01 -1.0314212462587932e-01 1. 0. 1. 0. 1. 0. 1.
    0. 1. 0. 1. 0. 4.6659532568850176e-01 -1.0314212462587934e-01
    8.8274791346473300e-02 -1.0314212462587934e-01 1. 0.
    3.8425497409641324e-02 -1.0314212462587934e-01
    3.0961886931647815e-02 -1.4633565507694599e-01
    2.4664906794747726e-02 -1.8018363490057812e-01
    2.7316619464761889e-02 -1.4664711502135330e-01 1. 0. 1. 0. 1. 0. 1.
    0. 1. 0. 1. 0. 1. 0. 1. 0. 1. 0. 1. 0. 1. 0. 1. 0.
    7.5373091072757981e-01 -1.0314212462587935e-01
    2.7316619464761889e-02 -1.4664711502135330e-01
    6.5323345596390248e-01 -1.0314212462587934e-01
    6.1240636496615863e-01 -1.0314212462587935e-01 1. 0. 1. 0. 1. 0. 1.
    0. 1. 0. 1. 0.</input_scale>
  <output_scale>
    5.2631578947368418e-01 4.9999999999999994e-01 5.2631578947368418e-01
    4.9999999999999994e-01 5.2631578947368418e-01 4.9999999999999994e-01
    5.2631578947368418e-01 4.9999999999999994e-01 5.2631578947368418e-01
    4.9999999999999994e-01 5.2631578947368418e-01 4.9999999999999994e-01
    5.2631578947368418e-01 4.9999999999999994e-01 5.2631578947368418e-01
    4.9999999999999994e-01 5.2631578947368418e-01 4.9999999999999994e-01
    5.2631578947368418e-01 4.9999999999999994e-01 5.2631578947368418e-01
    4.9999999999999994e-01 5.2631578947368418e-01 4.9999999999999994e-01
    5.2631578947368418e-01 4.9999999999999994e-01 5.2631578947368418e-01
    4.9999999999999994e-01 5.2631578947368418e-01 4.9999999999999994e-01
    5.2631578947368418e-01 4.9999999999999994e-01 5.2631578947368418e-01
    4.9999999999999994e-01 5.2631578947368418e-01 4.9999999999999994e-01
    5.2631578947368418e-01 4.9999999999999994e-01 5.2631578947368418e-01
    4.9999999999999994e-01 5.2631578947368418e-01 4.9999999999999994e-01
    5.2631578947368418e-01 4.9999999999999994e-01 5.2631578947368418e-01
    4.9999999999999994e-01 5.2631578947368418e-01 4.9999999999999994e-01
    5.2631578947368418e-01 4.9999999999999994e-01 5.2631578947368418e-01
    4.9999999999999994e-01 5.2631578947368418e-01 4.9999999999999994e-01
    5.2631578947368418e-01 4.9999999999999994e-01 5.2631578947368418e-01
    4.9999999999999994e-01 5.2631578947368418e-01 4.9999999999999994e-01
    5.2631578947368418e-01 4.9999999999999994e-01 5.2631578947368418e-01
    4.9999999999999994e-01 5.2631578947368418e-01 4.9999999999999994e-01
    5.2631578947368418e-01 4.9999999999999994e-01 5.2631578947368418e-01
    4.9999999999999994e-01 5.2631578947368418e-01 4.9999999999999994e-01
    5.2631578947368418e-01 4.9999999999999994e-01 5.2631578947368418e-01
    4.9999999999999994e-01 5.2631578947368418e-01 4.9999999999999994e-01
    5.2631578947368418e-01 4.9999999999999994e-01 5.2631578947368418e-01
    4.9999999999999994e-01 5.2631578947368418e-01 4.9999999999999994e-01
    5.2631578947368418e-01 4.9999999999999994e-01 5.2631578947368418e-01
    4.9999999999999994e-01 5.2631578947368418e-01 4.9999999999999994e-01
    5.2631578947368418e-01 4.9999999999999994e-01 5.2631578947368418e-01
    4.9999999999999994e-01 5.2631578947368418e-01 4.9999999999999994e-01
    5.2631578947368418e-01 4.9999999999999994e-01 5.2631578947368418e-01
    4.9999999999999994e-01 5.2631578947368418e-01 4.9999999999999994e-01
    5.2631578947368418e-01 4.9999999999999994e-01 5.2631578947368418e-01
    4.9999999999999994e-01 5.2631578947368418e-01 4.9999999999999994e-01
    5.2631578947368418e-01 4.9999999999999994e-01 5.2631578947368418e-01
    4.9999999999999994e-01 5.2631578947368418e-01 4.9999999999999994e-01
    5.2631578947368418e-01 4.9999999999999994e-01 5.2631578947368418e-01
    4.9999999999999994e-01 5.2631578947368418e-01 4.9999999999999994e-01
    5.2631578947368418e-01 4.9999999999999994e-01 5.2631578947368418e-01
    4.9999999999999994e-01 5.2631578947368418e-01 4.9999999999999994e-01
    5.2631578947368418e-01 4.9999999999999994e-01 5.2631578947368418e-01
    4.9999999999999994e-01 5.2631578947368418e-01 4.9999999999999994e-01
    5.2631578947368418e-01 4.9999999999999994e-01 5.2631578947368418e-01
    4.9999999999999994e-01 5.2631578947368418e-01 4.9999999999999994e-01
    5.2631578947368418e-01 4.9999999999999994e-01 5.2631578947368418e-01
    4.9999999999999994e-01 5.2631578947368418e-01 4.9999999999999994e-01
    5.2631578947368418e-01 4.9999999999999994e-01 5.2631578947368418e-01
    4.9999999999999994e-01 5.2631578947368418e-01 4.9999999999999994e-01
    5.2631578947368418e-01 4.9999999999999994e-01 5.2631578947368418e-01
    4.9999999999999994e-01 5.2631578947368418e-01 4.9999999999999994e-01
    5.2631578947368418e-01 4.9999999999999994e-01 5.2631578947368418e-01
    4.9999999999999994e-01 5.2631578947368418e-01 4.9999999999999994e-01
    5.2631578947368418e-01 4.9999999999999994e-01 5.2631578947368418e-01
    4.9999999999999994e-01 5.2631578947368418e-01 4.9999999999999994e-01
    5.2631578947368418e-01 4.9999999999999994e-01 5.2631578947368418e-01
    4.9999999999999994e-01 5.2631578947368418e-01 4.9999999999999994e-01
    5.2631578947368418e-01 4.9999999999999994e-01 5.2631578947368418e-01
    4.9999999999999994e-01 5.2631578947368418e-01 4.9999999999999994e-01
    5.2631578947368418e-01 4.9999999999999994e-01 5.2631578947368418e-01
    4.9999999999999994e-01 5.2631578947368418e-01 4.9999999999999994e-01
    5.2631578947368418e-01 4.9999999999999994e-01 5.2631578947368418e-01
    4.9999999999999994e-01</output_scale>
  <inv_output_scale>
    1.8999999999999999e+00 -9.4999999999999996e-01
    1.8999999999999999e+00 -9.4999999999999996e-01
    1.8999999999999999e+00 -9.4999999999999996e-01
    1.8999999999999999e+00 -9.4999999999999996e-01
    1.8999999999999999e+00 -9.4999999999999996e-01
    1.8999999999999999e+00 -9.4999999999999996e-01
    1.8999999999999999e+00 -9.4999999999999996e-01
    1.8999999999999999e+00 -9.4999999999999996e-01
    1.8999999999999999e+00 -9.4999999999999996e-01
    1.8999999999999999e+00 -9.4999999999999996e-01
    1.8999999999999999e+00 -9.4999999999999996e-01
    1.8999999999999999e+00 -9.4999999999999996e-01
    1.8999999999999999e+00 -9.4999999999999996e-01
    1.8999999999999999e+00 -9.4999999999999996e-01
    1.8999999999999999e+00 -9.4999999999999996e-01
    1.8999999999999999e+00 -9.4999999999999996e-01
    1.8999999999999999e+00 -9.4999999999999996e-01
    1.8999999999999999e+00 -9.4999999999999996e-01
    1.8999999999999999e+00 -9.4999999999999996e-01
    1.8999999999999999e+00 -9.4999999999999996e-01
    1.8999999999999999e+00 -9.4999999999999996e-01
    1.8999999999999999e+00 -9.4999999999999996e-01
    1.8999999999999999e+00 -9.4999999999999996e-01
    1.8999999999999999e+00 -9.4999999999999996e-01
    1.8999999999999999e+00 -9.4999999999999996e-01
    1.8999999999999999e+00 -9.4999999999999996e-01
    1.8999999999999999e+00 -9.4999999999999996e-01
    1.8999999999999999e+00 -9.4999999999999996e-01
    1.8999999999999999e+00 -9.4999999999999996e-01
    1.8999999999999999e+00 -9.4999999999999996e-01
    1.8999999999999999e+00 -9.4999999999999996e-01
    1.8999999999999999e+00 -9.4999999999999996e-01
    1.8999999999999999e+00 -9.4999999999999996e-01
    1.8999999999999999e+00 -9.4999999999999996e-01
    1.8999999999999999e+00 -9.4999999999999996e-01
    1.8999999999999999e+00 -9.4999999999999996e-01
    1.8999999999999999e+00 -9.4999999999999996e-01
    1.8999999999999999e+00 -9.4999999999999996e-01
    1.8999999999999999e+00 -9.4999999999999996e-01
    1.8999999999999999e+00 -9.4999999999999996e-01
    1.8999999999999999e+00 -9.4999999999999996e-01
    1.8999999999999999e+00 -9.4999999999999996e-01
    1.8999999999999999e+00 -9.4999999999999996e-01
    1.8999999999999999e+00 -9.4999999999999996e-01
    1.8999999999999999e+00 -9.4999999999999996e-01
    1.8999999999999999e+00 -9.4999999999999996e-01
    1.8999999999999999e+00 -9.4999999999999996e-01
    1.8999999999999999e+00 -9.4999999999999996e-01
    1.8999999999999999e+00 -9.4999999999999996e-01
    1.8999999999999999e+00 -9.4999999999999996e-01
    1.8999999999999999e+00 -9.4999999999999996e-01
    1.8999999999999999e+00 -9.4999999999999996e-01
    1.8999999999999999e+00 -9.4999999999999996e-01
    1.8999999999999999e+00 -9.4999999999999996e-01
    1.8999999999999999e+00 -9.4999999999999996e-01
    1.8999999999999999e+00 -9.4999999999999996e-01
    1.8999999999999999e+00 -9.4999999999999996e-01
    1.8999999999999999e+00 -9.4999999999999996e-01
    1.8999999999999999e+00 -9.4999999999999996e-01
    1.8999999999999999e+00 -9.4999999999999996e-01
    1.8999999999999999e+00 -9.4999999999999996e-01
    1.8999999999999999e+00 -9.4999999999999996e-01
    1.8999999999999999e+00 -9.4999999999999996e-01
    1.8999999999999999e+00 -9.4999999999999996e-01
    1.8999999999999999e+00 -9.4999999999999996e-01
    1.8999999999999999e+00 -9.4999999999999996e-01
    1.8999999999999999e+00 -9.4999999999999996e-01
    1.8999999999999999e+00 -9.4999999999999996e-01
    1.8999999999999999e+00 -9.4999999999999996e-01
    1.8999999999999999e+00 -9.4999999999999996e-01
    1.8999999999999999e+00 -9.4999999999999996e-01
    1.8999999999999999e+00 -9.4999999999999996e-01
    1.8999999999999999e+00 -9.4999999999999996e-01
    1.8999999999999999e+00 -9.4999999999999996e-01
    1.8999999999999999e+00 -9.4999999999999996e-01
    1.8999999999999999e+00 -9.4999999999999996e-01
    1.8999999999999999e+00 -9.4999999999999996e-01
    1.8999999999999999e+00 -9.4999999999999996e-01
    1.8999999999999999e+00 -9.4999999999999996e-01
    1.8999999999999999e+00 -9.4999999999999996e-01
    1.8999999999999999e+00 -9.4999999999999996e-01
    1.8999999999999999e+00 -9.4999999999999996e-01
    1.8999999999999999e+00 -9.4999999999999996e-01
    1.8999999999999999e+00 -9.4999999999999996e-01
    1.8999999999999999e+00 -9.4999999999999996e-01
    1.8999999999999999e+00 -9.4999999999999996e-01
    1.8999999999999999e+00 -9.4999999999999996e-01
    1.8999999999999999e+00 -9.4999999999999996e-01
    1.8999999999999999e+00 -9.4999999999999996e-01
    1.8999999999999999e+00 -9.4999999999999996e-01
    1.8999999999999999e+00 -9.4999999999999996e-01
    1.8999999999999999e+00 -9.4999999999999996e-01
    1.8999999999999999e+00 -9.4999999999999996e-01
    1.8999999999999999e+00 -9.4999999999999996e-01
    1.8999999999999999e+00 -9.4999999999999996e-01</inv_output_scale>
  <weights>
    <_>
      -7.0663511885764698e-03 -3.1319616385449660e-03
      -8.2230975538369637e-04 -6.5059386202973336e-03
      -7.6566506050802204e-03 -2.5135917027173738e-03
      7.3853611719644219e-03 7.9154135231619127e-03
      -6.6065326771522596e-03 5.6815807848128097e-03
      -2.8859582044450205e-03 -1.4997155772638029e-04
      -3.8116735313184925e-03 1.6491189986482799e-03
      2.4628472888740698e-03 -7.0593483148477399e-03
      -4.5206809314938363e-04 -7.7769797901344993e-03
      -6.4497761595361551e-03 4.2831237567853295e-03
      5.6025261815212894e-03 -4.8991868525682441e-03
      5.8367898434421808e-05 3.9876540885075565e-03
      7.6861190505569357e-04 -6.5647332279186794e-05
      4.9932421910389539e-03 -1.8716054694214986e-03
      7.2533921507402328e-03 -7.0378466135009405e-03
      6.0334746755879316e-03 -5.7407652723476363e-04
      -2.2347291697526179e-04 1.3823718927301846e-03
      -1.3648459855269699e-03 -5.8032754119277516e-03
      5.8545022955124922e-03 8.3835706630365631e-03
      5.0982784479872492e-03 3.4279400634000794e-03
      -2.4291674705546099e-03 -5.1657657548539182e-03
      7.9366060063911399e-03 -7.8096636126078062e-03
      7.6695606802876888e-03 2.0798036161872414e-04
      -3.3431628171232894e-03 -4.7783069655159150e-03
      6.4689330789815570e-03 -3.6727117020537671e-03
      -8.0998801691532819e-03 -5.0899051539710317e-03
      -7.6677159739082363e-04 -1.8007499537683171e-03
      -6.9888822840523963e-03 7.6975794736350083e-04
      8.3975144073257534e-04 -7.7862858268584994e-04
      -2.0667080453406093e-03 6.3302019852272693e-03
      6.5761592357520869e-03 3.6757756851955965e-03
      1.9119944212550929e-03 -6.4081608281463503e-04
      1.2250403993621840e-04 -1.6654981125980119e-03
      -6.1148443659441686e-03 6.8960908474606361e-03
      -2.2653977211049255e-03 7.7156064109148124e-04
      -1.8683093333959810e-03 -3.6364007152303005e-03
      -3.9721893392303496e-03 -4.7602745329191334e-03
      -7.2724527103833862e-03 -3.1526555145707388e-03
      -6.2285402879325314e-03 2.9997690734318223e-04
      4.1694987753823225e-04 -4.1019888305862170e-03
      -7.7689417632564274e-03 1.9725510909781160e-03
      3.9112110882056133e-03 3.2327532937703771e-03
      -4.0250430144456147e-03 5.6758804331308085e-03
      7.0224158653128047e-03 7.1297166371822108e-04
      3.4988234402060364e-03 3.5651575618462403e-03
      -3.4133715570219443e-03 -3.5940501525300885e-03
      -7.5906433590468508e-04 7.9085484991208658e-04
      -2.0789666146742770e-03 -7.1497073140653639e-03
      1.1549039706394046e-04 3.8643447492024896e-03
      -7.3740426880745721e-03 -2.2764388234244931e-03
      6.4188169205616199e-03 6.4922773781486533e-03
      4.5586038905325570e-03 4.1551643999768687e-03
      -6.0825806808190112e-03 -3.8154384463217838e-03
      -4.9992071096903196e-03 -6.3441466317719249e-03
      -8.1808702516023566e-04 5.0616160397929455e-03
      -5.0975619623307815e-03 -6.4298780341126467e-03
      1.2079144770013965e-03 -4.7123218154600235e-03
      -5.9690354397391229e-03 -2.5652671975159719e-03
      4.6070654148829384e-03 7.2022008430883003e-04
      4.9796591511095736e-03 4.8053715064014426e-03
      4.6304113684944009e-03 5.2245084383409886e-03
      6.9520611864595642e-04 -1.1749247869383686e-03
      -4.1667928654633918e-03 2.8556613457868018e-03
      -3.8576507461284783e-05 -6.7054288557298735e-03
      -6.3238538962317650e-03 6.6980239044530281e-03
      7.1855964787870394e-03 4.6400732479922610e-03
      3.7017509521545793e-03 -4.7458397991462283e-03
      -1.8314513107522577e-03 3.3768407503564513e-03
      5.6244408674896084e-03 -1.1066556301124976e-03
      3.8585405716435837e-03 2.6526686587970052e-03
      7.2593051461161233e-03 7.2038315406529200e-03
      1.7056392321502531e-03 5.8726944395726174e-03
      -3.0163674928419630e-04 -1.7496652072383238e-03
      3.5299940910193933e-03 -5.9356872299957501e-03
      -4.2912652305417852e-03 8.1967587743841995e-04
      7.1976839157452729e-03 3.9630923013030620e-03
      5.4821963212349500e-03 4.5682925188415355e-03
      -7.0983421454512956e-03 7.8220940405086276e-03
      -4.4153955852730522e-03 6.0759083072142695e-04
      1.5264434768113178e-04 -1.3462991450072211e-03
      -1.5081754747336964e-03 -5.3628847173237881e-03
      4.3375985210977474e-05 2.1838057855325080e-03
      -3.7359448471307689e-03 -3.8767601640108521e-03
      7.5657401247496850e-03 6.5278687945550407e-03
      2.6635564188691140e-03 -4.2968846503539642e-03
      6.1670169594160796e-03 4.0195232841671600e-03
      -3.0664257498331043e-03 -6.5198451970036120e-03
      5.3270760025836052e-03 -1.6219708496358729e-03
      6.0038532214550964e-03 7.5868662452387322e-04
      -5.4556068570222405e-03 -4.4779629651646658e-04
      1.2914101705729509e-03 5.0569653860899665e-03
      4.5583308353638842e-03 -4.7300376068200103e-03
      3.8307401341391759e-03 9.6493059990812163e-05
      -2.4088011259102400e-03 -3.2084264953350650e-03
      5.6845368971683813e-04 6.3362240264974124e-03
      6.2697531126484462e-04 4.6551249113117605e-03
      -5.2554289070576533e-03 5.5191164762478078e-03
      2.5971352173348207e-03 -5.7410137196124925e-03
      -8.4555987775231502e-04 5.3154233922697641e-03
      -2.9343514517174004e-03 5.0236499396701826e-03
      5.7834219774484811e-03 -3.8156866006521001e-03
      -1.7558852067903442e-03 -2.8454696776475941e-03
      5.0787187643112196e-03 -3.5011726774618686e-03
      1.5986229213627620e-03 1.8010446461420423e-04
      -6.2440954253452719e-03 -5.5586474848048828e-03
      2.4585156130597762e-03 2.7527830951445220e-03
      -5.9089750013710477e-03 -6.3785893862011722e-03
      -7.2747484030453126e-03 -5.4511013710105763e-03
      -4.2514176556096017e-03 -1.6759874095471710e-03
      -3.8100180541290221e-03 8.0335507785109089e-03
      4.4775607667893310e-03 -4.9652075045945295e-03
      6.6441744338137558e-03 3.8373968710878692e-03
      -1.0230843994065712e-03 -5.8698092701555803e-03
      4.5495565541691675e-04 6.0451431536019838e-03
      5.1057019714793751e-03 -5.2616475711867051e-03
      -6.5846516609462747e-03 -5.8290145644332427e-03
      -5.4724154424339580e-03 6.7449081625000967e-03
      -3.8932089160680769e-03 8.8395677079744993e-04
      -1.2233628115434767e-03 -4.2598813266858165e-03
      -7.9686120344550843e-04 -1.2502227232700277e-04
      -1.4193274756726609e-03 2.2890070356473588e-03
      -1.2661027447330255e-03 6.7178368998838103e-03
      4.7055059760036447e-03 -9.7100364135747756e-04
      -5.8918481440939428e-04 7.6093570394148878e-03
      -6.9045486745644719e-03 -5.1390507896230796e-03
      -6.6680513899340333e-03 1.8160020812462735e-03
      5.2114083899875525e-03 4.7573131229552137e-03
      -7.1671963101514486e-03 -5.7120579800816395e-03
      6.9490005142827807e-03 3.9769995954036276e-03
      7.3298743623825113e-03 1.1851664379024555e-03
      8.0584044411180483e-03 -5.6304994493786816e-03
      -1.4100757615168834e-03 -7.1557783561081714e-03
      5.7020589217426495e-03 5.4991773110489046e-03
      7.3614663444684716e-03 4.5598812982274375e-03
      -4.6302625186833458e-03 -4.2765610317366748e-03
      2.2522510372015156e-03 7.7490468049950132e-03
      -2.7634025320132892e-03 6.7945714913456663e-04
      -6.9199219606441995e-03 3.8961318634565464e-04
      -5.3044165343767548e-03 3.4716385560945098e-03
      -3.3327156398291198e-03 -5.4701229994282780e-03
      5.6815234906614168e-03 2.7914587924716462e-03
      -5.6773640904295266e-03 -5.5501202520746497e-03
      -6.5386443029974402e-03 -2.7404267245458016e-03
      1.2905348999079458e-03 5.9292240041867389e-03
      -1.3894436854090977e-03 7.4779958630983509e-03
      8.0747929331184444e-03 -2.7792416152056694e-03
      -5.2424706839185678e-04 4.3229829232939072e-05
      2.3280237617512673e-03 5.7677832436420365e-03
      -4.7400794306009979e-03 -5.9330986036215420e-03
      1.6174317432547183e-06 -5.9225797402462834e-03
      1.8696698775298858e-03 4.8955639675588988e-03
      5.4397030759231763e-03 -1.5516529861300400e-03
      3.1905527595689370e-03 1.5050554423592889e-03
      -3.8279735161005930e-03 -6.2687360903281543e-03
      4.6179695187763001e-03 5.7257871716729974e-03
      7.0308260387036883e-03 -6.8895623032408588e-03
      6.2118940859057841e-03 5.3810088762167325e-03
      -4.7241892752347033e-03 1.5857247167428393e-03
      -4.5106619671059223e-03 -2.5249717452867902e-03
      -2.8525738228756085e-03 -5.2045147178790665e-03
      3.8443475343241131e-04 -7.8357087055917051e-03
      -4.7263779659764043e-03 -9.3543318044329350e-04
      9.1755939077642693e-05 -4.7069043352367043e-03
      -6.5449197463936775e-03 3.4073595788643440e-03
      3.9090449585848864e-03 6.4136027035338692e-03
      -6.7469584794369467e-03 5.7334724747696618e-03
      -3.2707859668475920e-03 -2.2074299542697070e-03
      3.6811385920037152e-03 -4.2018474138057335e-03
      2.0163351657966413e-03 -1.7032160759407184e-03
      -3.9444871613013716e-03 4.8861732440380022e-03
      -4.7473500074408344e-03 2.5025379685277745e-03
      6.9875899968952458e-04 8.3519478126546176e-04
      -4.7372103465174956e-03 2.8807146763283596e-03
      7.4763665430818849e-03 -6.9805842757968313e-03
      -7.5142779422020019e-03 -8.7179496190021926e-04
      -1.5964146313735864e-03 -7.2627885446217861e-03
      6.6663822549119902e-03 -6.4609243133705160e-03
      -6.6511939590458303e-03 4.0972979495806187e-03
      3.8366203734266332e-03 -5.5004773358508828e-03
      2.9279664404139399e-03 -2.6556039414882254e-03
      2.3918527541416288e-03 -5.4363865842363499e-03
      -3.0035654448148088e-03 1.5501265928924298e-03
      1.1160323414520824e-03 -4.2392822904412228e-03
      -7.4310452993310043e-03 -5.2245170606474555e-03
      -5.7056115976433144e-03 -4.4818412295281052e-03
      -1.3036430775199275e-03 5.4394407101232998e-03
      -1.8147328713489588e-03 9.5472125516615801e-04
      9.0883264828248503e-04 -6.7554372448223824e-03
      2.9319868780493465e-03 -8.8395506055731672e-04
      6.5969121881302734e-03 1.8585236852394474e-03
      5.9537497531244521e-03 -7.2971078606561815e-03
      5.8678226639564263e-03 4.4465507098057841e-03
      2.1764191250022405e-03 7.8763795031498648e-03
      -5.3893683470415650e-03 1.3159898882085239e-03
      4.3288707865486069e-03 9.6523726543900560e-04
      5.7451431532205615e-04 -4.8198256564624502e-03
      7.4257130328678677e-03 6.1862260539440163e-03
      7.3422157726406216e-03 3.4339514428832043e-05
      4.9694542186913436e-03 -7.5676889203338460e-03
      -2.2193916727457669e-03 -1.5872760296088606e-03
      -6.2988818743796591e-03 -5.9959983864545305e-03
      -2.1476909646161313e-04 -7.1120191248292535e-03
      -5.8309125742124776e-03 7.1973707106733785e-03
      -5.1845801805927884e-03 -1.7818882410173230e-03
      1.8477288850464613e-03 2.6920065974321574e-03
      2.8290517831019713e-03 1.1725278763042836e-04
      5.2656429316688914e-03 -3.1960633034741571e-04
      -1.6519102043390996e-03 7.9268626070656718e-03
      3.0867597371547935e-03 3.1741155868698460e-03
      4.4870081162430991e-03 -5.4666176489047023e-04
      -2.3148316747271486e-03 2.6366774545244014e-05
      -2.6344329869345210e-03 2.4500796986380441e-03
      -3.0329498743487042e-03 -3.2157842342024285e-03
      8.3155495862699623e-04 6.0959934044081815e-03
      3.3604014176543216e-03 7.7152566982886164e-03
      -2.6923832041618589e-03 6.3539837448357067e-03
      1.1217189572627199e-03 4.9071815334038637e-03
      -1.5564285777422257e-03 5.1740978133156543e-03
      6.3405103938565929e-04 -1.2116356202609426e-03
      6.5708231457763337e-03 1.6202411728474862e-03
      1.7201380144220505e-03 -4.5327641610525080e-03
      4.6422167091921132e-03 -4.1266109589857269e-03
      -6.8171880286415016e-03 -3.0660485291045579e-03
      -1.6485039142682481e-03 -2.0613076609244025e-04
      2.1595636150574743e-04 6.8848369409379388e-04
      3.9822913004381186e-03 -9.3203112704490221e-04
      -1.9798973212153716e-03 -3.5510147590843491e-03
      3.9935831914774591e-03 -1.4184941144052908e-03
      -4.8482320023704607e-03 4.9843871857319080e-03
      -7.4785644783740427e-03 1.0463205532810348e-04
      5.3070600947835453e-03 5.8613401145660620e-03
      2.5971048761594096e-03 -5.5117518039371552e-03
      6.4068018314137644e-03 2.2036867986016150e-04
      3.8829057505638718e-03 -2.8064345792405011e-03
      -2.5892566022327856e-03 6.2137183473005180e-04
      6.0653363970258377e-03 4.8513700960252891e-03
      5.0883639006020272e-03 -2.7798071338019513e-04
      2.7815235449579166e-03 -4.4707275152106830e-03
      2.5956481044634499e-03 4.9336840969278796e-03
      5.0012640239347908e-03 -5.7294632607398505e-03
      -7.1207925751457012e-04 5.5094327644836264e-03
      -5.4058990587612524e-03 7.3275113961233469e-03
      -5.1578474074434714e-03 -7.7035505769233086e-03
      1.3846086695131299e-03 -1.6584114797159875e-03
      -2.9440576290539031e-03 -1.0098550047458025e-04
      -4.0903245217602524e-03 7.6178394817020172e-03
      -2.1721718483859826e-03 5.1998289599335000e-03
      -2.6141611941939654e-03 5.6292816904612158e-03
      3.7126963604332155e-03 2.5237966991569641e-03
      -6.9989663817691360e-03 6.4607995578925131e-03
      -7.4108504112974953e-03 -5.7145047866800688e-03
      2.1949566727033675e-03 7.4730425723253729e-03
      -5.1341098643069294e-03 1.2410211070150868e-03
      6.8403493747042987e-04 -2.5726666384904414e-03
      8.3452966855155622e-04 3.8232359901807845e-03
      -2.8550749818133454e-03 4.6150234751790526e-03
      -7.3281266741545975e-03 3.8334905294075366e-03
      -2.2286014572325623e-03 -2.9723639553320509e-03
      -2.6503318392839962e-03 8.5332776752657640e-03
      -4.2209329094965572e-03 1.3682602136777667e-03
      6.6846422834353700e-03 3.7209744247194173e-03
      4.4250504968399561e-03 -6.5956286742284596e-03
      6.8972026343937188e-03 -2.3398466580520369e-03
      6.5238100890272792e-03 6.4344464273285006e-03
      -5.7473738409925257e-03 8.0483933355503575e-03
      6.5765683081424971e-04 2.7745324971823154e-03
      -1.5495839366989222e-03 -2.9352943991841993e-03
      3.1354421740010692e-03 -1.9319286488009657e-03
      -3.7761297400138866e-03 5.1530015130493824e-03
      3.0934662731653788e-03 -4.9266132566762938e-03
      1.4209841410670449e-03 -1.0526544797000094e-03
      1.4200425774193710e-03 5.6857784452764735e-03
      1.8873706391780759e-04 7.1787919945878395e-03
      5.6636149096858657e-03 -6.5183046597727780e-03
      5.9762970801387162e-03 -1.4642033131198199e-03
      7.6327925254897448e-03 1.7175476678756829e-04
      -2.1016642716474771e-03 2.7096502264957923e-03
      3.2695433105053693e-04 -4.5689324006158811e-03
      -5.6925306258396131e-03 -6.3406182076145836e-04
      5.5221915267576124e-03 1.9244490511258581e-03
      -6.5871150087424427e-03 7.1405277487326876e-03
      6.5542810111534689e-04 3.6650982311815985e-03
      -3.3604438837624465e-04 2.8444402389145480e-03
      3.6140133790798874e-03 5.9706527253975891e-03
      5.0816158961391042e-03 1.6777248847685930e-03
      -7.1530809183460997e-03 7.3979814100477012e-03
      3.7239639825443517e-03 -4.9504272859837535e-03
      -2.6086920635034184e-03 -4.0993264443526314e-03
      1.3581009513022730e-03 5.4343947004542609e-03
      7.1132841266037918e-03 -5.1504799529257508e-03
      -6.7896315117076103e-03 -1.0486686533333199e-03
      -9.5115982902549932e-04 1.7447227764387952e-03
      -1.3377828612986628e-03 1.9354980158524928e-03
      -5.5760273856156738e-03 2.4445396308166727e-03
      -2.1814132428816307e-03 -6.3255281841593904e-03
      6.4041265094440733e-03 -6.5863290856790864e-03
      4.7655768062351096e-03 -6.7041713798231012e-04
      -6.7529847880465899e-03 2.0556206056056604e-04
      -1.8000625235717954e-03 4.2053211247657643e-03
      3.4407666697482252e-03 7.3128588962578945e-03
      6.1979838492773158e-03 7.5064508396653767e-03
      -6.6900829093865400e-03 3.3681892599730584e-03
      1.5536573937160059e-04 7.5346163877429255e-04
      2.0987961745195316e-03 -4.2983508803101471e-03
      -5.1919392388560161e-03 7.4115082985202292e-03
      3.9594618148994197e-03 -6.5932303413838295e-03
      9.3096788123442852e-04 -3.4129167706853031e-03
      -9.8380805501905428e-04 -5.9441175481349620e-04
      -7.6459368964882334e-03 -4.8102371143984319e-03
      3.5040085801457273e-03 3.0473444775665653e-03
      1.4588207173615456e-03 -3.4571298159529729e-03
      -3.6420483172377558e-03 2.3344355234186640e-03
      6.5783661648856915e-03 1.7226843395364952e-03
      3.1972301414544967e-03 -1.4729839241425775e-03
      -5.1149518687407499e-03 4.1665790090314952e-04
      -8.2897730988502959e-04 -4.7029974561896793e-03
      -4.6365781087762056e-03 -3.3797342847089085e-03
      3.4000116922754098e-03 -3.5081460967955995e-03
      2.3132548505953960e-03 -6.6469402669849646e-04
      4.8350652867896584e-03 6.8550455209174304e-03
      3.6178381485149017e-03 7.5018861785153164e-03
      -2.8557121261048586e-03 -4.5163906438229979e-03
      -5.2333632585958578e-03 3.7777521879836847e-03
      3.9224610646306146e-03 3.6682705119872204e-03
      -4.1006305525292776e-03 -4.4781787860479622e-03
      3.9758826537338891e-03 2.8643489365423897e-03
      3.9352863887806887e-03 -7.1226731233323386e-03
      -5.6645208995832336e-03 7.3489213534146799e-03
      7.0248767503869785e-03 6.7689704298067536e-03
      -6.5881610628242999e-03 3.6075686324928318e-03
      6.8884481040766632e-03 3.5478705112114302e-03
      -6.5571114923654978e-04 4.1637280467261700e-03
      -6.2721707102174409e-03 -6.1744367446903816e-03
      1.5576587913516396e-03 5.1891015083928239e-04
      7.5373237520986415e-03 6.9904459887295423e-03
      -4.9054895913381294e-03 6.8085261772621404e-03
      1.6706277747776635e-03 -5.6783007961005180e-04
      7.0043996831801120e-03 -6.4625969376937925e-03
      4.3940070898492835e-03 -2.5879065636397988e-04
      6.5804692572577353e-03 -5.2414142721286562e-03
      -5.5547417382870272e-03 -2.2877038990814129e-03
      6.4749067686416042e-03 -6.0364580460341571e-03
      -7.1541336265228484e-03 -3.0641224172326467e-03
      1.4961131509044296e-04 6.4446612001971999e-03
      1.0240139411488217e-03 1.0753202955373926e-03
      2.8319674959347178e-02 1.8017869876022840e-02
      -2.8094958198465286e-02 -2.5662871918356343e-02
      -3.4182452994858774e-02 -1.2714692217705971e-02
      8.8703614940737460e-02 1.6745637163210546e-02
      -5.6928359477769828e-02 -4.8591410980535724e-02
      -1.7752906321112372e-02 -4.4007641572230770e-02
      5.2789250632337650e-02 2.9944174770795300e-02
      -2.5128520238258654e-02 -4.6692548180083622e-02
      2.2075389555038936e-02 -7.2919369440041668e-02
      9.9541873164910553e-03 -4.3843684176222392e-02
      1.5246858189676358e-02 2.2649927086506413e-02
      4.8336883030418040e-02 -1.6085548910928862e-02
      -4.7305797524776049e-03 1.2351159014168866e-02
      -8.3840469368238288e-02 -1.6611321812430579e-02
      4.5667024579170497e-02 -1.2153172725395227e-02
      3.0901218190660346e-02 1.2469819036283650e-02
      -3.7615642450396794e-02 -2.5478617679539333e-02
      -2.8097557839990829e-02 -1.0113539237287316e-02
      9.2846581029121175e-02 3.0148507464242118e-03
      -5.2465504116275603e-02 -4.0918688477539780e-02
      -1.5973221952608131e-02 -4.6263306824131593e-02
      5.6548899798491759e-02 2.0393585285725428e-02
      -1.4502172202865662e-02 -4.4772390108315761e-02
      2.3140003588558670e-02 -8.0967095782555051e-02
      -1.5335259363045480e-03 -4.6838550680473781e-02
      1.8040293938850364e-02 3.1384293701663533e-02
      3.9609494498534209e-02 -1.9256776492507326e-02
      -3.7879554417337129e-03 1.0451043862964820e-02
      -7.6837864062072977e-02 -1.9631402490137416e-02
      3.5154843997842279e-02 -1.5057148441249778e-03
      2.3982149656899435e-03 -3.8154986752776871e-03
      1.2821594185055485e-03 -4.0452684687005977e-03
      4.7131959052538110e-03 -7.2912198811254285e-03
      -5.1844187756026512e-03 -1.0968140046899557e-03
      8.3584037983172740e-04 -2.3562177537187818e-04
      -3.9952551235017527e-03 8.5961370268391752e-04
      -7.7826741856517360e-03 4.6825516100117114e-03
      -2.5818531215658965e-03 -6.5462192792870152e-03
      -7.6913407627428527e-04 4.4451487356941613e-03
      3.5680494661463080e-03 -3.8027244694347926e-03
      3.4060203672892221e-03 -2.6703298586922232e-03
      5.9606237258606927e-03 -6.4049328969037599e-03
      6.5789607616193293e-03 -2.9642277525857111e-04
      -5.4168565327066117e-03 -2.8257675174946850e-03
      -1.5369153893051324e-03 -5.8242921134967294e-03
      3.0503390342579328e-02 2.7769780733196383e-02
      -2.4113402910079112e-02 -3.4940543690064919e-02
      -3.2219970717579094e-02 -1.6237011871647694e-02
      8.2234348272557531e-02 1.0372286158710322e-02
      -5.8814644329039108e-02 -3.6028269793000445e-02
      -2.0197681744013041e-02 -4.9171307373962296e-02
      5.5952397255364314e-02 2.5932194388644247e-02
      -2.1749496185679031e-02 -4.1956504063649334e-02
      2.0066683853765432e-02 -8.1781477587891407e-02
      -4.2048872953079465e-03 -4.2212413776585328e-02
      2.0271370833454448e-02 2.5597271077109109e-02
      4.7550619858393539e-02 -1.9681101844350752e-02
      -8.2055183963157235e-03 2.2606722507705197e-02
      -8.3484207791086298e-02 -2.0382375104494838e-02
      3.7578773123465754e-02 -7.5634821809957313e-03
      5.2582653309940705e-03 -1.0675110729061507e-03
      5.7791731368454858e-03 6.3691096365660572e-03
      2.9712986781603543e-04 3.1604061800571829e-03
      4.8875138384258570e-03 3.3954529557041167e-03
      -1.7503400599222100e-03 5.1703098031679016e-03
      2.7428995977633267e-03 -3.9801872658258497e-03
      3.5828166505660229e-03 7.8245366499062816e-03
      -1.1962341534010359e-04 5.3461736826368792e-04
      6.6574583062148250e-03 -3.0348659700268534e-03
      5.1771842641048138e-04 4.1861520137680148e-03
      -7.7493625693514298e-03 7.3421845879971491e-03
      3.9694920582022571e-03 4.8282235299333511e-03
      -6.6066730167051949e-03 1.0590826573002052e-03
      -4.2420462495171623e-03 6.1194249279855183e-03
      -5.8918238408104144e-03 4.7232200345119360e-03
      4.1801522728879036e-03 -3.3537100957329270e-03
      -5.1454786915457575e-03 3.9662633475805809e-03
      -2.0701995038261648e-03 -2.3034838827941276e-03
      2.8384350330214543e-03 -3.3080262746718919e-03
      5.8607541771592770e-03 -2.3394546103694832e-03
      -5.8312576087685454e-03 -3.8971814873350334e-03
      7.7540380287699469e-03 7.4258328526102466e-04
      3.2992865668297574e-04 7.6557821481872308e-04
      -7.4650268785290850e-03 6.5201662574005731e-03
      5.6590584767506899e-03 -2.7271365864631539e-04
      4.1503569318053022e-03 4.0544096778044733e-03
      6.6745431091777422e-03 -2.9707814285683492e-03
      -2.7744145688977659e-03 -3.2387011801675394e-03
      3.2347268198321278e-03 -1.9020372211011765e-03
      -3.4186711886072057e-03 4.8862475938423935e-03
      6.5554842185609336e-03 5.6813098029397302e-03
      4.3961768196626927e-03 -2.2239957087443331e-03
      2.5186837173033338e-03 4.3373500003466865e-03
      3.6275371888093389e-03 6.8873690741517741e-04
      -3.5323890982742160e-03 -4.7465693581480208e-03
      -2.2633901966079444e-03 -1.5536335145842576e-03
      -3.9482267030607087e-04 -2.4785126963879807e-03
      5.0352499556006328e-03 2.6784962041448627e-03
      2.2609698839044061e-03 3.1569835501805846e-03
      1.5818909759560903e-03 -8.9722355324035473e-04
      2.4743775834096639e-04 -2.1152290835286750e-03
      -1.6952051899220262e-03 -2.8276672112102757e-03
      -5.5186311729423440e-03 7.2073669260711128e-03
      -2.8884979306006350e-03 1.1130786402900640e-03
      4.6616982607325099e-03 -1.1698688988206148e-03
      4.5717871993566596e-03 5.3143381343638465e-03
      5.6847880644009564e-03 7.1761700766000648e-03
      4.6827332884301649e-03 -3.1152058183253847e-03
      6.4222562653704820e-03 -7.7241796471306150e-03
      -3.0253102819659487e-03 -2.5274026824707594e-03
      -7.6456733395918143e-03 5.5783675827391459e-03
      3.6563933631444971e-03 7.0858067818832535e-03
      4.7789325373843490e-04 2.8991393368547141e-03
      -6.9891886352700903e-03 -3.0950691463382139e-03
      2.6571943927436621e-03 6.4204992880043045e-04
      -7.4872259976926873e-03 7.0318411869992369e-03
      -3.7179200560878119e-03 6.2009810190375716e-04
      -3.5095293169499619e-03 4.9483937542053446e-03
      -2.0342999284798089e-03 3.3002030131988928e-03
      9.1862406009553593e-06 -7.3034425619888481e-03
      -5.4775238224429867e-03 1.4810961217239576e-03
      -3.7806571649939082e-04 6.2942663731229967e-03
      2.5228446334823176e-03 -7.6017789566905046e-03
      -3.2676590936598130e-04 5.1635969247056440e-03
      3.5343711500253538e-03 -2.0645377733239365e-03
      -5.0463920173950925e-03 -3.7006491040940796e-03
      3.4835236758295595e-03 -7.2572950585033883e-03
      2.1037787846337314e-03 -1.5527457024456452e-03
      -5.1179470093045487e-03 4.5235195436457935e-03
      -1.6552934518041555e-03 -1.9040229385688754e-03
      5.4540868939194206e-03 4.3314365272758724e-03
      -5.6445702394397005e-03 -4.4964283901658270e-03
      8.9823841529778660e-04 3.6606205542381062e-03
      -6.5644208972389963e-03 -7.4092117215114814e-03
      -1.1832567590496039e-03 -1.7870365677206614e-03
      -3.7947561518664004e-03 -7.1117149963679984e-03
      6.0096983203772195e-03 -3.0776459605025481e-03
      -2.0451504599961622e-03 5.3301272960771815e-03
      -7.7206258751642536e-03 1.9199545241896246e-03
      6.5001278116193703e-03 -6.7104642712043907e-03
      3.0458337283512820e-03 6.0515092876426528e-03
      -1.6630724002886848e-03 6.9763608246975108e-03
      -8.5100316917760283e-04 -9.7333759772730299e-04
      -4.3725481403974328e-03 6.7060671873858304e-03
      -3.0139299076392986e-03 -4.2902241124221623e-03
      -6.6255713434205735e-03 -6.2684961744883744e-03
      -1.8757764716326412e-03 6.2585970052388600e-03
      8.0820207152666333e-04 5.2731208065768939e-03
      -2.8905185256364622e-03 3.1859606659272481e-03
      -6.3666154445406317e-03 9.6125681439029388e-04
      5.6335635703275034e-03 -5.5807868491453416e-03
      4.3818226284959901e-03 -6.5058032187494605e-03
      -7.1997428647105734e-03 -3.1180825657475099e-03
      7.6582182282793542e-03 7.9088213734993390e-03
      -5.7507329237743831e-03 3.2654936494659912e-05
      -6.1219133179846554e-04 7.1440386782670017e-03
      1.9008246555611559e-03 1.8385239467471649e-03
      2.5376205811046795e-03 -5.4631106318227462e-03
      5.9448895034687633e-03 3.6677180130459293e-03
      4.4757676370378039e-03 -2.9522982139032839e-03
      -8.1387884992088644e-03 -2.1308044602510838e-03
      -2.0979067065054814e-03 -7.5089706862712735e-03
      -2.0288772345403443e-03 8.1282612118301729e-04
      4.2087635895306334e-03 7.0372980465861048e-03
      2.5792851194557528e-03 5.5622865636793016e-03
      5.2864349618589508e-04 -2.1037093179557338e-03
      9.0239455492161446e-04 3.7785344345003333e-03
      -2.4754118401366502e-03 4.0098371082750517e-03
      6.5354626912160528e-03 -2.0734191434392747e-03
      2.1550468062972858e-03 -4.5468989271847662e-03
      -3.3964100192714216e-03 5.5215794185594158e-03
      1.8028007508686175e-03 -3.1522647597584880e-03
      -7.6852512468239152e-04 4.9130875154068153e-03
      -7.5841193463422668e-03 -5.7783190944541239e-03
      2.7450162325495815e-03 -3.4553696701105281e-03
      -1.9379488419425718e-04 2.6094955561263384e-03
      3.2878859068367367e-03 -4.1191102718277917e-03
      4.9760190831581617e-03 2.5176759984155447e-03
      6.3714043732184629e-03 -4.7850422391863415e-03
      -6.4838784939658363e-03 2.1340127512778492e-03
      -2.7681591144632718e-03 -6.1263013111600142e-03
      4.3641535278693515e-03 -3.2296988829747151e-03
      4.2473707042947843e-03 6.9024294112012647e-03
      -1.7916501990702023e-03 -1.5547686909116371e-03
      7.1076356733383280e-03 5.1578671931255806e-03
      3.6961394570344556e-03 -1.9683937259258291e-03
      -3.7138344330466568e-03 1.3136975651680679e-03
      -7.4470372879250563e-03 4.5937850058649365e-03
      -2.3001393749597951e-03 3.0574137129588210e-03
      -2.8668459298712839e-03 -4.0035796376992295e-03
      5.0673216620333132e-03 -7.4934964128930137e-03
      -6.1940639086887732e-03 -1.8060431912489427e-03
      -3.7466311091443167e-03 -5.8127043339616458e-03
      7.4958761291277175e-03 -4.2696383728371250e-03
      -2.1049656588422445e-03 -5.5213555236492086e-03
      -5.3172559270517651e-03 3.5378992888393727e-03
      -6.8452018774844961e-03 -5.8142115318983237e-03
      -3.8213997117489619e-03 -5.3830122308941471e-04
      -3.5854034260344933e-03 6.9779015386881070e-03
      -6.9671040691559561e-03 -5.6504531786221290e-03
      -5.1070042965106486e-03 7.5436750608878333e-04
      4.9896822899841205e-03 -2.5114565352654908e-03
      -7.4149404441528977e-03 -5.4206886386752124e-03
      -4.8054786539637202e-03 -7.8200382537867864e-03
      5.2453656936926824e-03 7.8809827314484486e-03
      -5.6364650066424195e-03 5.3714579565418826e-03
      1.0770312840757662e-03 -6.1441351900223071e-03
      2.7186414240997752e-03 7.2656929498585944e-03
      2.5644731985781928e-03 -5.4181555039641768e-03
      1.3318032144131089e-03 3.7745520413289451e-03
      -2.9052811372051314e-03 1.7006224799546105e-03
      6.6489318188505059e-03 -3.6662998815517336e-03
      6.3683900709619991e-03 -4.3631900143948791e-04
      5.4096459361975624e-03 -2.2565232063023908e-03
      -1.3147358666693969e-03 -1.0022463092299897e-03
      -2.5564051311945625e-03 -3.8879689655986920e-03
      7.3002325933043547e-03 2.2664941068943228e-03
      -6.8375389831514246e-03 3.6973818996990796e-03
      3.5163564384115965e-03 -7.1704186031572347e-03
      3.9419824841862823e-03 2.4105432453014734e-03
      6.8211728425326404e-03 4.4841061918857086e-03
      1.2924108479857206e-03 7.6642913378154704e-04
      -3.3705591803177056e-03 -6.8289815704190588e-03
      -1.6173834726217503e-03 5.2723397161897941e-03
      -3.4040855870817628e-03 -4.4567799602140334e-03
      -1.9510389367025352e-03 2.2555020643511316e-03
      -6.7116512704148566e-04 1.0117742808672201e-03
      -4.8428535861682834e-03 -6.7494895890495721e-03
      -1.2308029085718512e-03 6.7885132774445347e-03
      -3.6534447747064353e-03 7.9055099355563197e-04
      -4.6916062607197870e-03 -7.0340828330409007e-03
      4.1152430256707765e-03 6.7813050898996256e-03
      -7.1218408016377622e-03 6.9123372464217599e-03
      -9.3060217267684374e-04 3.5355751594146933e-03
      6.2038826321004666e-03 -8.1385019869692453e-03
      4.5688820097113487e-03 -5.0812227739433970e-03
      -7.2407283797642653e-03 5.6590897704558371e-03
      -5.4934057727472297e-03 -3.0176714847780237e-03
      -6.4809855373064457e-03 6.7691182805327266e-03
      -1.8109012640715623e-03 -3.8527044760296356e-03
      -1.7977324116897825e-01 1.6391151107226279e-01
      -9.5300151289023929e-02 6.6361084695298785e-03
      -8.5672789313798278e-02 1.1944580130910688e-01
      -3.4741907773741483e-02 6.7578960710755420e-02
      -3.4212218428255593e-02 6.7072310903284332e-02
      -1.2264795597206252e-01 -8.0867099757183092e-02
      3.8725672020381165e-02 -4.5083421895382905e-02
      7.0739064633407248e-02 1.8049524090665511e-02
      -1.0729349300771834e-01 9.5693227720671806e-02
      -3.9840528930849247e-03 -3.3647801266721143e-02
      1.6274898002817468e-02 -4.3438254363663734e-02
      -6.6040378250795728e-02 1.7557817016564347e-02
      -5.3569893427508265e-02 1.4558735683045006e-02
      -1.0447703260249251e-01 3.3077514877712502e-02
      -6.8896631980731607e-02 5.3471239330895745e-02
      3.8831221252829250e-02 -7.8625574304131043e-02
      3.2834339273488264e-02 8.8796128657107239e-03
      3.4879238841064371e-02 -4.7965523996601880e-02
      -3.8378642206084078e-02 -3.2582559776051193e-02
      1.6715184037896205e-02 -3.0167160428983684e-02
      4.6500246304368602e-02 4.4554098454477664e-02
      7.5040037781560296e-03 1.5411098577420597e-02
      -2.8652801852331680e-02 -3.6389651166835193e-03
      5.2105723553667146e-02 -4.5425711008424824e-02
      -1.3620469480727811e-02 3.3351452736032648e-02
      -9.7595818575719889e-03 2.6180367876693238e-02
      2.2793266257493092e-02 -1.8215141873687394e-02
      1.0439640703616459e-02 9.0770588100718540e-03
      8.1732181600931569e-02 4.5725260584342224e-02
      2.6895418768964389e-02 2.1708711414978960e-02
      5.4987629799165903e-02 -1.1962260227840441e-01
      7.0849979737395929e-02 2.4406128406687683e-02
      6.1778053634487198e-02 -5.9276330740721306e-02
      -7.4528674942732603e-02 -4.1442924639150183e-02
      3.9535456467321338e-02 -3.5460728880886978e-02
      6.6104125415180653e-02 8.3093931586066552e-02
      -8.3722278665180859e-03 1.3486537257058140e-02
      -2.7074552116719459e-02 2.7204971879562756e-03
      6.7621017382376664e-02 -3.6060768624853454e-02
      -2.0646738456772944e-02 6.6775416179955138e-02
      -2.6345563049598293e-02 3.3127174703289214e-02
      2.7450522943536528e-02 -1.5130025511283163e-02
      8.2031740393148228e-03 3.1427827356972217e-03
      1.4482312750208173e-01 7.7191975564430679e-02
      3.5394513318338212e-02 2.6457176691160773e-02
      1.0266580158316575e-01 -8.2046928947326944e-02
      2.4642581802007960e-02 -1.0107703114191778e-02
      -1.2990899583755896e-02 -4.9385919103641485e-02
      -2.3952476993349854e-02 3.0937186112642372e-03
      1.9447729569181421e-02 -1.2326265644217035e-02
      -5.1249466483675836e-03 5.0086002221154773e-02
      -2.6443561063897413e-02 7.1475093736011672e-02
      -2.5158030334666265e-02 1.7573304724075946e-02
      1.0003780382413366e-03 -3.5454926757184285e-02
      -1.5384564005352886e-02 -1.7396336178819260e-02
      -7.9460778019845094e-03 7.6903227597639914e-02
      -6.9675906450102944e-03 -4.2325133452812712e-02
      -1.3068925681666385e-02 -2.6918571328240951e-02
      8.8514665825523198e-02 2.9340989639803965e-02
      1.8596491270492361e-02 1.4688273491765854e-02
      7.1320329214764167e-02 -1.1656916566627791e-02
      -1.6512438089082000e-02 -2.5173063523242917e-02
      -3.3190575178679210e-02 -6.1587773183024545e-03
      5.4335761575255888e-02 9.8533068031662462e-03
      -4.5149463880168057e-02 -1.6309267143057244e-03
      -2.6147958571895443e-02 -2.9728982471316774e-03
      1.3567486636579187e-02 7.7144680837949758e-02
      -8.6152360839669695e-04 1.3900027660154917e-02
      -2.3583021602423149e-02 -4.7276694864799650e-02
      9.6508422707319418e-03 -6.4527681443800708e-02
      -9.1891088543210615e-03 5.5286651019450982e-02
      5.7551623699884438e-03 -2.2391704164943717e-02
      -4.0853442925495177e-02 -1.6519773639860902e-02
      -2.2062350810959003e-02 -2.2713299783376699e-03
      1.4550574488536045e-02 8.4033687051694944e-04
      1.1435356061178343e-02 -3.6926990147561942e-02
      5.2594702253388921e-02 5.3243204981993163e-02
      9.5897805071051750e-02 -5.2329050475011301e-03
      3.3271784302827752e-03 -6.9434756505401846e-02
      -3.7329241024427411e-02 -3.7455638392562898e-02
      5.6493663084588967e-02 9.0138171192724638e-03
      1.7594011227964428e-02 1.4311467632864778e-02
      3.1508746512912703e-02 8.4719968345689078e-03
      2.5595260762209790e-02 -2.5187249339803621e-02
      -1.0831338837759961e-02 6.3686068735387805e-02
      -8.5143562037748977e-02 -5.3228999824415438e-02
      5.6566916252512887e-02 5.4162387943091118e-02
      -1.5166833517621757e-02 2.3939977679886242e-02
      1.8675986026988747e-02 3.3881180092639504e-02
      3.1756567351140255e-02 2.3176283176388309e-02
      -3.3263482812423157e-03 5.4183088422807731e-03
      4.3567693828645898e-03 6.8396547728612651e-03
      5.4014804444147725e-03 5.4900821927583313e-03
      -4.6337986103159074e-04 -6.0288097088895343e-03
      4.6916349139013731e-03 1.0701112826099644e-03
      5.0291859563398609e-03 -6.1350616967954120e-03
      7.3593544193161940e-03 -3.8198477634316052e-03
      5.3673346130950622e-03 1.0064547322598115e-03
      2.6391042485175292e-03 1.8575446750671643e-03
      1.1549660463587501e-03 -7.8987155442711583e-03
      -7.0083790729799905e-03 2.5823180290038652e-04
      1.5954310428582263e-03 6.9423049121193001e-03
      3.5921676755443195e-03 -5.8726457688747704e-03
      -5.2235442443788081e-03 7.3276737915804980e-03
      7.3187879982792477e-03 1.2049180016247087e-03
      6.2309970402336596e-03 7.4276348377517835e-03
      -8.3870935699605531e-04 4.8731496427108527e-03
      2.9091008266545456e-03 3.1030061005658124e-03
      -3.3222067879123381e-03 7.7032049501501703e-03
      -1.3646110875430154e-04 2.2777605100310207e-03
      2.3518125394824532e-04 -7.0736993635664306e-04
      6.4967086821943474e-03 -4.4525591992864806e-03
      -4.4723741599284137e-03 -4.1150992309099488e-03
      -3.7976761565231580e-03 -6.2857045991812875e-03
      4.7168576636201828e-03 -4.0660375709663859e-03
      -4.5789576765201505e-03 1.0117601579589883e-03
      6.6291348280420898e-03 -6.4769862405559247e-03
      -1.1588283636944357e-03 1.4914058946270913e-03
      -3.5371187632897527e-03 -1.8966518749076228e-03
      5.7193577713722209e-03 -4.7307581482421267e-03
      5.0127236926181713e-03 4.3181499123920849e-03
      1.8497413421658189e-03 4.8265413923573707e-03
      2.9522626814467044e-03 -4.1446985794048779e-03
      5.7797679081011332e-03 1.4829385496218582e-04
      5.9940100341796443e-04 -2.8601536942819538e-03
      -7.2583811546893312e-03 2.9772632618527586e-03
      4.2438265343211620e-03 -2.4780429665360137e-03
      6.5854428676848410e-03 -2.1897574910606458e-03
      4.0919558519024303e-05 -2.9496005829577087e-03
      5.4552900007985771e-03 -1.8471758517286864e-03
      3.3624606258597484e-03 6.8643706117419902e-03
      1.1028927705723764e-03 -7.4988172419928664e-03
      2.9429027794134290e-04 -7.3008473134274967e-03
      -1.9309686843429718e-03 -7.3012777309959887e-03
      5.4443271617871112e-03 5.5444222598884608e-03
      -1.5902912190037938e-03 -2.1655303283695474e-03
      3.3844920706563248e-03 5.7699423300306156e-04
      6.5559443797017060e-03 -3.3671073312597625e-03
      -1.5141800229612349e-03 6.0544057229788163e-03
      8.0059910944831872e-04 1.4712431459477924e-03
      -1.4677182488146013e-03 3.9474851272604996e-03
      7.4610531766021214e-03 -2.4772628106072003e-03
      2.4798035108042644e-03 4.4162253092610605e-03
      -6.2706241090268559e-03 5.5854953821355535e-03
      6.5420140990416940e-04 2.7772640874816215e-03
      -2.7560645208168848e-03 4.0234225403095979e-03
      -4.8873296624166304e-03 7.1763427195748507e-03
      -7.5502023457726291e-05 -1.5808830209512305e-03
      5.3292015113580848e-03 -7.9152027754098714e-03
      -1.0714796904311197e-05 4.4241018825452085e-03
      -9.7107265986474988e-04 4.5871035370846662e-03
      -9.2828816668375565e-04 -3.0406103106091309e-03
      -2.7050910818726200e-03 -8.4460490119188630e-04
      1.3887623711223629e-03 1.7217579694752774e-03
      -2.4407335008469581e-03 -3.0038220498411184e-03
      -2.8334044911650811e-03 5.6049136310593823e-03
      7.2019131203459623e-03 -6.4605410848076273e-03
      1.0689708502697379e-03 1.6499668719704424e-03
      -7.8696197419001292e-04 -1.7075432284888341e-05
      7.4668472397703065e-03 7.9410764505703450e-03
      -3.6947940884117739e-03 5.9199846601415062e-03
      4.4511478740746927e-03 7.4253665098794486e-03
      -4.4421206702079568e-03 4.1248462098519402e-03
      5.5319690529346995e-03 -7.2053681669443578e-03
      3.9444667578012911e-03 -2.7659908266906277e-03
      1.6261498735731746e-02 -3.8651998684728919e-02
      5.3793713129280572e-02 5.1662860251221070e-02
      1.0556481648613866e-01 -3.1964548635689638e-03
      9.7886822543236766e-03 -6.2372614864036446e-02
      -3.3050498774229740e-02 -3.7378762656139403e-02
      5.5704918823405246e-02 1.0148066285352354e-02
      2.1329241120041417e-02 2.3617449856492032e-02
      3.7885189635755323e-02 8.7162479335132197e-03
      2.7208291704025979e-02 -3.6630950825591917e-02
      -3.1429773832090191e-03 6.6933597139029424e-02
      -8.6216043138555742e-02 -5.4916403426833404e-02
      6.3859541344720758e-02 5.4429269676865046e-02
      -4.5160330770819173e-03 2.4719101551326072e-02
      2.0797618895035955e-02 3.4165461866280472e-02
      3.5153872221262865e-02 3.1000165835272903e-02
      7.8098169858263913e-02 -4.6384773802135536e-03
      -3.5767604940090666e-02 -3.6255005486641269e-02
      -4.5342263076972339e-02 -1.5276708110815879e-02
      5.1114979209854035e-02 3.4480507829136232e-02
      -1.7537848472160646e-02 1.6625481123811004e-02
      -5.5463830689503370e-02 -7.8617426294260925e-03
      1.3607165430283437e-02 7.1638181480377844e-02
      -1.0395119943266121e-02 1.5502511395693993e-02
      -4.7383684282802263e-02 -3.0880294404673075e-02
      1.6672019583971031e-02 -8.2498017761285472e-02
      1.0413529198964584e-02 6.9585504484223251e-02
      -2.3388413528909750e-02 -4.4609357507159345e-02
      -4.6273477540322953e-02 -1.9407909245254835e-02
      -4.3955167794496527e-02 -2.5058206878365893e-02
      -1.3954597376060211e-05 -1.4597415448980727e-02
      3.4459958291023211e-02 -1.2951027231266987e-01
      4.6618373494528376e-03 1.4216849896152187e-01
      7.4833812403935079e-02 -5.5585206454532340e-02
      -1.0213434775957909e-01 3.7056701965756328e-03
      6.4575156913618550e-02 -2.6429722644623298e-02
      1.1020691738290048e-01 4.5653012602286491e-02
      -3.0182193954669742e-02 -1.1603018014793974e-01
      -8.1517860564549210e-02 -2.2292909398294074e-02
      1.2870471909105802e-01 -8.8067229041201317e-02
      -5.3734055716399519e-02 9.7288402361756354e-03
      5.6059652679558550e-02 1.0845259804370946e-02
      -7.5367645269919709e-02 5.4456200793010119e-02
      -3.6376409644751313e-02 6.2403301328761790e-02
      1.0449561171607982e-01 -8.7664242606106960e-02
      -4.2126968815037372e-02 -1.0609832271442921e-01
      1.0857495908995435e-01 -3.8811196767010628e-02
      6.9393694483828858e-02 1.1654064205525172e-02
      1.3828506172140573e-01 1.1848358130176182e-02
      5.8423769122685773e-03 -8.0888407589098529e-02
      -4.4646382358351985e-02 -3.1518147287688238e-02
      4.8635271797354017e-02 -5.0555026788856698e-03
      1.1129016407439896e-01 1.0020745235121543e-01
      8.2908069877518545e-02 8.1931319128098035e-02
      -1.0210648590069744e-01 5.8575854466248176e-02
      7.3016280952882665e-02 7.1888045207558537e-02
      -1.7056834044471178e-01 -6.3903885912734021e-02
      4.6938515942807374e-02 -6.1009740061022215e-02
      -6.9416417551628001e-02 1.0309771966169537e-01
      1.2198583740962973e-01 -3.1405268955554911e-03
      -1.6687284079181599e-02 -1.5153614002766358e-02
      -1.6429907751982586e-01 4.0494055946754251e-04
      -1.3107166386125937e-02 9.0163567247293241e-02
      -1.0609352700302349e-01 1.8625358633829026e-02
      -8.1612009841753333e-02 6.8918253928599515e-02
      2.0166934282969257e-02 6.1973900569977682e-02
      -9.2793555609587235e-03 -2.0899792146651698e-03
      -1.4917368307818790e-01 -1.1181844126651162e-01
      -4.7246893833668112e-02 -4.5071799712717006e-02
      1.1761935278857662e-01 3.2272368931368853e-03
      -1.1191877153841018e-01 -4.5498838432858017e-03
      1.2559967610491860e-01 4.2514806826471629e-02
      -5.5903263505494773e-02 1.1258405065668636e-01
      2.7081986242242957e-02 -9.9317326145005325e-02
      -7.9297814979112213e-03 7.6307180957060169e-02
      -2.5374673846758001e-02 4.4422126356683682e-02
      -1.1226993254376823e-01 -6.7525780495630502e-02
      4.5833139442500621e-02 1.0812643963818587e-01
      -1.4256119025743255e-01 -1.3364940586052249e-02
      -7.8814033380682474e-03 -4.0363341377334321e-02
      -6.7202773030354573e-02 1.9185705770651172e-02
      3.2245974448045930e-02 -2.2994463015266992e-02
      -2.3912056710654372e-01 4.1812065702309303e-02
      1.3120496598279062e-02 -3.8403348852056547e-02
      5.6510916914070251e-02 3.4617637142985463e-02
      -4.5020036046284309e-02 -1.0400659983488669e-01
      -1.9678721657945875e-02 9.0136804802565765e-02
      6.9849374232259426e-02 -7.3644367587492474e-02
      -2.5781122037193266e-02 -7.0107977780990399e-02
      1.6486080450394194e-01 1.2022202816999286e-01
      2.8581855562200276e-02 8.0271138077953261e-02
      5.7398207699340266e-02 -1.6867150970142697e-01
      -4.2673289458593305e-02 7.0833109377257605e-02
      1.1965684310660463e-01 -1.0838824945499104e-01
      -5.3258101696780753e-02 -1.1940392936077958e-01
      -3.4036591132616797e-02 9.1871469276568321e-02
      1.3105554249300882e-02 1.0759506372422903e-01
      -5.3074367967031036e-02 5.9754864826663028e-02
      3.9963540893893090e-02 -2.5432944048757303e-02
      -5.2321168999124916e-02 -1.9175117386206334e-03
      5.8975564349016289e-02 -1.7286157138858598e-02
      -1.2660055172414181e-01 2.2989425483359693e-02
      6.7729621652748220e-02 -6.3841273949349547e-02
      -7.1342500749610682e-02 9.7806367511375475e-02
      9.7820890108175532e-02 2.7326735966519206e-02
      7.3952327485523092e-02 -4.7099815060631975e-02
      6.8254389736028829e-03 1.2308856626945075e-01
      -3.2766630109389447e-02 -1.7800390858176277e-01
      1.5135291030353755e-02 4.7990228049715783e-02
      2.4747780822051427e-02 1.9336977187515900e-02
      7.6294133375199122e-02 -1.1341083590257653e-01
      -1.1586139724045215e-02 -7.5815457720120105e-02
      3.2283023564188862e-01 -4.5930314409458717e-02
      2.7165347048164441e-02 5.2956239124279249e-02
      -1.0218805186539039e-01 6.7857513008012613e-02
      1.2605523910728786e-01 3.7531868877139066e-02
      3.2739823777469756e-02 -1.0212309853829853e-01
      -6.3106951383289325e-02 -1.0902318552172045e-01
      9.1094796740585321e-02 1.4626372245994651e-01
      -1.0160516284930413e-01 -1.5497601908226086e-01
      -7.4701212688914581e-02 -7.9969519886689058e-02
      -3.7112366594697417e-02 1.6736616245700598e-02
      1.6204707335604394e-02 -5.8101738396365513e-03
      -2.3831928561613119e-02 -2.1086297966864207e-02
      -5.2811534440088084e-02 -7.9881201554735069e-03
      4.0380811087962078e-02 -2.5173433866475664e-02
      5.3821268565476463e-03 3.8165142197077284e-02
      2.3257334700905716e-02 -2.5283066920551558e-02
      1.0669190721857964e-02 -2.9262377588868778e-03
      2.7473872160703891e-02 1.0905570858700146e-02
      -2.5493369410479139e-02 -1.7139396983688313e-02
      1.2042737402739824e-02 1.1904192476515002e-02
      -2.3776206341031347e-02 2.7908776913878565e-03
      2.5632194966785586e-02 2.2363626171606312e-03
      -6.2944021247035142e-03 3.6161957791542167e-02
      1.7724297320500841e-02 2.6321392747010060e-02
      7.4342248136906042e-02 -5.2082931652127684e-02
      -4.1967759007011558e-02 -1.0563701765583411e-01
      -7.3524924329314886e-02 -3.7542325702414843e-02
      3.1988603654335937e-02 2.3479920547850523e-02
      5.0368400614899576e-02 -2.6773068142823321e-03
      -6.1935645330078511e-02 -6.5284145086159054e-02
      3.5471720758119787e-02 1.3263977127653757e-02
      -7.7234171765570681e-02 -1.4332652211659377e-02
      -1.5974533803331331e-02 5.4017772974885659e-03
      9.3859987195653249e-02 -1.2156741293407001e-02
      7.5566751582653552e-02 7.2232131868903204e-02
      -1.0354799846697413e-03 -9.9214882399811022e-02
      9.1953810163431488e-02 3.7222996588725528e-02
      -1.7345597509878862e-02 -5.6094865865573038e-02
      -4.3704642495960504e-02 -5.0569796852665085e-02
      1.5305850023034001e-02 2.4904408870362015e-03
      -1.0529280780429600e-02 -2.9121604271869713e-02
      -5.9864615121655917e-02 -2.4819146135766804e-02
      1.0768177463505732e-02 2.4691445304605823e-02
      -9.3581046897999506e-03 -3.9753433476440361e-03
      -3.0757568795586079e-02 1.7095187991989103e-02
      -1.3507755456607809e-02 1.2062834168306806e-02
      -1.3489292331129251e-02 -3.2085295326192448e-02
      3.7013723546067051e-02 -6.0072785218183156e-02
      -3.9693577093067041e-02 -4.4755884733667012e-02
      4.2346475205923974e-02 5.6041015552345412e-02
      -1.0409134571404081e-02 3.7896902909134856e-03
      1.5132590758000030e-02 -4.2238826591178585e-02
      -6.0195595369175618e-02 3.7744059421774882e-02
      4.3108897967034800e-02 3.4037753895824696e-02
      -5.4728438180519116e-03 -2.2538754013616226e-03
      1.4072206946709037e-03 -2.6122861182916075e-03
      -8.8071722363409517e-05 -3.0108917127937506e-03
      -6.4466578589229576e-05 -6.7549655015173198e-03
      -6.9259997384876325e-04 4.3060964976881179e-03
      7.4054397317628766e-03 1.1538070592676736e-03
      -1.7561902263533307e-03 1.1265589447083087e-03
      -2.9980628768577098e-03 -3.3395952576111350e-03
      1.3638812112517086e-03 6.2095864283008579e-03
      4.0718578317768929e-03 -2.5381954248774644e-03
      -4.6792388036670665e-03 3.9645986025091734e-03
      -9.2708221249911702e-04 1.9744530435264235e-03
      -4.9566186196219122e-03 1.6490001514161577e-03
      -4.6545390545775544e-03 -4.9107837800981338e-03
      -3.5935326162665313e-03 5.6958684636457535e-03
      -3.8006131328107368e-03 3.0299052205101525e-03
      -5.3199472544345162e-03 -3.6978674334977903e-03
      1.5793939237492831e-03 7.9468157047992895e-03
      5.9995131936530794e-03 -1.8916561149042231e-03
      -7.1273648610934714e-03 4.1608435693317233e-03
      3.2708241349640784e-03 -3.8118108285468315e-03
      4.6652324902125113e-03 4.0559344963060984e-03
      -4.1932801742083963e-04 -3.5728186638093718e-03
      4.0379756189241786e-04 -1.3629559886389011e-03
      1.8638756242609152e-03 2.4656904567884456e-03
      2.0782006243605794e-03 -4.8983819397708222e-03
      -4.3585319029307776e-03 5.8192252899176219e-03
      2.1571946428042450e-03 3.9078160016815982e-03
      4.6956282538028141e-03 -6.0801123505374068e-03
      5.2770643407531155e-03 -2.8622146411201138e-04
      5.9285704407037942e-04 -5.8164671644856019e-03
      4.5063737172867610e-04 -4.5902702562476564e-03
      -5.8914184580693175e-03 5.9985934711959624e-03
      2.3877144014090882e-03 -4.7610553303531209e-03
      -4.7767374515359532e-03 -1.1374651054048097e-03
      -7.1136719478436328e-03 6.0164993297366996e-03
      1.2515305337275847e-03 -3.7687652347559554e-03
      5.0615398602862956e-03 2.8031763275557457e-03
      5.9355165553259467e-03 -3.6489784228218511e-03
      -1.7182060263310356e-03 4.6105882953699799e-03
      -1.5406667342864686e-03 -3.4002985939535809e-04
      5.8129920426716929e-03 -6.5935477844589873e-03
      -6.0090930941114106e-03 -4.9632436544561568e-03
      -5.1966097079117002e-04 3.5927664876781763e-03
      2.9461641288665704e-03 -5.9498084483349464e-03
      1.0882821909033518e-03 -3.6424948579796590e-04
      1.2878605139618232e-03 2.8050099642187203e-03
      -4.1541473631401607e-03 4.6913953339737429e-03
      -5.9815184388310278e-03 -2.8337904540531242e-03
      -2.7638377629383526e-03 -3.8677973794467701e-03
      -1.8527496876348346e-03 -7.8110797673310907e-04
      -5.1458270278457894e-03 -7.0371189899961382e-03
      -3.6929486687712976e-03 2.1718830321692482e-04
      6.4121858479407627e-04 -3.8191951027353012e-03
      9.8983764624404453e-04 7.6518743245460805e-03
      -2.2138346217019295e-03 -2.4054460477959476e-03
      4.3612241430048843e-03 -4.9576744621814359e-03
      3.4182238744248227e-03 -6.8689851982995844e-03
      -4.8791600431580427e-03 -5.7043563918556519e-03
      -3.5812552429410355e-03 7.1485907738132268e-03
      -4.0598532515384441e-03 -5.1392984520518851e-03
      1.8643018067743434e-03 3.7565272231520966e-03
      5.5364058730911258e-03 1.5938734233327772e-03
      -2.7219423749474886e-03 -1.1143028717928425e-04
      6.0043959419352798e-03 -7.4627612828410995e-03
      -4.0357792813728336e-03 3.6799094538973592e-03
      -5.6679130812604612e-03 -6.5030043477942246e-03
      -1.1800145295854734e-03 -6.1780405865929332e-03
      -7.8477720476062447e-03 7.8408872648091966e-03
      6.0248610951488127e-03 2.3236768998783522e-03
      -4.9420034290245437e-03 5.4846959790277516e-03
      -5.4738902541528510e-03 8.2866331488675056e-04
      1.3338717211147939e-03 7.8301322218564916e-03
      6.0803974210349087e-03 3.2643838838463273e-03
      5.4689981930132227e-03 4.8266785746414629e-03
      1.8086407944823749e-02 -3.5682722915325253e-02
      5.2393004714104116e-02 2.3296263277678413e-02
      4.5370476009571732e-02 -1.5885833907312342e-02
      -5.2029290715375674e-02 -3.7928245496349697e-02
      9.1018576661580277e-03 1.0420716808947617e-02
      2.5551160383131197e-02 6.1369942995897327e-02
      -3.0163706961946059e-02 1.9122244184865539e-03
      2.7760739735696753e-02 2.2512962900113364e-03
      2.9009352880803668e-02 -1.5796386295680691e-02
      -5.0049416617654434e-02 2.6113350757609396e-02
      -3.0058284510763447e-02 -1.4308705077059282e-02
      7.6867474732934269e-03 5.7313156749161882e-02
      1.8167759757428945e-02 -1.7623640587110162e-02
      7.9065459802542138e-03 7.8498042643208990e-02
      3.0147289332957662e-02 5.5991893033321034e-02
      5.9644812350535828e-02 -1.8954231579190725e-02
      -2.8095976219030028e-02 -7.5583674142108953e-04
      -4.5240661014855944e-02 -2.7737011427256670e-02
      -3.2571449717797685e-02 3.5203098815400902e-02
      3.0779903628257169e-02 6.6765867732697923e-02
      -3.9213778487529806e-02 5.1058556182190497e-02
      -1.2551259951540241e-02 7.6475859933148203e-03
      -8.5966828296727225e-03 2.0074687373045800e-02
      -2.2236747888059741e-02 1.8756046026755083e-02
      -2.8267685602469263e-02 -6.8781355680495232e-02
      3.8228327049589873e-02 5.4029861892640051e-02
      -7.4967127795154451e-02 9.1435909831939274e-03
      -1.6879715922959532e-02 -3.7274436509855478e-02
      -3.0236171090587339e-02 1.3157432767173871e-02
      -5.3027441303464869e-03 -8.8384816649666516e-03
      -1.4092864476574621e-01 -3.5016785798764180e-03
      -1.7838938720753109e-02 -4.0182081912511276e-02
      -1.2319717206091848e-02 -1.2547886386355927e-03
      -9.0762835042769718e-02 -5.0894052100979095e-02
      7.1313466539618703e-02 1.5326634408815560e-02
      -5.6669603910185655e-02 -2.7409728454038374e-02
      3.5524332125565675e-02 -5.3531393786033311e-02
      4.1711445594506090e-02 1.5995115992214329e-02
      -3.7056763350695951e-02 9.7894425743937988e-02
      8.2091033366488139e-02 6.1172831468214256e-02
      -7.5493701630158158e-03 -2.5205384607993535e-02
      4.3582462714180144e-03 -2.7961748032308675e-02
      1.0411593470428807e-01 7.5873815722106386e-02
      -1.6878042584956128e-02 4.0363319975880566e-02
      -6.6352427466208078e-02 1.1577203434618284e-02
      2.4271734527889602e-01 2.6684802955922626e-02
      1.4717661060588198e-02 1.6468863105491664e-02
      1.1911327603207748e-01 -2.2770617903380745e-02
      8.4863948774446987e-02 1.5560325275007843e-02
      -9.4734474075571312e-02 4.2820834444074793e-02
      1.6122496768812285e-02 1.0733844423750792e-01
      6.5467337629507336e-02 1.2012122185035042e-01
      6.3236465743923581e-02 1.6623813997263218e-02
      -4.8740122618935330e-02 -1.2643554171355725e-01
      -9.6454751735290389e-02 -1.5655777315916213e-02
      -1.2574699632438996e-01 -2.4811674139473466e-02
      1.4931401266108605e-03 1.1069934677946507e-01
      -1.5360536043466883e-01 -4.9570641324438787e-02
      -1.0944935268839967e-01 1.6852438225186572e-02
      1.2540958515696873e-01 2.7414377577346397e-02
      -7.1440489219019701e-02 4.0322981814120189e-02
      1.1568635159866184e-01 -4.2774855724941614e-02
      -1.6455879830525913e-01 -1.0040587849913532e-02
      3.2333555732448052e-03 -7.2127096436361690e-03
      6.9730172692811176e-02 -5.3565992404304812e-02
      4.6282870694029414e-02 2.1067644422860458e-02
      -5.1470417195843471e-02 -3.4194134984678423e-02
      -2.9242113025679212e-02 -1.1180844762146615e-02
      7.5535327573626035e-02 8.0313827290482476e-02
      -6.3472054790384341e-02 -1.1763107144168311e-02
      9.3693750570387035e-02 2.9683153181996814e-02
      1.3259234995986439e-02 -7.9460659610643344e-02
      1.3584390522720921e-01 -1.2685505076220038e-01
      4.7828537871687934e-02 5.7455422350546806e-02
      4.4356968200978952e-02 8.2030428665107277e-02
      1.9250808924339896e-01 -1.1105914058821992e-02
      -1.7643990676271107e-02 -8.1816263754296348e-02
      1.8642042060208954e-03 -7.3269645900362002e-02
      1.4879889860037046e-01 -1.4355950936064642e-02
      -7.4045111059008753e-02 3.5403226359047343e-02
      -1.8071450566171182e-02 3.0893775770788764e-02
      4.6039184504023598e-02 1.4119896814042351e-01
      -3.7599363740593705e-03 -2.7443553357008738e-02
      -5.6707555526246213e-02 -4.6347686207498476e-02
      -1.4109762818188300e-03 -9.6847085932784557e-02
      -4.9499607945218037e-02 5.0541391305213644e-02
      7.6600289960577897e-02 -7.2374840659844286e-02
      -2.1697634608826011e-02 -3.0866579439460345e-02
      -8.4701697629238584e-02 -1.7523141552599954e-02
      1.2118485797724592e-01 -3.4394266840791035e-03
      4.4878521414553084e-02 -3.3164613764719617e-02
      -1.4352478114618525e-01 -4.8661842449827110e-02
      5.8254426137661047e-02 2.3484327286661472e-02
      -1.5825528924922463e-02 6.0819413434717792e-02
      4.4700179700057900e-02 2.3300238971346577e-02
      -5.5914291824098704e-02 -7.5745358096035678e-02
      1.4418881340220277e-01 -3.9248661682354413e-02
      -7.4010297384339646e-02 3.7321946106004443e-02
      -8.9048763900180558e-02 4.2970223313611562e-02
      1.5050626293639668e-01 5.0694734246426197e-02
      4.9246390368133691e-02 -1.6599700878062947e-02
      -6.7413977835106206e-02 -1.1384777458942100e-01
      -2.8581788761223983e-02 1.5004210723337996e-01
      3.8322287810752857e-02 -1.8385634243157420e-01
      -1.7000370796642819e-01 -1.7433100314774255e-01
      4.8618532475073802e-03 -2.0855567536662128e-01
      9.6830434847261213e-02 2.0485298935038518e-01
      7.5581366466700259e-02 -1.5250271441218519e-02
      -2.1970108506150686e-02 -4.8794896371904234e-02
      -6.8116768251091850e-02 -1.1345038397061043e-01
      9.1819422864295341e-02 -1.1516630291408030e-02
      -1.1871169621512165e-01 5.6166853508422245e-02
      -1.6033535898383553e-02 8.2530116704067052e-03
      2.0504996293925890e-01 -2.6582573592357067e-01
      -6.3202951050142245e-02 1.1160355846869120e-01
      -6.4801949852388310e-02 6.2489446638688335e-02
      8.7679580913378186e-02 2.1382721875852326e-01
      -2.5888627110412461e-02 -6.3112072051015738e-02
      1.0349655430435370e-01 1.4750235541134074e-01
      -4.1531604366029880e-02 9.5579786514395457e-02
      -1.4311967434996065e-01 -1.0935719592369522e-03
      7.8809020876268177e-02 6.2454600323587191e-02
      -9.0916225518495736e-03 2.2274547648956658e-02
      -4.9305540072974705e-02 1.4078100199595848e-02
      4.6517744368605167e-02 -1.4768292559252719e-02
      8.9760872437500749e-02 4.5323496628225934e-03
      -4.1646338035755480e-02 -1.0984822139869070e-01
      -5.0845948088186405e-02 -4.2699756255163590e-02
      1.5129047746140883e-01 -9.6403722218271759e-03
      -8.0580406576748739e-02 1.1467597947682401e-01
      6.3254395741994429e-02 -6.1704055556957932e-02
      1.2798237283455433e-02 1.0604455246270096e-01
      6.5993566789427763e-02 -4.7109773925730375e-02
      3.7739867265921045e-02 5.8965434582034355e-02
      -2.9222723794987836e-03 4.2481025163541512e-02
      2.1016385344590346e-01 4.4082344613590126e-02
      -2.0577572889660462e-02 2.9992897771712716e-02
      1.2420051530519396e-01 7.0400694442532677e-02
      1.2381324029546616e-01 8.7041987021248088e-02
      -1.1513143297952597e-01 8.1549062784790800e-03
      1.0619487146200772e-02 -3.6894518326732975e-02
      1.6420568943227912e-01 7.6621229483144454e-02
      7.2606724241831861e-03 5.1984200663811389e-02
      -6.0453927982062783e-02 -1.1233008078618602e-01
      -2.6611210389786089e-02 5.3267328973958944e-02
      -7.6607737794160663e-02 -9.0546301112580288e-02
      -3.1139052532751083e-02 7.7140149441103673e-02
      -1.6612593822291305e-01 2.5968668354539072e-02
      -5.4246703732499200e-02 -9.7568139508886070e-02
      -2.5168542467677409e-02 -5.1873615376672941e-02
      -1.3671340862700962e-01 -5.2681770276065853e-02
      -1.6886648893919557e-02 8.1628464437883783e-02
      6.3554883059914011e-02 -1.2149473845265539e-01
      -6.7120600373002381e-02 -1.1876095941582200e-01
      4.2380704093830816e-02 3.3490331291932456e-02
      8.5198119482325085e-02 1.4318927478607577e-01
      -4.8979800644416344e-02 -1.1126242996812905e-01
      2.2080990744120983e-03 -1.1009766956552737e-01
      1.2356534528681842e-01 -4.2936655531265737e-02
      -6.8727258549772199e-02 -2.0226222712832163e-02
      -6.7272569242522175e-04 -2.3325190299641741e-02
      1.9606751799774530e-02 7.5604766429060874e-02
      5.1506286082255347e-02 6.0957176449020635e-02
      -7.7505257718284606e-02 1.7460338998641831e-02
      1.5742102664294511e-01 -3.3349161362954363e-02
      1.0175730776048678e-04 5.8583639635337165e-03
      5.3105836480214627e-03 -6.3888277407302720e-03
      4.5851058735131645e-03 3.2144486036795252e-03
      1.2879509417393904e-03 -7.3999584783221864e-03
      4.9011197330295310e-03 -2.2780337549362277e-03
      -5.4887107659557502e-03 -5.9156766533829486e-04
      1.1223762105077657e-03 -3.7741971037349921e-04
      -4.7419369450174831e-03 -6.8430842846553186e-03
      5.8782463253906625e-03 -6.3247438095613987e-03
      -3.8212760363172194e-03 -2.0643927567895245e-04
      -2.8897168475739213e-03 1.5498573032641618e-03
      6.5333398369768992e-03 2.8140268445608807e-03
      -5.4902999490796687e-03 6.4127390391077307e-03
      6.1995683718515087e-03 -2.2107887327092405e-03
      -2.6473581582088767e-04 7.4153190627479319e-04
      3.8180292544520156e-03 5.6623635435425852e-03
      -3.4983446620335413e-03 -4.6585199422744241e-03
      8.0495204248536550e-03 -1.7068587693115176e-03
      -7.5840365071760613e-03 8.1284038714100524e-04
      -5.6315208909827707e-04 4.7360305759040020e-03
      -5.4854598908945134e-03 -6.1795816539149447e-03
      -4.8874650569745749e-03 6.8600918023172634e-03
      3.5002365362176834e-04 -6.2785495691800421e-03
      -6.4745075554442852e-03 3.6730302807799942e-03
      -5.0771793740012521e-03 -4.3371544104252278e-03
      -3.7934731471062806e-03 5.6583106704711349e-03
      -5.2609416078716218e-03 1.9682603940858641e-03
      6.3903734088507722e-03 1.7714794702776812e-03
      -4.3402912984875355e-03 6.1659833534023507e-03
      2.0145896682833208e-04 -8.9399319756702550e-04
      -5.8078148756850762e-03 3.0110468123529578e-03
      -7.0963438556561906e-03 -2.1672148045221592e-03
      -4.8732864207276985e-03 5.6103069533629171e-03
      5.6480373320490912e-03 8.8038839829437661e-04
      5.8233862112155293e-03 -6.5414339160230553e-03
      -3.9705987385703235e-03 -4.9073622444302722e-03
      -8.2500885965689896e-04 6.3351654917472395e-03
      -1.5905074085831217e-03 -2.8107193740657534e-03
      -2.9522354609541725e-03 -8.9829464084290771e-04
      -5.6999503612183136e-03 -1.0692575515545916e-03
      7.7719888982077457e-03 -5.5807433798381774e-03
      7.3686826258604170e-03 -2.5750851275385023e-03
      3.0166730847235241e-04 -2.4507912775092447e-03
      2.2681251157799210e-03 3.0024945757678966e-03
      -4.2985278755438882e-03 -2.9754484791280024e-03
      -5.8983691478462089e-03 -4.0250332209628269e-03
      5.2269606025530102e-03 7.3014375771528455e-03
      4.1553179183099927e-03 7.0019386681875028e-03
      -3.7936640804557038e-04 5.5247555607851944e-05
      -7.7854630787873337e-03 -2.9454043218497014e-04
      -4.4281894689220617e-03 1.4175953247936763e-03
      3.8968531603657940e-03 3.3794342736827017e-03
      1.4607819433765639e-03 -4.2600799050915186e-04
      4.5741872370317392e-03 -8.4215339069311924e-04
      3.2371262289328448e-03 3.5076412811798131e-03
      7.2189289726127311e-03 6.8521461636742251e-03
      -4.5479858790355631e-03 -7.5236036141841768e-03
      -3.1568658393903116e-03 -7.5871392653499331e-04
      5.9048682960890445e-03 3.5891343553530030e-03
      5.8251152901115152e-03 -1.8547374838135354e-03
      -3.0020341161659182e-03 3.6236863768438700e-03
      5.6570097571126948e-03 6.5473922731569536e-03
      -6.8567266689606348e-03 6.0066258709277074e-03
      -7.0405943851709904e-03 7.2282398653373140e-03
      5.9113832767825735e-03 -4.5082233780797181e-03
      5.1763945313958630e-03 -6.3239741938999686e-03
      7.1747498265517066e-03 -4.6049867842169650e-03
      -3.8225866618239656e-03 6.3094675805289678e-03
      -2.6149943828096939e-03 -5.2580947824423995e-03
      -7.2456289751994807e-03 7.4382149384511096e-03
      5.0199385708384215e-03 -4.8956573387138169e-03
      -4.9902246318951253e-03 -1.4130536986016705e-03
      -2.7841187617060848e-03 -1.9360471115228263e-03
      -4.4442905631451537e-04 2.5151264520542629e-03
      -5.6461641135061510e-03 -4.9095715994231020e-03
      3.0031810292637341e-02 -2.9797657936365116e-03
      -7.5566946289651552e-03 2.1233462766295421e-02
      -1.3296092144675357e-02 1.5443399294203596e-02
      1.7212251667931416e-02 1.3435065785846472e-02
      -1.4819812715229197e-02 3.1861475622606307e-02
      -1.4685627838337994e-03 -2.0312755425985009e-02
      -3.6539228477827507e-02 -1.3400684312282593e-02
      -2.1361516383680872e-02 -9.9416738362583020e-03
      2.0150192880331489e-02 3.3812075145283524e-03
      -2.9524368907166126e-02 1.1838164746728820e-03
      2.7072201943674906e-02 -7.6094163999694531e-04
      -8.8324820356396831e-03 4.3523744914909360e-02
      -2.0504261959484228e-02 2.0045106153650843e-04
      1.5660710525179700e-02 1.9831096159912170e-02
      -1.2199092729790003e-02 1.1687583602449226e-03
      -2.4369547516225051e-02 8.0102803215069018e-02
      -2.2500191638691332e-02 -1.2510164295541920e-02
      -1.2303218598170250e-01 6.8215603140768633e-02
      6.5580528215556530e-02 4.2215863392394505e-02
      -3.7255242471862418e-02 -4.4690508842222076e-04
      -5.5650666651575274e-02 -9.2940926752934291e-02
      3.0117865214007354e-02 -2.4032259994918410e-03
      1.4980623306376973e-02 1.2738956315371185e-02
      -5.5139993949302302e-02 6.1060677252240056e-02
      3.4731426772477647e-02 -8.6012661797112075e-02
      3.6386514730866008e-02 4.1881518028988822e-04
      -3.0536571083632957e-02 -5.5589287310085250e-02
      -1.7632679858966775e-02 -2.1783317077720766e-03
      -6.0223877377979053e-02 -5.0692431138952512e-02
      -6.2281580190297704e-02 8.0203870963872065e-04
      -1.8551391595571641e-02 2.7552781406405789e-02
      4.6139209424858933e-02 5.4492704664440596e-02
      2.2300108967094161e-03 -2.5306758052564143e-02
      1.4696649933754167e-03 1.4100106363781123e-02
      1.5086797071021948e-02 -7.4002326484197217e-02
      7.6399077295973949e-02 6.3028065511555320e-02
      1.5878839924678163e-02 -4.6382631022637573e-02
      5.6105198215328708e-03 -2.7643526309895271e-02
      1.1300493794273796e-01 -9.1260520862967695e-02
      -1.1535370145826163e-01 -6.4846330924557244e-02
      3.7708830118430077e-02 -1.2332908793538147e-02
      -5.1860274549886502e-02 8.5346072872045542e-02
      -8.0284547653899242e-03 -4.0286647921034639e-02
      -6.6533849163157813e-02 -2.0098913829455303e-02
      5.9429744375647034e-02 2.0927543765090137e-03
      -2.6600241090997828e-01 -8.0253991271320754e-02
      -8.6415854705425899e-02 7.5567215153394124e-02
      -1.0683427891673224e-01 2.4715128661911938e-02
      -2.8892535910125751e-04 -2.0587034918654434e-02
      -3.1895294005087012e-02 4.0352481844969687e-02
      -6.0102910870710735e-02 -1.4333297527605948e-01
      -1.4463005238277096e-01 -1.1518779088616013e-01
      -5.8347196115172972e-02 -7.8955966046266257e-02
      1.0625052300737993e-01 -2.0472467342535758e-02
      8.2539641741810540e-02 3.9548718194747368e-02
      7.7820391423281621e-02 3.9158606245026012e-02
      6.9695341318803491e-02 3.6938854434466151e-02
      8.3668087892284970e-02 6.9915651830953669e-03
      -3.0002322439389377e-02 1.0382596920463635e-02
      -9.1377434107705977e-02 -8.7257249495252473e-03
      1.0760210340880169e-01 -6.0538141820207163e-02
      1.1573365183633499e-01 -6.4136481367261355e-02
      3.6289053678413184e-04 -6.3996921280105340e-02
      5.8542998901975771e-02 -1.1338016827585938e-01
      -2.9219922561314312e-03 -1.5199401280995450e-01
      5.8418489127448271e-02 1.6159093976463527e-02
      4.3544551298937591e-02 1.1342765908612290e-01
      4.4965249050737136e-02 2.2604775311219912e-02
      2.3991169502669076e-02 -8.4093976185059691e-02
      3.5927438238055692e-02 -2.9026186757498920e-02
      -8.5312983014760438e-02 3.6420994158101426e-02
      9.2312389432356715e-02 -5.6012447548567150e-02
      9.6141834752648717e-02 -2.1121845106237387e-02
      -1.3670829319701745e-02 5.0182509829224918e-02
      7.3222655904014874e-02 5.7081753782203717e-02
      -2.9718054575588387e-01 -2.8973923679540776e-02
      1.1054529553924356e-02 1.4745483786666136e-01
      5.7719479774199313e-02 1.0213327461807481e-02
      -6.5577674584818030e-02 -9.7789146054856668e-02
      3.1710117513826595e-02 -1.1747619985375095e-01
      1.1054713056616043e-01 -7.3181079889027237e-02
      3.5440222066257923e-02 -1.7254683140094898e-01
      7.1745656249223410e-04 -4.7478100730781583e-02
      1.4830541681026058e-01 -4.1997285497664206e-03
      3.3555086514554702e-02 8.0254320090670170e-02
      2.9946953759958674e-02 -8.6576723555700535e-02
      2.8842831634374295e-02 5.8238421857298897e-02
      7.5775234572563605e-02 1.1296236113439520e-01
      9.5940293085056295e-03 -3.7836789205673349e-02
      -6.2131987780153969e-02 -4.6651306130906171e-02
      1.1038041995429242e-01 -2.0909491796721144e-03
      5.9182888913473098e-04 -9.7593842745059375e-02
      -2.1325947067069063e-02 -8.6924195849231570e-02
      5.5332334741630802e-02 -1.6270915727169467e-02
      -2.7552715421051135e-03 2.1658207543791962e-02
      -1.8803279583720380e-02 6.0578613820199759e-02
      5.6080525522899743e-02 8.0105486437199877e-02
      -3.7968334953199607e-03 -1.8360450526105875e-02
      -3.1684752837473726e-02 5.4939011852858507e-03
      2.6170798258746456e-03 -4.0694197626016483e-02
      1.3737854444285619e-02 5.5618383278168385e-02
      1.4733603473098182e-02 -7.6710684656697767e-02
      2.3176766764806768e-02 -2.6055708718692686e-02
      -4.7054962684826930e-02 -1.0835348701687895e-02
      7.4830899195156300e-02 -2.5610685183873765e-03
      -2.9751170641268872e-02 -3.7084515064081114e-02
      -9.7616496701323410e-03 1.3370176295792331e-02
      6.5864886730781530e-02 5.9540380120737507e-02
      -1.1807956651233615e-02 1.7311013670969835e-02
      -5.2579619128239788e-02 9.4717800391561302e-02
      -8.8069705239607360e-02 -3.8499605175910577e-02
      -5.2289307614093818e-02 8.3529080213563325e-02
      2.1229669796501618e-02 3.8211150599197961e-02
      -7.8440274367146665e-02 1.2164085955984941e-01
      3.9126485280127660e-02 1.3266556366690993e-01
      -6.7224451459322099e-02 -2.6563150886313521e-03
      8.0111906275603315e-02 5.1594744818192581e-02
      -3.8803540061109039e-02 -3.1664521040827641e-02
      4.9600985486974031e-02 1.1789562859033567e-01
      -6.9750104404270930e-02 8.0771488357071999e-02
      -1.6549570288393853e-01 3.0554409650904588e-02
      -1.1674021960373617e-02 -5.2080327616849102e-02
      1.2575450122066871e-02 -2.8456868624429824e-02
      -8.4897053512637488e-02 -8.7854206256089543e-02
      8.0699058299699838e-02 1.6260429613449659e-02
      1.4173303951470505e-02 4.3427592810736680e-02
      1.0907255535665125e-01 -8.7996194501468256e-02
      4.5259091107456427e-02 -2.3451254156961671e-02
      -2.2880097946966008e-02 1.0995428661171612e-01
      8.2844839733907535e-02 3.9679335714830059e-02
      -1.0747368932206959e-02 -7.4391856719867269e-02
      2.6778460854000041e-02 -8.0349866536793962e-02
      1.3255581027200025e-01 1.1739181569538487e-01
      -6.3740041018770344e-02 5.2566615749280819e-03
      3.5350152832297539e-02 -2.0521855169489549e-02
      -1.0161803323005564e-01 5.5676893020537729e-02
      -7.9678681271196702e-03 -1.6289456732289771e-02
      -1.6258696216184837e-03 -1.0444624343293714e-02
      -6.7462714720662856e-02 -5.2664561461716837e-02
      3.1037477344468878e-02 8.1453812879581797e-02
      -1.2517423552918967e-02 6.6534656353388358e-02
      1.1390637225604433e-02 -4.2560771151043876e-02
      5.6699120071569090e-02 -1.6061271832933190e-02
      -4.0555804957307102e-02 1.1189376824574945e-01
      -6.4334735705224404e-03 2.1086475808245200e-02
      -3.0064108506687285e-02 -6.2119678217553639e-02
      4.5317307762848058e-03 -8.9395480059923007e-03
      3.7519772678327394e-02 2.0529390755545166e-02
      -5.1817582205586410e-02 5.9693875934380712e-02
      5.1873866068688608e-02 2.9002507121372159e-02
      -2.9446417368297305e-02 -2.3018342426556919e-02
      -2.6050665706902804e-02 5.2306165313550868e-02
      6.1173619519726719e-02 1.5711714068190847e-02
      -5.8072445772098240e-02 8.4801710808124521e-03
      2.9079546395535580e-03 5.4331713977523857e-02
      1.9769446916767849e-02 3.5858595408426876e-02
      -3.4656055302288290e-02 -2.3237092126486204e-02
      6.9505521496639978e-03 1.0527250748664896e-02
      -4.2740146324012789e-02 5.7033886346629821e-02
      -9.1640326846786548e-03 3.3270171436390994e-02
      -2.5433226375328872e-02 -3.9785058561106895e-02
      -3.1402145582659281e-02 -6.4678121935727159e-03
      -7.1792165666810223e-02 4.1595442531002134e-02
      1.0273379928959704e-01 -1.8590068418702550e-02
      -1.5931584535580717e-02 -3.4356403224671109e-02
      5.0121766760888890e-03 6.1143458822927729e-03
      -6.5604976077081982e-03 -4.6417551771256909e-03
      7.3958596132591911e-03 2.5003600569044439e-03
      2.6571665158870643e-03 -4.8480008735937354e-03
      4.7765599100066079e-03 4.4846105415855759e-03
      1.4232347399467857e-03 -1.3999473475372753e-03
      6.2031923205777082e-03 4.6265605390936708e-03
      -3.7904442313528657e-03 -4.4751051243041521e-03
      6.1918610435534923e-03 -5.9440999002116982e-03
      7.4619534461315296e-03 2.9969116143355483e-03
      3.2920970474173378e-03 4.4049516519573430e-03
      4.2999731555901652e-03 6.1705046158185483e-03
      4.3445765439921978e-03 -1.5997299808237918e-03
      -2.6398688405892268e-03 3.4312559107574736e-03
      2.5536932618955878e-03 -4.6194055131032830e-03
      -1.0982383717149033e-03 -7.1728058227477519e-03
      5.1653689679709144e-03 -7.3541430962093901e-04
      -1.6745904692611363e-03 -2.2742150655723811e-04
      -5.0984256590885426e-03 7.1473616685050947e-03
      -7.4944912790374093e-03 -3.8964367659415867e-03
      -6.0521984588302958e-03 -4.5120052282634051e-03
      -6.1861340959411121e-03 7.2374229019152529e-03
      7.5263519159564224e-03 -3.4148749702710454e-03
      -9.9785423256076302e-04 7.8392010422322848e-04
      -4.7488962794911800e-03 1.8036772592744752e-03
      2.7015614381893684e-03 3.1769825503273224e-03
      -3.3291529609504053e-03 -4.4334502222778171e-03
      5.0282423055058086e-03 5.3710048426355772e-03
      3.9036936029023949e-03 -7.8832394381626869e-03
      -1.0976831237938258e-03 6.6665441946807992e-03
      -6.0918459915574388e-03 5.4691972697413441e-03
      -2.6687020076166688e-03 -3.9060380978892494e-03
      1.2976684271583082e-03 -9.3263124592085384e-04
      5.2415096268087066e-03 -9.8558894937404132e-04
      3.0163211045378191e-03 2.6276334785898538e-03
      4.5882312979025498e-03 3.5954005095833711e-03
      -3.7086661387867848e-03 -5.3536140630267952e-03
      6.5644239862191057e-04 -1.3059010986041213e-03
      1.9440373557191382e-04 1.3243200897163400e-03
      -5.8756362578760574e-03 -7.6437814210678651e-03
      3.3107537847138569e-03 1.6121845315951470e-03
      6.3400520186988069e-03 -5.4055219846864755e-03
      6.9938275027400703e-03 -6.0471582357434514e-04
      -6.2960284131160938e-03 7.9212051291120376e-03
      -5.1972221905459285e-03 3.0823612261251464e-03
      -8.2376671355891755e-04 -2.0730970547531992e-03
      3.7728792606329187e-03 1.7356110034590245e-03
      4.8884747228717376e-03 -6.8513303160012287e-03
      -5.7266497914313054e-03 2.8077434844500718e-03
      -3.9367488993032667e-03 3.0702184987954810e-03
      -3.8916925784709734e-03 -4.0767031239196524e-03
      7.7426520912413184e-03 -5.9246332463825336e-03
      -4.2537887516214358e-03 4.9294664653151479e-03
      -7.5710698050387906e-03 7.1346226483359910e-03
      -3.0708514427443584e-03 -2.9568597744380905e-03
      -6.2549915044105512e-03 2.6274345383075926e-03
      5.9605860077082337e-03 -6.2443488020361990e-03
      4.1009793232437593e-03 -3.0567927125964580e-03
      -5.1918014718657880e-03 -1.2404603698457097e-03
      -3.2434088865724020e-03 2.9380249663783138e-03
      -3.8167423794197137e-03 6.7077232247046027e-03
      -7.1805342584866563e-03 -5.1165240723699537e-03
      -5.5289152873258945e-03 2.2962408426946625e-03
      6.2182367360460282e-03 -8.0548597219950984e-03
      5.0854442925501401e-04 3.6046326915727656e-03
      -2.9167559795920976e-03 -3.9957237581655517e-03
      -2.9037709133417780e-03 -7.0377355500115179e-03
      3.4373419251698214e-03 -5.0662722308237335e-03
      4.5996303663814438e-03 -4.7315313834316933e-03
      5.3272093898357681e-03 1.9820613453993764e-03
      3.1049686583735346e-03 1.2001644770546585e-03
      -5.5001338288942639e-03 7.5603054496338256e-04
      -4.2862983600947492e-03 -7.1411405626836313e-03
      -4.5352536321594788e-03 -6.2319019767942841e-03
      1.8707213163256724e-03 -3.8172986492803068e-03
      2.9351535668126750e-02 9.5704331742385833e-03
      -2.4444529560562370e-02 1.2863552504507908e-02
      -1.9874352994131674e-02 2.1594424580043375e-02
      5.9923295745782257e-02 3.5952829981064818e-02
      -2.2647140620435255e-02 1.4963273245311831e-02
      4.8720539660810627e-03 -6.5995394244622280e-02
      -1.2849547763296510e-02 -1.1617944802919347e-02
      -3.7430633279292289e-02 -1.7030367493378232e-02
      7.0332929384967673e-03 1.8678082285373175e-02
      1.3415585803876633e-02 -4.4798231626422928e-03
      2.5777241648416441e-02 -1.4993293656171780e-02
      -6.7838375001818925e-03 1.6050792449483937e-02
      -3.5593748121117083e-02 2.4705946526178385e-02
      1.3252632459049946e-02 -2.8066374435242316e-02
      -3.3275091183211293e-02 -4.8505996809668502e-02
      6.0822822978201650e-02 -7.4026235500020951e-02
      -6.8535304969078364e-02 -3.0511830086729752e-02
      -6.4753580112021994e-02 -9.5180629113821122e-02
      3.8231823796546494e-02 2.6353233949835259e-02
      7.2397362221240840e-03 1.1617148959965937e-01
      -4.0366271655742275e-02 5.4442953405946098e-02
      -1.4073632743557862e-01 -9.7889114361928570e-03
      -1.2233142524185933e-01 -9.8206264462346093e-02
      6.3620512213828972e-02 -1.2100726941382202e-02
      -2.9139239254330457e-02 -3.7804355088168748e-02
      9.4366509700331405e-02 9.2142448594787152e-02
      3.0136374493329766e-02 1.8668202889962342e-03
      2.3645976911552184e-02 -4.7335531059017749e-02
      -6.1274674746093188e-02 3.1260310368460926e-03
      7.7295393450355507e-02 -4.0928210616445769e-02
      4.6990651984417375e-03 -4.9132344662891819e-02
      6.7419573755977139e-02 5.5390078045785281e-02
      6.2305186021238544e-02 -5.2268270900545477e-02
      -1.7761525582514551e-02 -3.9866362634456400e-02
      2.7136048554047420e-04 -2.8193858458967953e-02
      9.0785123119309585e-02 1.0278417209182628e-01
      -7.4526510127038226e-03 -1.5049246861284065e-02
      1.0232154672364272e-02 -2.8050823040908526e-02
      1.0645980342549520e-01 -8.3210622988016736e-02
      -1.0709978344266118e-01 1.2694960621315423e-02
      -1.9092363689870603e-02 -1.5037737775250776e-02
      2.5377577720510639e-02 1.0850207899945702e-01
      1.4744721685415324e-02 -3.5196759894424730e-02
      -2.5013655011091429e-02 5.1519734898062983e-02
      1.0148384331121062e-01 3.4219282904647680e-02
      3.0456821054997757e-01 -1.0327083304761164e-01
      -1.6761188799806329e-01 -9.9280217055622857e-02
      1.3382002033180321e-01 -1.2830109658885562e-02
      -7.2659453630551471e-02 9.8653273077110692e-02
      5.5335831629133241e-02 1.6978947928620644e-01
      -1.6335062515516763e-01 3.4940837009631298e-02
      1.1030735077835513e-01 9.2650529847787863e-02
      -3.8574430675673468e-02 1.1792255164158685e-01
      -2.0859047174222980e-01 9.5926281861041483e-03
      1.1258451322991306e-01 6.7752706689850561e-02
      -3.1534961512790852e-02 2.8664783747330721e-02
      -1.0972274456849768e-01 -5.8918383851410176e-02
      -1.1017309679123745e-01 9.9624507508978513e-02
      5.5614162454046608e-02 -9.1584369843142235e-02
      -1.2452982130625856e-01 -1.2265365180274067e-01
      -6.3284042060379131e-02 -1.1400393404788549e-01
      2.8079056773767437e-02 6.5637650862467478e-02
      -2.6519465119427673e-03 -5.3183572055933041e-02
      -4.1727909033993232e-02 -5.3232297518016655e-02
      5.8850340320871367e-03 -1.6285937417957208e-03
      5.6787150841477889e-02 5.5186895772185940e-02
      -1.2061671999843947e-01 -3.3547397068639977e-03
