<?xml version="1.0"?>
<opencv_storage>
<SimpleOcr type_id="opencv-ml-ann-mlp">
  <layer_sizes type_id="opencv-matrix">
    <rows>1</rows>
    <cols>5</cols>
    <dt>i</dt>
    <data>
      256 40 40 40 95</data></layer_sizes>
  <activation_function>SIGMOID_SYM</activation_function>
  <f_param1>6.6666666666666663e-01</f_param1>
  <f_param2>1.7159000000000000e+00</f_param2>
  <min_val>-9.4999999999999996e-01</min_val>
  <max_val>9.4999999999999996e-01</max_val>
  <min_val1>-9.7999999999999998e-01</min_val1>
  <max_val1>9.7999999999999998e-01</max_val1>
  <training_params>
    <train_method>BACKPROP</train_method>
    <dw_scale>1.0000000000000000e-02</dw_scale>
    <moment_scale>1.0000000000000000e-02</moment_scale>
    <term_criteria><epsilon>2.0000000298023224e-01</epsilon>
      <iterations>100000</iterations></term_criteria></training_params>
  <input_scale>
    1. 0. 1. 0. 1. 0. 1. 0. 1. 0. 1. 0. 1. 0. 1. 0. 1. 0. 1. 0. 1. 0. 1.
    0. 1. 0. 1. 0. 1. 0. 1. 0. 1. 0. 1. 0. 1. 0. 1. 0. 1. 0. 1. 0. 1. 0.
    2.1774448532130083e-01 -1.0314212462587934e-01
    3.8425497409641324e-02 -1.0314212462587934e-01 1. 0.
    3.8425497409641324e-02 -1.0314212462587934e-01 1. 0. 1. 0. 1. 0. 1.
    0. 1. 0. 1. 0. 1. 0. 1. 0. 1. 0. 1. 0. 1. 0. 1. 0.
    4.6654502068013567e-02 -1.9594890868565698e-01
    3.6778219854863729e-02 -1.3162731316477547e-01
    3.5320217308103155e-02 -1.3644757633761956e-01
    3.3654244103748267e-02 -1.6154037169799168e-01
    9.3628373055804293e-02 -1.3206528409976606e-01
    2.7995719541310105e-01 -1.0314212462587932e-01 1. 0. 1. 0. 1. 0. 1.
    0. 1. 0. 2.7995719541310105e-01 -1.0314212462587932e-01
    5.4355992096430647e-02 -1.2759353934214773e-01
    2.4514724207898599e-02 -2.3817989940937273e-01
    1.5547668058768302e-02 -2.9426007547016214e-01
    1.4589871367384774e-02 -3.3648850700989519e-01
    1.2634206448367687e-02 -3.8567577579227674e-01
    1.2969680792403885e-02 -4.3523518280193252e-01
    1.6207254061744298e-02 -3.4922367436200608e-01
    1.8590384356416349e-02 -2.9333669631861164e-01
    1.7412420053417303e-02 -2.6576851660479045e-01
    3.1340019551626443e-02 -1.6230831178316010e-01 1. 0. 1. 0. 1. 0. 1.
    0. 1. 0. 3.3668418666706480e-02 -1.4105295399314924e-01
    2.2250999340092833e-02 -2.1993356189839125e-01
    1.4587098568312673e-02 -3.6222068971210097e-01
    1.3278013385721391e-02 -4.6459069993829366e-01
    1.0981069206289064e-02 -4.6432584212277017e-01
    9.6076395708785938e-03 -6.0689942173518363e-01
    9.2696963568857892e-03 -6.7580965229253653e-01
    9.3886937923049075e-03 -6.7509649784457704e-01
    1.1192046814645765e-02 -5.2567276723104628e-01
    1.7430641038858059e-02 -3.2200815813890415e-01
    6.2194088959948934e-02 -1.4664711502135327e-01 1. 0. 1. 0. 1. 0. 1.
    0. 1. 0. 4.2976307418682698e-02 -1.6285758600763969e-01
    2.2948705021520754e-02 -2.2852078895114350e-01
    1.3523715239127520e-02 -3.4407178666285493e-01
    1.2315199121752182e-02 -4.3880998975927510e-01
    1.1197075583570944e-02 -5.3698817219736028e-01
    1.0180881971817898e-02 -5.4944612494221434e-01
    9.5178613216738220e-03 -5.7758390020473249e-01
    1.2902579133508955e-02 -4.8893984084876035e-01
    1.0504422960051640e-02 -5.1803391124044140e-01
    1.5623244900996161e-02 -3.3992891800377961e-01
    1.2725327064231867e-01 -1.0314212462587934e-01 1. 0. 1. 0. 1. 0. 1.
    0. 1. 0. 3.8425497409641324e-02 -1.0314212462587934e-01
    3.0569746087384206e-02 -2.1205750180617045e-01
    1.4445373052769210e-02 -3.1734203748557205e-01
    1.3434657245064126e-02 -3.9002931244091432e-01
    9.4790769855205657e-03 -6.3070784868921581e-01
    9.2879229789796843e-03 -6.4272427014539413e-01
    9.5717723315090885e-03 -6.1642213814918534e-01
    9.4986139683880116e-03 -6.6110353219980555e-01
    1.2033863707880460e-02 -4.9250170627620238e-01
    1.7095805668819061e-02 -2.8864918202932394e-01
    7.1003636517815480e-02 -1.0314212462587934e-01 1. 0. 1. 0. 1. 0. 1.
    0. 1. 0. 3.6815306831209350e-02 -1.2943486822762024e-01
    1.9442931144994419e-02 -2.2819861291230292e-01
    1.4731752601568686e-02 -3.1401893703343775e-01
    1.1353271043630176e-02 -4.5699903653517671e-01
    9.5251358992377178e-03 -6.1833171674314746e-01
    8.5199286899744070e-03 -7.3468690345547727e-01
    8.3766239996037172e-03 -7.8405200636290784e-01
    9.3515141312218823e-03 -7.0352917364045042e-01
    1.1559656500114536e-02 -4.7589280602050477e-01
    1.6715688402702173e-02 -2.7431324441908095e-01
    3.2374416904897577e-02 -1.9492806810106753e-01 1. 0. 1. 0. 1. 0. 1.
    0. 1. 0. 1.3064669119278050e-01 -1.0314212462587934e-01
    1.8492720949769427e-02 -2.6337527836882141e-01
    1.3825246793404066e-02 -3.3617179045014095e-01
    1.2187084841899176e-02 -4.0948605068781235e-01
    9.4462477324619518e-03 -6.2186140335596896e-01
    8.3483658964640748e-03 -8.0109161591754219e-01
    8.5050168142961676e-03 -7.3734019455308664e-01
    8.9079515290535812e-03 -6.5843826986330789e-01
    1.0543534578334708e-02 -6.0064851724155199e-01
    1.2131084725278889e-02 -3.9177018881216458e-01
    3.8422241398815123e-02 -1.0596449733146908e-01
    4.0997915646270026e-02 -1.0314212462587932e-01 1. 0. 1. 0. 1. 0. 1.
    0. 1. 0. 2.3007248009266189e-02 -2.5283754654393581e-01
    1.2286977046245668e-02 -4.1491181436164321e-01
    1.0074671674410830e-02 -5.4891053249211008e-01
    9.4347306212830568e-03 -6.5189022945370512e-01
    8.5729009589984688e-03 -7.4376683899016183e-01
    8.7068007556615513e-03 -7.4475224147900809e-01
    9.6208807112458591e-03 -6.3285140594289868e-01
    1.1494014028157657e-02 -4.9738833336585403e-01
    1.6183517643295942e-02 -3.3763928388434267e-01
    3.2658546065801826e-02 -1.8048143878469430e-01
    2.0413545498871952e-01 -1.0314212462587934e-01 1. 0. 1. 0. 1. 0.
    6.5323345596390248e-01 -1.0314212462587934e-01
    3.6775464065034236e-02 -1.2968189959775231e-01
    2.8063365175194418e-02 -2.1534940223912349e-01
    1.2575237143757270e-02 -4.0399603960786518e-01
    1.1271077470187140e-02 -4.7694454137002429e-01
    9.6149067108132272e-03 -6.1444314359312735e-01
    9.1089946391902966e-03 -6.9976255659800835e-01
    9.2928856859251837e-03 -7.0224869830796732e-01
    1.0189403075614714e-02 -6.6853209863480534e-01
    1.1976672810303204e-02 -5.2508255005171423e-01
    1.5300985828753484e-02 -3.4709078379961855e-01
    2.1565245456222761e-02 -2.2427855274471672e-01
    2.7279147973889330e-02 -1.5362467543190308e-01 1. 0. 1. 0. 1. 0.
    3.8425497409641324e-02 -1.0314212462587934e-01 1. 0.
    3.2912992824026932e-02 -1.6595077434430422e-01
    1.4647876532916531e-02 -3.2225328372416367e-01
    1.0942066574469530e-02 -4.8467595942492403e-01
    1.0164907295278912e-02 -6.3857017619183731e-01
    9.4804446618725093e-03 -7.0334919975660470e-01
    8.9678203178573616e-03 -7.5225852750531907e-01
    9.4212798162174784e-03 -6.8110894502928043e-01
    1.0429616301063243e-02 -5.4585318156722573e-01
    1.6325156869259526e-02 -3.2220704347222751e-01
    2.5360221758333364e-02 -1.8739869130894760e-01
    3.7909881595390611e-02 -1.1971541556439140e-01 1. 0. 1. 0. 1. 0.
    4.6659532568850176e-01 -1.0314212462587934e-01
    1.2725327064231867e-01 -1.0314212462587934e-01
    5.1056500192625330e-02 -1.8057877962865379e-01
    2.1522293869527091e-02 -2.6053303105217002e-01
    1.6279655660131554e-02 -3.0588616161405080e-01
    1.2164988810054780e-02 -4.7353819599560604e-01
    1.1523240812537245e-02 -4.6044444341464613e-01
    1.0603549010684834e-02 -5.5082646702873317e-01
    1.1307139241716313e-02 -5.0096577966719957e-01
    1.3156410293815892e-02 -4.3887014969581645e-01
    2.3948187559515187e-02 -2.7754688950553918e-01
    4.1976365787500601e-02 -1.4051036126763361e-01
    2.7995719541310105e-01 -1.0314212462587932e-01 1. 0. 1. 0. 1. 0. 1.
    0. 1. 0. 8.4446813158646827e-02 -1.2978141811749933e-01
    3.2202235344173429e-02 -1.8168840152081006e-01
    2.2635225267797432e-02 -2.2015734892047187e-01
    2.1311674204074375e-02 -2.5461842338552015e-01
    1.9102266866067405e-02 -2.6521989469834639e-01
    2.1321100399447845e-02 -2.4822249517672965e-01
    1.8939710102498074e-02 -2.8070644025597147e-01
    2.3746005070692015e-02 -2.0146610617871333e-01
    3.6341828325334474e-02 -1.4536731330133790e-01
    2.7995719541310105e-01 -1.0314212462587932e-01 1. 0. 1. 0. 1. 0. 1.
    0. 1. 0. 1. 0. 4.6659532568850176e-01 -1.0314212462587934e-01
    8.8274791346473300e-02 -1.0314212462587934e-01 1. 0.
    3.8425497409641324e-02 -1.0314212462587934e-01
    3.0961886931647815e-02 -1.4633565507694599e-01
    2.4664906794747726e-02 -1.8018363490057812e-01
    2.7316619464761889e-02 -1.4664711502135330e-01 1. 0. 1. 0. 1. 0. 1.
    0. 1. 0. 1. 0. 1. 0. 1. 0. 1. 0. 1. 0. 1. 0. 1. 0.
    7.5373091072757981e-01 -1.0314212462587935e-01
    2.7316619464761889e-02 -1.4664711502135330e-01
    6.5323345596390248e-01 -1.0314212462587934e-01
    6.1240636496615863e-01 -1.0314212462587935e-01 1. 0. 1. 0. 1. 0. 1.
    0. 1. 0. 1. 0.</input_scale>
  <output_scale>
    5.2631578947368418e-01 4.9999999999999994e-01 5.2631578947368418e-01
    4.9999999999999994e-01 5.2631578947368418e-01 4.9999999999999994e-01
    5.2631578947368418e-01 4.9999999999999994e-01 5.2631578947368418e-01
    4.9999999999999994e-01 5.2631578947368418e-01 4.9999999999999994e-01
    5.2631578947368418e-01 4.9999999999999994e-01 5.2631578947368418e-01
    4.9999999999999994e-01 5.2631578947368418e-01 4.9999999999999994e-01
    5.2631578947368418e-01 4.9999999999999994e-01 5.2631578947368418e-01
    4.9999999999999994e-01 5.2631578947368418e-01 4.9999999999999994e-01
    5.2631578947368418e-01 4.9999999999999994e-01 5.2631578947368418e-01
    4.9999999999999994e-01 5.2631578947368418e-01 4.9999999999999994e-01
    5.2631578947368418e-01 4.9999999999999994e-01 5.2631578947368418e-01
    4.9999999999999994e-01 5.2631578947368418e-01 4.9999999999999994e-01
    5.2631578947368418e-01 4.9999999999999994e-01 5.2631578947368418e-01
    4.9999999999999994e-01 5.2631578947368418e-01 4.9999999999999994e-01
    5.2631578947368418e-01 4.9999999999999994e-01 5.2631578947368418e-01
    4.9999999999999994e-01 5.2631578947368418e-01 4.9999999999999994e-01
    5.2631578947368418e-01 4.9999999999999994e-01 5.2631578947368418e-01
    4.9999999999999994e-01 5.2631578947368418e-01 4.9999999999999994e-01
    5.2631578947368418e-01 4.9999999999999994e-01 5.2631578947368418e-01
    4.9999999999999994e-01 5.2631578947368418e-01 4.9999999999999994e-01
    5.2631578947368418e-01 4.9999999999999994e-01 5.2631578947368418e-01
    4.9999999999999994e-01 5.2631578947368418e-01 4.9999999999999994e-01
    5.2631578947368418e-01 4.9999999999999994e-01 5.2631578947368418e-01
    4.9999999999999994e-01 5.2631578947368418e-01 4.9999999999999994e-01
    5.2631578947368418e-01 4.9999999999999994e-01 5.2631578947368418e-01
    4.9999999999999994e-01 5.2631578947368418e-01 4.9999999999999994e-01
    5.2631578947368418e-01 4.9999999999999994e-01 5.2631578947368418e-01
    4.9999999999999994e-01 5.2631578947368418e-01 4.9999999999999994e-01
    5.2631578947368418e-01 4.9999999999999994e-01 5.2631578947368418e-01
    4.9999999999999994e-01 5.2631578947368418e-01 4.9999999999999994e-01
    5.2631578947368418e-01 4.9999999999999994e-01 5.2631578947368418e-01
    4.9999999999999994e-01 5.2631578947368418e-01 4.9999999999999994e-01
    5.2631578947368418e-01 4.9999999999999994e-01 5.2631578947368418e-01
    4.9999999999999994e-01 5.2631578947368418e-01 4.9999999999999994e-01
    5.2631578947368418e-01 4.9999999999999994e-01 5.2631578947368418e-01
    4.9999999999999994e-01 5.2631578947368418e-01 4.9999999999999994e-01
    5.2631578947368418e-01 4.9999999999999994e-01 5.2631578947368418e-01
    4.9999999999999994e-01 5.2631578947368418e-01 4.9999999999999994e-01
    5.2631578947368418e-01 4.9999999999999994e-01 5.2631578947368418e-01
    4.9999999999999994e-01 5.2631578947368418e-01 4.9999999999999994e-01
    5.2631578947368418e-01 4.9999999999999994e-01 5.2631578947368418e-01
    4.9999999999999994e-01 5.2631578947368418e-01 4.9999999999999994e-01
    5.2631578947368418e-01 4.9999999999999994e-01 5.2631578947368418e-01
    4.9999999999999994e-01 5.2631578947368418e-01 4.9999999999999994e-01
    5.2631578947368418e-01 4.9999999999999994e-01 5.2631578947368418e-01
    4.9999999999999994e-01 5.2631578947368418e-01 4.9999999999999994e-01
    5.2631578947368418e-01 4.9999999999999994e-01 5.2631578947368418e-01
    4.9999999999999994e-01 5.2631578947368418e-01 4.9999999999999994e-01
    5.2631578947368418e-01 4.9999999999999994e-01 5.2631578947368418e-01
    4.9999999999999994e-01 5.2631578947368418e-01 4.9999999999999994e-01
    5.2631578947368418e-01 4.9999999999999994e-01 5.2631578947368418e-01
    4.9999999999999994e-01 5.2631578947368418e-01 4.9999999999999994e-01
    5.2631578947368418e-01 4.9999999999999994e-01 5.2631578947368418e-01
    4.9999999999999994e-01 5.2631578947368418e-01 4.9999999999999994e-01
    5.2631578947368418e-01 4.9999999999999994e-01 5.2631578947368418e-01
    4.9999999999999994e-01 5.2631578947368418e-01 4.9999999999999994e-01
    5.2631578947368418e-01 4.9999999999999994e-01 5.2631578947368418e-01
    4.9999999999999994e-01 5.2631578947368418e-01 4.9999999999999994e-01
    5.2631578947368418e-01 4.9999999999999994e-01 5.2631578947368418e-01
    4.9999999999999994e-01 5.2631578947368418e-01 4.9999999999999994e-01
    5.2631578947368418e-01 4.9999999999999994e-01 5.2631578947368418e-01
    4.9999999999999994e-01 5.2631578947368418e-01 4.9999999999999994e-01
    5.2631578947368418e-01 4.9999999999999994e-01 5.2631578947368418e-01
    4.9999999999999994e-01</output_scale>
  <inv_output_scale>
    1.8999999999999999e+00 -9.4999999999999996e-01
    1.8999999999999999e+00 -9.4999999999999996e-01
    1.8999999999999999e+00 -9.4999999999999996e-01
    1.8999999999999999e+00 -9.4999999999999996e-01
    1.8999999999999999e+00 -9.4999999999999996e-01
    1.8999999999999999e+00 -9.4999999999999996e-01
    1.8999999999999999e+00 -9.4999999999999996e-01
    1.8999999999999999e+00 -9.4999999999999996e-01
    1.8999999999999999e+00 -9.4999999999999996e-01
    1.8999999999999999e+00 -9.4999999999999996e-01
    1.8999999999999999e+00 -9.4999999999999996e-01
    1.8999999999999999e+00 -9.4999999999999996e-01
    1.8999999999999999e+00 -9.4999999999999996e-01
    1.8999999999999999e+00 -9.4999999999999996e-01
    1.8999999999999999e+00 -9.4999999999999996e-01
    1.8999999999999999e+00 -9.4999999999999996e-01
    1.8999999999999999e+00 -9.4999999999999996e-01
    1.8999999999999999e+00 -9.4999999999999996e-01
    1.8999999999999999e+00 -9.4999999999999996e-01
    1.8999999999999999e+00 -9.4999999999999996e-01
    1.8999999999999999e+00 -9.4999999999999996e-01
    1.8999999999999999e+00 -9.4999999999999996e-01
    1.8999999999999999e+00 -9.4999999999999996e-01
    1.8999999999999999e+00 -9.4999999999999996e-01
    1.8999999999999999e+00 -9.4999999999999996e-01
    1.8999999999999999e+00 -9.4999999999999996e-01
    1.8999999999999999e+00 -9.4999999999999996e-01
    1.8999999999999999e+00 -9.4999999999999996e-01
    1.8999999999999999e+00 -9.4999999999999996e-01
    1.8999999999999999e+00 -9.4999999999999996e-01
    1.8999999999999999e+00 -9.4999999999999996e-01
    1.8999999999999999e+00 -9.4999999999999996e-01
    1.8999999999999999e+00 -9.4999999999999996e-01
    1.8999999999999999e+00 -9.4999999999999996e-01
    1.8999999999999999e+00 -9.4999999999999996e-01
    1.8999999999999999e+00 -9.4999999999999996e-01
    1.8999999999999999e+00 -9.4999999999999996e-01
    1.8999999999999999e+00 -9.4999999999999996e-01
    1.8999999999999999e+00 -9.4999999999999996e-01
    1.8999999999999999e+00 -9.4999999999999996e-01
    1.8999999999999999e+00 -9.4999999999999996e-01
    1.8999999999999999e+00 -9.4999999999999996e-01
    1.8999999999999999e+00 -9.4999999999999996e-01
    1.8999999999999999e+00 -9.4999999999999996e-01
    1.8999999999999999e+00 -9.4999999999999996e-01
    1.8999999999999999e+00 -9.4999999999999996e-01
    1.8999999999999999e+00 -9.4999999999999996e-01
    1.8999999999999999e+00 -9.4999999999999996e-01
    1.8999999999999999e+00 -9.4999999999999996e-01
    1.8999999999999999e+00 -9.4999999999999996e-01
    1.8999999999999999e+00 -9.4999999999999996e-01
    1.8999999999999999e+00 -9.4999999999999996e-01
    1.8999999999999999e+00 -9.4999999999999996e-01
    1.8999999999999999e+00 -9.4999999999999996e-01
    1.8999999999999999e+00 -9.4999999999999996e-01
    1.8999999999999999e+00 -9.4999999999999996e-01
    1.8999999999999999e+00 -9.4999999999999996e-01
    1.8999999999999999e+00 -9.4999999999999996e-01
    1.8999999999999999e+00 -9.4999999999999996e-01
    1.8999999999999999e+00 -9.4999999999999996e-01
    1.8999999999999999e+00 -9.4999999999999996e-01
    1.8999999999999999e+00 -9.4999999999999996e-01
    1.8999999999999999e+00 -9.4999999999999996e-01
    1.8999999999999999e+00 -9.4999999999999996e-01
    1.8999999999999999e+00 -9.4999999999999996e-01
    1.8999999999999999e+00 -9.4999999999999996e-01
    1.8999999999999999e+00 -9.4999999999999996e-01
    1.8999999999999999e+00 -9.4999999999999996e-01
    1.8999999999999999e+00 -9.4999999999999996e-01
    1.8999999999999999e+00 -9.4999999999999996e-01
    1.8999999999999999e+00 -9.4999999999999996e-01
    1.8999999999999999e+00 -9.4999999999999996e-01
    1.8999999999999999e+00 -9.4999999999999996e-01
    1.8999999999999999e+00 -9.4999999999999996e-01
    1.8999999999999999e+00 -9.4999999999999996e-01
    1.8999999999999999e+00 -9.4999999999999996e-01
    1.8999999999999999e+00 -9.4999999999999996e-01
    1.8999999999999999e+00 -9.4999999999999996e-01
    1.8999999999999999e+00 -9.4999999999999996e-01
    1.8999999999999999e+00 -9.4999999999999996e-01
    1.8999999999999999e+00 -9.4999999999999996e-01
    1.8999999999999999e+00 -9.4999999999999996e-01
    1.8999999999999999e+00 -9.4999999999999996e-01
    1.8999999999999999e+00 -9.4999999999999996e-01
    1.8999999999999999e+00 -9.4999999999999996e-01
    1.8999999999999999e+00 -9.4999999999999996e-01
    1.8999999999999999e+00 -9.4999999999999996e-01
    1.8999999999999999e+00 -9.4999999999999996e-01
    1.8999999999999999e+00 -9.4999999999999996e-01
    1.8999999999999999e+00 -9.4999999999999996e-01
    1.8999999999999999e+00 -9.4999999999999996e-01
    1.8999999999999999e+00 -9.4999999999999996e-01
    1.8999999999999999e+00 -9.4999999999999996e-01
    1.8999999999999999e+00 -9.4999999999999996e-01
    1.8999999999999999e+00 -9.4999999999999996e-01</inv_output_scale>
  <weights>
    <_>
      -7.0663511885764698e-03 -3.1319616385449660e-03
      -8.2230975538369637e-04 -6.5059386202973336e-03
      -7.6566506050802204e-03 -2.5135917027173738e-03
      7.3853611719644219e-03 7.9154135231619127e-03
      -6.6065326771522596e-03 5.6815807848128097e-03
      -2.8859582044450205e-03 -1.4997155772638029e-04
      -3.8116735313184925e-03 1.6491189986482799e-03
      2.4628472888740698e-03 -7.0593483148477399e-03
      -4.5206809314938363e-04 -7.7769797901344993e-03
      -6.4497761595361551e-03 4.2831237567853295e-03
      5.6025261815212894e-03 -4.8991868525682441e-03
      5.8367898434421808e-05 3.9876540885075565e-03
      7.6861190505569357e-04 -6.5647332279186794e-05
      4.9932421910389539e-03 -1.8716054694214986e-03
      7.2533921507402328e-03 -7.0378466135009405e-03
      -2.0601282147366621e-03 7.1535648194627627e-03
      -2.2263523161520052e-03 -6.6790669027169654e-03
      -7.1109729836221127e-03 -1.9057486222298938e-03
      -1.1850566750871547e-03 -4.5729120152022337e-03
      1.3841531769830692e-04 -2.3453345990381968e-03
      6.0334746755879316e-03 -5.7407652723476363e-04
      -2.2347291697526179e-04 1.3823718927301846e-03
      -1.3648459855269699e-03 -5.8032754119277516e-03
      5.8545022955124922e-03 8.3835706630365631e-03
      5.0982784479872492e-03 3.4279400634000794e-03
      -2.4291674705546099e-03 -5.1657657548539182e-03
      7.9366060063911399e-03 -7.8096636126078062e-03
      7.6695606802876888e-03 2.0798036161872414e-04
      -3.3431628171232894e-03 -4.7783069655159150e-03
      6.4689330789815570e-03 -3.6727117020537671e-03
      -8.0998801691532819e-03 -5.0899051539710317e-03
      -7.6677159739082363e-04 -1.8007499537683171e-03
      -6.9888822840523963e-03 7.6975794736350083e-04
      8.3975144073257534e-04 -7.7862858268584994e-04
      -2.0667080453406093e-03 6.3302019852272693e-03
      1.5752390204636401e-03 -6.0632292577625308e-03
      6.4588859098609367e-03 -1.0563778108266583e-03
      4.7863533137555347e-03 1.9450094578259271e-03
      4.3654308586884389e-03 7.5994999499338798e-03
      4.7171756359229190e-03 -7.2286009403493374e-03
      6.5761592357520869e-03 3.6757756851955965e-03
      1.9119944212550929e-03 -6.4081608281463503e-04
      1.2250403993621840e-04 -1.6654981125980119e-03
      -6.1148443659441686e-03 6.8960908474606361e-03
      -2.2653977211049255e-03 7.7156064109148124e-04
      -1.8683093333959810e-03 -3.6364007152303005e-03
      -3.9721893392303496e-03 -4.7602745329191334e-03
      -7.2724527103833862e-03 -3.1526555145707388e-03
      -6.2285402879325314e-03 2.9997690734318223e-04
      4.1694987753823225e-04 -4.1019888305862170e-03
      -7.7689417632564274e-03 1.9725510909781160e-03
      3.9112110882056133e-03 3.2327532937703771e-03
      -4.0250430144456147e-03 5.6758804331308085e-03
      7.0224158653128047e-03 7.1297166371822108e-04
      3.4988234402060364e-03 3.5651575618462403e-03
      -3.8021403441770296e-03 2.0492834269031641e-03
      -6.6327301885416509e-03 -2.7003651169048692e-03
      3.1081189826174366e-03 -1.3879014672341958e-03
      -3.3125478716498247e-03 -1.4778248830404281e-03
      5.6435027559605484e-03 -3.4391411278597928e-03
      -3.4133715570219443e-03 -3.5940501525300885e-03
      -7.5906433590468508e-04 7.9085484991208658e-04
      -2.0789666146742770e-03 -7.1497073140653639e-03
      1.1549039706394046e-04 3.8643447492024896e-03
      -7.3740426880745721e-03 -2.2764388234244931e-03
      6.4188169205616199e-03 6.4922773781486533e-03
      4.5586038905325570e-03 4.1551643999768687e-03
      -6.0825806808190112e-03 -3.8154384463217838e-03
      -4.9992071096903196e-03 -6.3441466317719249e-03
      -8.1808702516023566e-04 5.0616160397929455e-03
      -5.0975619623307815e-03 -6.4298780341126467e-03
      1.2079144770013965e-03 -4.7123218154600235e-03
      -5.9690354397391229e-03 -2.5652671975159719e-03
      4.6070654148829384e-03 7.2022008430883003e-04
      4.9796591511095736e-03 4.8053715064014426e-03
      2.5756176222196145e-03 5.2972288381664698e-04
      3.4473925228436057e-03 -4.9746191870894399e-03
      2.5596297146616540e-03 5.9274464165773528e-03
      6.1597731431479305e-03 -3.1773169192588872e-03
      -4.3014863269186697e-05 -2.7023905719088643e-03
      4.6304113684944009e-03 5.2245084383409886e-03
      6.9520611864595642e-04 -1.1749247869383686e-03
      -4.1667928654633918e-03 2.8556613457868018e-03
      -3.8576507461284783e-05 -6.7054288557298735e-03
      -6.3238538962317650e-03 6.6980239044530281e-03
      7.1855964787870394e-03 4.6400732479922610e-03
      3.7017509521545793e-03 -4.7458397991462283e-03
      -1.8314513107522577e-03 3.3768407503564513e-03
      5.6244408674896084e-03 -1.1066556301124976e-03
      3.8585405716435837e-03 2.6526686587970052e-03
      7.2593051461161233e-03 7.2038315406529200e-03
      1.7056392321502531e-03 5.8726944395726174e-03
      -3.0163674928419630e-04 -1.7496652072383238e-03
      3.5299940910193933e-03 -5.9356872299957501e-03
      -4.2912652305417852e-03 8.1967587743841995e-04
      -2.9754184107119333e-03 7.7471564307131360e-03
      -1.7967998070352192e-03 2.6038512588884054e-03
      4.2199745943394219e-03 5.9859583502058702e-04
      -4.4102319718284681e-03 4.7190128625992553e-04
      3.3481327958196265e-03 1.8284711097490299e-03
      7.1976839157452729e-03 3.9630923013030620e-03
      5.4821963212349500e-03 4.5682925188415355e-03
      -7.0983421454512956e-03 7.8220940405086276e-03
      -4.4153955852730522e-03 6.0759083072142695e-04
      1.5264434768113178e-04 -1.3462991450072211e-03
      -1.5081754747336964e-03 -5.3628847173237881e-03
      4.3375985210977474e-05 2.1838057855325080e-03
      -3.7359448471307689e-03 -3.8767601640108521e-03
      7.5657401247496850e-03 6.5278687945550407e-03
      2.6635564188691140e-03 -4.2968846503539642e-03
      6.1670169594160796e-03 4.0195232841671600e-03
      -3.0664257498331043e-03 -6.5198451970036120e-03
      5.3270760025836052e-03 -1.6219708496358729e-03
      6.0038532214550964e-03 7.5868662452387322e-04
      -5.4556068570222405e-03 -4.4779629651646658e-04
      -3.4907967531847055e-04 -1.8529055421774080e-04
      6.1762119649153256e-03 1.1985980126252773e-03
      7.7174696422851914e-03 2.9820420853436751e-03
      -4.4642877421112257e-03 4.9954155694706907e-03
      -6.9137163886406096e-03 2.5063304170631524e-03
      1.2914101705729509e-03 5.0569653860899665e-03
      4.5583308353638842e-03 -4.7300376068200103e-03
      3.8307401341391759e-03 9.6493059990812163e-05
      -2.4088011259102400e-03 -3.2084264953350650e-03
      5.6845368971683813e-04 6.3362240264974124e-03
      6.2697531126484462e-04 4.6551249113117605e-03
      -5.2554289070576533e-03 5.5191164762478078e-03
      2.5971352173348207e-03 -5.7410137196124925e-03
      -8.4555987775231502e-04 5.3154233922697641e-03
      -2.9343514517174004e-03 5.0236499396701826e-03
      5.7834219774484811e-03 -3.8156866006521001e-03
      -1.7558852067903442e-03 -2.8454696776475941e-03
      5.0787187643112196e-03 -3.5011726774618686e-03
      1.5986229213627620e-03 1.8010446461420423e-04
      -6.2440954253452719e-03 -5.5586474848048828e-03
      4.7020668993209081e-03 2.3880681646148028e-03
      6.4997927469164019e-03 5.6551365009046934e-03
      2.0248794266354763e-03 3.8104490906280498e-03
      -3.8803224156731919e-03 1.9885957211145935e-03
      8.8902743149804370e-04 2.2678851365325742e-03
      2.4585156130597762e-03 2.7527830951445220e-03
      -5.9089750013710477e-03 -6.3785893862011722e-03
      -7.2747484030453126e-03 -5.4511013710105763e-03
      -4.2514176556096017e-03 -1.6759874095471710e-03
      -3.8100180541290221e-03 8.0335507785109089e-03
      4.4775607667893310e-03 -4.9652075045945295e-03
      6.6441744338137558e-03 3.8373968710878692e-03
      -1.0230843994065712e-03 -5.8698092701555803e-03
      4.5495565541691675e-04 6.0451431536019838e-03
      5.1057019714793751e-03 -5.2616475711867051e-03
      -6.5846516609462747e-03 -5.8290145644332427e-03
      -5.4724154424339580e-03 6.7449081625000967e-03
      -3.8932089160680769e-03 8.8395677079744993e-04
      -1.2233628115434767e-03 -4.2598813266858165e-03
      -7.9686120344550843e-04 -1.2502227232700277e-04
      5.8353458694227877e-03 -5.3470353940920090e-03
      2.3723878938061863e-03 7.1440403647981881e-03
      -6.1674882299242624e-03 1.8847346141475829e-03
      1.0887143913210339e-03 -5.1240549573919837e-03
      1.5195749931346393e-03 7.0841662748262558e-03
      -1.4193274756726609e-03 2.2890070356473588e-03
      -1.2661027447330255e-03 6.7178368998838103e-03
      4.7055059760036447e-03 -9.7100364135747756e-04
      -5.8918481440939428e-04 7.6093570394148878e-03
      -6.9045486745644719e-03 -5.1390507896230796e-03
      -6.6680513899340333e-03 1.8160020812462735e-03
      5.2114083899875525e-03 4.7573131229552137e-03
      -7.1671963101514486e-03 -5.7120579800816395e-03
      6.9490005142827807e-03 3.9769995954036276e-03
      7.3298743623825113e-03 1.1851664379024555e-03
      8.0584044411180483e-03 -5.6304994493786816e-03
      -1.4100757615168834e-03 -7.1557783561081714e-03
      5.7020589217426495e-03 5.4991773110489046e-03
      7.3614663444684716e-03 4.5598812982274375e-03
      -4.6302625186833458e-03 -4.2765610317366748e-03
      -5.2758570868503153e-03 -5.8258663180349021e-03
      -3.6044634335442886e-03 7.9136815411034306e-04
      -1.1483869752589629e-03 -5.5553687513605170e-03
      6.9192085186620123e-03 -7.1215085345904773e-03
      5.2831045551409135e-03 6.3166522199081939e-03
      2.2522510372015156e-03 7.7490468049950132e-03
      -2.7634025320132892e-03 6.7945714913456663e-04
      -6.9199219606441995e-03 3.8961318634565464e-04
      -5.3044165343767548e-03 3.4716385560945098e-03
      -3.3327156398291198e-03 -5.4701229994282780e-03
      5.6815234906614168e-03 2.7914587924716462e-03
      -5.6773640904295266e-03 -5.5501202520746497e-03
      -6.5386443029974402e-03 -2.7404267245458016e-03
      1.2905348999079458e-03 5.9292240041867389e-03
      -1.3894436854090977e-03 7.4779958630983509e-03
      8.0747929331184444e-03 -2.7792416152056694e-03
      -5.2424706839185678e-04 4.3229829232939072e-05
      2.3280237617512673e-03 5.7677832436420365e-03
      -4.7400794306009979e-03 -5.9330986036215420e-03
      1.6174317432547183e-06 -5.9225797402462834e-03
      -2.7342687058691554e-03 2.7183765886831311e-03
      -3.0679968672701827e-03 -6.6730068811702665e-03
      -3.8792295942682853e-04 -3.6835525843622254e-03
      -6.0028067475635079e-03 4.7726275527670801e-03
      5.1769719837599691e-03 5.1058175190750177e-03
      1.8696698775298858e-03 4.8955639675588988e-03
      5.4397030759231763e-03 -1.5516529861300400e-03
      3.1905527595689370e-03 1.5050554423592889e-03
      -3.8279735161005930e-03 -6.2687360903281543e-03
      4.6179695187763001e-03 5.7257871716729974e-03
      7.0308260387036883e-03 -6.8895623032408588e-03
      6.2118940859057841e-03 5.3810088762167325e-03
      -4.7241892752347033e-03 1.5857247167428393e-03
      -4.5106619671059223e-03 -2.5249717452867902e-03
      -2.8525738228756085e-03 -5.2045147178790665e-03
      3.8443475343241131e-04 -7.8357087055917051e-03
      -4.7263779659764043e-03 -9.3543318044329350e-04
      9.1755939077642693e-05 -4.7069043352367043e-03
      -6.5449197463936775e-03 3.4073595788643440e-03
      3.9090449585848864e-03 6.4136027035338692e-03
      -5.6356259184823275e-03 -7.4608122618185374e-04
      3.2278805727672145e-03 6.4365723614262967e-03
      6.8080632746070780e-03 -2.9925231388781954e-03
      5.9654944413127416e-03 4.6961865689273954e-03
      1.5673035979264594e-03 -2.8849191954136997e-03
      -6.7469584794369467e-03 5.7334724747696618e-03
      -3.2707859668475920e-03 -2.2074299542697070e-03
      3.6811385920037152e-03 -4.2018474138057335e-03
      2.0163351657966413e-03 -1.7032160759407184e-03
      -3.9444871613013716e-03 4.8861732440380022e-03
      -4.7473500074408344e-03 2.5025379685277745e-03
      6.9875899968952458e-04 8.3519478126546176e-04
      -4.7372103465174956e-03 2.8807146763283596e-03
      7.4763665430818849e-03 -6.9805842757968313e-03
      -7.5142779422020019e-03 -8.7179496190021926e-04
      -1.5964146313735864e-03 -7.2627885446217861e-03
      6.6663822549119902e-03 -6.4609243133705160e-03
      -6.6511939590458303e-03 4.0972979495806187e-03
      3.8366203734266332e-03 -5.5004773358508828e-03
      2.9279664404139399e-03 -2.6556039414882254e-03
      -5.3800035002732026e-03 -4.0946960180193934e-03
      4.5442413180485095e-03 5.1511110457821583e-03
      7.1203945071313165e-03 -1.4728235727809477e-03
      3.5201337507395972e-03 7.3383999638862588e-03
      -2.0253645171500333e-03 -4.0161527246772724e-03
      2.3918527541416288e-03 -5.4363865842363499e-03
      -3.0035654448148088e-03 1.5501265928924298e-03
      1.1160323414520824e-03 -4.2392822904412228e-03
      -7.4310452993310043e-03 -5.2245170606474555e-03
      -5.7056115976433144e-03 -4.4818412295281052e-03
      -1.3036430775199275e-03 5.4394407101232998e-03
      -1.8147328713489588e-03 9.5472125516615801e-04
      9.0883264828248503e-04 -6.7554372448223824e-03
      2.9319868780493465e-03 -8.8395506055731672e-04
      6.5969121881302734e-03 1.8585236852394474e-03
      5.9537497531244521e-03 -7.2971078606561815e-03
      5.8678226639564263e-03 4.4465507098057841e-03
      2.1764191250022405e-03 7.8763795031498648e-03
      -5.3893683470415650e-03 1.3159898882085239e-03
      4.3288707865486069e-03 9.6523726543900560e-04
      -3.6508944103706117e-04 2.1074864546891583e-03
      -1.7289065640398746e-03 5.0267401768920254e-03
      -7.0095455623412576e-03 -4.9278557210681289e-03
      -6.5800141528711440e-03 -2.0673234078935703e-03
      1.9102282514401249e-03 7.0895357066111508e-03
      5.7451431532205615e-04 -4.8198256564624502e-03
      7.4257130328678677e-03 6.1862260539440163e-03
      7.3422157726406216e-03 3.4339514428832043e-05
      4.9694542186913436e-03 -7.5676889203338460e-03
      -2.2193916727457669e-03 -1.5872760296088606e-03
      -6.2988818743796591e-03 -5.9959983864545305e-03
      -2.1476909646161313e-04 -7.1120191248292535e-03
      -5.8309125742124776e-03 7.1973707106733785e-03
      -5.1845801805927884e-03 -1.7818882410173230e-03
      1.8477288850464613e-03 2.6920065974321574e-03
      2.8290517831019713e-03 1.1725278763042836e-04
      5.2656429316688914e-03 -3.1960633034741571e-04
      -1.6519102043390996e-03 7.9268626070656718e-03
      3.0867597371547935e-03 3.1741155868698460e-03
      4.4870081162430991e-03 -5.4666176489047023e-04
      6.6671171837635011e-04 3.1206234337022372e-03
      -2.4367066340965286e-03 4.8507135801393233e-03
      -5.9636280726035329e-03 8.8458041175811886e-04
      5.7376445301778210e-03 -7.1784504027533477e-04
      1.2131301469033903e-03 5.8036604187005342e-05
      -2.3148316747271486e-03 2.6366774545244014e-05
      -2.6344329869345210e-03 2.4500796986380441e-03
      -3.0329498743487042e-03 -3.2157842342024285e-03
      8.3155495862699623e-04 6.0959934044081815e-03
      3.3604014176543216e-03 7.7152566982886164e-03
      -2.6923832041618589e-03 6.3539837448357067e-03
      1.1217189572627199e-03 4.9071815334038637e-03
      -1.5564285777422257e-03 5.1740978133156543e-03
      6.3405103938565929e-04 -1.2116356202609426e-03
      6.5708231457763337e-03 1.6202411728474862e-03
      1.7201380144220505e-03 -4.5327641610525080e-03
      4.6422167091921132e-03 -4.1266109589857269e-03
      -6.8171880286415016e-03 -3.0660485291045579e-03
      -1.6485039142682481e-03 -2.0613076609244025e-04
      2.1595636150574743e-04 6.8848369409379388e-04
      -6.8935024844863756e-03 5.8036496274779491e-03
      7.0009753809206644e-03 -2.8606179839833689e-03
      -5.6025170466499040e-03 6.2208407874136899e-03
      1.8936895136785099e-03 6.7005403088776843e-03
      -2.0609103720496151e-03 -3.8214713050870089e-03
      3.9822913004381186e-03 -9.3203112704490221e-04
      -1.9798973212153716e-03 -3.5510147590843491e-03
      3.9935831914774591e-03 -1.4184941144052908e-03
      -4.8482320023704607e-03 4.9843871857319080e-03
      -7.4785644783740427e-03 1.0463205532810348e-04
      5.3070600947835453e-03 5.8613401145660620e-03
      2.5971048761594096e-03 -5.5117518039371552e-03
      6.4068018314137644e-03 2.2036867986016150e-04
      3.8829057505638718e-03 -2.8064345792405011e-03
      -2.5892566022327856e-03 6.2137183473005180e-04
      6.0653363970258377e-03 4.8513700960252891e-03
      5.0883639006020272e-03 -2.7798071338019513e-04
      2.7815235449579166e-03 -4.4707275152106830e-03
      2.5956481044634499e-03 4.9336840969278796e-03
      5.0012640239347908e-03 -5.7294632607398505e-03
      -2.5526493023454227e-03 -5.6438876145667241e-03
      -6.9480794351441310e-03 -5.0834773995736494e-04
      -6.8173236441270736e-04 -5.3578297260252284e-03
      6.9901081083706103e-03 7.5165347691083274e-03
      -3.3523301022004943e-03 1.3622073145690562e-03
      -7.1207925751457012e-04 5.5094327644836264e-03
      -5.4058990587612524e-03 7.3275113961233469e-03
      -5.1578474074434714e-03 -7.7035505769233086e-03
      1.3846086695131299e-03 -1.6584114797159875e-03
      -2.9440576290539031e-03 -1.0098550047458025e-04
      -4.0903245217602524e-03 7.6178394817020172e-03
      -2.1721718483859826e-03 5.1998289599335000e-03
      -2.6141611941939654e-03 5.6292816904612158e-03
      3.7126963604332155e-03 2.5237966991569641e-03
      -6.9989663817691360e-03 6.4607995578925131e-03
      -7.4108504112974953e-03 -5.7145047866800688e-03
      2.1949566727033675e-03 7.4730425723253729e-03
      -5.1341098643069294e-03 1.2410211070150868e-03
      6.8403493747042987e-04 -2.5726666384904414e-03
      8.3452966855155622e-04 3.8232359901807845e-03
      1.5406881647789473e-03 2.2230536486078870e-03
      -2.8509525992895506e-03 4.2818943857009847e-03
      3.4522885831482922e-03 -6.5456047909768621e-03
      -3.1359677352474345e-03 6.2185734053004814e-03
      -7.2584483369182856e-03 -3.6870517633900632e-03
      -2.8550749818133454e-03 4.6150234751790526e-03
      -7.3281266741545975e-03 3.8334905294075366e-03
      -2.2286014572325623e-03 -2.9723639553320509e-03
      -2.6503318392839962e-03 8.5332776752657640e-03
      -4.2209329094965572e-03 1.3682602136777667e-03
      6.6846422834353700e-03 3.7209744247194173e-03
      4.4250504968399561e-03 -6.5956286742284596e-03
      6.8972026343937188e-03 -2.3398466580520369e-03
      6.5238100890272792e-03 6.4344464273285006e-03
      -5.7473738409925257e-03 8.0483933355503575e-03
      6.5765683081424971e-04 2.7745324971823154e-03
      -1.5495839366989222e-03 -2.9352943991841993e-03
      3.1354421740010692e-03 -1.9319286488009657e-03
      -3.7761297400138866e-03 5.1530015130493824e-03
      3.0934662731653788e-03 -4.9266132566762938e-03
      -6.4269547832031398e-03 -3.4802202700091323e-03
      -5.5173211337555808e-03 6.7191516975736608e-03
      -2.0419210562182466e-03 1.5881312798773817e-03
      -4.3161616119302051e-03 -6.3140345190599028e-04
      5.6416280249582612e-03 -5.4660310121479845e-03
      1.4209841410670449e-03 -1.0526544797000094e-03
      1.4200425774193710e-03 5.6857784452764735e-03
      1.8873706391780759e-04 7.1787919945878395e-03
      5.6636149096858657e-03 -6.5183046597727780e-03
      5.9762970801387162e-03 -1.4642033131198199e-03
      7.6327925254897448e-03 1.7175476678756829e-04
      -2.1016642716474771e-03 2.7096502264957923e-03
      3.2695433105053693e-04 -4.5689324006158811e-03
      -5.6925306258396131e-03 -6.3406182076145836e-04
      5.5221915267576124e-03 1.9244490511258581e-03
      -6.5871150087424427e-03 7.1405277487326876e-03
      6.5542810111534689e-04 3.6650982311815985e-03
      -3.3604438837624465e-04 2.8444402389145480e-03
      3.6140133790798874e-03 5.9706527253975891e-03
      5.0816158961391042e-03 1.6777248847685930e-03
      1.3710792019467353e-03 2.6894647781745837e-03
      4.9066467304214080e-03 2.8249668506315351e-05
      2.7406887130520621e-03 -2.4140954937798475e-03
      1.6382280279653957e-03 -2.3794658100903193e-04
      -4.1808491956209235e-03 -5.4498080407734744e-03
      -7.1530809183460997e-03 7.3979814100477012e-03
      3.7239639825443517e-03 -4.9504272859837535e-03
      -2.6086920635034184e-03 -4.0993264443526314e-03
      1.3581009513022730e-03 5.4343947004542609e-03
      7.1132841266037918e-03 -5.1504799529257508e-03
      -6.7896315117076103e-03 -1.0486686533333199e-03
      -9.5115982902549932e-04 1.7447227764387952e-03
      -1.3377828612986628e-03 1.9354980158524928e-03
      -5.5760273856156738e-03 2.4445396308166727e-03
      -2.1814132428816307e-03 -6.3255281841593904e-03
      6.4041265094440733e-03 -6.5863290856790864e-03
      4.7655768062351096e-03 -6.7041713798231012e-04
      -6.7529847880465899e-03 2.0556206056056604e-04
      -1.8000625235717954e-03 4.2053211247657643e-03
      3.4407666697482252e-03 7.3128588962578945e-03
      3.5328077913884194e-03 3.3452765722096910e-03
      4.2527794628755928e-03 -6.7825195187419139e-03
      8.0565193096572996e-04 -6.3716301111546719e-03
      -8.7442140105560941e-04 3.8782121771353908e-03
      7.5461948490015418e-03 -9.2315326262093630e-04
      6.1979838492773158e-03 7.5064508396653767e-03
      -6.6900829093865400e-03 3.3681892599730584e-03
      1.5536573937160059e-04 7.5346163877429255e-04
      2.0987961745195316e-03 -4.2983508803101471e-03
      -5.1919392388560161e-03 7.4115082985202292e-03
      3.9594618148994197e-03 -6.5932303413838295e-03
      9.3096788123442852e-04 -3.4129167706853031e-03
      -9.8380805501905428e-04 -5.9441175481349620e-04
      -7.6459368964882334e-03 -4.8102371143984319e-03
      3.5040085801457273e-03 3.0473444775665653e-03
      1.4588207173615456e-03 -3.4571298159529729e-03
      -3.6420483172377558e-03 2.3344355234186640e-03
      6.5783661648856915e-03 1.7226843395364952e-03
      3.1972301414544967e-03 -1.4729839241425775e-03
      -5.1149518687407499e-03 4.1665790090314952e-04
      1.5437039524757183e-03 3.1867997512032131e-03
      7.0664805668114105e-04 -4.1540558791819230e-04
      -5.1192003568592990e-03 -4.9033785271492096e-03
      -4.2641613844571422e-03 -3.0618545438394584e-03
      2.0523406824672933e-03 2.4314127957428878e-03
      -8.2897730988502959e-04 -4.7029974561896793e-03
      -4.6365781087762056e-03 -3.3797342847089085e-03
      3.4000116922754098e-03 -3.5081460967955995e-03
      2.3132548505953960e-03 -6.6469402669849646e-04
      4.8350652867896584e-03 6.8550455209174304e-03
      3.6178381485149017e-03 7.5018861785153164e-03
      -2.8557121261048586e-03 -4.5163906438229979e-03
      -5.2333632585958578e-03 3.7777521879836847e-03
      3.9224610646306146e-03 3.6682705119872204e-03
      -4.1006305525292776e-03 -4.4781787860479622e-03
      3.9758826537338891e-03 2.8643489365423897e-03
      3.9352863887806887e-03 -7.1226731233323386e-03
      -5.6645208995832336e-03 7.3489213534146799e-03
      7.0248767503869785e-03 6.7689704298067536e-03
      -6.5881610628242999e-03 3.6075686324928318e-03
      3.7228780897087073e-03 2.3334291805028966e-03
      -5.0441867976145941e-03 6.4380008884608406e-03
      7.3351524555748749e-03 -1.1660001482980647e-03
      6.8572799206822882e-03 5.5584511187316806e-03
      -7.1569692677849297e-03 6.9154089519380324e-03
      6.8884481040766632e-03 3.5478705112114302e-03
      -6.5571114923654978e-04 4.1637280467261700e-03
      -6.2721707102174409e-03 -6.1744367446903816e-03
      1.5576587913516396e-03 5.1891015083928239e-04
      7.5373237520986415e-03 6.9904459887295423e-03
      -4.9054895913381294e-03 6.8085261772621404e-03
      1.6706277747776635e-03 -5.6783007961005180e-04
      7.0043996831801120e-03 -6.4625969376937925e-03
      4.3940070898492835e-03 -2.5879065636397988e-04
      6.5804692572577353e-03 -5.2414142721286562e-03
      -5.5547417382870272e-03 -2.2877038990814129e-03
      6.4749067686416042e-03 -6.0364580460341571e-03
      -7.1541336265228484e-03 -3.0641224172326467e-03
      1.4961131509044296e-04 6.4446612001971999e-03
      1.0240139411488217e-03 1.0753202955373926e-03
      4.6289306970156490e-03 -5.1277264897305937e-03
      5.8259523675630379e-03 7.2904522220034983e-03
      3.3671531482982399e-03 2.6567007739087857e-03
      1.4836273673957811e-03 2.2709909677153146e-03
      -4.7275087212015282e-03 4.7113133133817311e-03
      4.0816556517563850e-03 -2.5273302653624429e-03
      4.7714450030303512e-03 6.3311947054442196e-03
      -7.4592820298555027e-05 -3.2698421861311437e-04
      6.3346606193531328e-04 6.6634368591767697e-03
      2.3765345277273632e-04 -8.4928605156839657e-03
      -2.3886392224136250e-03 -3.7062871756515735e-03
      -2.1387775895249993e-03 3.0797508432282399e-03
      -5.8176222060074834e-03 -5.3042281310712903e-03
      5.0299572906934318e-03 1.6780899963328678e-03
      4.0618577874195405e-03 -6.4497993237281935e-03
      -3.6505443373896877e-03 -3.7263101599318668e-03
      6.4759119014305725e-03 3.9280858956418268e-03
      2.7550295975424814e-04 -4.1917283156475069e-03
      -4.6470069147753167e-03 5.0015631700019280e-03
      7.9518559809959883e-03 -4.6270865513503923e-03
      1.5748423505322819e-03 -6.5970440710012672e-03
      -1.4368389398374398e-03 6.4293150514242823e-04
      -7.9781646572098224e-03 -2.8980992655717797e-03
      -8.1796731684159966e-03 5.6786687832594013e-03
      5.3963098677055179e-03 4.1172499233416053e-03
      6.6631988830695363e-03 -8.0753811051018261e-03
      -4.7492392489013498e-03 6.5154489442612170e-03
      6.0103023345697308e-03 2.2741687618055098e-03
      4.7764321503189194e-03 -7.0673495576094245e-03
      4.7005088142669880e-03 -8.2013801268761581e-04
      -6.0895485390951285e-04 -5.9619524275524418e-03
      1.6208715766289309e-03 -6.4708386418414711e-03
      4.8087258293853866e-03 -3.3840700593033906e-03
      6.0945713242132951e-03 -6.3696363461806099e-03
      -7.4258554653758571e-03 -9.4446658279793826e-03
      -8.5710858821578411e-04 5.0080564552251955e-03
      -2.2514766304532322e-03 7.5685831406333156e-04
      1.2181272704980524e-03 -6.0918434668515396e-03
      2.3555983913905788e-03 1.9814824922950009e-03
      -2.5603246003322207e-03 6.0203713299196325e-03
      -5.4099416100635645e-03 -6.0655317606017438e-03
      -3.6490337899407711e-03 -1.9358568987896737e-03
      -1.6809808671267769e-04 1.9837961015627685e-03
      -1.8723416553313766e-03 2.4816050559454557e-03
      -3.9000397877153653e-03 -4.7188373070537063e-03
      2.3982149656899435e-03 -3.8154986752776871e-03
      1.2821594185055485e-03 -4.0452684687005977e-03
      4.7131959052538110e-03 -7.2912198811254285e-03
      -5.1844187756026512e-03 -1.0968140046899557e-03
      8.3584037983172740e-04 -2.3562177537187818e-04
      -3.9952551235017527e-03 8.5961370268391752e-04
      -7.7826741856517360e-03 4.6825516100117114e-03
      -2.5818531215658965e-03 -6.5462192792870152e-03
      -7.6913407627428527e-04 4.4451487356941613e-03
      3.5680494661463080e-03 -3.8027244694347926e-03
      3.4060203672892221e-03 -2.6703298586922232e-03
      5.9606237258606927e-03 -6.4049328969037599e-03
      6.5789607616193293e-03 -2.9642277525857111e-04
      -5.4168565327066117e-03 -2.8257675174946850e-03
      -1.5369153893051324e-03 -5.8242921134967294e-03
      -2.1127957514679467e-03 -3.1682488509945429e-04
      -2.3715573029114232e-03 5.3358171832956309e-03
      1.2759432167491714e-03 -3.6819842470620437e-04
      5.1924553895456374e-03 5.7351585957316001e-03
      2.4135164827612755e-03 -3.0841248565231707e-03
      6.2653710349885212e-03 7.2245805918119679e-03
      8.7530002914166689e-03 -2.9464770662645527e-03
      1.8878894569810741e-03 -3.8493038725547547e-03
      -5.8358006062446156e-03 2.9008585467645405e-04
      -1.6486313984965713e-03 4.0702806718509376e-03
      -4.8334146453141184e-03 -8.8699529773832164e-03
      1.0243690335015238e-03 -9.3222953892291413e-04
      -2.4385981534278773e-03 -5.6818401463672120e-04
      3.0212515894198684e-03 -7.1840181515169278e-03
      -1.0097216824379371e-02 -4.8185289240911073e-03
      1.3739683063884731e-03 -7.7896616932932527e-04
      5.6896487294060402e-03 3.3253296221999440e-04
      -3.1994356840838339e-03 6.0638351778887082e-03
      -4.2907453376232405e-03 1.2305098779374123e-03
      -1.3639547470867486e-04 -3.7396006951175982e-05
      -7.9534859037828226e-03 -2.8703522135595022e-04
      5.3660500901460684e-03 5.4398339158824157e-03
      4.2846766204254856e-03 2.5003905522957490e-03
      -2.5828693781423115e-03 -2.8904841062095915e-03
      6.2105409817374635e-03 -5.4731667799393976e-03
      5.2582653309940705e-03 -1.0675110729061507e-03
      5.7791731368454858e-03 6.3691096365660572e-03
      2.9712986781603543e-04 3.1604061800571829e-03
      4.8875138384258570e-03 3.3954529557041167e-03
      -1.7503400599222100e-03 5.1703098031679016e-03
      2.7428995977633267e-03 -3.9801872658258497e-03
      3.5828166505660229e-03 7.8245366499062816e-03
      -1.1962341534010359e-04 5.3461736826368792e-04
      6.6574583062148250e-03 -3.0348659700268534e-03
      5.1771842641048138e-04 4.1861520137680148e-03
      -7.7493625693514298e-03 7.3421845879971491e-03
      3.9694920582022571e-03 4.8282235299333511e-03
      -6.6066730167051949e-03 1.0590826573002052e-03
      -4.2420462495171623e-03 6.1194249279855183e-03
      -5.8918238408104144e-03 4.7232200345119360e-03
      -7.3619307591335122e-03 4.2501903779690849e-03
      -2.2557536565577171e-03 5.3143015504194344e-03
      -2.1798383572607920e-04 -6.0411368991259758e-03
      -5.1558275471113319e-03 -5.4416272221221758e-03
      5.2180174567578157e-03 6.7373417082453009e-03
      4.1801522728879036e-03 -3.3537100957329270e-03
      -5.1454786915457575e-03 3.9662633475805809e-03
      -2.0701995038261648e-03 -2.3034838827941276e-03
      2.8384350330214543e-03 -3.3080262746718919e-03
      5.8607541771592770e-03 -2.3394546103694832e-03
      -5.8312576087685454e-03 -3.8971814873350334e-03
      7.7540380287699469e-03 7.4258328526102466e-04
      3.2992865668297574e-04 7.6557821481872308e-04
      -7.4650268785290850e-03 6.5201662574005731e-03
      5.6590584767506899e-03 -2.7271365864631539e-04
      4.1503569318053022e-03 4.0544096778044733e-03
      6.6745431091777422e-03 -2.9707814285683492e-03
      -2.7744145688977659e-03 -3.2387011801675394e-03
      3.2347268198321278e-03 -1.9020372211011765e-03
      -3.4186711886072057e-03 4.8862475938423935e-03
      -2.5960144006554760e-03 5.9940440301740894e-04
      -1.4733726396833546e-03 1.7755319564989427e-03
      -3.7601352772828069e-03 7.4758165756911854e-03
      4.9286033383640765e-03 -3.8067174128536968e-03
      -6.3619799650862640e-04 7.3650174271393150e-03
      6.5554842185609336e-03 5.6813098029397302e-03
      4.3961768196626927e-03 -2.2239957087443331e-03
      2.5186837173033338e-03 4.3373500003466865e-03
      3.6275371888093389e-03 6.8873690741517741e-04
      -3.5323890982742160e-03 -4.7465693581480208e-03
      -2.2633901966079444e-03 -1.5536335145842576e-03
      -3.9482267030607087e-04 -2.4785126963879807e-03
      5.0352499556006328e-03 2.6784962041448627e-03
      2.2609698839044061e-03 3.1569835501805846e-03
      1.5818909759560903e-03 -8.9722355324035473e-04
      2.4743775834096639e-04 -2.1152290835286750e-03
      -1.6952051899220262e-03 -2.8276672112102757e-03
      -5.5186311729423440e-03 7.2073669260711128e-03
      -2.8884979306006350e-03 1.1130786402900640e-03
      4.6616982607325099e-03 -1.1698688988206148e-03
      -5.3694171953654777e-03 -2.9872656511399716e-03
      -1.0373038464026301e-03 -6.4556028550960716e-03
      6.8144334187867882e-03 -2.2919605333939228e-03
      5.4616216245843459e-03 -8.9113400794515096e-04
      -4.2683832527466411e-03 -6.2296361238465599e-03
      4.5717871993566596e-03 5.3143381343638465e-03
      5.6847880644009564e-03 7.1761700766000648e-03
      4.6827332884301649e-03 -3.1152058183253847e-03
      6.4222562653704820e-03 -7.7241796471306150e-03
      -3.0253102819659487e-03 -2.5274026824707594e-03
      -7.6456733395918143e-03 5.5783675827391459e-03
      3.6563933631444971e-03 7.0858067818832535e-03
      4.7789325373843490e-04 2.8991393368547141e-03
      -6.9891886352700903e-03 -3.0950691463382139e-03
      2.6571943927436621e-03 6.4204992880043045e-04
      -7.4872259976926873e-03 7.0318411869992369e-03
      -3.7179200560878119e-03 6.2009810190375716e-04
      -3.5095293169499619e-03 4.9483937542053446e-03
      -2.0342999284798089e-03 3.3002030131988928e-03
      9.1862406009553593e-06 -7.3034425619888481e-03
      8.9737980093222963e-04 2.7238733148559507e-03
      2.5365486047335410e-03 -1.5296431358404962e-03
      7.8167977726906826e-03 3.9024893030504245e-03
      2.0680026936245113e-03 5.0188056443279967e-03
      -3.9265692913037446e-03 -7.0356164866032201e-03
      -5.4775238224429867e-03 1.4810961217239576e-03
      -3.7806571649939082e-04 6.2942663731229967e-03
      2.5228446334823176e-03 -7.6017789566905046e-03
      -3.2676590936598130e-04 5.1635969247056440e-03
      3.5343711500253538e-03 -2.0645377733239365e-03
      -5.0463920173950925e-03 -3.7006491040940796e-03
      3.4835236758295595e-03 -7.2572950585033883e-03
      2.1037787846337314e-03 -1.5527457024456452e-03
      -5.1179470093045487e-03 4.5235195436457935e-03
      -1.6552934518041555e-03 -1.9040229385688754e-03
      5.4540868939194206e-03 4.3314365272758724e-03
      -5.6445702394397005e-03 -4.4964283901658270e-03
      8.9823841529778660e-04 3.6606205542381062e-03
      -6.5644208972389963e-03 -7.4092117215114814e-03
      -1.1832567590496039e-03 -1.7870365677206614e-03
      -3.1131749908252832e-03 -1.6746031164537151e-03
      3.6827333278515672e-03 -7.4028297118878686e-03
      7.7738775332960707e-03 5.1500725639198643e-03
      -3.8752942633608401e-04 -4.8805275651283798e-03
      -7.2333805034783373e-03 -4.0818744302703498e-03
      -3.7947561518664004e-03 -7.1117149963679984e-03
      6.0096983203772195e-03 -3.0776459605025481e-03
      -2.0451504599961622e-03 5.3301272960771815e-03
      -7.7206258751642536e-03 1.9199545241896246e-03
      6.5001278116193703e-03 -6.7104642712043907e-03
      3.0458337283512820e-03 6.0515092876426528e-03
      -1.6630724002886848e-03 6.9763608246975108e-03
      -8.5100316917760283e-04 -9.7333759772730299e-04
      -4.3725481403974328e-03 6.7060671873858304e-03
      -3.0139299076392986e-03 -4.2902241124221623e-03
      -6.6255713434205735e-03 -6.2684961744883744e-03
      -1.8757764716326412e-03 6.2585970052388600e-03
      8.0820207152666333e-04 5.2731208065768939e-03
      -2.8905185256364622e-03 3.1859606659272481e-03
      -6.3666154445406317e-03 9.6125681439029388e-04
      3.1923631814249303e-03 1.3799500015240220e-03
      -3.9704475483212723e-03 -6.0736338650876770e-03
      -7.4364598380125728e-03 2.7621338669438699e-03
      -5.4022450025259933e-03 -1.2803312503833417e-03
      3.1072049274415243e-03 -6.8029624002037808e-03
      5.6335635703275034e-03 -5.5807868491453416e-03
      4.3818226284959901e-03 -6.5058032187494605e-03
      -7.1997428647105734e-03 -3.1180825657475099e-03
      7.6582182282793542e-03 7.9088213734993390e-03
      -5.7507329237743831e-03 3.2654936494659912e-05
      -6.1219133179846554e-04 7.1440386782670017e-03
      1.9008246555611559e-03 1.8385239467471649e-03
      2.5376205811046795e-03 -5.4631106318227462e-03
      5.9448895034687633e-03 3.6677180130459293e-03
      4.4757676370378039e-03 -2.9522982139032839e-03
      -8.1387884992088644e-03 -2.1308044602510838e-03
      -2.0979067065054814e-03 -7.5089706862712735e-03
      -2.0288772345403443e-03 8.1282612118301729e-04
      4.2087635895306334e-03 7.0372980465861048e-03
      2.5792851194557528e-03 5.5622865636793016e-03
      7.5440336785545280e-03 -6.6579855010119168e-03
      5.8848474194893334e-03 -1.7290479220232306e-03
      -6.8333414809466581e-03 6.5258116447885865e-04
      7.8235573218067497e-03 3.7172420988185739e-03
      5.8921274168397507e-03 -5.4603884924156075e-03
      5.2864349618589508e-04 -2.1037093179557338e-03
      9.0239455492161446e-04 3.7785344345003333e-03
      -2.4754118401366502e-03 4.0098371082750517e-03
      6.5354626912160528e-03 -2.0734191434392747e-03
      2.1550468062972858e-03 -4.5468989271847662e-03
      -3.3964100192714216e-03 5.5215794185594158e-03
      1.8028007508686175e-03 -3.1522647597584880e-03
      -7.6852512468239152e-04 4.9130875154068153e-03
      -7.5841193463422668e-03 -5.7783190944541239e-03
      2.7450162325495815e-03 -3.4553696701105281e-03
      -1.9379488419425718e-04 2.6094955561263384e-03
      3.2878859068367367e-03 -4.1191102718277917e-03
      4.9760190831581617e-03 2.5176759984155447e-03
      6.3714043732184629e-03 -4.7850422391863415e-03
      -6.4838784939658363e-03 2.1340127512778492e-03
      -1.8057783978824008e-04 -3.5802870794264755e-03
      -1.4125459953778980e-03 -1.8725671584893914e-04
      2.3628413125433502e-03 -5.4588852279837483e-03
      -1.5274877890115591e-03 -6.5826429022773495e-04
      2.6906826274087190e-03 3.6129701377059952e-04
      -2.7681591144632718e-03 -6.1263013111600142e-03
      4.3641535278693515e-03 -3.2296988829747151e-03
      4.2473707042947843e-03 6.9024294112012647e-03
      -1.7916501990702023e-03 -1.5547686909116371e-03
      7.1076356733383280e-03 5.1578671931255806e-03
      3.6961394570344556e-03 -1.9683937259258291e-03
      -3.7138344330466568e-03 1.3136975651680679e-03
      -7.4470372879250563e-03 4.5937850058649365e-03
      -2.3001393749597951e-03 3.0574137129588210e-03
      -2.8668459298712839e-03 -4.0035796376992295e-03
      5.0673216620333132e-03 -7.4934964128930137e-03
      -6.1940639086887732e-03 -1.8060431912489427e-03
      -3.7466311091443167e-03 -5.8127043339616458e-03
      7.4958761291277175e-03 -4.2696383728371250e-03
      -2.1049656588422445e-03 -5.5213555236492086e-03
      -7.8614871512971418e-03 -6.4794856740964619e-03
      -5.3687630381571915e-04 -2.6679807981438409e-03
      -5.5329066264149414e-03 6.2439514600453128e-03
      5.8493349870171601e-03 7.0669353281479341e-03
      -2.0230694487996981e-03 5.5588004841335787e-04
      -5.3172559270517651e-03 3.5378992888393727e-03
      -6.8452018774844961e-03 -5.8142115318983237e-03
      -3.8213997117489619e-03 -5.3830122308941471e-04
      -3.5854034260344933e-03 6.9779015386881070e-03
      -6.9671040691559561e-03 -5.6504531786221290e-03
      -5.1070042965106486e-03 7.5436750608878333e-04
      4.9896822899841205e-03 -2.5114565352654908e-03
      -7.4149404441528977e-03 -5.4206886386752124e-03
      -4.8054786539637202e-03 -7.8200382537867864e-03
      5.2453656936926824e-03 7.8809827314484486e-03
      -5.6364650066424195e-03 5.3714579565418826e-03
      1.0770312840757662e-03 -6.1441351900223071e-03
      2.7186414240997752e-03 7.2656929498585944e-03
      2.5644731985781928e-03 -5.4181555039641768e-03
      1.3318032144131089e-03 3.7745520413289451e-03
      -2.7054856274824411e-03 -7.6324393023889155e-03
      2.6505638913953190e-03 6.0368913327544691e-04
      4.5648298425092684e-03 6.2018234420609022e-03
      -3.7775465413810443e-03 1.2039212146910761e-03
      3.6003687870489703e-03 -6.5106863201682850e-03
      -2.9052811372051314e-03 1.7006224799546105e-03
      6.6489318188505059e-03 -3.6662998815517336e-03
      6.3683900709619991e-03 -4.3631900143948791e-04
      5.4096459361975624e-03 -2.2565232063023908e-03
      -1.3147358666693969e-03 -1.0022463092299897e-03
      -2.5564051311945625e-03 -3.8879689655986920e-03
      7.3002325933043547e-03 2.2664941068943228e-03
      -6.8375389831514246e-03 3.6973818996990796e-03
      3.5163564384115965e-03 -7.1704186031572347e-03
      3.9419824841862823e-03 2.4105432453014734e-03
      6.8211728425326404e-03 4.4841061918857086e-03
      1.2924108479857206e-03 7.6642913378154704e-04
      -3.3705591803177056e-03 -6.8289815704190588e-03
      -1.6173834726217503e-03 5.2723397161897941e-03
      -3.4040855870817628e-03 -4.4567799602140334e-03
      -4.8112888946311681e-03 -1.1268276161458921e-03
      1.4080416969972855e-03 5.6905141098764517e-04
      -5.5567945577455567e-03 4.5440685956986233e-03
      4.2400626729906217e-03 -1.6270684849679087e-03
      7.5979620687905052e-03 -6.3846420403055734e-03
      -1.9510389367025352e-03 2.2555020643511316e-03
      -6.7116512704148566e-04 1.0117742808672201e-03
      -4.8428535861682834e-03 -6.7494895890495721e-03
      -1.2308029085718512e-03 6.7885132774445347e-03
      -3.6534447747064353e-03 7.9055099355563197e-04
      -4.6916062607197870e-03 -7.0340828330409007e-03
      4.1152430256707765e-03 6.7813050898996256e-03
      -7.1218408016377622e-03 6.9123372464217599e-03
      -9.3060217267684374e-04 3.5355751594146933e-03
      6.2038826321004666e-03 -8.1385019869692453e-03
      4.5688820097113487e-03 -5.0812227739433970e-03
      -7.2407283797642653e-03 5.6590897704558371e-03
      -5.4934057727472297e-03 -3.0176714847780237e-03
      -6.4809855373064457e-03 6.7691182805327266e-03
      -1.8109012640715623e-03 -3.8527044760296356e-03
      -2.3449219265327041e-03 7.7415796637332239e-03
      -6.2928601231322222e-03 2.9294403717586542e-04
      1.1630654947975471e-03 1.7956358799799616e-03
      -5.8721357454703969e-03 5.3360162855071343e-03
      6.8586842984866220e-03 6.7051003187822240e-03
      -3.3504732101967897e-03 7.1213406238473612e-03
      5.7211544689682575e-03 2.4664006967458053e-03
      3.1724106915127842e-03 -3.6075171449726409e-03
      6.9893764565694847e-03 -7.0881466774280078e-03
      8.1259228369855597e-03 -2.7217345342627716e-03
      8.5843834914443497e-03 -4.1485894487181827e-03
      5.7952191901576040e-03 3.8221711522466108e-03
      -4.2964638249541427e-03 2.8748344486093542e-03
      -1.1532859806758031e-03 6.2093639155160708e-03
      -8.9200972427678615e-03 -1.0214177005553461e-03
      -8.4014329007138875e-03 4.6228346055012448e-03
      -1.9466463783001067e-03 -9.7369029865882991e-04
      -4.1785347172716822e-04 7.3222531053672244e-03
      6.1137623545413199e-03 -5.9208165004145299e-03
      6.4604376587410108e-03 -1.5230544610364313e-03
      -4.0848194441858235e-03 -5.4254588595920037e-03
      5.7277146268915795e-04 -4.0606672319131168e-03
      -2.6017974759288127e-03 1.6696414655917224e-03
      -4.7096218781669356e-03 5.7542310232001374e-03
      6.2191145327601298e-03 4.8236612693486171e-03
      -3.6050350968913000e-03 1.9040679733842610e-03
      -3.2906656475771550e-03 5.4352635683394152e-05
      1.2864138287290033e-04 3.3192439472159497e-04
      -1.1322528303623714e-03 -6.9199274430224002e-03
      -8.3062054190148922e-05 4.2935994574871475e-03
      6.3037726058775643e-03 -5.7369255261018734e-03
      3.6938145669885469e-03 -2.5434036007836438e-03
      -7.9406908743214388e-04 2.7045999029309251e-03
      3.9877415210300060e-03 2.4613751887554857e-03
      4.0779584600757271e-03 -7.5754417419349211e-03
      -1.2740927499464161e-03 -4.3013545307680947e-03
      -7.5953793311987891e-03 -9.2600155279158099e-03
      5.9751442259170907e-04 -2.3609282365223273e-03
      2.1577051432576247e-03 -3.4928481602970840e-03
      -3.1779915588367965e-03 6.1543422805020957e-03
      -6.1551202947508279e-03 7.7236377149020995e-03
      3.8523299807208628e-03 2.6597890989074467e-04
      -1.7767163563601029e-03 -5.1189587854163568e-03
      -2.8484756778339145e-03 4.3131172130265197e-04
      5.5665238194465708e-03 2.0833467394743366e-03
      4.2916950450703779e-03 -1.3757546701958438e-03
      8.7124193341576294e-03 3.3269664934491338e-03
      2.4737281836363250e-03 3.8796070819627992e-03
      7.1489594434937078e-03 -9.0584680842934807e-04
      -4.6633720062181101e-03 -3.8416071559518226e-03
      5.6251526488245874e-03 -9.6331256342942694e-04
      7.5005800517394727e-03 -3.3429202407489499e-03
      3.8339317834332203e-03 -3.6372992129592501e-03
      9.9661697400130946e-03 -1.1161008748692951e-03
      3.5301808825727700e-03 -2.2267880285969221e-03
      -6.7529804268125215e-03 3.0865006967386238e-04
      -8.3941923830511554e-04 -6.2389885279531725e-03
      -8.9165045947537311e-03 -6.4958600012302060e-03
      6.2287423317654135e-03 2.5204092546947856e-03
      6.6781987197576716e-03 3.0322824470103969e-03
      2.9993852594930892e-03 -1.4966988913213027e-03
      -3.4623856865371883e-03 -5.7182880337967069e-03
      4.5562868697081581e-04 8.0494993010900955e-03
      -8.7562291230097369e-03 -3.9654072519501289e-03
      1.7721844249897085e-04 9.2309080128853195e-04
      8.4605617553804875e-03 -2.1627786813067704e-04
      2.8457340542347989e-03 6.6391489722451265e-03
      -2.4454576915524727e-03 2.2113482005912803e-03
      -2.6120714432515241e-03 2.0037752691500358e-03
      9.6156041700309718e-04 -1.0527286901256573e-02
      -5.9947307180014961e-03 -4.9249083970766081e-03
      -1.4762334121527338e-03 5.1762980584299555e-03
      1.7985439292288288e-03 -5.7123891833817169e-03
      -2.0532569209831030e-03 4.0940997641193367e-03
      -8.3972589666582009e-03 5.3431510964970716e-03
      -6.8225237563042064e-03 -5.0730980738355504e-03
      -2.3501673992138128e-03 -5.5181947774201696e-03
      3.7049236715892223e-03 3.8766086784094186e-04
      2.1837133812715724e-03 -7.2345792731847765e-03
      8.0136452638946472e-03 3.7438279565679992e-03
      3.1026181785013978e-03 8.5035148538527630e-03
      3.1777383708110709e-03 -4.8914856649369988e-03
      -4.7029478864159960e-03 8.6693773660121971e-04
      9.3609096640393809e-04 -2.3941190878640438e-03
      -8.3733623647611506e-03 -1.9565006206897729e-03
      -5.5803603745568260e-03 -3.8794334488268874e-03
      -5.6841953744694420e-03 2.6357105366501182e-04
      -4.2836609812757550e-03 7.6876665663217656e-03
      -4.0817047308189741e-03 -2.8460484879802295e-03
      -7.9507303405803066e-03 -3.9018354650416608e-03
      1.5404013302129968e-03 3.5717805966270270e-03
      7.9033072849222976e-03 6.3605730573249551e-03
      -2.1012372938904312e-03 1.4280714970022995e-03
      2.5445932527720871e-03 -3.4357884896392176e-03
      6.4802202451594607e-04 -3.9964494940984618e-03
      1.2514949901971989e-03 4.7909549755776239e-03
      1.3306892626907753e-03 -1.9559324906868658e-03
      -6.1826983785432657e-03 6.0134674832353179e-03
      -8.8037618946252530e-04 5.2273908171261377e-03
      2.8062647834535877e-03 2.9401640821734656e-04
      -5.7545933983742907e-03 -5.3391087705720287e-04
      -5.4785753821297734e-03 -3.8189984644830884e-03
      -4.6469094578799634e-03 -2.6125968677080543e-03
      -1.0113166504594567e-02 -1.3362403938056533e-03
      -7.6864089413667654e-03 -4.2264304298840144e-03
      -9.2534952281973469e-03 -4.1053911122054818e-03
      -3.5045929230249763e-03 7.1836949860745025e-03
      -5.2112691627052322e-03 -5.1061009508567136e-05
      -1.0051389470217451e-03 -7.9468666797827218e-03
      -2.3210764537274584e-03 -7.7515460803323248e-03
      -1.2621256221384141e-03 -5.8489157614836935e-03
      -7.8340071778526810e-03 -1.9934085249439658e-03
      -4.4157446604066791e-03 4.3376751502759931e-03
      -1.5858135256776912e-03 4.3899884093236436e-03
      -3.1785667781687307e-03 -5.7901527247523447e-03
      -1.6719338208096956e-03 6.2865319442381145e-03
      -5.3663067629725961e-03 2.3651348041141824e-03
      -6.6957452665141861e-03 -6.8377692334647532e-03
      2.4785769036534695e-03 -4.3623632530266467e-03
      -6.7220118008311366e-03 2.9558008019318216e-04
      3.9815695311428440e-03 -3.3316084487808482e-03
      -3.1780536357996218e-03 2.1246333253791124e-03
      5.8719363906523658e-03 3.1067011788707362e-04
      3.5321273588116899e-03 -2.7803916021375522e-03
      1.6610247911952407e-03 4.4469689968582677e-03
      -3.3263482812423157e-03 5.4183088422807731e-03
      4.3567693828645898e-03 6.8396547728612651e-03
      5.4014804444147725e-03 5.4900821927583313e-03
      -4.6337986103159074e-04 -6.0288097088895343e-03
      4.6916349139013731e-03 1.0701112826099644e-03
      5.0291859563398609e-03 -6.1350616967954120e-03
      7.3593544193161940e-03 -3.8198477634316052e-03
      5.3673346130950622e-03 1.0064547322598115e-03
      2.6391042485175292e-03 1.8575446750671643e-03
      1.1549660463587501e-03 -7.8987155442711583e-03
      -7.0083790729799905e-03 2.5823180290038652e-04
      1.5954310428582263e-03 6.9423049121193001e-03
      3.5921676755443195e-03 -5.8726457688747704e-03
      -5.2235442443788081e-03 7.3276737915804980e-03
      7.3187879982792477e-03 1.2049180016247087e-03
      2.6525960818309081e-03 6.6253587898089886e-03
      3.5556870531819381e-03 7.1086277281642348e-03
      -7.6786746900611609e-03 5.5226529191746100e-03
      2.4546601159945611e-04 6.7069841345716308e-03
      -5.4892554335973336e-03 -2.2069095218409224e-03
      6.2309970402336596e-03 7.4276348377517835e-03
      -8.3870935699605531e-04 4.8731496427108527e-03
      2.9091008266545456e-03 3.1030061005658124e-03
      -3.3222067879123381e-03 7.7032049501501703e-03
      -1.3646110875430154e-04 2.2777605100310207e-03
      2.3518125394824532e-04 -7.0736993635664306e-04
      6.4967086821943474e-03 -4.4525591992864806e-03
      -4.4723741599284137e-03 -4.1150992309099488e-03
      -3.7976761565231580e-03 -6.2857045991812875e-03
      4.7168576636201828e-03 -4.0660375709663859e-03
      -4.5789576765201505e-03 1.0117601579589883e-03
      6.6291348280420898e-03 -6.4769862405559247e-03
      -1.1588283636944357e-03 1.4914058946270913e-03
      -3.5371187632897527e-03 -1.8966518749076228e-03
      5.7193577713722209e-03 -4.7307581482421267e-03
      2.7713097832967001e-03 5.0144997190785584e-03
      6.9509894797209577e-03 -8.5815117397489865e-04
      7.4516773308992302e-03 2.1476622505315515e-03
      -5.1589502164385770e-03 2.5995930370528312e-03
      6.5232776421539160e-03 4.0526503048978852e-03
      5.0127236926181713e-03 4.3181499123920849e-03
      1.8497413421658189e-03 4.8265413923573707e-03
      2.9522626814467044e-03 -4.1446985794048779e-03
      5.7797679081011332e-03 1.4829385496218582e-04
      5.9940100341796443e-04 -2.8601536942819538e-03
      -7.2583811546893312e-03 2.9772632618527586e-03
      4.2438265343211620e-03 -2.4780429665360137e-03
      6.5854428676848410e-03 -2.1897574910606458e-03
      4.0919558519024303e-05 -2.9496005829577087e-03
      5.4552900007985771e-03 -1.8471758517286864e-03
      3.3624606258597484e-03 6.8643706117419902e-03
      1.1028927705723764e-03 -7.4988172419928664e-03
      2.9429027794134290e-04 -7.3008473134274967e-03
      -1.9309686843429718e-03 -7.3012777309959887e-03
      5.4443271617871112e-03 5.5444222598884608e-03
      3.6987745479361172e-03 1.6809379862191825e-03
      -6.3719318163577357e-03 -1.0724149925039218e-03
      -9.0842547541059276e-04 -4.7445322646325998e-03
      -5.2387489442660383e-03 4.6521800282575184e-03
      6.8578836996580151e-03 6.9661458107246341e-03
      -1.5902912190037938e-03 -2.1655303283695474e-03
      3.3844920706563248e-03 5.7699423300306156e-04
      6.5559443797017060e-03 -3.3671073312597625e-03
      -1.5141800229612349e-03 6.0544057229788163e-03
      8.0059910944831872e-04 1.4712431459477924e-03
      -1.4677182488146013e-03 3.9474851272604996e-03
      7.4610531766021214e-03 -2.4772628106072003e-03
      2.4798035108042644e-03 4.4162253092610605e-03
      -6.2706241090268559e-03 5.5854953821355535e-03
      6.5420140990416940e-04 2.7772640874816215e-03
      -2.7560645208168848e-03 4.0234225403095979e-03
      -4.8873296624166304e-03 7.1763427195748507e-03
      -7.5502023457726291e-05 -1.5808830209512305e-03
      5.3292015113580848e-03 -7.9152027754098714e-03
      -1.0714796904311197e-05 4.4241018825452085e-03
      -4.5827252329088252e-03 4.6537056343769513e-03
      3.8157286620218410e-03 4.9530503847370518e-03
      -6.2589098887271283e-03 -7.1919482586146914e-03
      4.2674584955596055e-03 -6.3904988135514407e-04
      -1.2943139578684042e-03 -2.2321270307238037e-03
      -9.7107265986474988e-04 4.5871035370846662e-03
      -9.2828816668375565e-04 -3.0406103106091309e-03
      -2.7050910818726200e-03 -8.4460490119188630e-04
      1.3887623711223629e-03 1.7217579694752774e-03
      -2.4407335008469581e-03 -3.0038220498411184e-03
      -2.8334044911650811e-03 5.6049136310593823e-03
      7.2019131203459623e-03 -6.4605410848076273e-03
      1.0689708502697379e-03 1.6499668719704424e-03
      -7.8696197419001292e-04 -1.7075432284888341e-05
      7.4668472397703065e-03 7.9410764505703450e-03
      -3.6947940884117739e-03 5.9199846601415062e-03
      4.4511478740746927e-03 7.4253665098794486e-03
      -4.4421206702079568e-03 4.1248462098519402e-03
      5.5319690529346995e-03 -7.2053681669443578e-03
      3.9444667578012911e-03 -2.7659908266906277e-03
      -6.2441753224567629e-03 -3.0221158495552613e-03
      -2.1169484771000574e-03 -1.4330936114587672e-03
      2.8035908263504385e-03 6.8835238704935322e-03
      5.3148377897264763e-03 -3.6523350889277902e-05
      -7.4328427679850925e-03 7.4119918253309526e-03
      -4.4273525536438763e-03 -5.8303996493724837e-03
      -2.3055820471333038e-03 5.6033502553022290e-03
      4.4557422523815613e-03 1.9853891744235569e-03
      5.4563648770191327e-03 -8.8472503841676320e-04
      1.9576657964702517e-03 -7.6746703439087962e-03
      -2.0508698833221323e-03 -4.7146665954037447e-03
      -4.0987772857756918e-03 7.3125736986833431e-03
      1.9606984624356461e-03 4.5819262492203068e-03
      2.7217416138323548e-05 -7.0537130764651984e-03
      4.5097946763821006e-03 -2.5426243211095810e-03
      -2.7444149216165428e-03 4.5991283418200879e-03
      1.9263183292351706e-03 2.6320165378881499e-03
      3.9550551740257399e-03 -6.0586453620249670e-03
      4.6002097717005742e-03 -4.0780814793859700e-03
      -3.3247069307081687e-03 8.1194627390777999e-03
      -5.2309235792564121e-03 -5.0947560094592240e-03
      2.6063965171427505e-03 5.7991892438578668e-03
      2.7465443840674398e-03 -4.7268057217028040e-03
      2.7739833183300241e-03 7.7415964964696058e-03
      6.8407641812279502e-03 -4.6887328118873804e-03
      -3.7119837004386817e-03 -4.8988196193375212e-04
      -4.0911022712652595e-03 -2.4341201344258742e-03
      6.7801118519172365e-03 2.2487194155647364e-03
      1.6905256462622521e-03 5.5766888899378888e-03
      6.9711811449382722e-03 -6.7056077627858680e-03
      -4.0701864492496079e-03 -8.1863941161536887e-03
      1.4070820776704374e-03 3.9594817794824134e-03
      -6.9812058083519504e-03 -3.6189388388931233e-03
      -5.8771578252674397e-04 -5.7141894731621316e-03
      2.0227150699785503e-03 4.0437518637152885e-03
      5.2217555458259684e-03 1.1441617395480002e-03
      -3.2736141693383456e-03 -6.3850607937552782e-03
      -6.6714187860540510e-03 7.0485562553272690e-03
      -9.9950773963440008e-03 -1.6095773638790203e-04
      1.8175354605254440e-04 -5.1801886507291794e-03
      -2.7168013710143443e-04 2.3796842679595273e-05
      -5.0442613293272005e-03 -5.6589146565571577e-03
      3.7315829754768289e-03 -4.0662047165202315e-03
      -2.4687763394500416e-03 1.0463259844197981e-03
      -6.7066910797506206e-05 -4.4369283219907315e-03
      -4.3097747639814343e-03 3.5140635452801417e-04
      -3.6569864215574326e-04 -4.0177364966706370e-03
      7.5429236891345775e-03 -7.4124380475096008e-03
      -6.6370905765753396e-03 3.7620053456386979e-03
      -2.9784090846306102e-03 3.4181130415069831e-03
      3.2693745429356750e-03 -2.4422194648802786e-03
      3.7202511572851761e-03 -1.8007839503253482e-03
      -6.5475455415203400e-03 -5.7205695189627764e-03
      -2.5203291145687659e-03 -1.0716946885451781e-03
      -6.9044011202208152e-03 5.5323740281006820e-03
      5.1392637965471015e-03 1.7907739209486787e-03
      7.2130728694078669e-03 -7.5087221154727249e-03
      2.2846389428576295e-03 6.2886379541427393e-03
      -5.3972823469552022e-03 -4.5754216510742888e-03
      -4.6813419500638769e-03 -2.2560676891432690e-03
      3.8578203031115550e-03 4.0511669789837779e-03
      -1.9106373154582201e-03 8.8023937738849478e-03
      -7.7062055105360117e-03 4.6954637766796889e-03
      -7.8634183504973278e-03 5.4098370473505217e-03
      1.3002283687306546e-03 -4.3823186849652985e-03
      -6.7868769106238062e-03 7.6260341086349728e-03
      4.9148876452053221e-03 -3.5752780932518146e-03
      5.5270648192917438e-03 6.8608411440961624e-03
      4.7798212661529201e-03 -4.5300422489182330e-03
      4.9183291667098776e-03 -2.1174683423000845e-03
      -2.2392276344564426e-03 -7.9236759876531258e-03
      9.2281510855426866e-04 8.3049234738257569e-03
      -8.4843232724309010e-03 1.8591592945841615e-03
      5.0304825156231381e-03 -1.0716620563691729e-03
      7.1064175980845232e-03 4.2122202254662707e-03
      1.7499615029122517e-04 6.3341484095597676e-03
      1.2978323734350967e-03 4.3953026681240927e-03
      -7.5912697763455290e-03 3.5779861007090882e-03
      -1.9971451077775860e-03 8.3132654161184507e-04
      -6.8625941813290165e-03 -2.6084991298569141e-03
      -6.9976039400357955e-03 4.5656560799547420e-03
      -7.0135821618777204e-03 -1.4758616684008672e-03
      4.6575297790107419e-03 -4.8011920631777383e-03
      1.6357944095088486e-03 7.7304446037692893e-03
      -4.0123797590811425e-03 -8.0747737855114566e-03
      3.1300490573093740e-03 1.5500407654083761e-03
      6.2804076709672392e-03 6.5569955320770269e-03
      7.5029381248427115e-03 -9.4212586268876248e-04
      -1.1942004353874532e-03 3.6083909163421410e-03
      -4.7904028533294800e-03 3.1035212600146697e-03
      8.5365275161924763e-03 -3.2758391240356533e-03
      1.1389715897052893e-03 9.1915613311656982e-04
      -2.5743279496284592e-04 3.1229962232843908e-03
      4.7403273274894114e-03 -1.3021518923517876e-03
      -3.2743669550647876e-03 6.1778043137338153e-03
      6.0995029863132010e-03 3.6611529580211806e-03
      7.3530901348670416e-03 4.1347399269843991e-03
      -1.9983899195607758e-03 -4.0358021625090720e-03
      -9.8307305343199548e-04 -1.2274103480803859e-03
      4.2918418164358116e-03 -2.6749759657406962e-03
      2.5417175029456285e-03 -8.5013825584046420e-03
      9.9539981074067566e-04 -2.3720274315854766e-03
      -2.8736815013802172e-03 6.7446952215583170e-03
      1.2872444393516318e-03 -3.3882813590582609e-03
      3.0393774226090994e-03 -2.9728904733820711e-03
      4.1798226379948841e-03 7.3927317182438104e-03
      -1.6676238672535002e-03 4.8647379095368504e-03
      -3.7803766173330006e-04 -2.8136624809137010e-03
      5.6239754794220756e-03 1.1266762722773268e-03
      -1.4479862195354960e-03 -7.3044405803397315e-04
      2.4321404190682386e-03 -4.3109252116909141e-03
      -1.8178556674225833e-03 -1.6261731835750751e-03
      -9.6379166429253827e-04 5.8267324857181630e-03
      5.8918082062627006e-03 8.2997952891226828e-03
      -6.0818773861550423e-03 -2.6032692461844470e-03
      -6.7820485752260384e-03 -8.4939898987329704e-03
      5.6620378798876055e-03 -1.1377186697987480e-03
      2.9497673198639065e-03 5.3550633822960153e-03
      2.8135021565038817e-03 3.7509069275826628e-05
      -6.2771125998524017e-03 8.6464976963693436e-03
      -1.0664659415340952e-03 -7.7117025485578423e-03
      1.1637805467317160e-03 6.0067704357112065e-03
      -8.8358686680359844e-03 8.0033412800441656e-03
      -4.1370506269257827e-03 -4.3506196761130501e-05
      4.4411301132743081e-03 4.8290303401385872e-03
      4.2888761012989229e-03 -4.8806852254082555e-03
      5.9215243517544529e-03 2.0521015840898812e-03
      -5.6779789214249305e-03 4.6483220409288825e-03
      1.7055508425326828e-03 -1.5952113243281444e-03
      4.3192167486484617e-03 -2.3139433580528176e-03
      -5.3073098809868664e-03 -3.9642122832376012e-04
      2.2300865152224047e-03 -3.8468694128306995e-03
      1.4739602944964084e-03 -8.0838300999014536e-03
      -4.7741864938591278e-03 7.0773390501338860e-03
      5.7280792722100692e-03 -2.2986340931171320e-03
      6.1819381220861438e-03 -2.5738098625203549e-03
      8.3767425073203016e-03 -4.9816696534534122e-03
      -6.0400922802158552e-03 -3.4017192644398382e-03
      5.6787621123400673e-03 -3.5911867747739678e-03
      -4.9997856643753261e-03 7.5899927928363012e-03
      -8.3071228281351456e-03 -6.0220803649209398e-03
      8.5530272193873307e-03 -6.6148964011139419e-03
      3.2438587238472760e-03 3.6107202539651154e-03
      -9.7373330861839011e-03 -3.9871334391630817e-04
      -8.4582558386559880e-03 4.3597433504954019e-03
      -1.9302018565315650e-03 -7.6766598605081211e-03
      -1.7839801561279093e-03 1.3100335208311284e-03
      -4.6707404359418881e-03 6.8259024376122286e-03
      2.6093367777590181e-03 6.7223709204861995e-03
      -2.2308293612530077e-03 -5.9769583243403704e-04
      7.2140783189825076e-03 1.1059807798065575e-03
      -4.1694474424371596e-03 3.0416050273757459e-04
      -1.5453729337464030e-03 -7.7010910752865992e-03
      -4.2087286124563019e-03 -4.1564492436227708e-03
      -2.2722807736414124e-03 -8.7846954660668695e-03
      3.6539686514056469e-03 -1.4477663885400251e-03
      4.5583013778713903e-03 -3.3929030463092686e-03
      -4.9170315742113561e-03 -2.1657652798822476e-03
      -4.5508472692134335e-04 -3.8095810953257857e-03
      4.5528230369777040e-03 8.3265298927946187e-03
      1.1358183692007016e-04 3.6307448517078904e-03
      7.8764362238436525e-03 1.7652072043706989e-03
      2.5456560977669546e-03 4.0070817873663544e-03
      -2.3605580338607463e-03 -9.1424700718576465e-04
      3.9040727472279841e-03 2.5493911352109967e-04
      1.0761911563638081e-02 5.1135173808027753e-03
      4.3642637202876170e-03 -1.4284360393035890e-03
      -2.7699549068088908e-03 -5.6366203948624459e-03
      -1.5862729355066445e-03 6.4570120865818743e-03
      6.3424024602044670e-03 -9.5793998069809566e-03
      -4.4822294384016543e-03 -4.8474126200256607e-03
      6.2923735762005313e-03 3.0592746637343846e-04
      -3.4955963640269740e-03 4.7197179080541779e-03
      4.7713870152224502e-03 8.5442666397886561e-03
      3.2368125146943530e-03 5.3671852462860352e-04
      -1.0349608173026135e-02 6.7188283012085247e-03
      3.8442889331872067e-03 -1.3983962528568428e-03
      -4.0392476259522017e-03 4.1055288763996826e-03
      3.8137448334289322e-03 1.7626053068506861e-03
      -3.4805600276153936e-03 1.1244545941419889e-03
      7.7267567511748519e-03 -8.3339397023150380e-03
      4.5837546387133511e-03 -8.7004542177193250e-03
      9.4853831209811598e-04 -1.6056931055362018e-03
      -9.8955824399699129e-03 -6.2607723429519901e-03
      -6.9765981775551300e-03 -1.3977249044323549e-03
      5.4885083588531954e-04 -2.7466662586186521e-03
      4.8838879604488098e-03 2.8716488068005735e-03
      -5.5020316518711509e-03 -7.2044557951467872e-03
      -7.3972748509581153e-04 5.7075654719445073e-03
      7.2961849114561855e-03 6.2740049584065613e-03
      4.7745161230045141e-05 -7.3183329226777991e-03
      -1.1956309867000728e-03 -4.6529272621639965e-03
      -5.2319354256617091e-03 -6.9725880109383362e-03
      -3.5860857313082871e-03 2.8114883027962156e-03
      -1.5450829396259982e-04 -8.8618333548308170e-03
      -3.9392573794051018e-04 -3.0514273319057158e-03
      -4.9607707837425966e-03 8.0923360348976962e-03
      4.1183133247108504e-03 5.7740263965080033e-03
      -6.4252784166100871e-03 -5.7239808821054963e-03
      5.8799878887674144e-03 -2.6842020930981365e-03
      -2.4463212345634468e-03 -2.6289484556517707e-04
      6.2031260498608860e-03 -3.0615380636825800e-03
      -1.3219342146730795e-03 8.6097626669350055e-03
      -5.8371789586878359e-03 1.5582593571102971e-03
      2.8244149698013997e-03 2.7960250301154667e-03
      -3.8940994771258217e-03 -1.4118818030797603e-03
      9.5111815134318635e-03 1.9412923146365315e-03
      7.0807071658928145e-06 2.5375304067303994e-03
      -4.6713108190902470e-05 1.7036098823032242e-03
      -4.0381296872368713e-03 -8.9529264651442494e-03
      2.0072450335430025e-03 -3.2018316646464191e-03
      -6.4972567931995797e-03 -3.2938240655406639e-03
      3.8561152467543806e-03 -1.0490040936060052e-03
      6.2710614831378358e-03 -4.1622675051070281e-03
      -6.5923676815721731e-04 2.5673785810102407e-03
      -1.0069173747867624e-03 -7.0012730759696433e-04
      -6.9460086210494636e-03 -7.4486860886610155e-03
      -4.9193659225706598e-03 -5.5639409261950892e-03
      8.1218350012072366e-03 -6.2035166587067984e-03
      4.6403458267487993e-03 -1.6865880362227554e-03
      6.1877857197834745e-03 -6.8221161502089013e-03
      1.6585187050420106e-03 -3.9652661013713803e-03
      8.4114246688944097e-04 5.0152384272291654e-04
      5.6401502989786309e-03 -1.1720252174394580e-04
      5.3353438055389535e-03 -5.9936404126078018e-03
      -5.4728438180519116e-03 -2.2538754013616226e-03
      1.4072206946709037e-03 -2.6122861182916075e-03
      -8.8071722363409517e-05 -3.0108917127937506e-03
      -6.4466578589229576e-05 -6.7549655015173198e-03
      -6.9259997384876325e-04 4.3060964976881179e-03
      7.4054397317628766e-03 1.1538070592676736e-03
      -1.7561902263533307e-03 1.1265589447083087e-03
      -2.9980628768577098e-03 -3.3395952576111350e-03
      1.3638812112517086e-03 6.2095864283008579e-03
      4.0718578317768929e-03 -2.5381954248774644e-03
      -4.6792388036670665e-03 3.9645986025091734e-03
      -9.2708221249911702e-04 1.9744530435264235e-03
      -4.9566186196219122e-03 1.6490001514161577e-03
      -4.6545390545775544e-03 -4.9107837800981338e-03
      -3.5935326162665313e-03 5.6958684636457535e-03
      -2.3671520108743882e-03 7.8362385841065983e-04
      3.7931199034027365e-03 -3.9089232587285316e-03
      -3.9067405336648481e-03 5.5830437716136727e-04
      4.2039703572594432e-04 8.0199802549841964e-03
      -3.1962953888690429e-03 7.2133554197861237e-03
      -3.8006131328107368e-03 3.0299052205101525e-03
      -5.3199472544345162e-03 -3.6978674334977903e-03
      1.5793939237492831e-03 7.9468157047992895e-03
      5.9995131936530794e-03 -1.8916561149042231e-03
      -7.1273648610934714e-03 4.1608435693317233e-03
      3.2708241349640784e-03 -3.8118108285468315e-03
      4.6652324902125113e-03 4.0559344963060984e-03
      -4.1932801742083963e-04 -3.5728186638093718e-03
      4.0379756189241786e-04 -1.3629559886389011e-03
      1.8638756242609152e-03 2.4656904567884456e-03
      2.0782006243605794e-03 -4.8983819397708222e-03
      -4.3585319029307776e-03 5.8192252899176219e-03
      2.1571946428042450e-03 3.9078160016815982e-03
      4.6956282538028141e-03 -6.0801123505374068e-03
      5.2770643407531155e-03 -2.8622146411201138e-04
      -2.8514283199876202e-03 6.0974535851585103e-03
      1.1051182810811137e-03 -7.2950059407673436e-03
      -2.0371981537141708e-03 -6.5699642205569566e-03
      4.2939244359419095e-03 1.3063381993293770e-03
      -8.5116637644742205e-04 -3.0968670643128689e-03
      5.9285704407037942e-04 -5.8164671644856019e-03
      4.5063737172867610e-04 -4.5902702562476564e-03
      -5.8914184580693175e-03 5.9985934711959624e-03
      2.3877144014090882e-03 -4.7610553303531209e-03
      -4.7767374515359532e-03 -1.1374651054048097e-03
      -7.1136719478436328e-03 6.0164993297366996e-03
      1.2515305337275847e-03 -3.7687652347559554e-03
      5.0615398602862956e-03 2.8031763275557457e-03
      5.9355165553259467e-03 -3.6489784228218511e-03
      -1.7182060263310356e-03 4.6105882953699799e-03
      -1.5406667342864686e-03 -3.4002985939535809e-04
      5.8129920426716929e-03 -6.5935477844589873e-03
      -6.0090930941114106e-03 -4.9632436544561568e-03
      -5.1966097079117002e-04 3.5927664876781763e-03
      2.9461641288665704e-03 -5.9498084483349464e-03
      -2.1926335521023086e-03 2.4407342715043550e-03
      5.8356379881191597e-03 -6.9985107609259554e-03
      1.5307468106330240e-03 -6.3398208282413457e-03
      5.9884083969673572e-03 6.4567234615060783e-03
      7.4146403403885655e-03 7.0426097231597127e-03
      1.0882821909033518e-03 -3.6424948579796590e-04
      1.2878605139618232e-03 2.8050099642187203e-03
      -4.1541473631401607e-03 4.6913953339737429e-03
      -5.9815184388310278e-03 -2.8337904540531242e-03
      -2.7638377629383526e-03 -3.8677973794467701e-03
      -1.8527496876348346e-03 -7.8110797673310907e-04
      -5.1458270278457894e-03 -7.0371189899961382e-03
      -3.6929486687712976e-03 2.1718830321692482e-04
      6.4121858479407627e-04 -3.8191951027353012e-03
      9.8983764624404453e-04 7.6518743245460805e-03
      -2.2138346217019295e-03 -2.4054460477959476e-03
      4.3612241430048843e-03 -4.9576744621814359e-03
      3.4182238744248227e-03 -6.8689851982995844e-03
      -4.8791600431580427e-03 -5.7043563918556519e-03
      -3.5812552429410355e-03 7.1485907738132268e-03
      -2.7991433825208458e-03 2.6454646421390053e-03
      -3.9610400550563266e-03 2.0137550187243349e-03
      1.7171888802842332e-03 4.1437492548157401e-03
      1.7879122632375869e-03 4.8972366890644506e-04
      -2.4085421159573115e-03 6.7093146345258495e-03
      -4.0598532515384441e-03 -5.1392984520518851e-03
      1.8643018067743434e-03 3.7565272231520966e-03
      5.5364058730911258e-03 1.5938734233327772e-03
      -2.7219423749474886e-03 -1.1143028717928425e-04
      6.0043959419352798e-03 -7.4627612828410995e-03
      -4.0357792813728336e-03 3.6799094538973592e-03
      -5.6679130812604612e-03 -6.5030043477942246e-03
      -1.1800145295854734e-03 -6.1780405865929332e-03
      -7.8477720476062447e-03 7.8408872648091966e-03
      6.0248610951488127e-03 2.3236768998783522e-03
      -4.9420034290245437e-03 5.4846959790277516e-03
      -5.4738902541528510e-03 8.2866331488675056e-04
      1.3338717211147939e-03 7.8301322218564916e-03
      6.0803974210349087e-03 3.2643838838463273e-03
      5.4689981930132227e-03 4.8266785746414629e-03
      -4.1479770885943235e-03 -2.3132796696129806e-03
      -6.6359336259477295e-03 2.0355355535931958e-03
      6.9609405932282691e-03 -2.2950133565239747e-03
      3.3367045833179098e-03 3.6533298508284982e-03
      -4.9764308716656559e-03 -6.4890070910819100e-03
      4.1416059235577403e-03 -1.4144435854057183e-03
      7.2459297147936495e-03 -4.4802453867292136e-03
      3.0662666134571377e-03 2.9654248514202554e-03
      -1.1840557992326404e-03 -8.0273738238334173e-03
      -2.9201381935175228e-03 -2.1065680360827089e-03
      3.0848698390694151e-03 4.0503810003865749e-03
      -2.1769712820124501e-03 -3.6867802383688439e-03
      4.0834094524686273e-03 -3.0373516403178528e-03
      -4.8393093235568601e-03 5.0318974362330976e-04
      -5.9991742726817074e-03 -7.5470560602285738e-03
      3.5607889058738053e-03 -3.8525668049691430e-03
      -2.3593766967958080e-03 -3.1906149342784042e-03
      2.7743925043246646e-03 5.1770604966368053e-03
      -1.1357003757603156e-04 -2.5717348536710488e-03
      -3.5273403278342731e-03 3.0540057733350391e-03
      -4.5053253693674977e-03 5.5642633679096418e-03
      6.2630500805960802e-03 -1.4822188532874986e-03
      -5.8986399937044024e-03 -6.8411326596891789e-03
      -3.6952940509863948e-03 -5.5393057371617505e-04
      8.4671525159314513e-04 -3.8109092146249991e-03
      -5.7543958422175932e-03 3.5548855866135705e-03
      3.9562360214041650e-03 -9.8055350428685888e-05
      4.1488746583628845e-04 4.9212085364780415e-03
      7.9009292820205676e-03 -2.0229974640186624e-03
      -4.7035749689127160e-03 -2.1412100566408081e-03
      7.4930964567628054e-04 -7.8597162894923980e-03
      4.2128942776996419e-03 1.4734047135555491e-03
      -3.3290741360431630e-05 3.3636199390994219e-03
      -6.2998097983470950e-03 8.4042032647381210e-03
      3.3231738685565691e-03 5.3664931433485708e-03
      5.2962507242778172e-03 -4.3119438205134865e-03
      4.5553688681962074e-03 -2.0111903225443570e-03
      6.6933635500224242e-03 -7.4147254856204419e-03
      -6.6854540273843495e-03 4.5571476593271043e-03
      -6.0090241592715638e-04 -5.1268956909682542e-03
      -5.0153076947428890e-04 -8.4912991350996076e-03
      1.0021232311670859e-03 1.4350401506123688e-03
      -5.6416558800778428e-03 2.4111791019533488e-03
      -1.0545406888506060e-03 5.9527397976182296e-03
      -5.4081205108615525e-03 -6.3505474863703925e-03
      -5.3547572339327524e-03 7.2351263042192363e-03
      4.2139857581880427e-03 -5.3323706517473994e-03
      -3.4016008037712916e-03 -5.6926172862975877e-03
      -4.2744639780097236e-03 -3.9728497663783424e-03
      4.7183598293330260e-03 7.7161792458554392e-04
      -4.7736679447339253e-03 -6.7302129227026733e-04
      -1.6053501690041203e-03 6.2681205962286856e-03
      -6.4111918423600776e-03 4.0257966728314797e-03
      -2.7708325524235691e-03 9.3209295900138008e-04
      -2.9709026948032476e-03 2.3310312551594304e-04
      -8.8041313854067844e-03 3.8613405779853218e-04
      6.6950441937161436e-03 -2.2934940368830640e-03
      -7.2157732140885125e-03 7.3248167737284152e-04
      4.7440679015738419e-03 3.7812812368751888e-03
      -2.2861064607554949e-03 4.5997633184579889e-03
      7.3796755849174040e-03 -5.7639889460787594e-04
      3.3811192346619627e-03 3.6154397785224620e-03
      -3.7277976670740962e-03 3.5274651898292374e-03
      -6.3339991748460585e-04 5.5720360360325401e-04
      8.0050659443696263e-03 -3.6026548970933166e-03
      1.0707249601148341e-03 6.2752906714414547e-03
      2.7488141445237562e-04 8.7511911126164597e-06
      -3.9366744911612933e-03 5.9372941165367100e-03
      3.0733077755608486e-03 3.2060873334381164e-03
      7.0576199808680554e-03 -3.9860141763629958e-03
      4.1415491106882636e-04 3.5713798406552550e-03
      -6.0369877872859896e-03 -4.6143157867051870e-03
      -5.3234900558849353e-04 1.2839098946902225e-03
      -1.3760984459592863e-03 1.7872195751102444e-03
      3.0288679079941748e-03 -1.6499073151793923e-03
      -6.0395807518894553e-03 -8.5405514433073209e-04
      7.6532510620634740e-03 -2.1322675494757494e-03
      1.7918455149060007e-03 -4.8461444708556289e-03
      7.1906519735711173e-04 -7.0205341850394586e-05
      -4.7690527029820018e-03 -4.2174446967842266e-03
      3.5950244644210759e-03 -2.8556076938138532e-03
      -4.5366973838655384e-03 -4.3822136537828744e-03
      -2.9569687297309804e-03 -3.4799241278336626e-03
      -3.0423658238340747e-03 2.9398519065025872e-03
      -5.4353035562751655e-03 -3.7616676900397695e-03
      -2.1900595132517747e-03 9.5656904347036153e-04
      -3.2375900981338698e-03 3.2914370796141997e-03
      -9.1627350270526917e-03 -3.4873102169861126e-03
      9.8402290455230877e-03 -6.2151895772339320e-03
      -9.5496612340096172e-05 8.2026509907361014e-03
      -1.2332042795443733e-02 -3.1496616225465884e-04
      3.6102119886870111e-03 -9.6198865750975714e-03
      7.3027690603219486e-03 6.8343603636058358e-03
      -4.2661209861350607e-03 3.0167400862658711e-03
      -1.5424562594530461e-03 1.1169564716411416e-03
      -1.7666855487521885e-03 -4.8323332354284826e-03
      8.1056540611482656e-03 5.6516827894589920e-03
      4.8443474006372288e-03 -5.9442758955151956e-03
      -4.2395489788976280e-03 4.0354289785073817e-03
      4.0576790000657779e-03 2.7247490335341532e-03
      -4.6117411850179557e-03 -7.9231685959643798e-03
      -3.5948891975108514e-03 1.0474158151988521e-03
      1.9649179397900627e-03 5.9875852218644922e-03
      6.0249259390960219e-03 -5.1742475539746039e-03
      1.4269748235628734e-03 4.7459720674497127e-03
      -2.8067012986362329e-03 8.1853778182876301e-04
      -8.1166235475989938e-03 5.7335573366778057e-03
      -3.4816997228967971e-04 7.9235149575321226e-03
      -6.7666649386207284e-03 2.4542886944398427e-03
      -2.1624053330742930e-03 7.9343893537943411e-03
      4.3477949312540941e-03 -3.8927395376728764e-03
      2.7957875390371913e-03 -7.1910581212094899e-04
      -1.6010107006978241e-03 1.3700413671974140e-03
      -8.5239167123908471e-03 -5.7695581278665769e-03
      -5.7720809388875360e-03 -5.8807084199962775e-03
      -1.8601736842198006e-04 1.7529268193429359e-03
      -7.7811482730532873e-03 2.3920294795641327e-03
      6.4246414664211327e-03 -2.5912845062428008e-03
      3.6954281864357607e-03 -1.3779065933844329e-04
      -4.9443637396683962e-03 -3.3652138296378846e-03
      -5.4169695192106048e-03 3.0119800847133731e-03
      6.0122491657561700e-03 -2.7450096204074143e-03
      -6.6329813511697283e-03 -1.5354634763227550e-03
      -1.9504986508394394e-03 -3.1092798044541517e-03
      -6.3207170632744803e-03 9.0249973552061042e-04
      5.2755172833757686e-03 5.4333733879900073e-03
      -2.5942600533951444e-03 1.9026387679244403e-03
      -4.6331566876305127e-03 3.0276781754791696e-03
      -3.9132404752179736e-03 7.2832159863665705e-04
      -2.6594792182005351e-03 3.7241809521432381e-03
      -4.6087438698739778e-03 -4.4156278737435949e-03
      2.1337440300404236e-03 3.2850659209769000e-03
      -4.2057781692376546e-03 -3.7535472989582630e-03
      -8.9605953272890314e-04 -1.0022578331833776e-04
      1.9387144794980461e-04 -5.3930419298508390e-03
      4.1360517081988164e-03 4.3209898693532863e-03
      -5.3184042561331257e-03 -5.9279585002594429e-03
      -7.7771030758534134e-03 -3.0946275052600035e-03
      -4.8066514501783411e-03 4.9741432534889003e-03
      -5.4752671531419685e-03 1.5103318623679773e-03
      -3.9627809928712834e-03 -2.6843137379336255e-03
      7.0941432683384624e-03 -1.1702186640599633e-03
      -2.0270555679715490e-03 4.4951680423961776e-03
      1.0127250461907345e-03 5.8453775846048365e-03
      -3.0674376097708646e-03 -2.9069767413528770e-03
      9.1414416341527392e-03 -5.4765900090139397e-03
      -5.6450584389226132e-03 1.1325834418142806e-03
      -2.2003663389968163e-03 3.4350370129537441e-03
      3.0262363689851804e-03 1.6792866341039494e-03
      -1.7112529205298953e-03 -4.0193794770894478e-03
      3.6175609281692833e-03 4.7023167664155428e-03
      -1.9093328701860152e-03 1.9300591305044731e-03
      -2.5361437819317405e-03 5.2822084938293056e-03
      -6.4576143303739317e-03 -8.7492481065968436e-03
      2.4088636278786569e-03 2.1856378006586958e-04
      4.5517552863300623e-03 1.2273567035325395e-03
      2.8036449670622186e-03 -5.9936737817236074e-03
      3.3277125956754292e-03 1.5570344771828571e-03
      7.0051448854756533e-03 -5.1752316455268689e-04
      1.5847125332679472e-03 8.7296735444091830e-03
      -3.1740269762719209e-03 2.3802654861488099e-03
      7.4539543258965854e-03 -1.0386289034314829e-02
      4.7779826419623835e-03 -5.5935785936271709e-03
      6.7660044186591329e-04 3.1986853479483799e-03
      -6.7274333822408879e-03 -6.8764185625319746e-03
      1.3438798199224109e-03 1.2898149004525301e-03
      -5.1028154823424317e-03 -4.6268760179058437e-03
      -6.4814704291498298e-03 -1.7545815231833617e-03
      2.0695420459654091e-04 8.1690949662127747e-03
      7.2907733652644215e-03 6.3211657845968060e-03
      1.4703326423030467e-03 -6.4549083813074384e-03
      -8.6840445696443683e-03 -6.0831217694990673e-03
      -4.1585408517981395e-03 -7.6864059331941863e-03
      8.1526721198762759e-04 1.1246046926454150e-03
      5.3494039897377709e-03 -3.2292126367578174e-03
      1.6140410143412366e-03 1.4680505420133884e-03
      2.5037447787752930e-03 3.6772086753909008e-04
      1.0390910629730116e-03 5.6965114236653454e-03
      -3.7644275718616621e-03 3.5660855762405610e-03
      -5.1874304984030105e-04 -3.0579729043030204e-03
      -5.4383638522838458e-03 -2.0879753973108840e-03
      -1.2295489561993365e-03 -2.6844218299738763e-03
      4.6499661543916981e-05 -5.6587921912312315e-03
      5.8607998221901067e-03 4.2834793770533848e-03
      7.8154895297627186e-04 -6.0444800108613540e-03
      -3.2874499221268059e-03 3.5960988436500052e-03
      -3.7495995840806729e-03 5.2867798337458954e-03
      -8.2406725074314277e-03 1.5851659268548998e-03
      1.6300394022802970e-03 -1.0923166432115748e-03
      -4.1215708417587892e-03 2.0974695844758733e-03
      8.4797096661216463e-04 4.0468917829906519e-03
      -2.2695823715091928e-03 -2.0916976630651193e-03
      9.9797421109230271e-04 -6.7966784766177292e-03
      -3.7163083813984521e-03 -2.4711026605378538e-03
      -2.2179532565957906e-03 2.1520430998237514e-03
      2.7845007383389734e-03 -6.0982817097328139e-03
      -4.1471644781903095e-03 5.6180638048039409e-03
      4.4346782973494880e-03 1.3835314479899732e-03
      -2.0759061022285752e-04 5.4408344173952194e-03
      4.4339653421610337e-03 -6.5974357840090881e-03
      6.8591353004668419e-04 -5.8851618243131306e-03
      2.2250519029699896e-03 3.0460787872692856e-03
      -4.8961551318026349e-03 -6.9969385978655698e-03
      -8.5246130958768606e-03 7.1715757000005848e-03
      -5.8098928076554708e-03 3.0924525431047312e-03
      -4.2324051926813974e-04 7.2475568771424460e-04
      -6.4359256216906047e-03 -4.4452639463287745e-03
      -4.6417283659415318e-03 5.5800639943471547e-03
      4.7998040098126919e-03 6.7906967950532521e-03
      -9.6438905589703988e-04 3.0430274981536865e-03
      -6.5204092089659309e-03 -4.2322069319214988e-03
      -1.5059864870225565e-04 2.5109862132597664e-03
      -1.7608701890174550e-03 -3.1433687761808272e-04
      7.7786655897083012e-04 2.3595611770066359e-03
      -7.2542651415238866e-03 3.6217621545206447e-03
      -8.4950203231865700e-04 3.0369368965830097e-03
      1.2472237842204707e-03 -1.0923095728982020e-03
      -1.1697234051656648e-03 4.2962328936371405e-04
      -1.3787520718630112e-03 1.3633502386043164e-03
      5.3487993664620053e-03 4.2388905855162756e-03
      2.8792761144617873e-03 -6.9303881650126737e-03
      -4.7683936692821637e-03 -1.2047732609527667e-03
