<?xml version="1.0"?>
<opencv_storage>
<opencv_ml_ann_mlp>
  <layer_sizes>
    7 9 1</layer_sizes>
  <activation_function>SIGMOID_SYM</activation_function>
  <f_param1>1.0000000000000000e-02</f_param1>
  <f_param2>1.0000000000000000e-02</f_param2>
  <min_val>-9.4999999999999996e-01</min_val>
  <max_val>9.4999999999999996e-01</max_val>
  <min_val1>-9.7999999999999998e-01</min_val1>
  <max_val1>9.7999999999999998e-01</max_val1>
  <training_params>
    <train_method>BACKPROP</train_method>
    <dw_scale>1.0000000000000000e-02</dw_scale>
    <moment_scale>1.0000000000000000e-02</moment_scale>
    <term_criteria>
      <epsilon>2.0000000298023224e-01</epsilon>
      <iterations>100000</iterations></term_criteria></training_params>
  <input_scale>
    1. -1.3919858029112220e-03 1. -8.4533633426531196e-09 1.
    -3.4143438076839061e-10 1. -1.4048917584830178e-10 1.
    -3.0512017384787465e-20 1. -2.9332958486488498e-15 1.
    3.9708902240836127e-21</input_scale>
  <output_scale>
    1. 0.</output_scale>
  <inv_output_scale>
    1. 0.</inv_output_scale>
  <weights>
    <_>
      -1.9378659676196661e-01 -1.4949741590628376e-01
      -1.9658787780375869e-01 1.1633328971191827e-01
      -5.6449213385529461e-02 -2.0841851348793933e-01
      1.1434468511516967e-01 -8.5108955023124280e-02
      -1.0118322773581249e-01 4.1387473551275290e-02
      1.8240043277833362e-01 -1.0415718175217213e-02
      -1.6041099949044668e-01 1.3337838192096554e-01
      -1.5876043162455666e-01 1.6807499017774660e-01
      -1.9919175564513888e-01 -1.4561231069580230e-01
      -1.0251374500120290e-01 1.9778984818523035e-01
      -1.5751422798745734e-01 -1.4665294826414230e-01
      5.0393512544164597e-02 7.7984618241193515e-02
      -1.1186730397391498e-01 1.8924152512647002e-01
      1.8503881852742898e-01 -1.9724716260222469e-01
      2.8036296656989743e-02 -1.1343786729609809e-01
      -1.6226246011494819e-01 -2.4633818284398629e-01
      1.2357424521702133e-01 1.5556669743980228e-01
      6.1349710748775613e-02 -1.4463629559725727e-01
      -1.7744698070564235e-01 -1.7398084353391285e-01
      2.0816279616176439e-01 1.3055667249460109e-01
      -1.2206520922864052e-01 -1.8351256649530928e-01
      -4.8964917831635903e-02 1.6980166068065469e-01
      9.8977794136530170e-02 -1.3165664333514451e-01
      -1.5257588812541217e-01 -2.1295052435687012e-01
      -1.4291628648278051e-01 2.6589819160014211e-01
      2.1148801421687463e-01 1.0882142441075611e-01
      -1.7333200751260411e-01 -1.6640002315361943e-01
      1.5596139804254333e-01 -1.1571927481383766e-01
      -1.0093098821883403e-01 -1.4086734344116306e-01
      1.2547730847657135e-01 -3.6261610717105250e-02
      -2.9235998105097444e-01 -1.2197438526323229e-01
      -1.5815153015354924e-01 9.6321099175985941e-02
      1.2252486898578939e-01 1.3340987075860616e-01
      -2.1908010209305814e-02 -2.2267340759280770e-02
      -1.6609717853754237e-02 -2.2686143599170580e-02
      1.5529652743229606e-02 -1.1161905351110817e-01</_>
    <_>
      7.0084205360524143e-01 -5.0294117926215287e-01
      -5.2898616768286366e-01 1.1043567752957072e-01
      3.6440394496166162e-01 -4.2622858497567651e-01
      4.0317154081098106e-01 1.8138737699839516e-01
      -8.9670913575704903e-01 -7.1589645411099689e-01</_></weights></opencv_ml_ann_mlp>
</opencv_storage>
